svm_type c_svc
kernel_type rbf
gamma 0.5
nr_class 2
total_sv 951
rho -2.76876
label 1 -1
nr_sv 489 462
SV
30.52758459697123 1:0.82500005 2:0 3:0 4:-0.42222222 5:-0.95238095 6:-1 7:-1 8:-1 9:0.8491379 10:0 11:0 12:1 13:-0.77777778 14:-0.96774194 15:-1 16:1 17:0 18:1 19:1 20:0 21:1 22:0 23:-1 
0.2815839094786554 1:0.8319999 2:0 3:0 4:1 5:-0.85714286 6:-1 7:-0.84615385 8:-1 9:0.60225636 10:1 11:0 12:1 13:-0.85821357 14:-0.89946629 15:-0.94473468 16:0.7571935 17:1 18:0 19:0.68359995 20:1 21:0 22:1 23:-0.63888889 
100 1:0.06666672 2:0 3:0 4:-0.86666667 5:-0.85714286 6:-0.94117647 7:-1 8:-1 9:0.19540238 10:0 11:0 12:0 13:-0.96296296 14:-0.90322581 15:-0.96774194 16:0.97849464 17:0 18:0 19:0.9771073 20:0 21:0 22:0 23:-1 
100 1:0.43999994 2:0 3:0 4:-0.82222222 5:-0.9047619 6:-0.94117647 7:-1 8:-1 9:0.5172415 10:0 11:0 12:0 13:-0.94444444 14:-0.93548387 15:-0.96774194 16:0.95652175 17:0 18:0 19:0.95371675 20:0 21:0 22:0 23:-1 
100 1:0.6664175 2:1 3:0 4:-0.83514559 5:-0.92969242 6:-0.96745842 7:-0.94799423 8:-0.99717752 9:0.19540238 10:0 11:0 12:0 13:-0.90740741 14:-0.77419355 15:-1 16:0.7571935 17:1 18:0 19:1 20:0 21:1 22:1 23:-0.83333333 
77.44767097721761 1:0.43999994 2:0 3:0 4:-0.91111111 5:-0.9047619 6:-1 7:-1 8:-1 9:0.19540238 10:0 11:0 12:0 13:-0.90740741 14:-0.77419355 15:-0.93548387 16:1 17:0 18:1 19:1 20:0 21:1 22:0 23:-0.94444444 
100 1:0.6664175 2:1 3:0 4:-0.83514559 5:-0.92969242 6:-0.96745842 7:-0.94799423 8:-0.99717752 9:0.7318008 10:0 11:0 12:1 13:-0.90740741 14:-0.96774194 15:-1 16:0.7571935 17:1 18:0 19:0.5228033 20:0 21:0 22:0 23:-0.97222222 
90.15636754905928 1:0.6664175 2:1 3:0 4:-0.83514559 5:-0.92969242 6:-0.96745842 7:-0.94799423 8:-0.99717752 9:0.6982759 10:0 11:0 12:0 13:-0.7962963 14:-0.87096774 15:-0.87096774 16:0.7571935 17:1 18:0 19:0.68359995 20:1 21:0 22:0 23:-1 
98.12884347751417 1:0.6664175 2:1 3:0 4:-0.83514559 5:-0.92969242 6:-0.96745842 7:-0.94799423 8:-0.99717752 9:0.6982759 10:0 11:0 12:0 13:-0.7962963 14:-0.87096774 15:-0.87096774 16:0.7571935 17:1 18:0 19:0.68359995 20:1 21:0 22:0 23:-1 
100 1:0.3538462 2:0 3:0 4:0.022222222 5:-0.57142857 6:-0.94117647 7:-1 8:-1 9:0.60225636 10:1 11:0 12:1 13:-0.85821357 14:-0.89946629 15:-0.94473468 16:0.7571935 17:1 18:0 19:0.68359995 20:1 21:0 22:0 23:-1 
100 1:0.6664175 2:1 3:0 4:-0.83514559 5:-0.92969242 6:-0.96745842 7:-0.94799423 8:-0.99717752 9:0.81432366 10:0 11:0 12:0 13:-0.83333333 14:-0.96774194 15:-1 16:0.7571935 17:1 18:0 19:0.51741934 20:0 21:0 22:0 23:-1 
100 1:0.6664175 2:1 3:0 4:-0.83514559 5:-0.92969242 6:-0.96745842 7:-0.94799423 8:-0.99717752 9:0.81432366 10:0 11:0 12:0 13:-0.83333333 14:-0.96774194 15:-1 16:0.7571935 17:1 18:0 19:0.51741934 20:0 21:0 22:0 23:-1 
100 1:0.6664175 2:1 3:0 4:-0.83514559 5:-0.92969242 6:-0.96745842 7:-0.94799423 8:-0.99717752 9:0.5172415 10:0 11:0 12:0 13:-0.90740741 14:-0.93548387 15:-1 16:0.7571935 17:1 18:0 19:0.5891342 20:0 21:0 22:0 23:-1 
44.26533044128229 1:0.43999994 2:0 3:0 4:-0.91111111 5:-0.95238095 6:-1 7:-0.84615385 8:-1 9:0.8491379 10:0 11:0 12:1 13:-0.77777778 14:-0.96774194 15:-1 16:0.11111116 17:0 18:0 19:0.4145162 20:0 21:0 22:0 23:-0.97222222 
24.03258955026105 1:0.43999994 2:0 3:0 4:-0.91111111 5:-0.95238095 6:-1 7:-0.84615385 8:-1 9:-0.034482658 10:0 11:0 12:1 13:-0.94444444 14:-0.74193548 15:-0.77419355 16:0.7391304 17:0 18:0 19:0.67076826 20:0 21:0 22:0 23:-1 
100 1:0.43999994 2:0 3:0 4:-0.91111111 5:-0.95238095 6:-1 7:-0.84615385 8:-1 9:1 10:0 11:1 12:1 13:-0.72222222 14:-1 15:-1 16:0.2941177 17:0 18:0 19:0.35046482 20:0 21:0 22:0 23:-1 
100 1:0.6664175 2:1 3:0 4:-0.83514559 5:-0.92969242 6:-0.96745842 7:-0.94799423 8:-0.99717752 9:0.5611285 10:0 11:0 12:0 13:-0.88888889 14:-0.90322581 15:-0.93548387 16:0.7571935 17:1 18:0 19:0.6895163 20:0 21:0 22:0 23:-1 
3.751730685129072 1:0.23636365 2:0 3:0 4:-0.91111111 5:-0.9047619 6:-0.94117647 7:-0.84615385 8:-1 9:0.9167657 10:0 11:0 12:1 13:-0.7962963 14:-0.96774194 15:-0.96774194 16:0.79999995 17:0 18:0 19:0.68359995 20:1 21:0 22:0 23:-1 
100 1:0.6664175 2:1 3:0 4:-0.83514559 5:-0.92969242 6:-0.96745842 7:-0.94799423 8:-0.99717752 9:0.6982759 10:0 11:0 12:0 13:-0.92592593 14:-0.93548387 15:-0.93548387 16:0.7571935 17:1 18:0 19:0.8273759 20:0 21:0 22:0 23:-1 
16.45491375927482 1:0.29999995 2:0 3:0 4:-0.95555556 5:-0.95238095 6:-1 7:-1 8:-1 9:0.7805643 10:0 11:0 12:0 13:-0.77777778 14:-0.90322581 15:-0.90322581 16:1 17:0 18:1 19:1 20:0 21:1 22:0 23:-0.97222222 
100 1:0.29999995 2:0 3:0 4:-0.95555556 5:-0.95238095 6:-1 7:-1 8:-1 9:0.65517247 10:0 11:0 12:0 13:-0.83333333 14:-0.90322581 15:-0.93548387 16:1 17:0 18:1 19:1 20:0 21:1 22:0 23:-0.94444444 
100 1:0.6664175 2:1 3:0 4:-0.83514559 5:-0.92969242 6:-0.96745842 7:-0.94799423 8:-0.99717752 9:0.65517247 10:0 11:0 12:0 13:-0.88888889 14:-0.90322581 15:-0.90322581 16:0.4375 17:0 18:0 19:0.4012097 20:0 21:0 22:0 23:-1 
52.97702882174121 1:0.6664175 2:1 3:0 4:-0.83514559 5:-0.92969242 6:-0.96745842 7:-0.94799423 8:-0.99717752 9:0.7805643 10:0 11:0 12:1 13:-0.87037037 14:-0.96774194 15:-1 16:0.7571935 17:1 18:0 19:1 20:0 21:1 22:0 23:-1 
100 1:0.6664175 2:1 3:0 4:-0.83514559 5:-0.92969242 6:-0.96745842 7:-0.94799423 8:-0.99717752 9:0.7805643 10:0 11:0 12:1 13:-0.87037037 14:-0.96774194 15:-1 16:0.7571935 17:1 18:0 19:1 20:0 21:1 22:0 23:-0.94444444 
100 1:0.6664175 2:1 3:0 4:-0.83514559 5:-0.92969242 6:-0.96745842 7:-0.94799423 8:-0.99717752 9:0.8491379 10:0 11:0 12:0 13:-0.77777778 14:-0.96774194 15:-1 16:0.7571935 17:1 18:0 19:0.68359995 20:1 21:0 22:0 23:-1 
100 1:0.6664175 2:1 3:0 4:-0.83514559 5:-0.92969242 6:-0.96745842 7:-0.94799423 8:-0.99717752 9:0.8491379 10:0 11:0 12:0 13:-0.77777778 14:-0.96774194 15:-1 16:0.7571935 17:1 18:0 19:0.68359995 20:1 21:0 22:0 23:-1 
100 1:0.6664175 2:1 3:0 4:-0.83514559 5:-0.92969242 6:-0.96745842 7:-0.94799423 8:-0.99717752 9:0.8491379 10:0 11:0 12:0 13:-0.77777778 14:-0.96774194 15:-1 16:0.7571935 17:1 18:0 19:0.68359995 20:1 21:0 22:0 23:-1 
100 1:0.6664175 2:1 3:0 4:-0.83514559 5:-0.92969242 6:-0.96745842 7:-0.94799423 8:-0.99717752 9:0.8491379 10:0 11:0 12:0 13:-0.77777778 14:-0.96774194 15:-1 16:0.7571935 17:1 18:0 19:0.68359995 20:1 21:0 22:0 23:-1 
100 1:0.6664175 2:1 3:0 4:-0.83514559 5:-0.92969242 6:-0.96745842 7:-0.94799423 8:-0.99717752 9:0.8491379 10:0 11:0 12:0 13:-0.77777778 14:-0.96774194 15:-1 16:0.7571935 17:1 18:0 19:0.68359995 20:1 21:0 22:0 23:-1 
100 1:0.6664175 2:1 3:0 4:-0.83514559 5:-0.92969242 6:-0.96745842 7:-0.94799423 8:-0.99717752 9:0.5172415 10:0 11:0 12:1 13:-0.87037037 14:-0.87096774 15:-0.90322581 16:0.7571935 17:1 18:0 19:0.8790324 20:0 21:0 22:0 23:-1 
100 1:0.6664175 2:1 3:0 4:-0.83514559 5:-0.92969242 6:-0.96745842 7:-0.94799423 8:-0.99717752 9:0.19540238 10:0 11:0 12:0 13:-0.90740741 14:-0.83870968 15:-0.93548387 16:0.7571935 17:1 18:0 19:1 20:0 21:1 22:0 23:-1 
0.08691886743245761 1:1 2:0 3:1 4:-0.86666667 5:-1 6:-1 7:-1 8:-1 9:0.4636016 10:0 11:0 12:1 13:-0.92592593 14:-0.87096774 15:-0.87096774 16:1 17:0 18:1 19:1 20:0 21:1 22:0 23:-0.97222222 
54.6728512753176 1:0.06666672 2:0 3:0 4:-1 5:-0.95238095 6:-1 7:-0.84615385 8:-1 9:1 10:0 11:1 12:1 13:-0.75925926 14:-1 15:-1 16:1 17:0 18:1 19:0.8225808 20:0 21:0 22:0 23:-0.97222222 
100 1:0.27741933 2:0 3:0 4:-0.066666667 5:-0.42857143 6:-0.52941176 7:-1 8:-1 9:0.60225636 10:1 11:0 12:1 13:-0.85821357 14:-0.89946629 15:-0.94473468 16:0.7571935 17:1 18:0 19:0.68359995 20:1 21:0 22:0 23:-1 
4.035995562618561 1:0.43999994 2:0 3:0 4:-0.91111111 5:-0.95238095 6:-1 7:-0.84615385 8:-1 9:0.5977011 10:0 11:0 12:1 13:-0.87037037 14:-0.90322581 15:-0.93548387 16:1 17:0 18:1 19:1 20:0 21:1 22:1 23:-0.91666667 
26.17460296144073 1:0.82500005 2:0 3:0 4:-0.42222222 5:-0.95238095 6:-1 7:-1 8:-1 9:0.8491379 10:0 11:0 12:0 13:-0.77777778 14:-0.96774194 15:-1 16:1 17:0 18:1 19:1 20:0 21:1 22:1 23:-0.91666667 
32.15456582984135 1:0.6664175 2:1 3:0 4:-0.83514559 5:-0.92969242 6:-0.96745842 7:-0.94799423 8:-0.99717752 9:-0.09717864 10:0 11:0 12:0 13:-0.94444444 14:-0.67741935 15:-1 16:0.7571935 17:1 18:0 19:0.9900975 20:0 21:0 22:1 23:-0.88888889 
100 1:0.6664175 2:1 3:0 4:-0.83514559 5:-0.92969242 6:-0.96745842 7:-0.94799423 8:-0.99717752 9:0.1310345 10:0 11:0 12:0 13:-0.90740741 14:-0.80645161 15:-0.90322581 16:0.7571935 17:1 18:0 19:0.8442173 20:0 21:0 22:0 23:-1 
100 1:0.6664175 2:1 3:0 4:-0.83514559 5:-0.92969242 6:-0.96745842 7:-0.94799423 8:-0.99717752 9:0.89028215 10:0 11:0 12:0 13:-0.66666667 14:-0.96774194 15:-1 16:0.7571935 17:1 18:0 19:1 20:0 21:1 22:0 23:-0.97222222 
71.53576673318346 1:0.06666672 2:0 3:0 4:-0.95555556 5:-0.9047619 6:-0.94117647 7:-0.84615385 8:-1 9:1 10:0 11:1 12:1 13:-0.75925926 14:-1 15:-1 16:-0.125 17:0 18:0 19:0.4545455 20:0 21:0 22:0 23:-1 
100 1:0.29999995 2:0 3:0 4:-0.95555556 5:-0.95238095 6:-1 7:-1 8:-1 9:0.2653674 10:0 11:0 12:0 13:-0.90740741 14:-0.87096774 15:-0.96774194 16:0.17647064 17:0 18:0 19:0.056202173 20:0 21:0 22:0 23:-1 
11.28688350700163 1:0.06666672 2:0 3:0 4:-0.95555556 5:-0.9047619 6:-0.94117647 7:-0.84615385 8:-1 9:0.43204868 10:0 11:0 12:1 13:-0.81481481 14:-0.87096774 15:-1 16:0.6774193 17:0 18:0 19:-0.4516129 20:0 21:0 22:0 23:-1 
20.05789652696469 1:0.6888888 2:0 3:0 4:-0.91111111 5:-0.95238095 6:-0.94117647 7:-1 8:-1 9:0.19540238 10:0 11:0 12:0 13:-0.87037037 14:-0.74193548 15:-0.87096774 16:0.37931037 17:0 18:0 19:-0.5516676 20:0 21:0 22:0 23:-1 
100 1:0.6664175 2:1 3:0 4:-0.83514559 5:-0.92969242 6:-0.96745842 7:-0.94799423 8:-0.99717752 9:0.8659003 10:0 11:0 12:0 13:-0.74074074 14:-0.96774194 15:-1 16:0.7571935 17:1 18:0 19:0.9090158 20:0 21:0 22:0 23:-1 
100 1:0.6664175 2:1 3:0 4:-0.83514559 5:-0.92969242 6:-0.96745842 7:-0.94799423 8:-0.99717752 9:0.39655173 10:0 11:0 12:0 13:-0.88888889 14:-0.80645161 15:-0.93548387 16:1 17:0 18:1 19:1 20:0 21:1 22:0 23:-0.97222222 
100 1:0.6664175 2:1 3:0 4:-0.83514559 5:-0.92969242 6:-0.96745842 7:-0.94799423 8:-0.99717752 9:0.39655173 10:0 11:0 12:0 13:-0.88888889 14:-0.80645161 15:-0.93548387 16:1 17:0 18:1 19:1 20:0 21:1 22:0 23:-0.97222222 
100 1:0.6664175 2:1 3:0 4:-0.83514559 5:-0.92969242 6:-0.96745842 7:-0.94799423 8:-0.99717752 9:0.39655173 10:0 11:0 12:0 13:-0.88888889 14:-0.80645161 15:-0.93548387 16:1 17:0 18:1 19:1 20:0 21:1 22:0 23:-1 
13.24677758739251 1:0.6664175 2:1 3:0 4:-0.83514559 5:-0.92969242 6:-0.96745842 7:-0.94799423 8:-0.99717752 9:0.4173603 10:0 11:0 12:0 13:-0.85185185 14:-0.77419355 15:-0.90322581 16:1 17:0 18:1 19:1 20:0 21:1 22:0 23:-1 
100 1:0.6664175 2:1 3:0 4:-0.83514559 5:-0.92969242 6:-0.96745842 7:-0.94799423 8:-0.99717752 9:0.4173603 10:0 11:0 12:0 13:-0.85185185 14:-0.77419355 15:-0.90322581 16:1 17:0 18:1 19:1 20:0 21:1 22:0 23:-1 
100 1:0.6664175 2:1 3:0 4:-0.83514559 5:-0.92969242 6:-0.96745842 7:-0.94799423 8:-0.99717752 9:0.8729583 10:0 11:0 12:0 13:-0.72222222 14:-0.93548387 15:-0.93548387 16:0.7571935 17:1 18:0 19:1 20:0 21:1 22:1 23:-0.88888889 
100 1:0.6664175 2:1 3:0 4:-0.83514559 5:-0.92969242 6:-0.96745842 7:-0.94799423 8:-0.99717752 9:0.6982759 10:0 11:0 12:0 13:-0.92592593 14:-0.93548387 15:-0.93548387 16:1 17:0 18:1 19:1 20:0 21:1 22:0 23:-1 
100 1:0.6664175 2:1 3:0 4:-0.83514559 5:-0.92969242 6:-0.96745842 7:-0.94799423 8:-0.99717752 9:0.6982759 10:0 11:0 12:0 13:-0.92592593 14:-0.93548387 15:-0.93548387 16:1 17:0 18:1 19:1 20:0 21:1 22:0 23:-1 
0.9182856571787837 1:0.6664175 2:1 3:0 4:-0.83514559 5:-0.92969242 6:-0.96745842 7:-0.94799423 8:-0.99717752 9:0.81432366 10:0 11:0 12:1 13:-0.83333333 14:-0.93548387 15:-0.93548387 16:0.7571935 17:1 18:0 19:0.68359995 20:1 21:0 22:0 23:-1 
100 1:0.6664175 2:1 3:0 4:-0.83514559 5:-0.92969242 6:-0.96745842 7:-0.94799423 8:-0.99717752 9:0.65517247 10:0 11:0 12:0 13:-0.94444444 14:-0.93548387 15:-0.93548387 16:1 17:0 18:1 19:1 20:0 21:1 22:0 23:-1 
100 1:0.6664175 2:1 3:0 4:-0.83514559 5:-0.92969242 6:-0.96745842 7:-0.94799423 8:-0.99717752 9:0.65517247 10:0 11:0 12:0 13:-0.94444444 14:-0.96774194 15:-1 16:0.7571935 17:1 18:0 19:1 20:0 21:1 22:1 23:-0.86111111 
100 1:0.6664175 2:1 3:0 4:-0.83514559 5:-0.92969242 6:-0.96745842 7:-0.94799423 8:-0.99717752 9:0.1434927 10:0 11:0 12:0 13:-0.87037037 14:-0.74193548 15:-0.83870968 16:0.7571935 17:1 18:0 19:1 20:0 21:1 22:1 23:-0.88888889 
100 1:0.6888888 2:0 3:0 4:-0.91111111 5:-0.95238095 6:-0.94117647 7:-1 8:-1 9:0.8580122 10:0 11:0 12:1 13:-0.90740741 14:-0.96774194 15:-0.96774194 16:1 17:0 18:1 19:1 20:0 21:1 22:0 23:-0.97222222 
100 1:0.06666672 2:0 3:0 4:-0.95555556 5:-0.9047619 6:-0.94117647 7:-0.84615385 8:-1 9:0.0844233 10:0 11:0 12:0 13:-0.88888889 14:-0.77419355 15:-0.90322581 16:0.5555556 17:0 18:0 19:1 20:0 21:1 22:0 23:-1 
100 1:0.6664175 2:1 3:0 4:-0.83514559 5:-0.92969242 6:-0.96745842 7:-0.94799423 8:-0.99717752 9:0.7318008 10:0 11:0 12:0 13:-0.90740741 14:-0.96774194 15:-1 16:0.7571935 17:1 18:0 19:0.5852535 20:0 21:0 22:0 23:-0.97222222 
100 1:0.06666672 2:0 3:0 4:-0.066666667 5:-0.14285714 6:-0.70588235 7:-1 8:-1 9:0.60225636 10:1 11:0 12:1 13:-0.85821357 14:-0.89946629 15:-0.94473468 16:0.7571935 17:1 18:0 19:0.68359995 20:1 21:0 22:0 23:-1 
100 1:0.17647064 2:0 3:0 4:-0.022222222 5:-0.23809524 6:-0.76470588 7:-1 8:-1 9:0.60225636 10:1 11:0 12:1 13:-0.85821357 14:-0.89946629 15:-0.94473468 16:0.7571935 17:1 18:0 19:0.68359995 20:1 21:0 22:0 23:-1 
100 1:0.6664175 2:1 3:0 4:-0.83514559 5:-0.92969242 6:-0.96745842 7:-0.94799423 8:-0.99717752 9:0.44297087 10:0 11:0 12:0 13:-0.87037037 14:-0.80645161 15:-0.93548387 16:0.7571935 17:1 18:0 19:1 20:0 21:1 22:0 23:-1 
27.91926024785069 1:0.6664175 2:1 3:0 4:-0.83514559 5:-0.92969242 6:-0.96745842 7:-0.94799423 8:-0.99717752 9:0.7318008 10:0 11:0 12:1 13:-0.90740741 14:-0.96774194 15:-1 16:0.8125 17:0 18:0 19:0.80040336 20:0 21:0 22:0 23:-1 
1.459275012224298 1:0.6664175 2:1 3:0 4:-0.83514559 5:-0.92969242 6:-0.96745842 7:-0.94799423 8:-0.99717752 9:0.5172415 10:0 11:0 12:1 13:-0.87037037 14:-0.87096774 15:-0.90322581 16:1 17:0 18:1 19:0.68359995 20:1 21:0 22:0 23:-0.97222222 
100 1:0.29999995 2:0 3:0 4:-0.95555556 5:-0.95238095 6:-1 7:-0.84615385 8:-1 9:0.7318008 10:0 11:0 12:0 13:-0.90740741 14:-0.96774194 15:-1 16:1 17:0 18:1 19:1 20:0 21:1 22:0 23:-1 
63.71364895646349 1:0.5999999 2:0 3:0 4:-0.95555556 5:-0.95238095 6:-0.94117647 7:-1 8:-1 9:0.35632193 10:0 11:0 12:0 13:-0.85185185 14:-0.80645161 15:-0.93548387 16:-0.4285714 17:0 18:0 19:-0.09493083 20:0 21:0 22:0 23:-1 
100 1:0.6664175 2:1 3:0 4:-0.83514559 5:-0.92969242 6:-0.96745842 7:-0.94799423 8:-0.99717752 9:-0.06206894 10:0 11:0 12:0 13:-0.92592593 14:-0.64516129 15:-0.77419355 16:0.7571935 17:1 18:0 19:0.5502045 20:0 21:0 22:0 23:-0.94444444 
100 1:0.47500002 2:0 3:0 4:-0.51111111 5:-0.76190476 6:-0.76470588 7:-1 8:-1 9:0.5474138 10:0 11:0 12:0 13:-0.81481481 14:-0.83870968 15:-0.87096774 16:0.42465758 17:0 18:0 19:0.3875388 20:0 21:0 22:0 23:-1 
100 1:0.43999994 2:0 3:0 4:-0.91111111 5:-0.95238095 6:-1 7:-1 8:-1 9:1 10:0 11:1 12:1 13:-0.83333333 14:-1 15:-1 16:0.53846157 17:0 18:0 19:0.58792937 20:0 21:0 22:0 23:-1 
100 1:0.6664175 2:1 3:0 4:-0.83514559 5:-0.92969242 6:-0.96745842 7:-0.94799423 8:-0.99717752 9:0.6286472 10:0 11:0 12:0 13:-0.85185185 14:-0.93548387 15:-1 16:0.7571935 17:1 18:0 19:0.6101773 20:0 21:0 22:0 23:-1 
1.358170216398773 1:0.6888888 2:0 3:0 4:-0.91111111 5:-0.95238095 6:-0.94117647 7:-1 8:-1 9:0.65517247 10:0 11:0 12:1 13:-0.83333333 14:-0.93548387 15:-1 16:0.53846157 17:0 18:0 19:0.68359995 20:1 21:0 22:0 23:-1 
100 1:0.06666672 2:0 3:0 4:-0.95555556 5:-0.9047619 6:-0.94117647 7:-0.69230769 8:-1 9:0.39655173 10:0 11:0 12:0 13:-0.88888889 14:-0.83870968 15:-1 16:1 17:0 18:1 19:1 20:0 21:1 22:0 23:-1 
90.5647455915837 1:0.6888888 2:0 3:0 4:-0.91111111 5:-0.95238095 6:-0.94117647 7:-1 8:-1 9:0.5172415 10:0 11:0 12:0 13:-0.83333333 14:-0.90322581 15:-1 16:0.5 17:0 18:0 19:0.79127145 20:0 21:0 22:0 23:-1 
64.8947270549951 1:0.43999994 2:0 3:0 4:-0.91111111 5:-0.95238095 6:-1 7:-0.84615385 8:-1 9:0.766407 10:0 11:0 12:1 13:-0.7962963 14:-0.93548387 15:-0.96774194 16:0.8947369 17:0 18:0 19:0.6638371 20:0 21:0 22:0 23:-1 
100 1:0.6664175 2:1 3:0 4:-0.83514559 5:-0.92969242 6:-0.96745842 7:-0.94799423 8:-0.99717752 9:0.39655173 10:0 11:0 12:0 13:-0.88888889 14:-0.80645161 15:-0.93548387 16:1 17:0 18:1 19:1 20:0 21:1 22:0 23:-0.97222222 
36.88656271821367 1:0.43999994 2:0 3:0 4:-0.91111111 5:-0.95238095 6:-1 7:-0.84615385 8:-1 9:0.9221356 10:0 11:0 12:0 13:-0.77777778 14:-0.96774194 15:-0.96774194 16:1 17:0 18:1 19:0.6315137 20:0 21:0 22:0 23:-0.94444444 
11.97411829440845 1:0.6888888 2:0 3:0 4:-0.91111111 5:-0.95238095 6:-0.94117647 7:-1 8:-1 9:0.61067843 10:0 11:0 12:0 13:-0.81481481 14:-0.87096774 15:-0.96774194 16:1 17:0 18:1 19:0.68359995 20:1 21:0 22:0 23:-1 
100 1:0.6664175 2:1 3:0 4:-0.83514559 5:-0.92969242 6:-0.96745842 7:-0.94799423 8:-0.99717752 9:0.7318008 10:0 11:0 12:0 13:-0.90740741 14:-0.96774194 15:-1 16:1 17:0 18:1 19:1 20:0 21:1 22:0 23:-0.94444444 
100 1:0.6664175 2:1 3:0 4:-0.83514559 5:-0.92969242 6:-0.96745842 7:-0.94799423 8:-0.99717752 9:0.7318008 10:0 11:0 12:0 13:-0.90740741 14:-0.96774194 15:-1 16:1 17:0 18:1 19:1 20:0 21:1 22:0 23:-0.94444444 
29.06210977035041 1:0.06666672 2:0 3:0 4:-0.91111111 5:-0.80952381 6:-0.76470588 7:-0.84615385 8:-1 9:0.42528737 10:0 11:0 12:0 13:-0.75925926 14:-0.67741935 15:-0.67741935 16:1 17:0 18:1 19:1 20:0 21:1 22:0 23:-1 
92.22820583328445 1:0.43999994 2:0 3:0 4:-0.91111111 5:-0.95238095 6:-1 7:-0.84615385 8:-1 9:1 10:0 11:1 12:1 13:-0.74074074 14:-1 15:-1 16:0.33333337 17:0 18:0 19:0.67918694 20:0 21:0 22:0 23:-0.97222222 
100 1:0.6664175 2:1 3:0 4:-0.83514559 5:-0.92969242 6:-0.96745842 7:-0.94799423 8:-0.99717752 9:0.7805643 10:0 11:0 12:0 13:-0.87037037 14:-0.96774194 15:-1 16:1 17:0 18:1 19:1 20:0 21:1 22:0 23:-1 
100 1:0.43999994 2:0 3:0 4:-0.91111111 5:-0.95238095 6:-1 7:-0.84615385 8:-1 9:0.60225636 10:1 11:0 12:1 13:-0.85821357 14:-0.89946629 15:-0.94473468 16:0.945946 17:0 18:0 19:0.68359995 20:1 21:0 22:0 23:-1 
100 1:0.6664175 2:1 3:0 4:-0.83514559 5:-0.92969242 6:-0.96745842 7:-0.94799423 8:-0.99717752 9:0.25729454 10:0 11:0 12:0 13:-0.88888889 14:-0.74193548 15:-0.87096774 16:0.7571935 17:1 18:0 19:1 20:0 21:0 22:0 23:-0.94444444 
100 1:0.6664175 2:1 3:0 4:-0.83514559 5:-0.92969242 6:-0.96745842 7:-0.94799423 8:-0.99717752 9:0.32413805 10:0 11:0 12:0 13:-0.88888889 14:-0.77419355 15:-0.90322581 16:0.7571935 17:1 18:0 19:1 20:0 21:1 22:0 23:-0.97222222 
100 1:0.6664175 2:1 3:0 4:-0.83514559 5:-0.92969242 6:-0.96745842 7:-0.94799423 8:-0.99717752 9:0.32413805 10:0 11:0 12:0 13:-0.88888889 14:-0.77419355 15:-0.90322581 16:0.7571935 17:1 18:0 19:1 20:0 21:1 22:0 23:-0.97222222 
100 1:0.6664175 2:1 3:0 4:-0.83514559 5:-0.92969242 6:-0.96745842 7:-0.94799423 8:-0.99717752 9:0.32413805 10:0 11:0 12:0 13:-0.88888889 14:-0.77419355 15:-0.90322581 16:0.7571935 17:1 18:0 19:1 20:0 21:1 22:0 23:-0.97222222 
0.3911916958247701 1:1 2:0 3:1 4:-0.86666667 5:-1 6:-1 7:-1 8:-1 9:-0.0057471395 10:0 11:0 12:0 13:-0.92592593 14:-0.74193548 15:-0.80645161 16:1 17:0 18:1 19:1 20:0 21:1 22:0 23:-0.97222222 
100 1:0.6664175 2:1 3:0 4:-0.83514559 5:-0.92969242 6:-0.96745842 7:-0.94799423 8:-0.99717752 9:0.7586206 10:0 11:0 12:0 13:-0.88888889 14:-0.93548387 15:-0.93548387 16:0.7571935 17:1 18:0 19:0.8830203 20:0 21:0 22:0 23:-1 
100 1:0.6664175 2:1 3:0 4:-0.83514559 5:-0.92969242 6:-0.96745842 7:-0.94799423 8:-0.99717752 9:0.79885066 10:0 11:0 12:0 13:-0.85185185 14:-0.96774194 15:-1 16:0.7571935 17:1 18:0 19:0.9174794 20:0 21:0 22:0 23:-0.97222222 
100 1:0.29999995 2:0 3:0 4:-0.95555556 5:-0.95238095 6:-1 7:-0.84615385 8:-1 9:0.2508918 10:0 11:0 12:0 13:-0.87037037 14:-0.83870968 15:-0.96774194 16:1 17:0 18:1 19:1 20:0 21:1 22:0 23:-1 
100 1:0.29999995 2:0 3:0 4:-0.95555556 5:-0.95238095 6:-1 7:-0.84615385 8:-1 9:0.2508918 10:0 11:0 12:0 13:-0.87037037 14:-0.83870968 15:-0.96774194 16:1 17:0 18:1 19:1 20:0 21:1 22:0 23:-0.97222222 
100 1:0.7199999 2:0 3:0 4:-0.68888889 5:-0.95238095 6:-1 7:-0.076923077 8:-1 9:0.7805643 10:0 11:0 12:0 13:-0.87037037 14:-0.96774194 15:-1 16:0.7571935 17:1 18:0 19:0.68359995 20:1 21:0 22:0 23:-1 
100 1:0.7199999 2:0 3:0 4:-0.68888889 5:-0.95238095 6:-1 7:-0.076923077 8:-1 9:0.7805643 10:0 11:0 12:0 13:-0.87037037 14:-0.96774194 15:-1 16:0.7571935 17:1 18:0 19:0.68359995 20:1 21:0 22:0 23:-1 
100 1:0.29999995 2:0 3:0 4:-0.95555556 5:-0.95238095 6:-1 7:-0.84615385 8:-1 9:0.5474138 10:0 11:0 12:1 13:-0.81481481 14:-0.87096774 15:-0.93548387 16:1 17:0 18:1 19:1 20:0 21:1 22:0 23:-1 
100 1:0.6664175 2:1 3:0 4:-0.83514559 5:-0.92969242 6:-0.96745842 7:-0.94799423 8:-0.99717752 9:0.79885066 10:0 11:0 12:0 13:-0.85185185 14:-0.96774194 15:-1 16:0.7571935 17:1 18:0 19:0.508685 20:0 21:0 22:0 23:-1 
95.01406134107305 1:0.6664175 2:1 3:0 4:-0.83514559 5:-0.92969242 6:-0.96745842 7:-0.94799423 8:-0.99717752 9:0.5172415 10:0 11:0 12:1 13:-0.75925926 14:-0.80645161 15:-0.87096774 16:0.7571935 17:1 18:0 19:0.34876668 20:0 21:0 22:0 23:-1 
100 1:0.6664175 2:1 3:0 4:-0.83514559 5:-0.92969242 6:-0.96745842 7:-0.94799423 8:-0.99717752 9:0.7103448 10:0 11:0 12:0 13:-0.85185185 14:-0.93548387 15:-0.96774194 16:0.7571935 17:1 18:0 19:0.68588054 20:0 21:0 22:0 23:-1 
100 1:0.5999999 2:0 3:0 4:-0.82222222 5:-0.95238095 6:-1 7:-1 8:-1 9:0.65517247 10:0 11:0 12:0 13:-0.94444444 14:-0.96774194 15:-1 16:0.54838705 17:0 18:0 19:0.58792937 20:0 21:0 22:0 23:-1 
100 1:0.6664175 2:1 3:0 4:-0.83514559 5:-0.92969242 6:-0.96745842 7:-0.94799423 8:-0.99717752 9:0.6982759 10:0 11:0 12:0 13:-0.7962963 14:-0.90322581 15:-0.93548387 16:0.7571935 17:1 18:0 19:0.49023175 20:0 21:0 22:0 23:-1 
100 1:0.6664175 2:1 3:0 4:-0.83514559 5:-0.92969242 6:-0.96745842 7:-0.94799423 8:-0.99717752 9:0.7318008 10:0 11:0 12:1 13:-0.75925926 14:-0.93548387 15:-1 16:0.7571935 17:1 18:0 19:0.9313216 20:0 21:0 22:0 23:-1 
47.02129211410516 1:0.6664175 2:1 3:0 4:-0.83514559 5:-0.92969242 6:-0.96745842 7:-0.94799423 8:-0.99717752 9:0.67084646 10:0 11:0 12:1 13:-0.7037037 14:-0.83870968 15:-0.87096774 16:0.7571935 17:1 18:0 19:1 20:0 21:1 22:0 23:-0.97222222 
100 1:0.29999995 2:0 3:0 4:-0.95555556 5:-0.95238095 6:-1 7:-0.84615385 8:-1 9:0.65517247 10:0 11:0 12:1 13:-0.77777778 14:-0.87096774 15:-0.96774194 16:0.33333337 17:0 18:0 19:0.24731195 20:0 21:0 22:0 23:-1 
100 1:0.6664175 2:1 3:0 4:-0.83514559 5:-0.92969242 6:-0.96745842 7:-0.94799423 8:-0.99717752 9:0.5977011 10:0 11:0 12:0 13:-0.87037037 14:-0.93548387 15:-1 16:1 17:0 18:1 19:1 20:0 21:1 22:0 23:-0.97222222 
0.5615540781754569 1:0.29999995 2:0 3:0 4:-0.95555556 5:-0.95238095 6:-1 7:-0.84615385 8:-1 9:1 10:0 11:1 12:1 13:-0.77777778 14:-1 15:-1 16:1 17:0 18:1 19:-0.53140914 20:0 21:0 22:0 23:-1 
63.06640403863972 1:0.5333332 2:0 3:0 4:-0.86666667 5:-0.95238095 6:-1 7:-0.84615385 8:-1 9:0.83908045 10:0 11:0 12:1 13:-0.7962963 14:-0.96774194 15:-1 16:1 17:0 18:1 19:0.68359995 20:1 21:0 22:0 23:-0.97222222 
100 1:0.29999995 2:0 3:0 4:-0.95555556 5:-0.95238095 6:-1 7:-0.84615385 8:-1 9:0.37931037 10:0 11:0 12:0 13:-0.81481481 14:-0.83870968 15:-0.96774194 16:1 17:0 18:1 19:0.95048773 20:0 21:0 22:0 23:-0.97222222 
100 1:0.29999995 2:0 3:0 4:-0.95555556 5:-0.95238095 6:-1 7:-0.84615385 8:-1 9:0.37931037 10:0 11:0 12:0 13:-0.81481481 14:-0.83870968 15:-0.96774194 16:1 17:0 18:1 19:0.95048773 20:0 21:0 22:0 23:-0.97222222 
2.129608648818491 1:0.3538462 2:0 3:0 4:-0.64444444 5:-0.76190476 6:-0.76470588 7:-1 8:-1 9:0.5474138 10:0 11:0 12:0 13:-0.81481481 14:-0.83870968 15:-0.87096774 16:1 17:0 18:1 19:0.5741936 20:0 21:0 22:1 23:-0.88888889 
28.01394073639643 1:1 2:0 3:1 4:-0.91111111 5:-1 6:-1 7:-1 8:-1 9:0.8491379 10:0 11:0 12:1 13:-0.77777778 14:-0.96774194 15:-1 16:-0.04000002 17:0 18:0 19:0.9749527 20:0 21:0 22:0 23:-0.97222222 
50.21260208544948 1:0.5999999 2:0 3:0 4:-0.95555556 5:-0.95238095 6:-0.94117647 7:-1 8:-1 9:0.6188748 10:0 11:0 12:1 13:-0.90740741 14:-0.93548387 15:-0.96774194 16:0.76 17:0 18:0 19:0.67918694 20:0 21:0 22:0 23:-1 
99.99363521631052 1:0.5999999 2:0 3:0 4:-0.95555556 5:-0.95238095 6:-0.94117647 7:-1 8:-1 9:0.6188748 10:0 11:0 12:1 13:-0.90740741 14:-0.93548387 15:-0.96774194 16:0.76 17:0 18:0 19:0.67918694 20:0 21:0 22:0 23:-1 
8.588246832892482 1:0.6664175 2:1 3:0 4:-0.83514559 5:-0.92969242 6:-0.96745842 7:-0.94799423 8:-0.99717752 9:0.5530013 10:0 11:0 12:0 13:-0.85185185 14:-0.83870968 15:-0.83870968 16:0.17647064 17:0 18:0 19:0.12333977 20:0 21:0 22:0 23:-1 
100 1:0.29999995 2:0 3:0 4:-0.95555556 5:-0.95238095 6:-1 7:-0.84615385 8:-1 9:1 10:0 11:1 12:1 13:-0.81481481 14:-1 15:-1 16:0.4736842 17:0 18:0 19:0.49905133 20:0 21:0 22:0 23:-1 
100 1:0.29999995 2:0 3:0 4:-0.95555556 5:-0.95238095 6:-1 7:-0.84615385 8:-1 9:1 10:0 11:1 12:1 13:-0.81481481 14:-1 15:-1 16:0.4736842 17:0 18:0 19:0.49905133 20:0 21:0 22:0 23:-1 
100 1:0.29999995 2:0 3:0 4:-0.95555556 5:-0.9047619 6:-1 7:-0.84615385 8:-1 9:0.31034493 10:0 11:0 12:0 13:-0.87037037 14:-0.87096774 15:-1 16:0.945946 17:0 18:0 19:0.68359995 20:1 21:0 22:0 23:-1 
100 1:0.6664175 2:1 3:0 4:-0.83514559 5:-0.92969242 6:-0.96745842 7:-0.94799423 8:-0.99717752 9:-0.07279688 10:0 11:0 12:0 13:-0.87037037 14:-0.58064516 15:-0.74193548 16:0.7571935 17:1 18:0 19:0.26090598 20:0 21:0 22:0 23:-1 
100 1:0.6664175 2:1 3:0 4:-0.83514559 5:-0.92969242 6:-0.96745842 7:-0.94799423 8:-0.99717752 9:0.7805643 10:0 11:0 12:0 13:-0.87037037 14:-0.96774194 15:-1 16:0.7571935 17:1 18:0 19:0.7851436 20:0 21:0 22:0 23:-1 
100 1:0.4666667 2:0 3:0 4:0.42222222 5:-0.52380952 6:-0.76470588 7:-1 8:-1 9:0.60225636 10:1 11:0 12:1 13:-0.85821357 14:-0.89946629 15:-0.94473468 16:0.7571935 17:1 18:0 19:0.68359995 20:1 21:0 22:0 23:-1 
44.44061680160498 1:0.33333337 2:0 3:0 4:-0.73333333 5:-0.80952381 6:-0.82352941 7:-1 8:-1 9:0.48275864 10:0 11:0 12:0 13:-0.85185185 14:-0.80645161 15:-1 16:0.88235295 17:0 18:0 19:0.61786616 20:0 21:0 22:0 23:-0.97222222 
100 1:0.6664175 2:1 3:0 4:-0.83514559 5:-0.92969242 6:-0.96745842 7:-0.94799423 8:-0.99717752 9:0.12225699 10:0 11:0 12:1 13:-0.92592593 14:-0.77419355 15:-0.80645161 16:0.7571935 17:1 18:0 19:0.7325338 20:0 21:0 22:0 23:-0.96676908 
100 1:0.6664175 2:1 3:0 4:-0.83514559 5:-0.92969242 6:-0.96745842 7:-0.94799423 8:-0.99717752 9:0.81432366 10:0 11:0 12:0 13:-0.83333333 14:-0.96774194 15:-1 16:0.7571935 17:1 18:0 19:0.687345 20:0 21:0 22:0 23:-0.97222222 
54.68357793155485 1:0.5333332 2:0 3:0 4:-0.86666667 5:-0.95238095 6:-1 7:-1 8:-1 9:1 10:0 11:1 12:1 13:-0.90740741 14:-1 15:-1 16:0.23076928 17:0 18:0 19:0.98010266 20:0 21:0 22:0 23:-1 
100 1:0.6664175 2:1 3:0 4:-0.83514559 5:-0.92969242 6:-0.96745842 7:-0.94799423 8:-0.99717752 9:0.39655173 10:0 11:0 12:0 13:-0.94444444 14:-0.90322581 15:-0.93548387 16:0.60919535 17:0 18:0 19:0.5839822 20:0 21:0 22:0 23:-0.94444444 
100 1:0.6664175 2:1 3:0 4:-0.83514559 5:-0.92969242 6:-0.96745842 7:-0.94799423 8:-0.99717752 9:0.7502973 10:0 11:0 12:0 13:-0.81481481 14:-0.93548387 15:-0.96774194 16:0.7571935 17:1 18:0 19:0.855659 20:0 21:0 22:0 23:-1 
100 1:0.6664175 2:1 3:0 4:-0.83514559 5:-0.92969242 6:-0.96745842 7:-0.94799423 8:-0.99717752 9:0.8275862 10:0 11:0 12:0 13:-0.81481481 14:-0.96774194 15:-1 16:0.7571935 17:1 18:0 19:1 20:0 21:1 22:0 23:-0.97222222 
100 1:0.6664175 2:1 3:0 4:-0.83514559 5:-0.92969242 6:-0.96745842 7:-0.94799423 8:-0.99717752 9:0.7318008 10:0 11:0 12:0 13:-0.90740741 14:-0.96774194 15:-1 16:0.7571935 17:1 18:0 19:0.9074335 20:0 21:0 22:0 23:-1 
100 1:0.6664175 2:1 3:0 4:-0.83514559 5:-0.92969242 6:-0.96745842 7:-0.94799423 8:-0.99717752 9:0.36479127 10:0 11:0 12:0 13:-0.7962963 14:-0.67741935 15:-0.80645161 16:0.7571935 17:1 18:0 19:1 20:0 21:1 22:0 23:-1 
100 1:0.43999994 2:0 3:0 4:-0.91111111 5:-0.95238095 6:-1 7:-0.84615385 8:-1 9:0.60225636 10:1 11:0 12:1 13:-0.85821357 14:-0.89946629 15:-0.94473468 16:0.7391304 17:0 18:0 19:0.68359995 20:1 21:0 22:0 23:-0.96676908 
100 1:0.43999994 2:0 3:0 4:-0.91111111 5:-0.95238095 6:-1 7:-0.84615385 8:-1 9:0.60225636 10:1 11:0 12:1 13:-0.85821357 14:-0.89946629 15:-0.94473468 16:0.7391304 17:0 18:0 19:0.68359995 20:1 21:0 22:0 23:-0.96676908 
100 1:0.6664175 2:1 3:0 4:-0.83514559 5:-0.92969242 6:-0.96745842 7:-0.94799423 8:-0.99717752 9:0.8275862 10:0 11:0 12:0 13:-0.81481481 14:-0.96774194 15:-1 16:1 17:0 18:1 19:1 20:0 21:1 22:1 23:-0.88888889 
100 1:0.6664175 2:1 3:0 4:-0.83514559 5:-0.92969242 6:-0.96745842 7:-0.94799423 8:-0.99717752 9:0.19540238 10:0 11:0 12:0 13:-0.87037037 14:-0.67741935 15:-0.80645161 16:1 17:0 18:1 19:1 20:0 21:1 22:0 23:-1 
35.49065600119508 1:0.5333332 2:0 3:0 4:-0.86666667 5:-0.95238095 6:-1 7:-0.84615385 8:-1 9:1 10:0 11:1 12:1 13:-0.7962963 14:-1 15:-1 16:-0.04000002 17:0 18:0 19:-0.19758058 20:0 21:0 22:0 23:-1 
46.05626389535379 1:0.06666672 2:0 3:0 4:-0.95555556 5:-0.9047619 6:-0.94117647 7:-0.84615385 8:-1 9:1 10:0 11:1 12:1 13:-0.88888889 14:-1 15:-1 16:1 17:0 18:1 19:0.7161292 20:0 21:0 22:0 23:-1 
100 1:0.6664175 2:1 3:0 4:-0.83514559 5:-0.92969242 6:-0.96745842 7:-0.94799423 8:-0.99717752 9:0.39655173 10:0 11:0 12:0 13:-0.94444444 14:-0.93548387 15:-1 16:1 17:0 18:1 19:1 20:0 21:1 22:0 23:-0.94444444 
100 1:0.6664175 2:1 3:0 4:-0.83514559 5:-0.92969242 6:-0.96745842 7:-0.94799423 8:-0.99717752 9:0.39655173 10:0 11:0 12:0 13:-0.94444444 14:-0.93548387 15:-1 16:1 17:0 18:1 19:1 20:0 21:1 22:0 23:-0.97222222 
100 1:0.29999995 2:0 3:0 4:-0.95555556 5:-0.95238095 6:-1 7:-0.84615385 8:-1 9:0.65517247 10:0 11:0 12:1 13:-0.83333333 14:-0.93548387 15:-1 16:1 17:0 18:1 19:1 20:0 21:1 22:0 23:-1 
12.55847717720957 1:0.29999995 2:0 3:0 4:-0.95555556 5:-0.95238095 6:-1 7:-0.84615385 8:-1 9:0.8275862 10:0 11:0 12:1 13:-0.81481481 14:-0.96774194 15:-1 16:1 17:0 18:1 19:0.8728937 20:0 21:0 22:0 23:-0.94444444 
100 1:0.6664175 2:1 3:0 4:-0.83514559 5:-0.92969242 6:-0.96745842 7:-0.94799423 8:-0.99717752 9:0.6286472 10:0 11:0 12:0 13:-0.85185185 14:-0.93548387 15:-1 16:1 17:0 18:1 19:1 20:0 21:1 22:0 23:-1 
100 1:0.29999995 2:0 3:0 4:-0.95555556 5:-0.95238095 6:-1 7:-0.84615385 8:-1 9:0.29922128 10:0 11:0 12:0 13:-0.85185185 14:-0.77419355 15:-0.83870968 16:0.25 17:0 18:0 19:0.76344097 20:0 21:0 22:0 23:-1 
100 1:0.29999995 2:0 3:0 4:-0.95555556 5:-0.95238095 6:-1 7:-0.84615385 8:-1 9:0.29922128 10:0 11:0 12:0 13:-0.85185185 14:-0.77419355 15:-0.83870968 16:0.25 17:0 18:0 19:0.76344097 20:0 21:0 22:0 23:-1 
43.96736413289032 1:0.43999994 2:0 3:0 4:-0.91111111 5:-0.95238095 6:-1 7:-0.84615385 8:-1 9:0.83908045 10:0 11:0 12:1 13:-0.92592593 14:-0.96774194 15:-0.96774194 16:0.71428573 17:0 18:0 19:0.7278682 20:0 21:0 22:0 23:-1 
16.50420734423216 1:0.6664175 2:1 3:0 4:-0.83514559 5:-0.92969242 6:-0.96745842 7:-0.94799423 8:-0.99717752 9:0.44297087 10:0 11:0 12:1 13:-0.87037037 14:-0.83870968 15:-0.87096774 16:0.7571935 17:1 18:0 19:0.6329256 20:0 21:0 22:0 23:-1 
100 1:0.06666672 2:0 3:0 4:-0.95555556 5:-0.9047619 6:-0.94117647 7:-0.84615385 8:-1 9:0.4173603 10:0 11:0 12:0 13:-0.85185185 14:-0.83870968 15:-0.90322581 16:0.4193548 17:0 18:0 19:0.78709686 20:0 21:0 22:0 23:-1 
2.690464968998669 1:0.6664175 2:1 3:0 4:-0.83514559 5:-0.92969242 6:-0.96745842 7:-0.94799423 8:-0.99717752 9:0.39655173 10:0 11:0 12:0 13:-0.77777778 14:-0.67741935 15:-1 16:1 17:0 18:1 19:0.63049865 20:0 21:0 22:0 23:-0.94444444 
100 1:0.3538462 2:0 3:0 4:-0.86666667 5:-0.9047619 6:-0.94117647 7:-1 8:-1 9:0.44297087 10:0 11:0 12:0 13:-0.96296296 14:-0.93548387 15:-0.96774194 16:1 17:0 18:1 19:1 20:0 21:1 22:0 23:-0.97222222 
100 1:0.43999994 2:0 3:0 4:-0.91111111 5:-0.9047619 6:-1 7:-0.84615385 8:-1 9:0.25729454 10:0 11:0 12:0 13:-0.88888889 14:-0.74193548 15:-1 16:0.53846157 17:0 18:0 19:0.562914 20:0 21:0 22:0 23:-0.97222222 
100 1:0.43999994 2:0 3:0 4:-0.91111111 5:-0.95238095 6:-1 7:-0.84615385 8:-1 9:1 10:0 11:1 12:1 13:-0.83333333 14:-1 15:-1 16:0.1428572 17:0 18:0 19:0.5677905 20:0 21:0 22:0 23:-0.97222222 
100 1:0.81333315 2:0 3:0 4:-0.46666667 5:-0.95238095 6:-1 7:-1 8:-1 9:0.83908045 10:0 11:0 12:1 13:-0.7962963 14:-0.96774194 15:-1 16:0.939394 17:0 18:0 19:0.93548405 20:0 21:0 22:0 23:-1 
100 1:0.81333315 2:0 3:0 4:-0.46666667 5:-0.95238095 6:-1 7:-1 8:-1 9:0.83908045 10:0 11:0 12:1 13:-0.7962963 14:-0.96774194 15:-1 16:0.939394 17:0 18:0 19:0.93548405 20:0 21:0 22:0 23:-1 
100 1:0.29999995 2:0 3:0 4:-0.95555556 5:-0.95238095 6:-1 7:-1 8:-1 9:0.5530013 10:0 11:0 12:0 13:-0.85185185 14:-0.90322581 15:-0.96774194 16:0.73333335 17:0 18:0 19:0.70521104 20:0 21:0 22:0 23:-1 
100 1:0.6664175 2:1 3:0 4:-0.83514559 5:-0.92969242 6:-0.96745842 7:-0.94799423 8:-0.99717752 9:0.6781609 10:0 11:0 12:0 13:-0.81481481 14:-0.90322581 15:-0.93548387 16:0.6140351 17:0 18:0 19:0.5891342 20:0 21:0 22:0 23:-0.97222222 
100 1:0.29999995 2:0 3:0 4:-0.95555556 5:-0.95238095 6:-1 7:-0.84615385 8:-1 9:0.48275864 10:0 11:0 12:1 13:-0.85185185 14:-0.83870968 15:-0.87096774 16:1 17:0 18:1 19:-0.17463845 20:0 21:0 22:0 23:-1 
100 1:0.6664175 2:1 3:0 4:-0.83514559 5:-0.92969242 6:-0.96745842 7:-0.94799423 8:-0.99717752 9:0.7586206 10:0 11:0 12:0 13:-0.88888889 14:-0.96774194 15:-1 16:0.7571935 17:1 18:0 19:0.7270472 20:0 21:0 22:0 23:-0.97222222 
100 1:0.43999994 2:0 3:0 4:-0.91111111 5:-0.95238095 6:-1 7:-1 8:-1 9:0.39655173 10:0 11:0 12:0 13:-0.88888889 14:-0.87096774 15:-0.93548387 16:1 17:0 18:1 19:1 20:0 21:1 22:1 23:-0.91666667 
15.73642861409983 1:0.6664175 2:1 3:0 4:-0.83514559 5:-0.92969242 6:-0.96745842 7:-0.94799423 8:-0.99717752 9:0.32413805 10:0 11:0 12:0 13:-0.88888889 14:-0.77419355 15:-0.90322581 16:0.9473684 17:0 18:0 19:0.94397295 20:0 21:0 22:0 23:-0.94444444 
100 1:0.6664175 2:1 3:0 4:-0.83514559 5:-0.92969242 6:-0.96745842 7:-0.94799423 8:-0.99717752 9:0.81432366 10:0 11:0 12:0 13:-0.83333333 14:-0.96774194 15:-1 16:0.5909091 17:0 18:0 19:0.5645162 20:0 21:0 22:1 23:-0.88888889 
100 1:0.6664175 2:1 3:0 4:-0.83514559 5:-0.92969242 6:-0.96745842 7:-0.94799423 8:-0.99717752 9:0.7805643 10:0 11:0 12:0 13:-0.87037037 14:-0.93548387 15:-0.93548387 16:0.7882353 17:0 18:0 19:0.7745732 20:0 21:0 22:1 23:-0.91666667 
100 1:0.5441859 2:0 3:0 4:-0.28888889 5:-0.76190476 6:-0.82352941 7:-1 8:-1 9:0.60225636 10:1 11:0 12:1 13:-0.85821357 14:-0.89946629 15:-0.94473468 16:0.7571935 17:1 18:0 19:0.68359995 20:1 21:0 22:0 23:-1 
100 1:0.06666672 2:0 3:0 4:-0.95555556 5:-0.9047619 6:-0.94117647 7:-1 8:-1 9:0.2758621 10:0 11:0 12:1 13:-0.92592593 14:-0.87096774 15:-0.93548387 16:1 17:0 18:1 19:1 20:0 21:1 22:0 23:-1 
100 1:0.6664175 2:1 3:0 4:-0.83514559 5:-0.92969242 6:-0.96745842 7:-0.94799423 8:-0.99717752 9:0.4752624 10:0 11:0 12:0 13:-0.88888889 14:-0.83870968 15:-0.83870968 16:0.7571935 17:1 18:0 19:0.85976446 20:0 21:0 22:0 23:-0.97222222 
100 1:0.6664175 2:1 3:0 4:-0.83514559 5:-0.92969242 6:-0.96745842 7:-0.94799423 8:-0.99717752 9:0.5172415 10:0 11:0 12:0 13:-0.90740741 14:-0.90322581 15:-0.93548387 16:0.7571935 17:1 18:0 19:1 20:0 21:0 22:1 23:-0.91666667 
32.58450030971611 1:0.3538462 2:0 3:0 4:-0.86666667 5:-0.85714286 6:-0.82352941 7:-0.69230769 8:-1 9:0.5977011 10:0 11:0 12:0 13:-0.77777778 14:-0.80645161 15:-0.80645161 16:-0.09677422 17:0 18:0 19:0.472 20:0 21:0 22:0 23:-0.94444444 
100 1:0.6664175 2:1 3:0 4:-0.83514559 5:-0.92969242 6:-0.96745842 7:-0.94799423 8:-0.99717752 9:0.79885066 10:0 11:0 12:0 13:-0.85185185 14:-0.96774194 15:-1 16:0.8636364 17:0 18:0 19:0.85483885 20:0 21:0 22:0 23:-0.97222222 
100 1:0.6664175 2:1 3:0 4:-0.83514559 5:-0.92969242 6:-0.96745842 7:-0.94799423 8:-0.99717752 9:0.38251805 10:0 11:0 12:0 13:-0.75925926 14:-0.80645161 15:-0.96774194 16:0.7571935 17:1 18:0 19:0.8935485 20:0 21:0 22:0 23:-1 
23.66487029805018 1:0.43999994 2:0 3:0 4:-0.91111111 5:-0.95238095 6:-1 7:-0.84615385 8:-1 9:0.19540238 10:0 11:0 12:1 13:-0.88888889 14:-0.74193548 15:-0.77419355 16:-0.12195122 17:0 18:0 19:-0.4020456 20:0 21:0 22:0 23:-0.97222222 
85.90320278730584 1:0.6664175 2:1 3:0 4:-0.83514559 5:-0.92969242 6:-0.96745842 7:-0.94799423 8:-0.99717752 9:0.92685485 10:0 11:0 12:0 13:-0.75925926 14:-0.96774194 15:-0.96774194 16:0.38775516 17:0 18:0 19:0.34825552 20:0 21:0 22:0 23:-1 
39.67341701830733 1:0.8444444 2:0 3:0 4:-0.33333333 5:-0.9047619 6:-0.88235294 7:-1 8:-1 9:0.8659003 10:0 11:0 12:0 13:-0.74074074 14:-0.93548387 15:-0.93548387 16:0.8876405 17:0 18:0 19:0.9032259 20:0 21:0 22:0 23:-1 
1.092273371386522 1:0.43999994 2:0 3:0 4:-0.91111111 5:-0.95238095 6:-1 7:-0.84615385 8:-1 9:1 10:0 11:1 12:1 13:-0.88888889 14:-1 15:-1 16:1 17:0 18:1 19:0.42263544 20:0 21:0 22:0 23:-1 
100 1:0.29999995 2:0 3:0 4:-0.95555556 5:-0.95238095 6:-1 7:-0.84615385 8:-1 9:1 10:0 11:1 12:1 13:-0.7962963 14:-1 15:-1 16:0.5652174 17:0 18:0 19:0.5741936 20:0 21:0 22:0 23:-1 
87.24615493750261 1:0.6664175 2:1 3:0 4:-0.83514559 5:-0.92969242 6:-0.96745842 7:-0.94799423 8:-0.99717752 9:0.7586206 10:0 11:0 12:0 13:-0.88888889 14:-0.93548387 15:-0.93548387 16:0.7571935 17:1 18:0 19:0.81135166 20:0 21:0 22:0 23:-1 
7.73055172172019 1:1 2:0 3:1 4:-0.82222222 5:-1 6:-1 7:-1 8:-1 9:0.8580122 10:0 11:0 12:1 13:-0.75925926 14:-0.96774194 15:-1 16:0.23076928 17:0 18:0 19:0.8617512 20:0 21:0 22:0 23:-1 
100 1:0.06666672 2:0 3:0 4:-0.91111111 5:-0.9047619 6:-1 7:-1 8:-1 9:1 10:0 11:1 12:1 13:-0.7962963 14:-1 15:-1 16:0.53846157 17:0 18:0 19:0.61786616 20:0 21:0 22:0 23:-1 
100 1:0.6664175 2:1 3:0 4:-0.83514559 5:-0.92969242 6:-0.96745842 7:-0.94799423 8:-0.99717752 9:0.8491379 10:0 11:0 12:0 13:-0.77777778 14:-0.96774194 15:-1 16:0.7571935 17:1 18:0 19:0.97305036 20:0 21:0 22:0 23:-1 
100 1:0.6664175 2:1 3:0 4:-0.83514559 5:-0.92969242 6:-0.96745842 7:-0.94799423 8:-0.99717752 9:0.81432366 10:0 11:0 12:0 13:-0.83333333 14:-0.96774194 15:-1 16:0.97849464 17:0 18:0 19:0.9771073 20:0 21:0 22:0 23:-1 
100 1:0.6664175 2:1 3:0 4:-0.83514559 5:-0.92969242 6:-0.96745842 7:-0.94799423 8:-0.99717752 9:-0.20689654 10:0 11:0 12:0 13:-0.92592593 14:-0.61290323 15:-1 16:1 17:0 18:1 19:1 20:0 21:1 22:1 23:-0.88888889 
100 1:0.29999995 2:0 3:0 4:-0.95555556 5:-0.95238095 6:-1 7:-0.84615385 8:-1 9:0.32413805 10:0 11:0 12:0 13:-0.88888889 14:-0.87096774 15:-0.96774194 16:1 17:0 18:1 19:1 20:0 21:1 22:0 23:-1 
100 1:0.29999995 2:0 3:0 4:-0.95555556 5:-0.95238095 6:-1 7:-0.84615385 8:-1 9:0.32413805 10:0 11:0 12:0 13:-0.88888889 14:-0.87096774 15:-0.96774194 16:1 17:0 18:1 19:1 20:0 21:1 22:0 23:-1 
8.57137888595493 1:0.5999999 2:0 3:0 4:-0.95555556 5:-0.95238095 6:-0.94117647 7:-1 8:-1 9:0.48798335 10:0 11:0 12:0 13:-0.81481481 14:-0.77419355 15:-0.77419355 16:1 17:0 18:1 19:-0.5457357 20:0 21:0 22:0 23:-1 
100 1:0.6664175 2:1 3:0 4:-0.83514559 5:-0.92969242 6:-0.96745842 7:-0.94799423 8:-0.99717752 9:0.5611285 10:0 11:0 12:0 13:-0.88888889 14:-0.87096774 15:-0.87096774 16:0.7571935 17:1 18:0 19:1 20:0 21:1 22:0 23:-0.97222222 
32.52152209962418 1:0.6664175 2:1 3:0 4:-0.83514559 5:-0.92969242 6:-0.96745842 7:-0.94799423 8:-0.99717752 9:0.8659003 10:0 11:0 12:0 13:-0.74074074 14:-0.93548387 15:-0.93548387 16:0.7571935 17:1 18:0 19:0.8467097 20:0 21:0 22:0 23:-1 
100 1:0.29999995 2:0 3:0 4:-0.95555556 5:-0.95238095 6:-1 7:-0.84615385 8:-1 9:0.8580122 10:0 11:0 12:1 13:-0.90740741 14:-0.96774194 15:-0.96774194 16:0.12000001 17:0 18:0 19:0.6542598 20:0 21:0 22:0 23:-1 
14.92818603762884 1:0.6664175 2:1 3:0 4:-0.83514559 5:-0.92969242 6:-0.96745842 7:-0.94799423 8:-0.99717752 9:-0.13590252 10:0 11:0 12:0 13:-0.88888889 14:-0.5483871 15:-0.74193548 16:0.7571935 17:1 18:0 19:1 20:0 21:1 22:1 23:-0.91666667 
40.21256570040577 1:0.06666672 2:0 3:0 4:-0.95555556 5:-0.9047619 6:-0.94117647 7:-1 8:-1 9:1 10:0 11:1 12:1 13:-0.74074074 14:-1 15:-1 16:0.42857146 17:0 18:0 19:0.47957003 20:0 21:0 22:0 23:-1 
100 1:0.6664175 2:1 3:0 4:-0.83514559 5:-0.92969242 6:-0.96745842 7:-0.94799423 8:-0.99717752 9:0.7586206 10:0 11:0 12:0 13:-0.72222222 14:-0.93548387 15:-1 16:0.7571935 17:1 18:0 19:0.9749527 20:0 21:0 22:0 23:-0.97222222 
100 1:0.29999995 2:0 3:0 4:-0.95555556 5:-0.95238095 6:-1 7:-0.84615385 8:-1 9:0.19540238 10:0 11:0 12:0 13:-0.92592593 14:-0.80645161 15:-0.90322581 16:0.79999995 17:0 18:0 19:0.9074335 20:0 21:0 22:0 23:-1 
22.85944837049234 1:-0.19999999 2:0 3:0 4:-0.82222222 5:-0.61904762 6:-0.94117647 7:-1 8:-1 9:0.7805643 10:0 11:0 12:1 13:-0.87037037 14:-0.96774194 15:-1 16:1 17:0 18:1 19:0.98210907 20:0 21:0 22:0 23:-0.94444444 
100 1:0.6664175 2:1 3:0 4:-0.83514559 5:-0.92969242 6:-0.96745842 7:-0.94799423 8:-0.99717752 9:0.5611285 10:0 11:0 12:0 13:-0.88888889 14:-0.87096774 15:-0.87096774 16:0.7571935 17:1 18:0 19:0.98210907 20:0 21:0 22:0 23:-1 
100 1:0.6664175 2:1 3:0 4:-0.83514559 5:-0.92969242 6:-0.96745842 7:-0.94799423 8:-0.99717752 9:0.6982759 10:0 11:0 12:0 13:-0.92592593 14:-0.93548387 15:-0.93548387 16:1 17:0 18:1 19:1 20:0 21:1 22:1 23:-0.88888889 
100 1:0.6664175 2:1 3:0 4:-0.83514559 5:-0.92969242 6:-0.96745842 7:-0.94799423 8:-0.99717752 9:0.65517247 10:0 11:0 12:0 13:-0.94444444 14:-0.93548387 15:-0.93548387 16:1 17:0 18:1 19:1 20:0 21:1 22:0 23:-1 
100 1:0.6664175 2:1 3:0 4:-0.83514559 5:-0.92969242 6:-0.96745842 7:-0.94799423 8:-0.99717752 9:0.65517247 10:0 11:0 12:0 13:-0.94444444 14:-0.93548387 15:-0.93548387 16:1 17:0 18:1 19:1 20:0 21:1 22:0 23:-1 
1.447453242171294 1:1 2:0 3:1 4:-0.82222222 5:-1 6:-1 7:-1 8:-1 9:0.8580122 10:0 11:0 12:1 13:-0.90740741 14:-0.96774194 15:-0.96774194 16:1 17:0 18:1 19:1 20:0 21:1 22:0 23:-0.97222222 
41.96633216558227 1:0.6664175 2:1 3:0 4:-0.83514559 5:-0.92969242 6:-0.96745842 7:-0.94799423 8:-0.99717752 9:0.7318008 10:0 11:0 12:1 13:-0.90740741 14:-0.96774194 15:-1 16:0.7571935 17:1 18:0 19:0.8783411 20:0 21:0 22:0 23:-0.94444444 
94.86091366324406 1:0.6664175 2:1 3:0 4:-0.83514559 5:-0.92969242 6:-0.96745842 7:-0.94799423 8:-0.99717752 9:0.89505255 10:0 11:0 12:0 13:-0.85185185 14:-0.96774194 15:-0.96774194 16:0.7571935 17:1 18:0 19:1 20:0 21:1 22:0 23:-1 
5.86769564043673 1:0.87826097 2:0 3:0 4:0.37777778 5:-0.85714286 6:-0.82352941 7:-0.84615385 8:-1 9:0.60225636 10:1 11:0 12:1 13:-0.85821357 14:-0.89946629 15:-0.94473468 16:0.7571935 17:1 18:0 19:0.68359995 20:1 21:0 22:0 23:-1 
100 1:0.29999995 2:0 3:0 4:-0.95555556 5:-0.95238095 6:-1 7:-0.84615385 8:-1 9:0.61067843 10:0 11:0 12:0 13:-0.81481481 14:-0.90322581 15:-0.96774194 16:1 17:0 18:1 19:1 20:0 21:1 22:0 23:-1 
100 1:0.29999995 2:0 3:0 4:-0.95555556 5:-0.95238095 6:-1 7:-0.84615385 8:-1 9:0.61067843 10:0 11:0 12:0 13:-0.81481481 14:-0.90322581 15:-0.96774194 16:1 17:0 18:1 19:1 20:0 21:1 22:0 23:-0.97222222 
100 1:0.29999995 2:0 3:0 4:-0.95555556 5:-0.95238095 6:-1 7:-0.84615385 8:-1 9:0.6342739 10:0 11:0 12:1 13:-0.7962963 14:-0.90322581 15:-0.96774194 16:1 17:0 18:1 19:1 20:0 21:1 22:0 23:-1 
53.86744604489665 1:0.43999994 2:0 3:0 4:-0.91111111 5:-0.95238095 6:-1 7:-1 8:-1 9:0.5172415 10:0 11:0 12:0 13:-0.83333333 14:-0.87096774 15:-0.93548387 16:0.625 17:0 18:0 19:0.14045286 20:0 21:0 22:0 23:-1 
100 1:0.6664175 2:1 3:0 4:-0.83514559 5:-0.92969242 6:-0.96745842 7:-0.94799423 8:-0.99717752 9:0.7103448 10:0 11:0 12:0 13:-0.85185185 14:-0.93548387 15:-0.96774194 16:0.7571935 17:1 18:0 19:0.7785808 20:0 21:0 22:0 23:-1 
100 1:0.43999994 2:0 3:0 4:-0.91111111 5:-0.95238095 6:-1 7:-1 8:-1 9:0.5172415 10:0 11:0 12:1 13:-0.83333333 14:-0.87096774 15:-1 16:1 17:0 18:1 19:0.72528625 20:0 21:0 22:0 23:-1 
100 1:0.6664175 2:1 3:0 4:-0.83514559 5:-0.92969242 6:-0.96745842 7:-0.94799423 8:-0.99717752 9:0.81432366 10:0 11:0 12:0 13:-0.83333333 14:-0.96774194 15:-1 16:0.7571935 17:1 18:0 19:0.81646276 20:0 21:0 22:0 23:-0.94444444 
100 1:0.6664175 2:1 3:0 4:-0.83514559 5:-0.92969242 6:-0.96745842 7:-0.94799423 8:-0.99717752 9:0.7586206 10:0 11:0 12:0 13:-0.88888889 14:-0.96774194 15:-1 16:0.7571935 17:1 18:0 19:0.7918992 20:0 21:0 22:0 23:-0.97222222 
100 1:0.6664175 2:1 3:0 4:-0.83514559 5:-0.92969242 6:-0.96745842 7:-0.94799423 8:-0.99717752 9:0.5611285 10:0 11:0 12:0 13:-0.88888889 14:-0.93548387 15:-1 16:0.95555556 17:0 18:0 19:0.95268834 20:0 21:0 22:0 23:-0.94444444 
100 1:0.6664175 2:1 3:0 4:-0.83514559 5:-0.92969242 6:-0.96745842 7:-0.94799423 8:-0.99717752 9:0.5977011 10:0 11:0 12:0 13:-0.87037037 14:-0.93548387 15:-1 16:0.95555556 17:0 18:0 19:0.95268834 20:0 21:0 22:0 23:-1 
42.92543596264125 1:0.6664175 2:1 3:0 4:-0.83514559 5:-0.92969242 6:-0.96745842 7:-0.94799423 8:-0.99717752 9:0.19540238 10:0 11:0 12:0 13:-0.88888889 14:-0.70967742 15:-0.83870968 16:0.95555556 17:0 18:0 19:0.95268834 20:0 21:0 22:0 23:-1 
100 1:0.6664175 2:1 3:0 4:-0.83514559 5:-0.92969242 6:-0.96745842 7:-0.94799423 8:-0.99717752 9:-0.034482658 10:0 11:0 12:0 13:-0.90740741 14:-0.64516129 15:-0.67741935 16:0.7571935 17:1 18:0 19:1 20:0 21:1 22:0 23:-0.97222222 
100 1:0.6664175 2:1 3:0 4:-0.83514559 5:-0.92969242 6:-0.96745842 7:-0.94799423 8:-0.99717752 9:0.5740366 10:0 11:0 12:0 13:-0.92592593 14:-0.90322581 15:-0.90322581 16:0.83606553 17:0 18:0 19:0.82548916 20:0 21:0 22:0 23:-1 
100 1:0.6664175 2:1 3:0 4:-0.83514559 5:-0.92969242 6:-0.96745842 7:-0.94799423 8:-0.99717752 9:0.48798335 10:0 11:0 12:0 13:-0.81481481 14:-0.77419355 15:-0.90322581 16:0.7571935 17:1 18:0 19:0.96264863 20:0 21:0 22:0 23:-1 
71.18611597548178 1:0.6664175 2:1 3:0 4:-0.83514559 5:-0.92969242 6:-0.96745842 7:-0.94799423 8:-0.99717752 9:0.7318008 10:0 11:0 12:1 13:-0.90740741 14:-0.96774194 15:-1 16:0.7571935 17:1 18:0 19:0.69585264 20:0 21:0 22:0 23:-0.97222222 
66.45564269108451 1:0.8444444 2:0 3:0 4:-0.33333333 5:-0.9047619 6:-0.88235294 7:-1 8:-1 9:0.8659003 10:0 11:0 12:0 13:-0.74074074 14:-0.93548387 15:-0.93548387 16:0.1555556 17:0 18:0 19:0.10107541 20:0 21:0 22:0 23:-1 
100 1:0.74545443 2:0 3:0 4:-0.64444444 5:-0.9047619 6:-0.88235294 7:-1 8:-1 9:0.7805643 10:0 11:0 12:0 13:-0.87037037 14:-0.93548387 15:-0.93548387 16:-0.090909064 17:0 18:0 19:-0.16129023 20:0 21:0 22:0 23:-1 
100 1:0.7846153 2:0 3:0 4:-0.55555556 5:-0.9047619 6:-0.88235294 7:-1 8:-1 9:0.79885066 10:0 11:0 12:1 13:-0.85185185 14:-0.93548387 15:-0.93548387 16:0.10526311 17:0 18:0 19:0.063225865 20:0 21:0 22:0 23:-1 
100 1:0.6664175 2:1 3:0 4:-0.83514559 5:-0.92969242 6:-0.96745842 7:-0.94799423 8:-0.99717752 9:0.65517247 10:0 11:0 12:0 13:-0.94444444 14:-0.93548387 15:-0.93548387 16:1 17:0 18:1 19:1 20:0 21:1 22:0 23:-1 
100 1:0.6664175 2:1 3:0 4:-0.83514559 5:-0.92969242 6:-0.96745842 7:-0.94799423 8:-0.99717752 9:0.83908045 10:0 11:0 12:0 13:-0.7962963 14:-0.93548387 15:-0.93548387 16:1 17:0 18:1 19:1 20:0 21:1 22:0 23:-1 
100 1:0.6664175 2:1 3:0 4:-0.83514559 5:-0.92969242 6:-0.96745842 7:-0.94799423 8:-0.99717752 9:0.83908045 10:0 11:0 12:0 13:-0.7962963 14:-0.93548387 15:-0.93548387 16:1 17:0 18:1 19:1 20:0 21:1 22:0 23:-1 
100 1:0.6664175 2:1 3:0 4:-0.83514559 5:-0.92969242 6:-0.96745842 7:-0.94799423 8:-0.99717752 9:0.3416928 10:0 11:0 12:0 13:-0.90740741 14:-0.83870968 15:-0.87096774 16:1 17:0 18:1 19:1 20:0 21:1 22:0 23:-0.94444444 
100 1:0.6664175 2:1 3:0 4:-0.83514559 5:-0.92969242 6:-0.96745842 7:-0.94799423 8:-0.99717752 9:0.6982759 10:0 11:0 12:0 13:-0.92592593 14:-0.93548387 15:-0.93548387 16:1 17:0 18:1 19:1 20:0 21:1 22:0 23:-1 
100 1:0.6664175 2:1 3:0 4:-0.83514559 5:-0.92969242 6:-0.96745842 7:-0.94799423 8:-0.99717752 9:0.83908045 10:0 11:0 12:0 13:-0.7962963 14:-0.96774194 15:-1 16:0.7571935 17:1 18:0 19:0.68359995 20:1 21:0 22:0 23:-0.97222222 
100 1:0.6664175 2:1 3:0 4:-0.83514559 5:-0.92969242 6:-0.96745842 7:-0.94799423 8:-0.99717752 9:0.8491379 10:0 11:0 12:0 13:-0.77777778 14:-0.96774194 15:-1 16:0.7571935 17:1 18:0 19:0.68359995 20:1 21:0 22:0 23:-0.97222222 
100 1:0.6664175 2:1 3:0 4:-0.83514559 5:-0.92969242 6:-0.96745842 7:-0.94799423 8:-0.99717752 9:0.83908045 10:0 11:0 12:0 13:-0.7962963 14:-0.96774194 15:-1 16:0.7571935 17:1 18:0 19:0.68359995 20:1 21:0 22:0 23:-1 
100 1:0.6664175 2:1 3:0 4:-0.83514559 5:-0.92969242 6:-0.96745842 7:-0.94799423 8:-0.99717752 9:0.8580122 10:0 11:0 12:0 13:-0.75925926 14:-0.96774194 15:-1 16:0.7571935 17:1 18:0 19:0.68359995 20:1 21:0 22:0 23:-0.97222222 
100 1:0.6664175 2:1 3:0 4:-0.83514559 5:-0.92969242 6:-0.96745842 7:-0.94799423 8:-0.99717752 9:-0.13590252 10:0 11:0 12:0 13:-0.88888889 14:-0.61290323 15:-1 16:0.7571935 17:1 18:0 19:0.74264455 20:0 21:0 22:0 23:-0.97222222 
100 1:0.29999995 2:0 3:0 4:-0.95555556 5:-0.95238095 6:-1 7:-0.84615385 8:-1 9:0.8580122 10:0 11:0 12:1 13:-0.90740741 14:-0.96774194 15:-0.96774194 16:1 17:0 18:1 19:0.7223002 20:0 21:0 22:0 23:-0.97222222 
100 1:0.13846159 2:0 3:0 4:-0.68888889 5:-0.61904762 6:-0.76470588 7:-1 8:-1 9:0.25729454 10:0 11:0 12:0 13:-0.88888889 14:-0.74193548 15:-0.87096774 16:1 17:0 18:1 19:1 20:0 21:1 22:0 23:-1 
61.85558958213115 1:0.20000005 2:0 3:0 4:-0.64444444 5:-0.61904762 6:-0.76470588 7:-1 8:-1 9:0.31034493 10:0 11:0 12:0 13:-0.87037037 14:-0.74193548 15:-0.87096774 16:1 17:0 18:1 19:1 20:0 21:1 22:0 23:-1 
100 1:0.6561403 2:0 3:0 4:0.022222222 5:-0.76190476 6:-0.82352941 7:-1 8:-1 9:0.60225636 10:1 11:0 12:1 13:-0.85821357 14:-0.89946629 15:-0.94473468 16:0.7571935 17:1 18:0 19:0.68359995 20:1 21:0 22:0 23:-1 
79.4485888821178 1:0.58000004 2:0 3:0 4:-0.33333333 5:-0.71428571 6:-0.64705882 7:-1 8:-1 9:0.60225636 10:1 11:0 12:1 13:-0.85821357 14:-0.89946629 15:-0.94473468 16:0.7571935 17:1 18:0 19:0.68359995 20:1 21:0 22:0 23:-1 
100 1:0.6664175 2:1 3:0 4:-0.83514559 5:-0.92969242 6:-0.96745842 7:-0.94799423 8:-0.99717752 9:0.79310346 10:0 11:0 12:0 13:-0.75925926 14:-0.90322581 15:-0.90322581 16:0.9009901 17:0 18:0 19:0.89460254 20:0 21:0 22:0 23:-1 
39.60567987002451 1:0.20000005 2:0 3:0 4:-0.86666667 5:-0.80952381 6:-0.76470588 7:-0.53846154 8:-1 9:0.60225636 10:1 11:0 12:1 13:-0.85821357 14:-0.89946629 15:-0.94473468 16:0.94871795 17:0 18:0 19:0.68359995 20:1 21:0 22:0 23:-0.97222222 
100 1:0.6664175 2:1 3:0 4:-0.83514559 5:-0.92969242 6:-0.96745842 7:-0.94799423 8:-0.99717752 9:0.6982759 10:0 11:0 12:0 13:-0.92592593 14:-0.93548387 15:-0.93548387 16:0.902439 17:0 18:0 19:0.89614487 20:0 21:0 22:0 23:-1 
100 1:0.6664175 2:1 3:0 4:-0.83514559 5:-0.92969242 6:-0.96745842 7:-0.94799423 8:-0.99717752 9:0.7586206 10:0 11:0 12:0 13:-0.88888889 14:-0.93548387 15:-0.93548387 16:0.7571935 17:1 18:0 19:0.7108723 20:0 21:0 22:0 23:-1 
100 1:0.6664175 2:1 3:0 4:-0.83514559 5:-0.92969242 6:-0.96745842 7:-0.94799423 8:-0.99717752 9:0.4918331 10:0 11:0 12:0 13:-0.77777778 14:-0.74193548 15:-0.87096774 16:0.7571935 17:1 18:0 19:1 20:0 21:1 22:0 23:-1 
24.77805786976837 1:-0.40000004 2:0 3:0 4:-0.91111111 5:-0.61904762 6:-1 7:-1 8:-1 9:-0.11405826 10:0 11:0 12:0 13:-0.92592593 14:-0.61290323 15:-1 16:0.6363636 17:0 18:0 19:0.581174 20:0 21:0 22:0 23:-1 
36.80003426703805 1:0.0181818 2:0 3:0 4:0.022222222 5:0.23809524 6:0.47058824 7:-0.84615385 8:-1 9:0.60225636 10:1 11:0 12:1 13:-0.85821357 14:-0.89946629 15:-0.94473468 16:0.7571935 17:1 18:0 19:0.68359995 20:1 21:0 22:0 23:-1 
100 1:0.6664175 2:1 3:0 4:-0.83514559 5:-0.92969242 6:-0.96745842 7:-0.94799423 8:-0.99717752 9:0.6851574 10:0 11:0 12:0 13:-0.87037037 14:-0.90322581 15:-0.90322581 16:0.7571935 17:1 18:0 19:0.5326514 20:0 21:0 22:0 23:-1 
43.61722788855592 1:0.034482718 2:0 3:0 4:-0.24444444 5:-0.047619048 6:0.17647059 7:-1 8:-1 9:0.60225636 10:1 11:0 12:1 13:-0.85821357 14:-0.89946629 15:-0.94473468 16:0.7571935 17:1 18:0 19:0.68359995 20:1 21:0 22:0 23:-1 
5.756675758654669 1:0.06666672 2:0 3:0 4:-0.95555556 5:-0.9047619 6:-0.94117647 7:-1 8:-1 9:0.60225636 10:1 11:0 12:1 13:-0.85821357 14:-0.89946629 15:-0.94473468 16:1 17:0 18:1 19:0.68359995 20:1 21:0 22:0 23:-1 
100 1:0.6664175 2:1 3:0 4:-0.83514559 5:-0.92969242 6:-0.96745842 7:-0.94799423 8:-0.99717752 9:0.65517247 10:0 11:0 12:0 13:-0.83333333 14:-0.93548387 15:-1 16:0.7571935 17:1 18:0 19:1 20:0 21:1 22:0 23:-0.94444444 
100 1:0.06666672 2:0 3:0 4:-0.95555556 5:-0.9047619 6:-0.94117647 7:-1 8:-1 9:0.6851574 10:0 11:0 12:0 13:-0.87037037 14:-0.93548387 15:-0.96774194 16:1 17:0 18:1 19:1 20:0 21:1 22:1 23:-0.91666667 
100 1:0.06666672 2:0 3:0 4:-0.95555556 5:-0.9047619 6:-0.94117647 7:-1 8:-1 9:0.6851574 10:0 11:0 12:0 13:-0.87037037 14:-0.93548387 15:-0.96774194 16:1 17:0 18:1 19:1 20:0 21:1 22:0 23:-0.97222222 
22.65919632021487 1:0.29999995 2:0 3:0 4:-0.82222222 5:-0.9047619 6:-1 7:-1 8:-1 9:0.5667552 10:0 11:0 12:0 13:-0.75925926 14:-0.83870968 15:-0.90322581 16:0.33333337 17:0 18:0 19:0.006451726 20:0 21:0 22:0 23:-1 
100 1:0.29999995 2:0 3:0 4:-0.82222222 5:-0.9047619 6:-1 7:-1 8:-1 9:0.5667552 10:0 11:0 12:0 13:-0.75925926 14:-0.83870968 15:-0.90322581 16:0.33333337 17:0 18:0 19:0.006451726 20:0 21:0 22:0 23:-1 
96.02974719810044 1:0.29999995 2:0 3:0 4:-0.82222222 5:-0.9047619 6:-1 7:-1 8:-1 9:0.5667552 10:0 11:0 12:0 13:-0.75925926 14:-0.83870968 15:-0.90322581 16:0.33333337 17:0 18:0 19:0.006451726 20:0 21:0 22:0 23:-1 
100 1:-0.008000076 2:0 3:0 4:-0.73333333 5:-0.57142857 6:-0.70588235 7:-1 8:-1 9:0.1310345 10:0 11:0 12:0 13:-0.90740741 14:-0.70967742 15:-0.83870968 16:1 17:0 18:1 19:1 20:0 21:1 22:0 23:-0.97222222 
100 1:-0.008000076 2:0 3:0 4:-0.73333333 5:-0.57142857 6:-0.70588235 7:-1 8:-1 9:0.1310345 10:0 11:0 12:0 13:-0.90740741 14:-0.70967742 15:-0.83870968 16:1 17:0 18:1 19:1 20:0 21:1 22:0 23:-0.97222222 
0.05733831052534662 1:0.72903216 2:0 3:0 4:-0.46666667 5:-0.9047619 6:-0.94117647 7:-0.84615385 8:-1 9:0.60225636 10:1 11:0 12:1 13:-0.85821357 14:-0.89946629 15:-0.94473468 16:0.7571935 17:1 18:0 19:0.68359995 20:1 21:0 22:0 23:-1 
100 1:0.10188675 2:0 3:0 4:-0.28888889 5:-0.19047619 6:0 7:-1 8:-1 9:0.60225636 10:1 11:0 12:1 13:-0.85821357 14:-0.89946629 15:-0.94473468 16:0.7571935 17:1 18:0 19:0.68359995 20:1 21:0 22:0 23:-1 
100 1:0.6664175 2:1 3:0 4:-0.83514559 5:-0.92969242 6:-0.96745842 7:-0.94799423 8:-0.99717752 9:0.8491379 10:0 11:0 12:0 13:-0.77777778 14:-0.96774194 15:-1 16:1 17:0 18:1 19:1 20:0 21:1 22:0 23:-0.97222222 
100 1:0.6664175 2:1 3:0 4:-0.83514559 5:-0.92969242 6:-0.96745842 7:-0.94799423 8:-0.99717752 9:0.25729454 10:0 11:0 12:0 13:-0.88888889 14:-0.74193548 15:-0.74193548 16:0.7571935 17:1 18:0 19:1 20:0 21:1 22:0 23:-1 
100 1:-0.29230767 2:0 3:0 4:-0.77777778 5:-0.42857143 6:-0.64705882 7:-1 8:-1 9:-0.06206894 10:0 11:0 12:0 13:-0.92592593 14:-0.64516129 15:-0.77419355 16:1 17:0 18:1 19:1 20:0 21:1 22:0 23:-1 
17.68165542678648 1:0.8444444 2:0 3:0 4:-0.33333333 5:-0.9047619 6:-0.88235294 7:-1 8:-1 9:0.8491379 10:0 11:0 12:1 13:-0.77777778 14:-0.93548387 15:-0.93548387 16:-0.08771932 17:0 18:0 19:-0.140553 20:0 21:0 22:0 23:-1 
100 1:0.6664175 2:1 3:0 4:-0.83514559 5:-0.92969242 6:-0.96745842 7:-0.94799423 8:-0.99717752 9:0.2508918 10:0 11:0 12:0 13:-0.87037037 14:-0.70967742 15:-0.70967742 16:0.7571935 17:1 18:0 19:1 20:0 21:1 22:0 23:-1 
100 1:0.6664175 2:1 3:0 4:-0.83514559 5:-0.92969242 6:-0.96745842 7:-0.94799423 8:-0.99717752 9:0.19540238 10:0 11:0 12:0 13:-0.88888889 14:-0.70967742 15:-0.70967742 16:0.7571935 17:1 18:0 19:1 20:0 21:1 22:0 23:-0.94444444 
57.33102211686889 1:0.6664175 2:1 3:0 4:-0.83514559 5:-0.92969242 6:-0.96745842 7:-0.94799423 8:-0.99717752 9:0.2508918 10:0 11:0 12:0 13:-0.87037037 14:-0.70967742 15:-0.70967742 16:0.7571935 17:1 18:0 19:1 20:0 21:1 22:0 23:-0.97222222 
100 1:0.29999995 2:0 3:0 4:-0.95555556 5:-0.95238095 6:-1 7:-0.84615385 8:-1 9:0.034482837 10:0 11:0 12:0 13:-0.88888889 14:-0.74193548 15:-0.93548387 16:1 17:0 18:1 19:1 20:0 21:1 22:0 23:-0.94444444 
100 1:0.29999995 2:0 3:0 4:-0.95555556 5:-0.95238095 6:-1 7:-0.84615385 8:-1 9:0.034482837 10:0 11:0 12:0 13:-0.88888889 14:-0.74193548 15:-0.93548387 16:1 17:0 18:1 19:1 20:0 21:1 22:0 23:-0.94444444 
100 1:0.6664175 2:1 3:0 4:-0.83514559 5:-0.92969242 6:-0.96745842 7:-0.94799423 8:-0.99717752 9:0.7318008 10:0 11:0 12:1 13:-0.90740741 14:-0.93548387 15:-0.93548387 16:1 17:0 18:1 19:1 20:0 21:1 22:1 23:-0.88888889 
100 1:0.6664175 2:1 3:0 4:-0.83514559 5:-0.92969242 6:-0.96745842 7:-0.94799423 8:-0.99717752 9:0.65517247 10:0 11:0 12:0 13:-0.94444444 14:-0.93548387 15:-0.93548387 16:1 17:0 18:1 19:1 20:0 21:1 22:0 23:-1 
100 1:0.6664175 2:1 3:0 4:-0.83514559 5:-0.92969242 6:-0.96745842 7:-0.94799423 8:-0.99717752 9:0.65517247 10:0 11:0 12:0 13:-0.94444444 14:-0.93548387 15:-0.93548387 16:1 17:0 18:1 19:1 20:0 21:1 22:0 23:-1 
100 1:-0.09565228 2:0 3:0 4:-0.77777778 5:-0.57142857 6:-0.70588235 7:-1 8:-1 9:0.055472255 10:0 11:0 12:0 13:-0.92592593 14:-0.70967742 15:-0.83870968 16:0.74358976 17:0 18:0 19:0.7270472 20:0 21:0 22:0 23:-0.97222222 
100 1:0.27407396 2:0 3:0 4:-0.64444444 5:-0.66666667 6:-0.82352941 7:-1 8:-1 9:0.37420177 10:0 11:0 12:0 13:-0.87037037 14:-0.77419355 15:-0.90322581 16:1 17:0 18:1 19:1 20:0 21:1 22:0 23:-1 
100 1:0.06666672 2:0 3:0 4:-0.95555556 5:-0.9047619 6:-0.94117647 7:-1 8:-1 9:0.2653674 10:0 11:0 12:0 13:-0.90740741 14:-0.87096774 15:-0.96774194 16:1 17:0 18:1 19:1 20:0 21:1 22:0 23:-0.94444444 
100 1:0.06666672 2:0 3:0 4:-0.95555556 5:-0.9047619 6:-0.94117647 7:-1 8:-1 9:0.2653674 10:0 11:0 12:0 13:-0.90740741 14:-0.87096774 15:-0.96774194 16:1 17:0 18:1 19:1 20:0 21:1 22:0 23:-0.94444444 
2.032931715431848 1:0.6888888 2:0 3:0 4:-0.91111111 5:-0.95238095 6:-0.94117647 7:-1 8:-1 9:0.24568963 10:0 11:0 12:0 13:-0.85185185 14:-0.80645161 15:-1 16:0.25 17:0 18:0 19:0.11827958 20:0 21:0 22:0 23:-1 
100 1:0.6664175 2:1 3:0 4:-0.83514559 5:-0.92969242 6:-0.96745842 7:-0.94799423 8:-0.99717752 9:0.79885066 10:0 11:0 12:0 13:-0.85185185 14:-0.93548387 15:-0.93548387 16:0.23076928 17:0 18:0 19:0.1811415 20:0 21:0 22:0 23:-1 
100 1:0.6664175 2:1 3:0 4:-0.83514559 5:-0.92969242 6:-0.96745842 7:-0.94799423 8:-0.99717752 9:0.7805643 10:0 11:0 12:0 13:-0.87037037 14:-0.96774194 15:-1 16:0.23076928 17:0 18:0 19:0.1811415 20:0 21:0 22:0 23:-0.97222222 
18.9235270543116 1:0.6666666 2:0 3:0 4:0.55555556 5:-0.52380952 6:-0.41176471 7:-1 8:-1 9:0.60225636 10:1 11:0 12:1 13:-0.85821357 14:-0.89946629 15:-0.94473468 16:0.7571935 17:1 18:0 19:0.68359995 20:1 21:0 22:0 23:-1 
3.685229961483971 1:0.5333332 2:0 3:0 4:-0.64444444 5:-0.9047619 6:-1 7:-0.84615385 8:-1 9:0.87931037 10:0 11:0 12:1 13:-0.7037037 14:-0.96774194 15:-1 16:0.7571935 17:1 18:0 19:0.8064518 20:0 21:0 22:0 23:-0.97222222 
100 1:0.6664175 2:1 3:0 4:-0.83514559 5:-0.92969242 6:-0.96745842 7:-0.94799423 8:-0.99717752 9:0.6982759 10:0 11:0 12:0 13:-0.92592593 14:-0.93548387 15:-0.93548387 16:0.9591837 17:0 18:0 19:0.9565505 20:0 21:0 22:0 23:-1 
46.52067255435176 1:0.5999999 2:0 3:0 4:-0.95555556 5:-0.95238095 6:-0.94117647 7:-1 8:-1 9:0.13793099 10:0 11:0 12:0 13:-0.88888889 14:-0.80645161 15:-0.93548387 16:0.23076928 17:0 18:0 19:0.67245674 20:0 21:0 22:0 23:-1 
2.063488099535643 1:0.26315784 2:0 3:0 4:-0.46666667 5:-0.57142857 6:-0.64705882 7:-1 8:-1 9:-1 10:0 11:0 12:0 13:-1 14:-0.064516129 15:-0.064516129 16:0.7571935 17:1 18:0 19:0.68359995 20:1 21:0 22:0 23:-1 
39.64161776280242 1:0.6664175 2:1 3:0 4:-0.83514559 5:-0.92969242 6:-0.96745842 7:-0.94799423 8:-0.99717752 9:0.6982759 10:0 11:0 12:0 13:-0.92592593 14:-0.93548387 15:-0.93548387 16:0.7571935 17:1 18:0 19:1 20:0 21:1 22:0 23:-1 
100 1:0.6664175 2:1 3:0 4:-0.83514559 5:-0.92969242 6:-0.96745842 7:-0.94799423 8:-0.99717752 9:0.6982759 10:0 11:0 12:0 13:-0.92592593 14:-0.93548387 15:-0.93548387 16:0.7571935 17:1 18:0 19:1 20:0 21:1 22:0 23:-1 
100 1:0.6664175 2:1 3:0 4:-0.83514559 5:-0.92969242 6:-0.96745842 7:-0.94799423 8:-0.99717752 9:0.6982759 10:0 11:0 12:0 13:-0.92592593 14:-0.93548387 15:-0.93548387 16:0.7571935 17:1 18:0 19:1 20:0 21:1 22:0 23:-1 
100 1:0.6664175 2:1 3:0 4:-0.83514559 5:-0.92969242 6:-0.96745842 7:-0.94799423 8:-0.99717752 9:0.6982759 10:0 11:0 12:0 13:-0.92592593 14:-0.93548387 15:-0.93548387 16:0.7571935 17:1 18:0 19:1 20:0 21:1 22:1 23:-0.91666667 
5.063743759762929 1:0.13846159 2:0 3:0 4:-0.68888889 5:-0.61904762 6:-0.52941176 7:-1 8:-1 9:0.1434927 10:0 11:0 12:1 13:-0.87037037 14:-0.64516129 15:-0.64516129 16:1 17:0 18:1 19:0.38906038 20:0 21:0 22:0 23:-1 
100 1:0.29999995 2:0 3:0 4:-0.95555556 5:-0.9047619 6:-1 7:-0.69230769 8:-1 9:0.4636016 10:0 11:0 12:0 13:-0.7962963 14:-0.74193548 15:-1 16:1 17:0 18:1 19:1 20:0 21:1 22:0 23:-1 
100 1:0.6664175 2:1 3:0 4:-0.83514559 5:-0.92969242 6:-0.96745842 7:-0.94799423 8:-0.99717752 9:0.8491379 10:0 11:0 12:0 13:-0.77777778 14:-0.96774194 15:-1 16:0.479452 17:0 18:0 19:0.44586837 20:0 21:0 22:0 23:-0.97222222 
69.52808682921862 1:0.6664175 2:1 3:0 4:-0.83514559 5:-0.92969242 6:-0.96745842 7:-0.94799423 8:-0.99717752 9:0.766407 10:0 11:0 12:1 13:-0.7962963 14:-0.93548387 15:-0.96774194 16:0.479452 17:0 18:0 19:0.44586837 20:0 21:0 22:0 23:-0.97222222 
100 1:0.6664175 2:1 3:0 4:-0.83514559 5:-0.92969242 6:-0.96745842 7:-0.94799423 8:-0.99717752 9:0.89028215 10:0 11:0 12:0 13:-0.66666667 14:-0.96774194 15:-1 16:0.7571935 17:1 18:0 19:0.17079806 20:0 21:0 22:0 23:-0.97222222 
100 1:0.6664175 2:1 3:0 4:-0.83514559 5:-0.92969242 6:-0.96745842 7:-0.94799423 8:-0.99717752 9:0.6286472 10:0 11:0 12:1 13:-0.85185185 14:-0.93548387 15:-1 16:0.7571935 17:1 18:0 19:0.43405485 20:0 21:0 22:0 23:-0.96676908 
1.407141049513691 1:0.29999995 2:0 3:0 4:-0.95555556 5:-0.95238095 6:-1 7:-0.84615385 8:-1 9:0.19540238 10:0 11:0 12:1 13:-0.90740741 14:-0.77419355 15:-0.87096774 16:1 17:0 18:1 19:0.9780513 20:0 21:0 22:1 23:-0.88888889 
100 1:0.5999999 2:0 3:0 4:-0.82222222 5:-0.9047619 6:-0.88235294 7:-1 8:-1 9:0.65517247 10:0 11:0 12:1 13:-0.94444444 14:-0.93548387 15:-0.93548387 16:1 17:0 18:1 19:1 20:0 21:1 22:0 23:-1 
100 1:0.5999999 2:0 3:0 4:-0.82222222 5:-0.9047619 6:-0.88235294 7:-1 8:-1 9:0.65517247 10:0 11:0 12:1 13:-0.94444444 14:-0.93548387 15:-0.93548387 16:1 17:0 18:1 19:1 20:0 21:1 22:0 23:-1 
38.6246048564616 1:0.7846153 2:0 3:0 4:-0.55555556 5:-0.9047619 6:-0.88235294 7:-1 8:-1 9:0.81432366 10:0 11:0 12:1 13:-0.83333333 14:-0.93548387 15:-0.93548387 16:1 17:0 18:1 19:1 20:0 21:1 22:0 23:-1 
100 1:0.7846153 2:0 3:0 4:-0.82222222 5:-0.95238095 6:-0.94117647 7:-1 8:-1 9:0.81432366 10:0 11:0 12:1 13:-0.94444444 14:-0.96774194 15:-0.96774194 16:1 17:0 18:1 19:1 20:0 21:1 22:0 23:-0.97222222 
100 1:0.6664175 2:1 3:0 4:-0.83514559 5:-0.92969242 6:-0.96745842 7:-0.94799423 8:-0.99717752 9:0.81432366 10:0 11:0 12:0 13:-0.83333333 14:-0.96774194 15:-1 16:0.7571935 17:1 18:0 19:0.97161305 20:0 21:0 22:1 23:-0.91666667 
38.80370522190915 1:0.29999995 2:0 3:0 4:-0.95555556 5:-0.95238095 6:-1 7:-0.84615385 8:-1 9:0.4173603 10:0 11:0 12:1 13:-0.85185185 14:-0.83870968 15:-0.96774194 16:1 17:0 18:1 19:1 20:0 21:1 22:0 23:-0.94444444 
1.498278508248796 1:0.79999983 2:0 3:0 4:-0.51111111 5:-0.95238095 6:-1 7:0.84615385 8:-1 9:0.8491379 10:0 11:0 12:1 13:-0.77777778 14:-0.96774194 15:-1 16:0.7571935 17:1 18:0 19:0.68359995 20:1 21:0 22:1 23:-0.91666667 
100 1:0.6664175 2:1 3:0 4:-0.83514559 5:-0.92969242 6:-0.96745842 7:-0.94799423 8:-0.99717752 9:0.7318008 10:0 11:0 12:0 13:-0.90740741 14:-0.93548387 15:-0.93548387 16:0.7571935 17:1 18:0 19:0.98769355 20:0 21:0 22:0 23:-1 
100 1:0.6664175 2:1 3:0 4:-0.83514559 5:-0.92969242 6:-0.96745842 7:-0.94799423 8:-0.99717752 9:0.6188748 10:0 11:0 12:0 13:-0.90740741 14:-0.90322581 15:-0.90322581 16:0.7571935 17:1 18:0 19:0.44802868 20:0 21:0 22:0 23:-1 
100 1:0.6664175 2:1 3:0 4:-0.83514559 5:-0.92969242 6:-0.96745842 7:-0.94799423 8:-0.99717752 9:0.5172415 10:0 11:0 12:0 13:-0.90740741 14:-0.87096774 15:-0.87096774 16:0.7446809 17:0 18:0 19:0.7282088 20:0 21:0 22:0 23:-1 
51.34015564375976 1:0.6664175 2:1 3:0 4:-0.83514559 5:-0.92969242 6:-0.96745842 7:-0.94799423 8:-0.99717752 9:0.7586206 10:0 11:0 12:0 13:-0.88888889 14:-0.93548387 15:-0.93548387 16:0.7571935 17:1 18:0 19:0.58981955 20:0 21:0 22:1 23:-0.86111111 
100 1:0.6664175 2:1 3:0 4:-0.83514559 5:-0.92969242 6:-0.96745842 7:-0.94799423 8:-0.99717752 9:0.65517247 10:0 11:0 12:0 13:-0.94444444 14:-0.93548387 15:-0.93548387 16:1 17:0 18:1 19:1 20:0 21:1 22:0 23:-1 
51.7374714356184 1:0.6664175 2:1 3:0 4:-0.83514559 5:-0.92969242 6:-0.96745842 7:-0.94799423 8:-0.99717752 9:-0.0820452 10:0 11:0 12:0 13:-0.90740741 14:-0.58064516 15:-0.58064516 16:1 17:0 18:1 19:1 20:0 21:1 22:1 23:-0.91666667 
36.18243440379924 1:0.06666672 2:0 3:0 4:-0.95555556 5:-0.9047619 6:-0.94117647 7:-1 8:-1 9:0.61067843 10:0 11:0 12:0 13:-0.81481481 14:-0.87096774 15:-0.90322581 16:1 17:0 18:1 19:0.8986176 20:0 21:0 22:1 23:-0.91666667 
11.45236117320706 1:0.43999994 2:0 3:0 4:-0.91111111 5:-0.95238095 6:-1 7:-0.84615385 8:-1 9:0.5172415 10:0 11:0 12:0 13:-0.7962963 14:-0.87096774 15:-0.96774194 16:0.71428573 17:0 18:0 19:0.9849006 20:0 21:0 22:1 23:-0.80555556 
100 1:0.41886795 2:0 3:0 4:-0.15555556 5:-0.61904762 6:-0.70588235 7:-1 8:-1 9:0.60225636 10:1 11:0 12:1 13:-0.85821357 14:-0.89946629 15:-0.94473468 16:0.7571935 17:1 18:0 19:0.68359995 20:1 21:0 22:0 23:-1 
100 1:0.26956522 2:0 3:0 4:-0.33333333 5:-0.42857143 6:-0.29411765 7:-1 8:-1 9:0.60225636 10:1 11:0 12:1 13:-0.85821357 14:-0.89946629 15:-0.94473468 16:0.7571935 17:1 18:0 19:0.68359995 20:1 21:0 22:0 23:-1 
100 1:0.6664175 2:1 3:0 4:-0.83514559 5:-0.92969242 6:-0.96745842 7:-0.94799423 8:-0.99717752 9:0.4752624 10:0 11:0 12:0 13:-0.88888889 14:-0.90322581 15:-0.96774194 16:0.7571935 17:1 18:0 19:1 20:0 21:1 22:0 23:-1 
7.184846998902052 1:0.21600008 2:0 3:0 4:-0.28888889 5:-0.33333333 6:-0.17647059 7:-1 8:-1 9:0.60225636 10:1 11:0 12:1 13:-0.85821357 14:-0.89946629 15:-0.94473468 16:0.7571935 17:1 18:0 19:0.68359995 20:1 21:0 22:0 23:-1 
100 1:0.3393258 2:0 3:0 4:0.42222222 5:-0.095238095 6:0 7:-1 8:-1 9:0.60225636 10:1 11:0 12:1 13:-0.85821357 14:-0.89946629 15:-0.94473468 16:0.7571935 17:1 18:0 19:0.68359995 20:1 21:0 22:0 23:-1 
53.52150182376761 1:0.5333332 2:0 3:0 4:-0.86666667 5:-0.95238095 6:-1 7:-0.84615385 8:-1 9:0.5977011 10:0 11:0 12:0 13:-0.77777778 14:-0.83870968 15:-0.93548387 16:1 17:0 18:1 19:1 20:0 21:1 22:0 23:-1 
100 1:0.6664175 2:1 3:0 4:-0.83514559 5:-0.92969242 6:-0.96745842 7:-0.94799423 8:-0.99717752 9:0.7805643 10:0 11:0 12:0 13:-0.87037037 14:-0.96774194 15:-1 16:0.76744187 17:0 18:0 19:0.7524382 20:0 21:0 22:0 23:-0.94444444 
100 1:0.6664175 2:1 3:0 4:-0.83514559 5:-0.92969242 6:-0.96745842 7:-0.94799423 8:-0.99717752 9:0.6982759 10:0 11:0 12:0 13:-0.92592593 14:-0.93548387 15:-0.93548387 16:0.76744187 17:0 18:0 19:0.7524382 20:0 21:0 22:0 23:-1 
100 1:0.6664175 2:1 3:0 4:-0.83514559 5:-0.92969242 6:-0.96745842 7:-0.94799423 8:-0.99717752 9:0.6982759 10:0 11:0 12:0 13:-0.92592593 14:-0.96774194 15:-1 16:1 17:0 18:1 19:1 20:0 21:1 22:0 23:-0.94444444 
17.018649190198 1:-0.09565228 2:0 3:0 4:-0.46666667 5:-0.19047619 6:-0.88235294 7:-1 8:-1 9:0.055472255 10:0 11:0 12:0 13:-0.7962963 14:-0.4516129 15:-0.93548387 16:0.24590158 17:0 18:0 19:0.19725013 20:0 21:0 22:0 23:-0.97222222 
100 1:0.6664175 2:1 3:0 4:-0.83514559 5:-0.92969242 6:-0.96745842 7:-0.94799423 8:-0.99717752 9:0.6982759 10:0 11:0 12:0 13:-0.92592593 14:-0.93548387 15:-0.93548387 16:0.7571935 17:1 18:0 19:1 20:0 21:0 22:0 23:-1 
1.017964683470435 1:-0.12000001 2:0 3:0 4:-0.95555556 5:-0.85714286 6:-1 7:-1 8:-1 9:0.9106003 10:0 11:0 12:1 13:-0.81481481 14:-0.96774194 15:-0.96774194 16:0.9354838 17:0 18:0 19:0.68359995 20:1 21:0 22:0 23:-1 
37.22329726287311 1:0.6664175 2:1 3:0 4:-0.83514559 5:-0.92969242 6:-0.96745842 7:-0.94799423 8:-0.99717752 9:0.2758621 10:0 11:0 12:0 13:-0.92592593 14:-0.80645161 15:-0.80645161 16:0.97183096 17:0 18:0 19:1 20:0 21:1 22:0 23:-1 
8.913748776364011 1:0.6664175 2:1 3:0 4:-0.83514559 5:-0.92969242 6:-0.96745842 7:-0.94799423 8:-0.99717752 9:0.3416928 10:0 11:0 12:1 13:-0.90740741 14:-0.80645161 15:-0.80645161 16:1 17:0 18:1 19:1 20:0 21:1 22:0 23:-1 
100 1:0.6664175 2:1 3:0 4:-0.83514559 5:-0.92969242 6:-0.96745842 7:-0.94799423 8:-0.99717752 9:0.7805643 10:0 11:0 12:0 13:-0.87037037 14:-0.96774194 15:-1 16:0.7571935 17:1 18:0 19:1 20:0 21:1 22:1 23:-0.91666667 
100 1:0.6664175 2:1 3:0 4:-0.83514559 5:-0.92969242 6:-0.96745842 7:-0.94799423 8:-0.99717752 9:0.7805643 10:0 11:0 12:0 13:-0.87037037 14:-0.96774194 15:-1 16:0.7571935 17:1 18:0 19:1 20:0 21:1 22:0 23:-1 
100 1:0.6664175 2:1 3:0 4:-0.83514559 5:-0.92969242 6:-0.96745842 7:-0.94799423 8:-0.99717752 9:0.11070776 10:0 11:0 12:0 13:-0.94444444 14:-0.80645161 15:-0.83870968 16:0.7571935 17:1 18:0 19:1 20:0 21:1 22:0 23:-0.97222222 
100 1:0.6664175 2:1 3:0 4:-0.83514559 5:-0.92969242 6:-0.96745842 7:-0.94799423 8:-0.99717752 9:0.25729454 10:0 11:0 12:0 13:-0.88888889 14:-0.74193548 15:-0.74193548 16:0.7571935 17:1 18:0 19:0.89698243 20:0 21:0 22:0 23:-0.97222222 
19.99101199468721 1:0.6664175 2:1 3:0 4:-0.83514559 5:-0.92969242 6:-0.96745842 7:-0.94799423 8:-0.99717752 9:0.7318008 10:0 11:0 12:1 13:-0.90740741 14:-0.93548387 15:-0.93548387 16:1 17:0 18:1 19:1 20:0 21:1 22:1 23:-0.91666667 
100 1:0.6664175 2:1 3:0 4:-0.83514559 5:-0.92969242 6:-0.96745842 7:-0.94799423 8:-0.99717752 9:0.6982759 10:0 11:0 12:0 13:-0.92592593 14:-0.93548387 15:-0.93548387 16:1 17:0 18:1 19:1 20:0 21:1 22:0 23:-1 
21.98214612018318 1:0.6664175 2:1 3:0 4:-0.83514559 5:-0.92969242 6:-0.96745842 7:-0.94799423 8:-0.99717752 9:0.7318008 10:0 11:0 12:0 13:-0.90740741 14:-0.93548387 15:-0.93548387 16:1 17:0 18:1 19:1 20:0 21:1 22:0 23:-1 
100 1:0.6664175 2:1 3:0 4:-0.83514559 5:-0.92969242 6:-0.96745842 7:-0.94799423 8:-0.99717752 9:0.0060852766 10:0 11:0 12:0 13:-0.96296296 14:-0.77419355 15:-0.96774194 16:0.7571935 17:1 18:0 19:0.95161307 20:0 21:0 22:0 23:-1 
30.39209432596937 1:0.39999986 2:0 3:0 4:-0.6 5:-0.71428571 6:-0.76470588 7:-1 8:-1 9:0.5530013 10:0 11:0 12:1 13:-0.85185185 14:-0.83870968 15:-0.83870968 16:0.8666667 17:0 18:0 19:0.85806465 20:0 21:0 22:0 23:-1 
99.81644623030344 1:0.5333332 2:0 3:0 4:-0.86666667 5:-0.95238095 6:-1 7:-0.84615385 8:-1 9:1 10:0 11:1 12:1 13:-0.7962963 14:-1 15:-1 16:-0.04000002 17:0 18:0 19:-0.19758058 20:0 21:0 22:0 23:-1 
100 1:0.6664175 2:1 3:0 4:-0.83514559 5:-0.92969242 6:-0.96745842 7:-0.94799423 8:-0.99717752 9:0.7586206 10:0 11:0 12:0 13:-0.88888889 14:-0.93548387 15:-0.93548387 16:0.7571935 17:1 18:0 19:0.62428856 20:0 21:0 22:0 23:-1 
100 1:0.6664175 2:1 3:0 4:-0.83514559 5:-0.92969242 6:-0.96745842 7:-0.94799423 8:-0.99717752 9:0.39655173 10:0 11:0 12:0 13:-0.94444444 14:-0.93548387 15:-1 16:1 17:0 18:1 19:1 20:0 21:1 22:0 23:-0.94444444 
89.27134916357465 1:0.6664175 2:1 3:0 4:-0.83514559 5:-0.92969242 6:-0.96745842 7:-0.94799423 8:-0.99717752 9:-0.20689654 10:0 11:0 12:0 13:-0.96296296 14:-0.67741935 15:-1 16:0.7571935 17:1 18:0 19:0.8273759 20:0 21:0 22:0 23:-0.96676908 
100 1:0.6664175 2:1 3:0 4:-0.83514559 5:-0.92969242 6:-0.96745842 7:-0.94799423 8:-0.99717752 9:0.5611285 10:0 11:0 12:0 13:-0.88888889 14:-0.93548387 15:-1 16:0.7571935 17:1 18:0 19:1 20:0 21:1 22:0 23:-1 
2.05899733632423 1:0.48148143 2:0 3:0 4:-0.6 5:-0.76190476 6:-0.70588235 7:-1 8:-1 9:0.049111843 10:0 11:0 12:0 13:-0.68518519 14:-0.16129032 15:-0.16129032 16:0.7571935 17:1 18:0 19:0.68359995 20:1 21:0 22:0 23:-1 
100 1:0.45806444 2:0 3:0 4:0.022222222 5:-0.57142857 6:-0.64705882 7:-1 8:-1 9:0.60225636 10:1 11:0 12:1 13:-0.85821357 14:-0.89946629 15:-0.94473468 16:0.7571935 17:1 18:0 19:0.68359995 20:1 21:0 22:0 23:-1 
100 1:0.43999994 2:0 3:0 4:-0.91111111 5:-0.95238095 6:-1 7:-0.84615385 8:-1 9:1 10:0 11:1 12:1 13:-0.7962963 14:-1 15:-1 16:0.5757576 17:0 18:0 19:0.6688173 20:0 21:0 22:0 23:-1 
100 1:0.43999994 2:0 3:0 4:-0.91111111 5:-0.95238095 6:-1 7:-0.84615385 8:-1 9:0.60225636 10:1 11:0 12:1 13:-0.85821357 14:-0.89946629 15:-0.94473468 16:0.69696975 17:0 18:0 19:0.68359995 20:1 21:0 22:0 23:-0.97222222 
10.97209276611429 1:0.6888888 2:0 3:0 4:-0.91111111 5:-0.95238095 6:-0.94117647 7:-1 8:-1 9:0.2653674 10:0 11:0 12:0 13:-0.90740741 14:-0.87096774 15:-0.96774194 16:0.71428573 17:0 18:0 19:1 20:0 21:1 22:0 23:-1 
100 1:0.6664175 2:1 3:0 4:-0.83514559 5:-0.92969242 6:-0.96745842 7:-0.94799423 8:-0.99717752 9:0.5172415 10:0 11:0 12:0 13:-0.90740741 14:-0.93548387 15:-1 16:0.7571935 17:1 18:0 19:1 20:0 21:0 22:0 23:-1 
64.75370359284118 1:0.06666672 2:0 3:0 4:-0.95555556 5:-0.9047619 6:-0.94117647 7:-1 8:-1 9:1 10:0 11:1 12:1 13:-0.75925926 14:-1 15:-1 16:0.84615386 17:0 18:0 19:0.9391706 20:0 21:0 22:0 23:-0.97222222 
100 1:0.29999995 2:0 3:0 4:-0.95555556 5:-0.95238095 6:-1 7:-0.84615385 8:-1 9:0.016602874 10:0 11:0 12:0 13:-0.90740741 14:-0.77419355 15:-0.96774194 16:0.6 17:0 18:0 19:0.42679906 20:0 21:0 22:0 23:-0.97222222 
53.38059562667011 1:0.6888888 2:0 3:0 4:-0.91111111 5:-0.95238095 6:-0.94117647 7:-1 8:-1 9:0.44297087 10:0 11:0 12:0 13:-0.87037037 14:-0.90322581 15:-1 16:0.7571935 17:1 18:0 19:0.42390907 20:0 21:0 22:0 23:-1 
100 1:0.7103449 2:0 3:0 4:0.066666667 5:-0.76190476 6:-0.88235294 7:-1 8:-1 9:0.60225636 10:1 11:0 12:1 13:-0.85821357 14:-0.89946629 15:-0.94473468 16:0.7571935 17:1 18:0 19:0.68359995 20:1 21:0 22:0 23:-1 
100 1:0.7103449 2:0 3:0 4:0.066666667 5:-0.76190476 6:-0.88235294 7:-1 8:-1 9:0.60225636 10:1 11:0 12:1 13:-0.85821357 14:-0.89946629 15:-0.94473468 16:0.7571935 17:1 18:0 19:0.68359995 20:1 21:0 22:0 23:-1 
100 1:0.29999995 2:0 3:0 4:-0.95555556 5:-0.95238095 6:-1 7:-0.84615385 8:-1 9:1 10:0 11:1 12:1 13:-0.77777778 14:-1 15:-1 16:0.09090912 17:0 18:0 19:0.31566823 20:0 21:0 22:0 23:-1 
100 1:0.6664175 2:1 3:0 4:-0.83514559 5:-0.92969242 6:-0.96745842 7:-0.94799423 8:-0.99717752 9:0.65517247 10:0 11:0 12:0 13:-0.77777778 14:-0.83870968 15:-0.96774194 16:0.7571935 17:1 18:0 19:0.7290324 20:0 21:0 22:0 23:-1 
100 1:0.6664175 2:1 3:0 4:-0.83514559 5:-0.92969242 6:-0.96745842 7:-0.94799423 8:-0.99717752 9:0.5977011 10:0 11:0 12:0 13:-0.77777778 14:-0.80645161 15:-1 16:0.7571935 17:1 18:0 19:0.7290324 20:0 21:0 22:0 23:-1 
100 1:0.43999994 2:0 3:0 4:-0.91111111 5:-0.95238095 6:-1 7:-0.84615385 8:-1 9:0.36479127 10:0 11:0 12:0 13:-0.92592593 14:-0.90322581 15:-0.96774194 16:1 17:0 18:1 19:0.22822583 20:0 21:0 22:0 23:-1 
64.10776752334624 1:0.6888888 2:0 3:0 4:-0.91111111 5:-0.95238095 6:-0.94117647 7:-1 8:-1 9:0.5838288 10:0 11:0 12:0 13:-0.83333333 14:-0.90322581 15:-0.96774194 16:1 17:0 18:1 19:0.9074335 20:0 21:0 22:0 23:-1 
100 1:0.29999995 2:0 3:0 4:-0.95555556 5:-0.95238095 6:-1 7:-1 8:-1 9:0.37420177 10:0 11:0 12:0 13:-0.87037037 14:-0.80645161 15:-0.96774194 16:0.8947369 17:0 18:0 19:0.9645163 20:0 21:0 22:0 23:-0.97222222 
100 1:0.6664175 2:1 3:0 4:-0.83514559 5:-0.92969242 6:-0.96745842 7:-0.94799423 8:-0.99717752 9:0.32413805 10:0 11:0 12:0 13:-0.88888889 14:-0.77419355 15:-0.90322581 16:0.5 17:0 18:0 19:0.46774197 20:0 21:0 22:0 23:-0.97222222 
22.84636433851628 1:0.43999994 2:0 3:0 4:-0.91111111 5:-0.95238095 6:-1 7:-0.84615385 8:-1 9:0.39655173 10:0 11:0 12:1 13:-0.88888889 14:-0.80645161 15:-0.80645161 16:1 17:0 18:1 19:0.896649 20:0 21:0 22:0 23:-0.97222222 
100 1:0.6664175 2:1 3:0 4:-0.83514559 5:-0.92969242 6:-0.96745842 7:-0.94799423 8:-0.99717752 9:0.19540238 10:0 11:0 12:0 13:-0.90740741 14:-0.74193548 15:-0.87096774 16:0.7571935 17:1 18:0 19:0.0806452 20:0 21:0 22:0 23:-0.97222222 
100 1:0.06666672 2:0 3:0 4:-0.95555556 5:-0.9047619 6:-0.94117647 7:-1 8:-1 9:0.4918331 10:0 11:0 12:0 13:-0.77777778 14:-0.74193548 15:-1 16:1 17:0 18:1 19:1 20:0 21:1 22:0 23:-1 
3.75770788566188 1:0.06666672 2:0 3:0 4:-0.95555556 5:-0.9047619 6:-0.94117647 7:-1 8:-1 9:0.69053936 10:0 11:0 12:1 13:-0.74074074 14:-0.90322581 15:-0.96774194 16:1 17:0 18:1 19:1 20:0 21:1 22:0 23:-1 
68.31653925915826 1:0.29999995 2:0 3:0 4:-0.95555556 5:-0.95238095 6:-1 7:-0.84615385 8:-1 9:0.5530013 10:0 11:0 12:1 13:-0.85185185 14:-0.90322581 15:-0.96774194 16:1 17:0 18:1 19:1 20:0 21:1 22:0 23:-0.94444444 
4.265267752746355 1:0.74545443 2:0 3:0 4:-0.86666667 5:-0.95238095 6:-0.94117647 7:-1 8:-1 9:0.39655173 10:0 11:0 12:0 13:-0.83333333 14:-0.74193548 15:-0.74193548 16:-0.3333333 17:0 18:0 19:-0.57706094 20:0 21:0 22:0 23:-1 
100 1:0.29999995 2:0 3:0 4:-0.95555556 5:-0.95238095 6:-1 7:-0.84615385 8:-1 9:0.11070776 10:0 11:0 12:0 13:-0.94444444 14:-0.83870968 15:-0.96774194 16:1 17:0 18:1 19:1 20:0 21:1 22:1 23:-0.91666667 
100 1:0.29999995 2:0 3:0 4:-0.95555556 5:-0.95238095 6:-1 7:-0.84615385 8:-1 9:1 10:0 11:1 12:1 13:-0.7962963 14:-1 15:-1 16:0.25 17:0 18:0 19:0.7524382 20:0 21:0 22:0 23:-1 
100 1:0.5692308 2:0 3:0 4:-0.6 5:-0.9047619 6:-1 7:-1 8:-1 9:0.6286472 10:0 11:0 12:0 13:-0.85185185 14:-0.93548387 15:-1 16:1 17:0 18:1 19:1 20:0 21:1 22:0 23:-1 
100 1:0.51724136 2:0 3:0 4:-0.55555556 5:-0.76190476 6:-0.94117647 7:-1 8:-1 9:0.5838288 10:0 11:0 12:0 13:-0.83333333 14:-0.83870968 15:-0.96774194 16:0.9375 17:0 18:0 19:0.93346786 20:0 21:0 22:0 23:-1 
18.03574957467431 1:0.90967715 2:0 3:0 4:-0.42222222 5:-0.95238095 6:-0.94117647 7:-1 8:-1 9:0.9221356 10:0 11:0 12:0 13:-0.77777778 14:-0.96774194 15:-0.96774194 16:0.9375 17:0 18:0 19:0.93346786 20:0 21:0 22:0 23:-1 
26.4802905177898 1:-0.19999999 2:0 3:0 4:-1 5:-0.85714286 6:-0.82352941 7:-1 8:-1 9:0.60225636 10:1 11:0 12:1 13:-0.85821357 14:-0.89946629 15:-0.94473468 16:0.79999995 17:0 18:0 19:0.68359995 20:1 21:0 22:0 23:-1 
21.38951007811132 1:0.43999994 2:0 3:0 4:-0.91111111 5:-0.9047619 6:-1 7:-0.69230769 8:-1 9:0.31034493 10:0 11:0 12:1 13:-0.87037037 14:-0.77419355 15:-0.80645161 16:1 17:0 18:1 19:0.68359995 20:1 21:0 22:0 23:-1 
100 1:0.6664175 2:1 3:0 4:-0.83514559 5:-0.92969242 6:-0.96745842 7:-0.94799423 8:-0.99717752 9:0.5172415 10:0 11:0 12:0 13:-0.90740741 14:-0.90322581 15:-0.93548387 16:0.7571935 17:1 18:0 19:1 20:0 21:0 22:0 23:-0.97222222 
100 1:0.38536572 2:0 3:0 4:-0.37777778 5:-0.61904762 6:-0.70588235 7:-0.84615385 8:-1 9:0.60225636 10:1 11:0 12:1 13:-0.85821357 14:-0.89946629 15:-0.94473468 16:0.7571935 17:1 18:0 19:0.68359995 20:1 21:0 22:0 23:-1 
7.642500724699659 1:0.6664175 2:1 3:0 4:-0.83514559 5:-0.92969242 6:-0.96745842 7:-0.94799423 8:-0.99717752 9:0.5172415 10:0 11:0 12:1 13:-0.87037037 14:-0.90322581 15:-0.96774194 16:0.7571935 17:1 18:0 19:0.7067801 20:0 21:0 22:1 23:-0.86111111 
100 1:0.06666672 2:0 3:0 4:-1 5:-0.95238095 6:-1 7:-0.84615385 8:-1 9:1 10:0 11:1 12:1 13:-0.7962963 14:-1 15:-1 16:0 17:0 18:0 19:0.39490676 20:0 21:0 22:0 23:-0.97222222 
100 1:0.06666672 2:0 3:0 4:-1 5:-0.95238095 6:-1 7:-0.84615385 8:-1 9:1 10:0 11:1 12:1 13:-0.7962963 14:-1 15:-1 16:0 17:0 18:0 19:0.39490676 20:0 21:0 22:0 23:-0.97222222 
100 1:0.29999995 2:0 3:0 4:-0.95555556 5:-0.95238095 6:-1 7:-0.84615385 8:-1 9:0.6286472 10:0 11:0 12:1 13:-0.85185185 14:-0.93548387 15:-1 16:0.41176474 17:0 18:0 19:0.29032266 20:0 21:0 22:0 23:-1 
95.64419960285323 1:-0.4933334 2:0 3:0 4:-0.77777778 5:-0.52380952 6:-1 7:-0.69230769 8:-1 9:-0.2778905 10:0 11:0 12:0 13:-0.90740741 14:-0.5483871 15:-1 16:1 17:0 18:1 19:1 20:0 21:1 22:0 23:-0.97222222 
30.47623604703933 1:0.6664175 2:1 3:0 4:-0.83514559 5:-0.92969242 6:-0.96745842 7:-0.94799423 8:-0.99717752 9:0.38251805 10:0 11:0 12:0 13:-0.75925926 14:-0.64516129 15:-0.90322581 16:0.7571935 17:1 18:0 19:0.84111714 20:0 21:0 22:0 23:-1 
40.33170803423666 1:-0.19999999 2:0 3:0 4:-0.91111111 5:-0.80952381 6:-0.88235294 7:-1 8:-1 9:0.7805643 10:0 11:0 12:1 13:-0.87037037 14:-0.96774194 15:-1 16:0.84615386 17:0 18:0 19:0.8685783 20:0 21:0 22:0 23:-1 
2.530327937149773 1:1 2:0 3:1 4:-0.86666667 5:-1 6:-1 7:-1 8:-1 9:0.5530013 10:0 11:0 12:0 13:-0.85185185 14:-0.90322581 15:-0.96774194 16:0.06666672 17:0 18:0 19:0.9057951 20:0 21:0 22:0 23:-0.97222222 
100 1:0.6664175 2:1 3:0 4:-0.83514559 5:-0.92969242 6:-0.96745842 7:-0.94799423 8:-0.99717752 9:0.42528737 10:0 11:0 12:0 13:-0.90740741 14:-0.83870968 15:-0.96774194 16:0.8571428 17:0 18:0 19:0.84792626 20:0 21:0 22:0 23:-1 
14.76446968682187 1:0.5999999 2:0 3:0 4:-0.95555556 5:-0.95238095 6:-0.94117647 7:-1 8:-1 9:0.6342739 10:0 11:0 12:0 13:-0.7962963 14:-0.90322581 15:-0.96774194 16:0.1428572 17:0 18:0 19:1 20:0 21:1 22:0 23:-1 
55.06779853482082 1:0.6664175 2:1 3:0 4:-0.83514559 5:-0.92969242 6:-0.96745842 7:-0.94799423 8:-0.99717752 9:0.8491379 10:0 11:0 12:0 13:-0.77777778 14:-0.93548387 15:-0.93548387 16:0.7571935 17:1 18:0 19:0.05012417 20:0 21:0 22:0 23:-1 
0.8703113262958342 1:0.6888888 2:0 3:0 4:-0.91111111 5:-0.95238095 6:-0.94117647 7:-1 8:-1 9:0.19540238 10:0 11:0 12:1 13:-0.92592593 14:-0.80645161 15:-0.83870968 16:1 17:0 18:1 19:-0.7032258 20:0 21:0 22:0 23:-1 
1.508218556934396 1:0.6888888 2:0 3:0 4:-0.91111111 5:-0.95238095 6:-0.94117647 7:-1 8:-1 9:-0.0057471395 10:0 11:0 12:1 13:-0.92592593 14:-0.80645161 15:-0.93548387 16:1 17:0 18:1 19:-0.7032258 20:0 21:0 22:0 23:-1 
35.14817153424008 1:1 2:0 3:1 4:-0.86666667 5:-1 6:-1 7:-1 8:-1 9:0.9221356 10:0 11:0 12:1 13:-0.77777778 14:-0.96774194 15:-0.96774194 16:-0.36842108 17:0 18:0 19:0.9211471 20:0 21:0 22:0 23:-0.97222222 
14.70306628624566 1:0.6664175 2:1 3:0 4:-0.83514559 5:-0.92969242 6:-0.96745842 7:-0.94799423 8:-0.99717752 9:0.44297087 10:0 11:0 12:1 13:-0.87037037 14:-0.83870968 15:-0.87096774 16:0.7571935 17:1 18:0 19:0.87738574 20:0 21:0 22:0 23:-1 
19.35943646682787 1:0.06666672 2:0 3:0 4:-1 5:-0.95238095 6:-1 7:-0.84615385 8:-1 9:0.83908045 10:0 11:0 12:1 13:-0.7962963 14:-0.96774194 15:-1 16:0.73333335 17:0 18:0 19:1 20:0 21:1 22:0 23:-1 
82.91140034092655 1:0.29999995 2:0 3:0 4:-0.95555556 5:-0.95238095 6:-1 7:-0.84615385 8:-1 9:1 10:0 11:1 12:1 13:-0.74074074 14:-1 15:-1 16:0.33333337 17:0 18:0 19:0.29032266 20:0 21:0 22:0 23:-0.97222222 
100 1:0.29999995 2:0 3:0 4:-0.95555556 5:-0.95238095 6:-1 7:-0.84615385 8:-1 9:0.25729454 10:0 11:0 12:0 13:-0.88888889 14:-0.80645161 15:-0.93548387 16:1 17:0 18:1 19:0.6899469 20:0 21:0 22:0 23:-0.97222222 
1.662580180584542 1:-0.24444443 2:0 3:0 4:-0.86666667 5:-0.66666667 6:-1 7:-1 8:-1 9:0.07161808 10:0 11:0 12:0 13:-0.90740741 14:-0.67741935 15:-1 16:0.8666667 17:0 18:0 19:1 20:0 21:1 22:0 23:-0.97222222 
1.568318766729062 1:0.06666672 2:0 3:0 4:-0.95555556 5:-0.9047619 6:-0.94117647 7:-0.84615385 8:-1 9:1 10:0 11:1 12:1 13:-0.77777778 14:-1 15:-1 16:0.25 17:0 18:0 19:1 20:0 21:0 22:0 23:-1 
42.28538269636712 1:0.29999995 2:0 3:0 4:-0.95555556 5:-0.95238095 6:-1 7:-0.84615385 8:-1 9:0.37420177 10:0 11:0 12:1 13:-0.87037037 14:-0.83870968 15:-0.90322581 16:0.88235295 17:0 18:0 19:0.97305036 20:0 21:0 22:0 23:-0.94444444 
100 1:0.6664175 2:1 3:0 4:-0.83514559 5:-0.92969242 6:-0.96745842 7:-0.94799423 8:-0.99717752 9:0.5530013 10:0 11:0 12:0 13:-0.85185185 14:-0.83870968 15:-0.83870968 16:0.7571935 17:1 18:0 19:0.9519769 20:0 21:0 22:0 23:-1 
16.95942860301697 1:0.6664175 2:1 3:0 4:-0.83514559 5:-0.92969242 6:-0.96745842 7:-0.94799423 8:-0.99717752 9:0.613793 10:0 11:0 12:1 13:-0.66666667 14:-0.80645161 15:-0.87096774 16:0.7571935 17:1 18:0 19:0.48609567 20:0 21:0 22:0 23:-1 
100 1:0.29999995 2:0 3:0 4:-0.95555556 5:-0.95238095 6:-1 7:-0.84615385 8:-1 9:0.13793099 10:0 11:0 12:0 13:-0.88888889 14:-0.77419355 15:-0.93548387 16:1 17:0 18:1 19:1 20:0 21:1 22:0 23:-1 
100 1:0.29999995 2:0 3:0 4:-0.95555556 5:-0.95238095 6:-1 7:-0.84615385 8:-1 9:0.13793099 10:0 11:0 12:0 13:-0.88888889 14:-0.77419355 15:-0.93548387 16:1 17:0 18:1 19:1 20:0 21:1 22:0 23:-1 
100 1:0.29999995 2:0 3:0 4:-0.95555556 5:-0.9047619 6:-1 7:-0.69230769 8:-1 9:0.4636016 10:0 11:0 12:0 13:-0.7962963 14:-0.87096774 15:-1 16:1 17:0 18:1 19:1 20:0 21:1 22:0 23:-0.97222222 
100 1:0.6664175 2:1 3:0 4:-0.83514559 5:-0.92969242 6:-0.96745842 7:-0.94799423 8:-0.99717752 9:0.42528737 10:0 11:0 12:0 13:-0.90740741 14:-0.83870968 15:-0.96774194 16:0.7571935 17:1 18:0 19:0.26221657 20:0 21:0 22:0 23:-1 
100 1:0.6664175 2:1 3:0 4:-0.83514559 5:-0.92969242 6:-0.96745842 7:-0.94799423 8:-0.99717752 9:0.6982759 10:0 11:0 12:0 13:-0.92592593 14:-0.93548387 15:-0.93548387 16:0.5862069 17:0 18:0 19:0.5595107 20:0 21:0 22:0 23:-1 
100 1:0.6664175 2:1 3:0 4:-0.83514559 5:-0.92969242 6:-0.96745842 7:-0.94799423 8:-0.99717752 9:0.6982759 10:0 11:0 12:0 13:-0.92592593 14:-0.93548387 15:-0.93548387 16:0.5862069 17:0 18:0 19:0.5595107 20:0 21:0 22:0 23:-1 
0.9886168423871476 1:1 2:0 3:1 4:-0.91111111 5:-1 6:-1 7:-1 8:-1 9:0.81432366 10:0 11:0 12:1 13:-0.83333333 14:-0.96774194 15:-1 16:0.7571935 17:1 18:0 19:0.69185066 20:0 21:0 22:0 23:-0.97222222 
100 1:0.6664175 2:1 3:0 4:-0.83514559 5:-0.92969242 6:-0.96745842 7:-0.94799423 8:-0.99717752 9:0.37420177 10:0 11:0 12:0 13:-0.87037037 14:-0.77419355 15:-0.90322581 16:0.84615386 17:0 18:0 19:0.8362284 20:0 21:0 22:0 23:-0.97222222 
63.06749831688219 1:0.29999995 2:0 3:0 4:-0.95555556 5:-0.95238095 6:-1 7:-0.84615385 8:-1 9:1 10:0 11:1 12:1 13:-0.81481481 14:-1 15:-1 16:-0.39999998 17:0 18:0 19:-0.0084888935 20:0 21:0 22:0 23:-1 
1.331231963843937 1:0.6664175 2:1 3:0 4:-0.83514559 5:-0.92969242 6:-0.96745842 7:-0.94799423 8:-0.99717752 9:0.7318008 10:0 11:0 12:1 13:-0.90740741 14:-0.96774194 15:-1 16:0.87096775 17:0 18:0 19:0.8626431 20:0 21:0 22:1 23:-0.86111111 
100 1:0.29999995 2:0 3:0 4:-0.95555556 5:-0.95238095 6:-1 7:-0.84615385 8:-1 9:1 10:0 11:1 12:1 13:-0.81481481 14:-1 15:-1 16:1 17:0 18:1 19:0.7140107 20:0 21:0 22:0 23:-1 
100 1:0.29999995 2:0 3:0 4:-0.95555556 5:-0.95238095 6:-1 7:-0.84615385 8:-1 9:0.32413805 10:0 11:0 12:0 13:-0.88888889 14:-0.87096774 15:-0.96774194 16:1 17:0 18:1 19:1 20:0 21:1 22:0 23:-1 
100 1:0.29999995 2:0 3:0 4:-0.95555556 5:-0.95238095 6:-1 7:-0.84615385 8:-1 9:0.32413805 10:0 11:0 12:0 13:-0.88888889 14:-0.87096774 15:-0.96774194 16:1 17:0 18:1 19:1 20:0 21:1 22:0 23:-1 
100 1:0.6664175 2:1 3:0 4:-0.83514559 5:-0.92969242 6:-0.96745842 7:-0.94799423 8:-0.99717752 9:0.19540238 10:0 11:0 12:0 13:-0.92592593 14:-0.80645161 15:-0.83870968 16:0.7571935 17:1 18:0 19:0.7514329 20:0 21:0 22:0 23:-1 
38.13189934811391 1:0.23636365 2:0 3:0 4:-0.91111111 5:-0.9047619 6:-0.94117647 7:-0.84615385 8:-1 9:0.9034482 10:0 11:0 12:1 13:-0.83333333 14:-0.96774194 15:-0.96774194 16:1 17:0 18:1 19:0.55438876 20:0 21:0 22:0 23:-1 
100 1:0.6664175 2:1 3:0 4:-0.83514559 5:-0.92969242 6:-0.96745842 7:-0.94799423 8:-0.99717752 9:0.35632193 10:0 11:0 12:0 13:-0.85185185 14:-0.80645161 15:-0.93548387 16:0.7571935 17:1 18:0 19:0.97235036 20:0 21:0 22:0 23:-0.97222222 
100 1:0.6664175 2:1 3:0 4:-0.83514559 5:-0.92969242 6:-0.96745842 7:-0.94799423 8:-0.99717752 9:0.35632193 10:0 11:0 12:0 13:-0.85185185 14:-0.80645161 15:-0.93548387 16:0.7571935 17:1 18:0 19:0.97235036 20:0 21:0 22:0 23:-0.97222222 
100 1:0.43999994 2:0 3:0 4:-0.91111111 5:-0.95238095 6:-1 7:-0.84615385 8:-1 9:0.81432366 10:0 11:0 12:1 13:-0.94444444 14:-0.96774194 15:-0.96774194 16:0.71428573 17:0 18:0 19:0.84635854 20:0 21:0 22:0 23:-1 
100 1:0.6664175 2:1 3:0 4:-0.83514559 5:-0.92969242 6:-0.96745842 7:-0.94799423 8:-0.99717752 9:0.2653674 10:0 11:0 12:0 13:-0.90740741 14:-0.77419355 15:-0.90322581 16:0.28395057 17:0 18:0 19:0.23775387 20:0 21:0 22:0 23:-1 
2.519062056443671 1:0.0064514875 2:0 3:0 4:-0.64444444 5:-0.47619048 6:-0.35294118 7:-1 8:-1 9:0.15191042 10:0 11:0 12:1 13:-0.83333333 14:-0.58064516 15:-0.58064516 16:-0.27272725 17:0 18:0 19:-0.544592 20:0 21:0 22:0 23:-1 
100 1:0.6664175 2:1 3:0 4:-0.83514559 5:-0.92969242 6:-0.96745842 7:-0.94799423 8:-0.99717752 9:0.7318008 10:0 11:0 12:0 13:-0.90740741 14:-0.93548387 15:-0.93548387 16:0.7571935 17:1 18:0 19:0.5564517 20:0 21:0 22:0 23:-1 
10.91949524364643 1:0.6664175 2:1 3:0 4:-0.83514559 5:-0.92969242 6:-0.96745842 7:-0.94799423 8:-0.99717752 9:0.19540238 10:0 11:0 12:0 13:-0.87037037 14:-0.67741935 15:-0.80645161 16:0.7571935 17:1 18:0 19:0.41935492 20:0 21:0 22:0 23:-1 
21.25748321087876 1:0.43999994 2:0 3:0 4:-0.91111111 5:-0.95238095 6:-1 7:-0.84615385 8:-1 9:0.60225636 10:1 11:0 12:1 13:-0.85821357 14:-0.89946629 15:-0.94473468 16:0.8181819 17:0 18:0 19:0.68359995 20:1 21:0 22:0 23:-0.94444444 
68.43211006030751 1:0.29999995 2:0 3:0 4:-0.95555556 5:-0.95238095 6:-1 7:-1 8:-1 9:0.60225636 10:1 11:0 12:1 13:-0.85821357 14:-0.89946629 15:-0.94473468 16:0.44000006 17:0 18:0 19:0.68359995 20:1 21:0 22:0 23:-1 
100 1:0.06666672 2:0 3:0 4:-0.95555556 5:-0.9047619 6:-0.94117647 7:-1 8:-1 9:0.60225636 10:1 11:0 12:1 13:-0.85821357 14:-0.89946629 15:-0.94473468 16:0.6666666 17:0 18:0 19:0.68359995 20:1 21:0 22:0 23:-1 
89.22748043713237 1:0.125 2:0 3:0 4:-0.6 5:-0.52380952 6:-1 7:-1 8:-1 9:0.24568963 10:0 11:0 12:0 13:-0.85185185 14:-0.67741935 15:-1 16:1 17:0 18:1 19:1 20:0 21:1 22:0 23:-0.97222222 
15.29269603730771 1:0.6664175 2:1 3:0 4:-0.83514559 5:-0.92969242 6:-0.96745842 7:-0.94799423 8:-0.99717752 9:0.7318008 10:0 11:0 12:1 13:-0.90740741 14:-0.96774194 15:-1 16:0.29914534 17:0 18:0 19:0.25392902 20:0 21:0 22:0 23:-1 
100 1:0.43999994 2:0 3:0 4:-0.91111111 5:-0.95238095 6:-1 7:-0.84615385 8:-1 9:1 10:0 11:1 12:1 13:-0.81481481 14:-1 15:-1 16:0.06666672 17:0 18:0 19:0.58089924 20:0 21:0 22:0 23:-1 
55.55986457988249 1:0.6664175 2:1 3:0 4:-0.83514559 5:-0.92969242 6:-0.96745842 7:-0.94799423 8:-0.99717752 9:0.7318008 10:0 11:0 12:1 13:-0.90740741 14:-0.96774194 15:-1 16:0.5813954 17:0 18:0 19:0.55438876 20:0 21:0 22:0 23:-1 
100 1:0.6664175 2:1 3:0 4:-0.83514559 5:-0.92969242 6:-0.96745842 7:-0.94799423 8:-0.99717752 9:0.7318008 10:0 11:0 12:1 13:-0.90740741 14:-0.96774194 15:-1 16:0.61904764 17:0 18:0 19:0.59447014 20:0 21:0 22:0 23:-1 
2.872283494562162 1:0.81333315 2:0 3:0 4:-0.46666667 5:-0.95238095 6:-1 7:-1 8:-1 9:-0.28735638 10:0 11:0 12:0 13:-0.92592593 14:-0.61290323 15:-1 16:1 17:0 18:1 19:0.78083503 20:0 21:0 22:1 23:-0.88888889 
100 1:0.6664175 2:1 3:0 4:-0.83514559 5:-0.92969242 6:-0.96745842 7:-0.94799423 8:-0.99717752 9:0.7318008 10:0 11:0 12:1 13:-0.90740741 14:-0.96774194 15:-1 16:0.5813954 17:0 18:0 19:0.55438876 20:0 21:0 22:0 23:-1 
21.98168845740253 1:0.6888888 2:0 3:0 4:-0.91111111 5:-0.95238095 6:-0.94117647 7:-1 8:-1 9:0.31034493 10:0 11:0 12:0 13:-0.87037037 14:-0.77419355 15:-0.80645161 16:1 17:0 18:1 19:0.7003585 20:0 21:0 22:0 23:-1 
100 1:0.6664175 2:1 3:0 4:-0.83514559 5:-0.92969242 6:-0.96745842 7:-0.94799423 8:-0.99717752 9:0.4173603 10:0 11:0 12:0 13:-0.85185185 14:-0.77419355 15:-0.77419355 16:0.7571935 17:1 18:0 19:1 20:0 21:0 22:0 23:-1 
83.24464037625346 1:0.29999995 2:0 3:0 4:-0.95555556 5:-0.95238095 6:-1 7:-0.84615385 8:-1 9:1 10:0 11:1 12:1 13:-0.85185185 14:-1 15:-1 16:-0.4285714 17:0 18:0 19:0.69585264 20:0 21:0 22:0 23:-1 
34.79465560639354 1:0.06666672 2:0 3:0 4:-0.95555556 5:-0.9047619 6:-0.94117647 7:-0.84615385 8:-1 9:0.93103445 10:0 11:0 12:1 13:-0.74074074 14:-0.96774194 15:-0.96774194 16:0 17:0 18:0 19:0.07096779 20:0 21:0 22:0 23:-1 
100 1:0.6664175 2:1 3:0 4:-0.83514559 5:-0.92969242 6:-0.96745842 7:-0.94799423 8:-0.99717752 9:0.29006088 10:0 11:0 12:0 13:-0.94444444 14:-0.83870968 15:-0.96774194 16:0.5862069 17:0 18:0 19:0.5595107 20:0 21:0 22:0 23:-1 
35.46212536435826 1:0.06666672 2:0 3:0 4:-1 5:-0.95238095 6:-1 7:-0.84615385 8:-1 9:1 10:0 11:1 12:1 13:-0.81481481 14:-1 15:-1 16:1 17:0 18:1 19:0.49308765 20:0 21:0 22:0 23:-1 
100 1:0.6664175 2:1 3:0 4:-0.83514559 5:-0.92969242 6:-0.96745842 7:-0.94799423 8:-0.99717752 9:0.25729454 10:0 11:0 12:0 13:-0.88888889 14:-0.74193548 15:-1 16:0.7571935 17:1 18:0 19:0.76689446 20:0 21:0 22:1 23:-0.80555556 
91.31755630421932 1:0.43999994 2:0 3:0 4:-0.91111111 5:-0.95238095 6:-1 7:-0.84615385 8:-1 9:1 10:0 11:1 12:1 13:-0.7962963 14:-1 15:-1 16:0.6296296 17:0 18:0 19:0.65660775 20:0 21:0 22:0 23:-1 
100 1:0.29999995 2:0 3:0 4:-0.95555556 5:-0.95238095 6:-1 7:-0.84615385 8:-1 9:1 10:0 11:1 12:1 13:-0.85185185 14:-1 15:-1 16:0.7391304 17:0 18:0 19:0.65756834 20:0 21:0 22:0 23:-1 
100 1:0.6664175 2:1 3:0 4:-0.83514559 5:-0.92969242 6:-0.96745842 7:-0.94799423 8:-0.99717752 9:0.79885066 10:0 11:0 12:0 13:-0.85185185 14:-0.96774194 15:-1 16:0.7571935 17:1 18:0 19:0.7364056 20:0 21:0 22:0 23:-1 
42.36705681929363 1:0.6664175 2:1 3:0 4:-0.83514559 5:-0.92969242 6:-0.96745842 7:-0.94799423 8:-0.99717752 9:0.7318008 10:0 11:0 12:1 13:-0.90740741 14:-0.96774194 15:-1 16:0.08108103 17:0 18:0 19:0.021795988 20:0 21:0 22:0 23:-1 
10.97785857803451 1:0.6888888 2:0 3:0 4:-0.91111111 5:-0.95238095 6:-0.94117647 7:-1 8:-1 9:-0.034482658 10:0 11:0 12:0 13:-0.94444444 14:-0.77419355 15:-0.83870968 16:-0.06666666 17:0 18:0 19:0.68359995 20:1 21:0 22:0 23:-1 
100 1:0.5999999 2:0 3:0 4:-0.95555556 5:-0.95238095 6:-0.94117647 7:-1 8:-1 9:1 10:0 11:1 12:1 13:-0.74074074 14:-1 15:-1 16:0.42857146 17:0 18:0 19:0.5625278 20:0 21:0 22:0 23:-1 
9.148870165878023 1:0.5999999 2:0 3:0 4:-0.95555556 5:-0.95238095 6:-0.94117647 7:-1 8:-1 9:1 10:0 11:1 12:1 13:-0.74074074 14:-1 15:-1 16:0.42857146 17:0 18:0 19:0.5396688 20:0 21:0 22:0 23:-0.97222222 
23.91698919958591 1:0.74545443 2:0 3:0 4:-0.64444444 5:-0.95238095 6:-1 7:-0.84615385 8:-1 9:0.3416928 10:0 11:0 12:0 13:-0.90740741 14:-0.83870968 15:-0.87096774 16:0.6666666 17:0 18:0 19:0.603901 20:0 21:0 22:1 23:-0.86111111 
100 1:0.6664175 2:1 3:0 4:-0.83514559 5:-0.92969242 6:-0.96745842 7:-0.94799423 8:-0.99717752 9:0.65517247 10:0 11:0 12:0 13:-0.88888889 14:-0.90322581 15:-0.90322581 16:0.7571935 17:1 18:0 19:0.6760169 20:0 21:0 22:0 23:-1 
100 1:0.29999995 2:0 3:0 4:-0.95555556 5:-0.95238095 6:-1 7:-0.84615385 8:-1 9:0.19540238 10:0 11:0 12:0 13:-0.90740741 14:-0.87096774 15:-1 16:1 17:0 18:1 19:0.7691412 20:0 21:0 22:0 23:-0.97222222 
100 1:0.6664175 2:1 3:0 4:-0.83514559 5:-0.92969242 6:-0.96745842 7:-0.94799423 8:-0.99717752 9:0.4752624 10:0 11:0 12:0 13:-0.88888889 14:-0.83870968 15:-0.96774194 16:0.7058823 17:0 18:0 19:0.68690705 20:0 21:0 22:0 23:-1 
39.70074540965229 1:0.6664175 2:1 3:0 4:-0.83514559 5:-0.92969242 6:-0.96745842 7:-0.94799423 8:-0.99717752 9:-0.24851376 10:0 11:0 12:0 13:-0.92592593 14:-0.58064516 15:-0.77419355 16:0.80281687 17:0 18:0 19:0.8175117 20:0 21:0 22:0 23:-1 
100 1:0.43999994 2:0 3:0 4:-0.91111111 5:-0.95238095 6:-1 7:-0.84615385 8:-1 9:1 10:0 11:1 12:1 13:-0.81481481 14:-1 15:-1 16:0.28571427 17:0 18:0 19:0.36502552 20:0 21:0 22:0 23:-0.97222222 
3.334131201648212 1:0.06666672 2:0 3:0 4:-0.95555556 5:-0.9047619 6:-0.94117647 7:-0.84615385 8:-1 9:0.8659003 10:0 11:0 12:1 13:-0.74074074 14:-0.96774194 15:-1 16:0.4545455 17:0 18:0 19:0.244537 20:0 21:0 22:0 23:-1 
46.16574224829132 1:0.6664175 2:1 3:0 4:-0.83514559 5:-0.92969242 6:-0.96745842 7:-0.94799423 8:-0.99717752 9:0.6982759 10:0 11:0 12:0 13:-0.92592593 14:-0.93548387 15:-0.93548387 16:0.6086956 17:0 18:0 19:0.5834503 20:0 21:0 22:0 23:-0.97222222 
100 1:0.43999994 2:0 3:0 4:-0.91111111 5:-0.95238095 6:-1 7:-0.84615385 8:-1 9:0.37420177 10:0 11:0 12:0 13:-0.87037037 14:-0.83870968 15:-0.96774194 16:0.33333337 17:0 18:0 19:0.77975535 20:0 21:0 22:0 23:-1 
100 1:0.6664175 2:1 3:0 4:-0.83514559 5:-0.92969242 6:-0.96745842 7:-0.94799423 8:-0.99717752 9:0.39655173 10:0 11:0 12:1 13:-0.88888889 14:-0.83870968 15:-0.93548387 16:0.7571935 17:1 18:0 19:0.61496234 20:0 21:0 22:0 23:-1 
100 1:0.6664175 2:1 3:0 4:-0.83514559 5:-0.92969242 6:-0.96745842 7:-0.94799423 8:-0.99717752 9:-0.37931037 10:0 11:0 12:0 13:-0.88888889 14:-0.38709677 15:-0.80645161 16:0.7571935 17:1 18:0 19:1 20:0 21:1 22:0 23:-1 
88.26389812410878 1:0.43999994 2:0 3:0 4:-0.91111111 5:-0.95238095 6:-1 7:-0.84615385 8:-1 9:0.36479127 10:0 11:0 12:0 13:-0.7962963 14:-0.70967742 15:-1 16:1 17:0 18:1 19:0.9603287 20:0 21:0 22:0 23:-0.97222222 
100 1:0.6664175 2:1 3:0 4:-0.83514559 5:-0.92969242 6:-0.96745842 7:-0.94799423 8:-0.99717752 9:0.65517247 10:0 11:0 12:0 13:-0.72222222 14:-0.80645161 15:-1 16:0.7571935 17:1 18:0 19:0.20161295 20:0 21:0 22:0 23:-0.97222222 
100 1:0.6664175 2:1 3:0 4:-0.83514559 5:-0.92969242 6:-0.96745842 7:-0.94799423 8:-0.99717752 9:0.7318008 10:0 11:0 12:0 13:-0.90740741 14:-0.96774194 15:-1 16:0.9775281 17:0 18:0 19:0.9760784 20:0 21:0 22:0 23:-1 
57.02936986728535 1:0.8444444 2:0 3:0 4:-0.33333333 5:-0.95238095 6:-1 7:-1 8:-1 9:0.8659003 10:0 11:0 12:1 13:-0.74074074 14:-0.96774194 15:-1 16:0.016949177 17:0 18:0 19:-0.046473384 20:0 21:0 22:0 23:-0.97222222 
71.93497925804638 1:0.06666672 2:0 3:0 4:-0.95555556 5:-0.9047619 6:-0.94117647 7:-1 8:-1 9:1 10:0 11:1 12:1 13:-0.74074074 14:-1 15:-1 16:0.69696975 17:0 18:0 19:0.6504575 20:0 21:0 22:0 23:-1 
16.24065466660738 1:0.29999995 2:0 3:0 4:-0.95555556 5:-0.95238095 6:-1 7:-0.84615385 8:-1 9:1 10:0 11:1 12:1 13:-0.77777778 14:-1 15:-1 16:1 17:0 18:1 19:0.79127145 20:0 21:0 22:0 23:-1 
96.4771194517064 1:0.43999994 2:0 3:0 4:-0.73333333 5:-0.80952381 6:-1 7:-1 8:-1 9:0.60225636 10:1 11:0 12:1 13:-0.85821357 14:-0.89946629 15:-0.94473468 16:0.76 17:0 18:0 19:0.68359995 20:1 21:0 22:0 23:-0.96676908 
100 1:0.6664175 2:1 3:0 4:-0.83514559 5:-0.92969242 6:-0.96745842 7:-0.94799423 8:-0.99717752 9:0.3416928 10:0 11:0 12:0 13:-0.90740741 14:-0.87096774 15:-1 16:0.7571935 17:1 18:0 19:0.6814835 20:0 21:0 22:0 23:-1 
76.45796264541896 1:0.6888888 2:0 3:0 4:-0.91111111 5:-0.95238095 6:-0.94117647 7:-1 8:-1 9:0.35632193 10:0 11:0 12:1 13:-0.85185185 14:-0.87096774 15:-1 16:0.75 17:0 18:0 19:0.7338711 20:0 21:0 22:0 23:-1 
100 1:0.6664175 2:1 3:0 4:-0.83514559 5:-0.92969242 6:-0.96745842 7:-0.94799423 8:-0.99717752 9:0.39655173 10:0 11:0 12:0 13:-0.88888889 14:-0.80645161 15:-0.93548387 16:0.7571935 17:1 18:0 19:0.5005975 20:0 21:0 22:0 23:-0.97222222 
15.22547529487618 1:0.6664175 2:1 3:0 4:-0.83514559 5:-0.92969242 6:-0.96745842 7:-0.94799423 8:-0.99717752 9:0.4636016 10:0 11:0 12:0 13:-0.7962963 14:-0.74193548 15:-0.87096774 16:0.3770492 17:0 18:0 19:0.33685887 20:0 21:0 22:0 23:-0.97222222 
100 1:0.6664175 2:1 3:0 4:-0.83514559 5:-0.92969242 6:-0.96745842 7:-0.94799423 8:-0.99717752 9:0.5977011 10:0 11:0 12:0 13:-0.87037037 14:-0.93548387 15:-1 16:0.7571935 17:1 18:0 19:0.7161292 20:0 21:0 22:0 23:-0.97222222 
23.09541691850583 1:1 2:0 3:1 4:-0.82222222 5:-1 6:-1 7:-1 8:-1 9:0.8580122 10:0 11:0 12:1 13:-0.90740741 14:-0.96774194 15:-0.96774194 16:-0.1111111 17:0 18:0 19:0.7816378 20:0 21:0 22:0 23:-0.97222222 
1.150057154760877 1:0.29999995 2:0 3:0 4:-0.95555556 5:-0.95238095 6:-1 7:-1 8:0 9:-0.2778905 10:0 11:0 12:0 13:-0.98148148 14:-0.74193548 15:-0.77419355 16:1 17:0 18:1 19:0.7847048 20:0 21:0 22:0 23:-0.94444444 
14.53154810186837 1:0.5999999 2:0 3:0 4:-0.95555556 5:-0.95238095 6:-0.94117647 7:-1 8:-1 9:0.36479127 10:0 11:0 12:0 13:-0.92592593 14:-0.90322581 15:-0.96774194 16:0.4736842 17:0 18:0 19:0.49517798 20:0 21:0 22:0 23:-1 
87.65039973433224 1:0.6664175 2:1 3:0 4:-0.83514559 5:-0.92969242 6:-0.96745842 7:-0.94799423 8:-0.99717752 9:0.7318008 10:0 11:0 12:1 13:-0.90740741 14:-0.96774194 15:-1 16:0.57142854 17:0 18:0 19:0.5437789 20:0 21:0 22:0 23:-1 
45.40128496149502 1:0.29999995 2:0 3:0 4:-0.95555556 5:-0.95238095 6:-1 7:-1 8:-1 9:1 10:0 11:1 12:1 13:-0.81481481 14:-1 15:-1 16:1 17:0 18:1 19:0.5342742 20:0 21:0 22:0 23:-0.97222222 
100 1:0.43999994 2:0 3:0 4:-0.91111111 5:-0.95238095 6:-1 7:-0.84615385 8:-1 9:0.7318008 10:0 11:0 12:0 13:-0.90740741 14:-0.96774194 15:-1 16:0.28571427 17:0 18:0 19:0.09925568 20:0 21:0 22:0 23:-1 
100 1:0.5999999 2:0 3:0 4:-0.28888889 5:-0.85714286 6:-1 7:-1 8:-1 9:0.60225636 10:1 11:0 12:1 13:-0.85821357 14:-0.89946629 15:-0.94473468 16:0.7571935 17:1 18:0 19:0.68359995 20:1 21:0 22:0 23:-1 
100 1:0.5999999 2:0 3:0 4:-0.28888889 5:-0.85714286 6:-1 7:-1 8:-1 9:0.60225636 10:1 11:0 12:1 13:-0.85821357 14:-0.89946629 15:-0.94473468 16:0.7571935 17:1 18:0 19:0.68359995 20:1 21:0 22:0 23:-1 
100 1:0.5999999 2:0 3:0 4:-0.28888889 5:-0.85714286 6:-1 7:-1 8:-1 9:0.60225636 10:1 11:0 12:1 13:-0.85821357 14:-0.89946629 15:-0.94473468 16:0.7571935 17:1 18:0 19:0.68359995 20:1 21:0 22:0 23:-1 
100 1:0.5999999 2:0 3:0 4:-0.28888889 5:-0.85714286 6:-1 7:-1 8:-1 9:0.60225636 10:1 11:0 12:1 13:-0.85821357 14:-0.89946629 15:-0.94473468 16:0.7571935 17:1 18:0 19:0.68359995 20:1 21:0 22:0 23:-1 
100 1:0.6664175 2:1 3:0 4:-0.83514559 5:-0.92969242 6:-0.96745842 7:-0.94799423 8:-0.99717752 9:-0.31034487 10:0 11:0 12:0 13:-0.90740741 14:-0.4516129 15:-0.64516129 16:0.7571935 17:1 18:0 19:0.7585634 20:0 21:0 22:0 23:-0.97222222 
9.564197505574251 1:0.7103449 2:0 3:0 4:-0.51111111 5:-0.85714286 6:-0.94117647 7:-1 8:-1 9:0.8275862 10:0 11:0 12:0 13:-0.81481481 14:-0.93548387 15:-0.93548387 16:0.9636364 17:0 18:0 19:1 20:0 21:1 22:0 23:-1 
0.2278619911852163 1:0.29999995 2:0 3:0 4:-0.95555556 5:-0.95238095 6:-1 7:-0.84615385 8:-1 9:0.19540238 10:0 11:0 12:1 13:-0.90740741 14:-0.83870968 15:-1 16:1 17:0 18:1 19:1 20:0 21:1 22:0 23:-0.94444444 
100 1:0.29999995 2:0 3:0 4:-0.95555556 5:-0.95238095 6:-1 7:-0.84615385 8:-1 9:0.19540238 10:0 11:0 12:1 13:-0.90740741 14:-0.83870968 15:-1 16:1 17:0 18:1 19:1 20:0 21:1 22:0 23:-0.94444444 
1.004196598440168 1:-0.21882349 2:0 3:0 4:-0.022222222 5:0.76190476 6:0.58823529 7:-1 8:-1 9:0.60225636 10:1 11:0 12:1 13:-0.85821357 14:-0.89946629 15:-0.94473468 16:0.7571935 17:1 18:0 19:0.68359995 20:1 21:0 22:1 23:-0.91666667 
100 1:0.50588226 2:0 3:0 4:0.15555556 5:-0.71428571 6:-1 7:-1 8:-1 9:0.60225636 10:1 11:0 12:1 13:-0.85821357 14:-0.89946629 15:-0.94473468 16:0.7571935 17:1 18:0 19:0.68359995 20:1 21:0 22:0 23:-1 
