svm_type c_svc
kernel_type rbf
gamma 0.5
nr_class 2
total_sv 3243
rho -1.75739
label 1 -1
nr_sv 1641 1602
SV
10 1:0.63478243 2:0 3:0 4:-0.64444444 5:-0.85714286 6:-0.82352941 7:-0.69230769 8:-1 9:0.766407 10:0 11:0 12:0 13:-0.7962963 14:-0.90322581 15:-0.90322581 16:1 17:0 18:1 19:1 20:0 21:1 22:1 23:-0.88888889 
10 1:0.82500005 2:0 3:0 4:-0.42222222 5:-0.95238095 6:-1 7:-1 8:-1 9:0.8491379 10:0 11:0 12:1 13:-0.77777778 14:-0.96774194 15:-1 16:1 17:0 18:1 19:1 20:0 21:1 22:0 23:-1 
10 1:0.82500005 2:0 3:0 4:-0.42222222 5:-0.95238095 6:-1 7:-1 8:-1 9:0.8491379 10:0 11:0 12:1 13:-0.77777778 14:-0.96774194 15:-1 16:1 17:0 18:1 19:1 20:0 21:1 22:0 23:-0.97222222 
0.062562693609183 1:0.8319999 2:0 3:0 4:1 5:-0.85714286 6:-1 7:-0.84615385 8:-1 9:0.60225636 10:1 11:0 12:1 13:-0.85821357 14:-0.89946629 15:-0.94473468 16:0.7571935 17:1 18:0 19:0.68359995 20:1 21:0 22:1 23:-0.63888889 
10 1:0.4857142 2:0 3:0 4:0.68888889 5:-0.23809524 6:-0.17647059 7:-1 8:-1 9:0.60225636 10:1 11:0 12:1 13:-0.85821357 14:-0.89946629 15:-0.94473468 16:0.7571935 17:1 18:0 19:0.68359995 20:1 21:0 22:0 23:-1 
10 1:0.29999995 2:0 3:0 4:-0.82222222 5:-0.85714286 6:-1 7:-1 8:-1 9:0.39655173 10:0 11:0 12:0 13:-0.94444444 14:-0.90322581 15:-1 16:0.978022 17:0 18:0 19:0.9766041 20:0 21:0 22:0 23:-1 
10 1:0.43999994 2:0 3:0 4:-0.82222222 5:-0.9047619 6:-0.94117647 7:-1 8:-1 9:0.5172415 10:0 11:0 12:1 13:-0.94444444 14:-0.93548387 15:-0.96774194 16:0.97849464 17:0 18:0 19:0.9771073 20:0 21:0 22:0 23:-1 
10 1:0.06666672 2:0 3:0 4:-0.86666667 5:-0.85714286 6:-0.94117647 7:-1 8:-1 9:0.19540238 10:0 11:0 12:0 13:-0.96296296 14:-0.90322581 15:-0.96774194 16:0.97849464 17:0 18:0 19:0.9771073 20:0 21:0 22:0 23:-1 
10 1:0.43999994 2:0 3:0 4:-0.82222222 5:-0.9047619 6:-0.94117647 7:-1 8:-1 9:0.5172415 10:0 11:0 12:0 13:-0.94444444 14:-0.93548387 15:-0.96774194 16:0.95652175 17:0 18:0 19:0.95371675 20:0 21:0 22:0 23:-1 
10 1:0.43999994 2:0 3:0 4:-0.91111111 5:-0.95238095 6:-1 7:-1 8:-1 9:1 10:0 11:1 12:1 13:-0.7962963 14:-1 15:-1 16:0.94285715 17:0 18:0 19:0.9824047 20:0 21:0 22:0 23:-0.97222222 
3.309033459875863 1:0.29999995 2:0 3:0 4:-0.95555556 5:-0.95238095 6:-1 7:-0.84615385 8:-1 9:0.48798335 10:0 11:0 12:1 13:-0.81481481 14:-0.83870968 15:-0.90322581 16:1 17:0 18:1 19:0.98296785 20:0 21:0 22:0 23:-0.97222222 
10 1:0.63870966 2:0 3:0 4:0.11111111 5:-0.61904762 6:-0.88235294 7:-0.84615385 8:-1 9:0.60225636 10:1 11:0 12:1 13:-0.85821357 14:-0.89946629 15:-0.94473468 16:0.7571935 17:1 18:0 19:0.68359995 20:1 21:0 22:0 23:-1 
10 1:0.6664175 2:1 3:0 4:-0.83514559 5:-0.92969242 6:-0.96745842 7:-0.94799423 8:-0.99717752 9:0.19540238 10:0 11:0 12:0 13:-0.90740741 14:-0.77419355 15:-1 16:0.7571935 17:1 18:0 19:1 20:0 21:1 22:1 23:-0.83333333 
10 1:0.43999994 2:0 3:0 4:-0.91111111 5:-0.9047619 6:-1 7:-1 8:-1 9:0.19540238 10:0 11:0 12:0 13:-0.90740741 14:-0.77419355 15:-0.93548387 16:1 17:0 18:1 19:1 20:0 21:1 22:1 23:-0.80555556 
10 1:0.43999994 2:0 3:0 4:-0.91111111 5:-0.9047619 6:-1 7:-1 8:-1 9:0.19540238 10:0 11:0 12:0 13:-0.90740741 14:-0.77419355 15:-0.93548387 16:1 17:0 18:1 19:1 20:0 21:1 22:1 23:-0.91666667 
10 1:0.43999994 2:0 3:0 4:-0.91111111 5:-0.9047619 6:-1 7:-1 8:-1 9:0.19540238 10:0 11:0 12:0 13:-0.90740741 14:-0.77419355 15:-0.93548387 16:1 17:0 18:1 19:1 20:0 21:1 22:0 23:-0.97222222 
10 1:0.43999994 2:0 3:0 4:-0.91111111 5:-0.9047619 6:-1 7:-1 8:-1 9:0.19540238 10:0 11:0 12:0 13:-0.90740741 14:-0.77419355 15:-0.93548387 16:1 17:0 18:1 19:1 20:0 21:1 22:0 23:-0.97222222 
10 1:0.43999994 2:0 3:0 4:-0.91111111 5:-0.9047619 6:-1 7:-1 8:-1 9:0.19540238 10:0 11:0 12:0 13:-0.90740741 14:-0.77419355 15:-0.93548387 16:1 17:0 18:1 19:1 20:0 21:1 22:0 23:-0.94444444 
10 1:0.43999994 2:0 3:0 4:-0.91111111 5:-0.9047619 6:-1 7:-1 8:-1 9:0.19540238 10:0 11:0 12:0 13:-0.90740741 14:-0.77419355 15:-0.93548387 16:1 17:0 18:1 19:1 20:0 21:1 22:0 23:-0.94444444 
10 1:0.6664175 2:1 3:0 4:-0.83514559 5:-0.92969242 6:-0.96745842 7:-0.94799423 8:-0.99717752 9:0.6982759 10:0 11:0 12:0 13:-0.92592593 14:-0.96774194 15:-1 16:0.97590363 17:0 18:0 19:0.97434914 20:0 21:0 22:0 23:-1 
10 1:0.29999995 2:0 3:0 4:-0.95555556 5:-0.95238095 6:-1 7:-0.84615385 8:-1 9:1 10:0 11:1 12:1 13:-0.7962963 14:-1 15:-1 16:0.5 17:0 18:0 19:0.501716 20:0 21:0 22:0 23:-1 
10 1:0.6664175 2:1 3:0 4:-0.83514559 5:-0.92969242 6:-0.96745842 7:-0.94799423 8:-0.99717752 9:0.7318008 10:0 11:0 12:1 13:-0.90740741 14:-0.96774194 15:-1 16:0.7571935 17:1 18:0 19:0.73128724 20:0 21:0 22:0 23:-1 
10 1:0.6664175 2:1 3:0 4:-0.83514559 5:-0.92969242 6:-0.96745842 7:-0.94799423 8:-0.99717752 9:0.7586206 10:0 11:0 12:0 13:-0.88888889 14:-0.93548387 15:-0.93548387 16:0.7571935 17:1 18:0 19:1 20:0 21:0 22:0 23:-1 
10 1:0.6664175 2:1 3:0 4:-0.83514559 5:-0.92969242 6:-0.96745842 7:-0.94799423 8:-0.99717752 9:0.7805643 10:0 11:0 12:0 13:-0.87037037 14:-0.96774194 15:-1 16:0.7571935 17:1 18:0 19:1 20:0 21:0 22:0 23:-1 
10 1:0.6664175 2:1 3:0 4:-0.83514559 5:-0.92969242 6:-0.96745842 7:-0.94799423 8:-0.99717752 9:0.7805643 10:0 11:0 12:0 13:-0.87037037 14:-0.96774194 15:-1 16:0.7571935 17:1 18:0 19:1 20:0 21:0 22:0 23:-1 
10 1:0.6664175 2:1 3:0 4:-0.83514559 5:-0.92969242 6:-0.96745842 7:-0.94799423 8:-0.99717752 9:0.7586206 10:0 11:0 12:0 13:-0.88888889 14:-0.93548387 15:-0.93548387 16:0.7571935 17:1 18:0 19:0.8362284 20:0 21:0 22:0 23:-1 
10 1:0.6664175 2:1 3:0 4:-0.83514559 5:-0.92969242 6:-0.96745842 7:-0.94799423 8:-0.99717752 9:0.19540238 10:0 11:0 12:0 13:-0.94444444 14:-0.80645161 15:-0.80645161 16:0.95121956 17:0 18:0 19:0.94807255 20:0 21:0 22:0 23:-1 
10 1:0.6664175 2:1 3:0 4:-0.83514559 5:-0.92969242 6:-0.96745842 7:-0.94799423 8:-0.99717752 9:0.6982759 10:0 11:0 12:0 13:-0.7962963 14:-0.87096774 15:-0.87096774 16:0.7571935 17:1 18:0 19:0.68359995 20:1 21:0 22:0 23:-1 
10 1:0.6664175 2:1 3:0 4:-0.83514559 5:-0.92969242 6:-0.96745842 7:-0.94799423 8:-0.99717752 9:0.6982759 10:0 11:0 12:0 13:-0.7962963 14:-0.87096774 15:-0.87096774 16:0.7571935 17:1 18:0 19:0.68359995 20:1 21:0 22:0 23:-1 
10 1:0.6664175 2:1 3:0 4:-0.83514559 5:-0.92969242 6:-0.96745842 7:-0.94799423 8:-0.99717752 9:0.6982759 10:0 11:0 12:0 13:-0.7962963 14:-0.87096774 15:-0.87096774 16:0.7571935 17:1 18:0 19:0.68359995 20:1 21:0 22:0 23:-1 
10 1:0.6664175 2:1 3:0 4:-0.83514559 5:-0.92969242 6:-0.96745842 7:-0.94799423 8:-0.99717752 9:0.6982759 10:0 11:0 12:0 13:-0.7962963 14:-0.87096774 15:-0.87096774 16:0.7571935 17:1 18:0 19:0.68359995 20:1 21:0 22:0 23:-1 
10 1:0.3538462 2:0 3:0 4:0.022222222 5:-0.57142857 6:-0.94117647 7:-1 8:-1 9:0.60225636 10:1 11:0 12:1 13:-0.85821357 14:-0.89946629 15:-0.94473468 16:0.7571935 17:1 18:0 19:0.68359995 20:1 21:0 22:0 23:-1 
10 1:0.6664175 2:1 3:0 4:-0.83514559 5:-0.92969242 6:-0.96745842 7:-0.94799423 8:-0.99717752 9:0.7805643 10:0 11:0 12:0 13:-0.87037037 14:-0.96774194 15:-1 16:0.12820518 17:0 18:0 19:0.07196045 20:0 21:0 22:1 23:-0.86111111 
10 1:0.43999994 2:0 3:0 4:-0.82222222 5:-0.9047619 6:-0.94117647 7:-1 8:-1 9:0.5172415 10:0 11:0 12:0 13:-0.83333333 14:-0.83870968 15:-0.93548387 16:1 17:0 18:1 19:1 20:0 21:1 22:0 23:-0.94444444 
10 1:0.6664175 2:1 3:0 4:-0.83514559 5:-0.92969242 6:-0.96745842 7:-0.94799423 8:-0.99717752 9:0.81432366 10:0 11:0 12:0 13:-0.83333333 14:-0.96774194 15:-1 16:0.7571935 17:1 18:0 19:0.51741934 20:0 21:0 22:0 23:-1 
10 1:0.6664175 2:1 3:0 4:-0.83514559 5:-0.92969242 6:-0.96745842 7:-0.94799423 8:-0.99717752 9:0.81432366 10:0 11:0 12:0 13:-0.83333333 14:-0.96774194 15:-1 16:0.7571935 17:1 18:0 19:0.51741934 20:0 21:0 22:0 23:-1 
10 1:0.6664175 2:1 3:0 4:-0.83514559 5:-0.92969242 6:-0.96745842 7:-0.94799423 8:-0.99717752 9:0.5172415 10:0 11:0 12:0 13:-0.90740741 14:-0.93548387 15:-1 16:0.7571935 17:1 18:0 19:0.5891342 20:0 21:0 22:0 23:-1 
10 1:0.43999994 2:0 3:0 4:-0.91111111 5:-0.95238095 6:-1 7:-0.84615385 8:-1 9:0.8491379 10:0 11:0 12:1 13:-0.77777778 14:-0.96774194 15:-1 16:0.11111116 17:0 18:0 19:0.4145162 20:0 21:0 22:0 23:-0.97222222 
10 1:0.43999994 2:0 3:0 4:-0.91111111 5:-0.95238095 6:-1 7:-0.84615385 8:-1 9:-0.034482658 10:0 11:0 12:1 13:-0.94444444 14:-0.74193548 15:-0.77419355 16:0.7391304 17:0 18:0 19:0.67076826 20:0 21:0 22:0 23:-1 
10 1:0.6664175 2:1 3:0 4:-0.83514559 5:-0.92969242 6:-0.96745842 7:-0.94799423 8:-0.99717752 9:0.7318008 10:0 11:0 12:1 13:-0.90740741 14:-0.96774194 15:-1 16:0.7571935 17:1 18:0 19:0.51384306 20:0 21:0 22:0 23:-1 
10 1:0.43999994 2:0 3:0 4:-0.91111111 5:-0.95238095 6:-1 7:-0.84615385 8:-1 9:1 10:0 11:1 12:1 13:-0.72222222 14:-1 15:-1 16:0.2941177 17:0 18:0 19:0.35046482 20:0 21:0 22:0 23:-1 
10 1:0.6664175 2:1 3:0 4:-0.83514559 5:-0.92969242 6:-0.96745842 7:-0.94799423 8:-0.99717752 9:0.5611285 10:0 11:0 12:0 13:-0.88888889 14:-0.90322581 15:-0.93548387 16:0.7571935 17:1 18:0 19:0.6895163 20:0 21:0 22:0 23:-1 
1.876333346197372 1:0.29999995 2:0 3:0 4:-0.95555556 5:-0.95238095 6:-1 7:-0.84615385 8:-1 9:0.60225636 10:1 11:0 12:1 13:-0.85821357 14:-0.89946629 15:-0.94473468 16:0.4666667 17:0 18:0 19:0.1350807 20:0 21:0 22:0 23:-0.94444444 
10 1:0.6664175 2:1 3:0 4:-0.83514559 5:-0.92969242 6:-0.96745842 7:-0.94799423 8:-0.99717752 9:0.6982759 10:0 11:0 12:0 13:-0.92592593 14:-0.93548387 15:-0.93548387 16:0.7571935 17:1 18:0 19:0.8273759 20:0 21:0 22:0 23:-1 
10 1:0.5999999 2:0 3:0 4:-0.82222222 5:-0.95238095 6:-1 7:-1 8:-1 9:0.65517247 10:0 11:0 12:0 13:-0.94444444 14:-0.96774194 15:-1 16:1 17:0 18:1 19:1 20:0 21:1 22:1 23:-0.88888889 
10 1:0.76666653 2:0 3:0 4:-0.6 5:-0.95238095 6:-1 7:0.23076923 8:-1 9:0.8275862 10:0 11:0 12:0 13:-0.81481481 14:-0.96774194 15:-1 16:0.7571935 17:1 18:0 19:0.68359995 20:1 21:0 22:0 23:-1 
10 1:0.29999995 2:0 3:0 4:-0.95555556 5:-0.95238095 6:-1 7:-1 8:-1 9:0.6982759 10:0 11:0 12:0 13:-0.7962963 14:-0.90322581 15:-0.93548387 16:1 17:0 18:1 19:1 20:0 21:1 22:0 23:-0.97222222 
10 1:0.29999995 2:0 3:0 4:-0.95555556 5:-0.95238095 6:-1 7:-1 8:-1 9:0.6982759 10:0 11:0 12:0 13:-0.7962963 14:-0.90322581 15:-0.93548387 16:1 17:0 18:1 19:1 20:0 21:1 22:0 23:-0.97222222 
10 1:0.29999995 2:0 3:0 4:-0.95555556 5:-0.95238095 6:-1 7:-1 8:-1 9:0.6982759 10:0 11:0 12:0 13:-0.7962963 14:-0.90322581 15:-0.93548387 16:1 17:0 18:1 19:1 20:0 21:1 22:0 23:-0.97222222 
10 1:0.6664175 2:1 3:0 4:-0.83514559 5:-0.92969242 6:-0.96745842 7:-0.94799423 8:-0.99717752 9:0.6781609 10:0 11:0 12:1 13:-0.81481481 14:-0.93548387 15:-1 16:0.7571935 17:1 18:0 19:0.43161595 20:0 21:0 22:0 23:-1 
10 1:0.76666653 2:0 3:0 4:-0.6 5:-0.95238095 6:-1 7:0.23076923 8:-1 9:0.8275862 10:0 11:0 12:0 13:-0.81481481 14:-0.96774194 15:-1 16:0.7571935 17:1 18:0 19:0.68359995 20:1 21:0 22:0 23:-1 
10 1:0.76666653 2:0 3:0 4:-0.6 5:-0.95238095 6:-1 7:0.23076923 8:-1 9:0.8275862 10:0 11:0 12:0 13:-0.81481481 14:-0.96774194 15:-1 16:0.7571935 17:1 18:0 19:0.68359995 20:1 21:0 22:0 23:-1 
10 1:0.76666653 2:0 3:0 4:-0.6 5:-0.95238095 6:-1 7:0.23076923 8:-1 9:0.8275862 10:0 11:0 12:0 13:-0.81481481 14:-0.96774194 15:-1 16:0.7571935 17:1 18:0 19:0.68359995 20:1 21:0 22:0 23:-1 
10 1:0.76666653 2:0 3:0 4:-0.6 5:-0.95238095 6:-1 7:0.23076923 8:-1 9:0.8275862 10:0 11:0 12:0 13:-0.81481481 14:-0.96774194 15:-1 16:0.7571935 17:1 18:0 19:0.68359995 20:1 21:0 22:0 23:-1 
10 1:0.76666653 2:0 3:0 4:-0.6 5:-0.95238095 6:-1 7:0.23076923 8:-1 9:0.8275862 10:0 11:0 12:0 13:-0.81481481 14:-0.96774194 15:-1 16:0.7571935 17:1 18:0 19:0.68359995 20:1 21:0 22:0 23:-1 
10 1:0.76666653 2:0 3:0 4:-0.6 5:-0.95238095 6:-1 7:0.23076923 8:-1 9:0.8275862 10:0 11:0 12:0 13:-0.81481481 14:-0.96774194 15:-1 16:0.7571935 17:1 18:0 19:0.68359995 20:1 21:0 22:0 23:-1 
10 1:0.29999995 2:0 3:0 4:-0.95555556 5:-0.95238095 6:-1 7:-1 8:-1 9:0.65517247 10:0 11:0 12:0 13:-0.83333333 14:-0.90322581 15:-0.93548387 16:1 17:0 18:1 19:1 20:0 21:1 22:0 23:-0.97222222 
10 1:0.29999995 2:0 3:0 4:-0.95555556 5:-0.95238095 6:-1 7:-1 8:-1 9:0.65517247 10:0 11:0 12:0 13:-0.83333333 14:-0.90322581 15:-0.93548387 16:1 17:0 18:1 19:1 20:0 21:1 22:0 23:-0.97222222 
10 1:0.29999995 2:0 3:0 4:-0.95555556 5:-0.95238095 6:-1 7:-1 8:-1 9:0.65517247 10:0 11:0 12:0 13:-0.83333333 14:-0.90322581 15:-0.93548387 16:1 17:0 18:1 19:1 20:0 21:1 22:0 23:-0.94444444 
10 1:0.29999995 2:0 3:0 4:-0.95555556 5:-0.95238095 6:-1 7:-1 8:-1 9:0.65517247 10:0 11:0 12:0 13:-0.83333333 14:-0.90322581 15:-0.93548387 16:1 17:0 18:1 19:1 20:0 21:1 22:0 23:-0.94444444 
10 1:0.76666653 2:0 3:0 4:-0.6 5:-0.95238095 6:-1 7:0.38461538 8:-1 9:0.81432366 10:0 11:0 12:0 13:-0.83333333 14:-0.96774194 15:-1 16:0.7571935 17:1 18:0 19:0.68359995 20:1 21:0 22:0 23:-1 
10 1:0.6664175 2:1 3:0 4:-0.83514559 5:-0.92969242 6:-0.96745842 7:-0.94799423 8:-0.99717752 9:0.65517247 10:0 11:0 12:0 13:-0.88888889 14:-0.90322581 15:-0.90322581 16:0.4375 17:0 18:0 19:0.4012097 20:0 21:0 22:0 23:-1 
10 1:0.6664175 2:1 3:0 4:-0.83514559 5:-0.92969242 6:-0.96745842 7:-0.94799423 8:-0.99717752 9:0.65517247 10:0 11:0 12:0 13:-0.88888889 14:-0.90322581 15:-0.90322581 16:0.4375 17:0 18:0 19:0.4012097 20:0 21:0 22:0 23:-1 
10 1:0.76666653 2:0 3:0 4:-0.6 5:-0.95238095 6:-1 7:0.38461538 8:-1 9:0.81432366 10:0 11:0 12:0 13:-0.83333333 14:-0.96774194 15:-1 16:0.7571935 17:1 18:0 19:0.68359995 20:1 21:0 22:0 23:-1 
10 1:0.29999995 2:0 3:0 4:-0.82222222 5:-0.85714286 6:-1 7:-1 8:-1 9:0.39655173 10:0 11:0 12:1 13:-0.94444444 14:-0.90322581 15:-1 16:1 17:0 18:1 19:1 20:0 21:1 22:0 23:-1 
10 1:0.7199999 2:0 3:0 4:-0.68888889 5:-0.95238095 6:-1 7:0.076923077 8:-1 9:0.7586206 10:0 11:0 12:0 13:-0.88888889 14:-0.96774194 15:-1 16:0.7571935 17:1 18:0 19:0.68359995 20:1 21:0 22:0 23:-1 
10 1:0.6664175 2:1 3:0 4:-0.83514559 5:-0.92969242 6:-0.96745842 7:-0.94799423 8:-0.99717752 9:0.7805643 10:0 11:0 12:1 13:-0.87037037 14:-0.96774194 15:-1 16:0.7571935 17:1 18:0 19:1 20:0 21:1 22:1 23:-0.86111111 
10 1:0.6664175 2:1 3:0 4:-0.83514559 5:-0.92969242 6:-0.96745842 7:-0.94799423 8:-0.99717752 9:0.6982759 10:0 11:0 12:1 13:-0.92592593 14:-0.93548387 15:-0.93548387 16:1 17:0 18:1 19:1 20:0 21:1 22:1 23:-0.88888889 
10 1:0.6664175 2:1 3:0 4:-0.83514559 5:-0.92969242 6:-0.96745842 7:-0.94799423 8:-0.99717752 9:0.8491379 10:0 11:0 12:0 13:-0.77777778 14:-0.96774194 15:-1 16:0.7571935 17:1 18:0 19:0.68359995 20:1 21:0 22:0 23:-1 
10 1:0.6664175 2:1 3:0 4:-0.83514559 5:-0.92969242 6:-0.96745842 7:-0.94799423 8:-0.99717752 9:0.8491379 10:0 11:0 12:0 13:-0.77777778 14:-0.96774194 15:-1 16:0.7571935 17:1 18:0 19:0.68359995 20:1 21:0 22:0 23:-1 
10 1:0.6664175 2:1 3:0 4:-0.83514559 5:-0.92969242 6:-0.96745842 7:-0.94799423 8:-0.99717752 9:0.8491379 10:0 11:0 12:0 13:-0.77777778 14:-0.96774194 15:-1 16:0.7571935 17:1 18:0 19:0.68359995 20:1 21:0 22:0 23:-1 
10 1:0.6664175 2:1 3:0 4:-0.83514559 5:-0.92969242 6:-0.96745842 7:-0.94799423 8:-0.99717752 9:0.8491379 10:0 11:0 12:0 13:-0.77777778 14:-0.96774194 15:-1 16:0.7571935 17:1 18:0 19:0.68359995 20:1 21:0 22:0 23:-1 
10 1:0.6664175 2:1 3:0 4:-0.83514559 5:-0.92969242 6:-0.96745842 7:-0.94799423 8:-0.99717752 9:0.8491379 10:0 11:0 12:0 13:-0.77777778 14:-0.96774194 15:-1 16:0.7571935 17:1 18:0 19:0.68359995 20:1 21:0 22:0 23:-1 
10 1:0.6664175 2:1 3:0 4:-0.83514559 5:-0.92969242 6:-0.96745842 7:-0.94799423 8:-0.99717752 9:0.8491379 10:0 11:0 12:0 13:-0.77777778 14:-0.96774194 15:-1 16:0.7571935 17:1 18:0 19:0.68359995 20:1 21:0 22:0 23:-1 
10 1:0.6664175 2:1 3:0 4:-0.83514559 5:-0.92969242 6:-0.96745842 7:-0.94799423 8:-0.99717752 9:0.8491379 10:0 11:0 12:0 13:-0.77777778 14:-0.96774194 15:-1 16:0.7571935 17:1 18:0 19:0.68359995 20:1 21:0 22:0 23:-1 
10 1:0.6664175 2:1 3:0 4:-0.83514559 5:-0.92969242 6:-0.96745842 7:-0.94799423 8:-0.99717752 9:0.8491379 10:0 11:0 12:0 13:-0.77777778 14:-0.96774194 15:-1 16:0.7571935 17:1 18:0 19:0.68359995 20:1 21:0 22:0 23:-1 
10 1:0.6664175 2:1 3:0 4:-0.83514559 5:-0.92969242 6:-0.96745842 7:-0.94799423 8:-0.99717752 9:0.6982759 10:0 11:0 12:0 13:-0.7962963 14:-0.93548387 15:-1 16:0.7571935 17:1 18:0 19:0.68359995 20:1 21:0 22:0 23:-1 
10 1:0.6664175 2:1 3:0 4:-0.83514559 5:-0.92969242 6:-0.96745842 7:-0.94799423 8:-0.99717752 9:0.8491379 10:0 11:0 12:0 13:-0.77777778 14:-0.96774194 15:-1 16:0.7571935 17:1 18:0 19:0.68359995 20:1 21:0 22:0 23:-0.97222222 
10 1:0.6664175 2:1 3:0 4:-0.83514559 5:-0.92969242 6:-0.96745842 7:-0.94799423 8:-0.99717752 9:0.8491379 10:0 11:0 12:0 13:-0.77777778 14:-0.96774194 15:-1 16:0.7571935 17:1 18:0 19:0.68359995 20:1 21:0 22:0 23:-0.97222222 
10 1:0.6664175 2:1 3:0 4:-0.83514559 5:-0.92969242 6:-0.96745842 7:-0.94799423 8:-0.99717752 9:0.8491379 10:0 11:0 12:0 13:-0.77777778 14:-0.96774194 15:-1 16:0.7571935 17:1 18:0 19:0.68359995 20:1 21:0 22:0 23:-0.94444444 
10 1:0.6664175 2:1 3:0 4:-0.83514559 5:-0.92969242 6:-0.96745842 7:-0.94799423 8:-0.99717752 9:0.8491379 10:0 11:0 12:0 13:-0.77777778 14:-0.96774194 15:-1 16:0.7571935 17:1 18:0 19:0.68359995 20:1 21:0 22:0 23:-0.97222222 
10 1:0.6664175 2:1 3:0 4:-0.83514559 5:-0.92969242 6:-0.96745842 7:-0.94799423 8:-0.99717752 9:0.8491379 10:0 11:0 12:0 13:-0.77777778 14:-0.96774194 15:-1 16:0.7571935 17:1 18:0 19:0.68359995 20:1 21:0 22:0 23:-1 
10 1:0.6664175 2:1 3:0 4:-0.83514559 5:-0.92969242 6:-0.96745842 7:-0.94799423 8:-0.99717752 9:0.8491379 10:0 11:0 12:0 13:-0.77777778 14:-0.96774194 15:-1 16:0.7571935 17:1 18:0 19:0.68359995 20:1 21:0 22:0 23:-1 
10 1:0.6664175 2:1 3:0 4:-0.83514559 5:-0.92969242 6:-0.96745842 7:-0.94799423 8:-0.99717752 9:0.8491379 10:0 11:0 12:0 13:-0.77777778 14:-0.96774194 15:-1 16:0.7571935 17:1 18:0 19:0.68359995 20:1 21:0 22:0 23:-1 
10 1:0.6664175 2:1 3:0 4:-0.83514559 5:-0.92969242 6:-0.96745842 7:-0.94799423 8:-0.99717752 9:0.8491379 10:0 11:0 12:0 13:-0.77777778 14:-0.96774194 15:-1 16:0.7571935 17:1 18:0 19:0.68359995 20:1 21:0 22:0 23:-1 
10 1:0.6664175 2:1 3:0 4:-0.83514559 5:-0.92969242 6:-0.96745842 7:-0.94799423 8:-0.99717752 9:0.5172415 10:0 11:0 12:1 13:-0.87037037 14:-0.87096774 15:-0.90322581 16:0.7571935 17:1 18:0 19:0.8790324 20:0 21:0 22:0 23:-1 
10 1:0.6664175 2:1 3:0 4:-0.83514559 5:-0.92969242 6:-0.96745842 7:-0.94799423 8:-0.99717752 9:-0.07279688 10:0 11:0 12:0 13:-0.87037037 14:-0.51612903 15:-0.61290323 16:0.7571935 17:1 18:0 19:1 20:0 21:1 22:1 23:-0.77777778 
10 1:0.6664175 2:1 3:0 4:-0.83514559 5:-0.92969242 6:-0.96745842 7:-0.94799423 8:-0.99717752 9:0.19540238 10:0 11:0 12:0 13:-0.90740741 14:-0.83870968 15:-0.93548387 16:0.7571935 17:1 18:0 19:1 20:0 21:1 22:0 23:-1 
10 1:0.6664175 2:1 3:0 4:-0.83514559 5:-0.92969242 6:-0.96745842 7:-0.94799423 8:-0.99717752 9:0.61067843 10:0 11:0 12:1 13:-0.81481481 14:-0.90322581 15:-0.96774194 16:0.7571935 17:1 18:0 19:1 20:0 21:1 22:1 23:-0.88888889 
10 1:0.6664175 2:1 3:0 4:-0.83514559 5:-0.92969242 6:-0.96745842 7:-0.94799423 8:-0.99717752 9:0.65517247 10:0 11:0 12:0 13:-0.94444444 14:-0.96774194 15:-1 16:1 17:0 18:1 19:1 20:0 21:1 22:1 23:-0.88888889 
10 1:0.6664175 2:1 3:0 4:-0.83514559 5:-0.92969242 6:-0.96745842 7:-0.94799423 8:-0.99717752 9:0.83908045 10:0 11:0 12:0 13:-0.7962963 14:-0.93548387 15:-0.93548387 16:0.7571935 17:1 18:0 19:0.7096776 20:0 21:0 22:0 23:-1 
10 1:0.6664175 2:1 3:0 4:-0.83514559 5:-0.92969242 6:-0.96745842 7:-0.94799423 8:-0.99717752 9:0.83908045 10:0 11:0 12:0 13:-0.7962963 14:-0.93548387 15:-0.93548387 16:0.7571935 17:1 18:0 19:0.6890178 20:0 21:0 22:0 23:-1 
10 1:0.3830508 2:0 3:0 4:-0.066666667 5:-0.57142857 6:-0.70588235 7:-1 8:-1 9:0.60225636 10:1 11:0 12:1 13:-0.85821357 14:-0.89946629 15:-0.94473468 16:0.7571935 17:1 18:0 19:0.68359995 20:1 21:0 22:0 23:-1 
10 1:0.27741933 2:0 3:0 4:-0.066666667 5:-0.42857143 6:-0.52941176 7:-1 8:-1 9:0.60225636 10:1 11:0 12:1 13:-0.85821357 14:-0.89946629 15:-0.94473468 16:0.7571935 17:1 18:0 19:0.68359995 20:1 21:0 22:0 23:-1 
10 1:0.27741933 2:0 3:0 4:-0.066666667 5:-0.42857143 6:-0.52941176 7:-0.84615385 8:-1 9:0.60225636 10:1 11:0 12:1 13:-0.85821357 14:-0.89946629 15:-0.94473468 16:0.7571935 17:1 18:0 19:0.68359995 20:1 21:0 22:0 23:-1 
10 1:0.5333332 2:0 3:0 4:-0.86666667 5:-0.95238095 6:-1 7:-0.84615385 8:-1 9:0.36479127 10:0 11:0 12:1 13:-0.92592593 14:-0.87096774 15:-0.90322581 16:1 17:0 18:1 19:1 20:0 21:1 22:0 23:-0.97222222 
10 1:0.5333332 2:0 3:0 4:-0.86666667 5:-0.95238095 6:-1 7:-0.84615385 8:-1 9:0.36479127 10:0 11:0 12:1 13:-0.92592593 14:-0.87096774 15:-0.90322581 16:1 17:0 18:1 19:1 20:0 21:1 22:0 23:-0.97222222 
10 1:0.43999994 2:0 3:0 4:-0.91111111 5:-0.95238095 6:-1 7:-0.84615385 8:-1 9:0.5977011 10:0 11:0 12:1 13:-0.87037037 14:-0.90322581 15:-0.93548387 16:1 17:0 18:1 19:1 20:0 21:1 22:0 23:-1 
7.299067520855174 1:0.82500005 2:0 3:0 4:-0.42222222 5:-0.95238095 6:-1 7:-1 8:-1 9:0.8491379 10:0 11:0 12:0 13:-0.77777778 14:-0.96774194 15:-1 16:1 17:0 18:1 19:1 20:0 21:1 22:1 23:-0.91666667 
9.632347277392038 1:0.82500005 2:0 3:0 4:-0.42222222 5:-0.95238095 6:-1 7:-1 8:-1 9:0.8491379 10:0 11:0 12:0 13:-0.77777778 14:-0.96774194 15:-1 16:1 17:0 18:1 19:1 20:0 21:1 22:1 23:-0.91666667 
5.967952428311217 1:1 2:0 3:1 4:-0.82222222 5:-1 6:-1 7:-1 8:-1 9:0.83908045 10:0 11:0 12:1 13:-0.92592593 14:-0.96774194 15:-0.96774194 16:1 17:0 18:1 19:0.63096786 20:0 21:0 22:0 23:-0.97222222 
10 1:0.6664175 2:1 3:0 4:-0.83514559 5:-0.92969242 6:-0.96745842 7:-0.94799423 8:-0.99717752 9:-0.09717864 10:0 11:0 12:0 13:-0.94444444 14:-0.67741935 15:-1 16:0.7571935 17:1 18:0 19:0.9900975 20:0 21:0 22:1 23:-0.88888889 
10 1:0.6664175 2:1 3:0 4:-0.83514559 5:-0.92969242 6:-0.96745842 7:-0.94799423 8:-0.99717752 9:-0.29973477 10:0 11:0 12:0 13:-0.94444444 14:-0.67741935 15:-1 16:0.7571935 17:1 18:0 19:1 20:0 21:1 22:0 23:-1 
10 1:0.6664175 2:1 3:0 4:-0.83514559 5:-0.92969242 6:-0.96745842 7:-0.94799423 8:-0.99717752 9:-0.29973477 10:0 11:0 12:0 13:-0.94444444 14:-0.67741935 15:-1 16:0.7571935 17:1 18:0 19:0.9900975 20:0 21:0 22:1 23:-0.88888889 
10 1:0.6664175 2:1 3:0 4:-0.83514559 5:-0.92969242 6:-0.96745842 7:-0.94799423 8:-0.99717752 9:0.7318008 10:0 11:0 12:0 13:-0.90740741 14:-0.93548387 15:-0.93548387 16:0.824 17:0 18:0 19:0.8126453 20:0 21:0 22:0 23:-0.97222222 
10 1:0.6664175 2:1 3:0 4:-0.83514559 5:-0.92969242 6:-0.96745842 7:-0.94799423 8:-0.99717752 9:0.1310345 10:0 11:0 12:0 13:-0.90740741 14:-0.80645161 15:-0.90322581 16:0.7571935 17:1 18:0 19:0.8442173 20:0 21:0 22:0 23:-1 
10 1:0.6664175 2:1 3:0 4:-0.83514559 5:-0.92969242 6:-0.96745842 7:-0.94799423 8:-0.99717752 9:0.19540238 10:0 11:0 12:0 13:-0.94444444 14:-0.80645161 15:-0.93548387 16:0.7571935 17:1 18:0 19:1 20:0 21:1 22:0 23:-0.97222222 
10 1:0.6664175 2:1 3:0 4:-0.83514559 5:-0.92969242 6:-0.96745842 7:-0.94799423 8:-0.99717752 9:0.89028215 10:0 11:0 12:0 13:-0.66666667 14:-0.96774194 15:-1 16:0.7571935 17:1 18:0 19:1 20:0 21:1 22:0 23:-0.97222222 
10 1:0.6664175 2:1 3:0 4:-0.83514559 5:-0.92969242 6:-0.96745842 7:-0.94799423 8:-0.99717752 9:0.48275864 10:0 11:0 12:0 13:-0.85185185 14:-0.80645161 15:-0.93548387 16:0.7571935 17:1 18:0 19:1 20:0 21:1 22:0 23:-0.97222222 
10 1:0.29999995 2:0 3:0 4:-0.95555556 5:-0.95238095 6:-1 7:-1 8:-1 9:0.2653674 10:0 11:0 12:0 13:-0.90740741 14:-0.87096774 15:-0.96774194 16:0.17647064 17:0 18:0 19:0.056202173 20:0 21:0 22:0 23:-1 
10 1:0.43999994 2:0 3:0 4:-0.91111111 5:-0.95238095 6:-1 7:-0.84615385 8:-1 9:1 10:0 11:1 12:1 13:-0.81481481 14:-1 15:-1 16:-0.125 17:0 18:0 19:0.15725815 20:0 21:0 22:0 23:-1 
10 1:0.6664175 2:1 3:0 4:-0.83514559 5:-0.92969242 6:-0.96745842 7:-0.94799423 8:-0.99717752 9:-0.408046 10:0 11:0 12:0 13:-0.96296296 14:-0.67741935 15:-0.80645161 16:0.8181819 17:0 18:0 19:0.68359995 20:1 21:0 22:0 23:-1 
9.137410213071831 1:0.06666672 2:0 3:0 4:-0.95555556 5:-0.9047619 6:-0.94117647 7:-0.84615385 8:-1 9:0.43204868 10:0 11:0 12:1 13:-0.81481481 14:-0.87096774 15:-1 16:0.6774193 17:0 18:0 19:-0.4516129 20:0 21:0 22:0 23:-1 
10 1:0.6888888 2:0 3:0 4:-0.91111111 5:-0.95238095 6:-0.94117647 7:-1 8:-1 9:0.19540238 10:0 11:0 12:0 13:-0.94444444 14:-0.87096774 15:-0.93548387 16:0.6 17:0 18:0 19:-0.27741933 20:0 21:0 22:0 23:-1 
0.3217056736354967 1:0.6888888 2:0 3:0 4:-0.91111111 5:-0.95238095 6:-0.94117647 7:-1 8:-1 9:0.19540238 10:0 11:0 12:0 13:-0.94444444 14:-0.87096774 15:-0.93548387 16:0.6 17:0 18:0 19:-0.24964935 20:0 21:0 22:0 23:-1 
0.04091117785225871 1:0.43999994 2:0 3:0 4:-0.91111111 5:-0.95238095 6:-1 7:-0.84615385 8:-1 9:0.60225636 10:1 11:0 12:1 13:-0.85821357 14:-0.89946629 15:-0.94473468 16:0.91999996 17:0 18:0 19:1 20:0 21:1 22:1 23:-0.91666667 
10 1:0.6664175 2:1 3:0 4:-0.83514559 5:-0.92969242 6:-0.96745842 7:-0.94799423 8:-0.99717752 9:0.8659003 10:0 11:0 12:0 13:-0.74074074 14:-0.96774194 15:-1 16:0.7571935 17:1 18:0 19:0.9090158 20:0 21:0 22:0 23:-1 
10 1:0.6664175 2:1 3:0 4:-0.83514559 5:-0.92969242 6:-0.96745842 7:-0.94799423 8:-0.99717752 9:0.8659003 10:0 11:0 12:0 13:-0.74074074 14:-0.96774194 15:-1 16:0.7571935 17:1 18:0 19:0.9090158 20:0 21:0 22:0 23:-1 
10 1:0.6664175 2:1 3:0 4:-0.83514559 5:-0.92969242 6:-0.96745842 7:-0.94799423 8:-0.99717752 9:0.8659003 10:0 11:0 12:0 13:-0.74074074 14:-0.96774194 15:-1 16:0.7571935 17:1 18:0 19:0.9090158 20:0 21:0 22:0 23:-1 
0.1137004445113958 1:1 2:0 3:1 4:-0.95555556 5:-1 6:-1 7:-1 8:-1 9:0.5611285 10:0 11:0 12:0 13:-0.88888889 14:-0.93548387 15:-1 16:1 17:0 18:1 19:1 20:0 21:1 22:0 23:-0.97222222 
10 1:0.6664175 2:1 3:0 4:-0.83514559 5:-0.92969242 6:-0.96745842 7:-0.94799423 8:-0.99717752 9:0.39655173 10:0 11:0 12:0 13:-0.88888889 14:-0.80645161 15:-0.93548387 16:1 17:0 18:1 19:1 20:0 21:1 22:0 23:-0.97222222 
10 1:0.6664175 2:1 3:0 4:-0.83514559 5:-0.92969242 6:-0.96745842 7:-0.94799423 8:-0.99717752 9:0.39655173 10:0 11:0 12:0 13:-0.88888889 14:-0.80645161 15:-0.93548387 16:1 17:0 18:1 19:1 20:0 21:1 22:0 23:-0.97222222 
10 1:0.6664175 2:1 3:0 4:-0.83514559 5:-0.92969242 6:-0.96745842 7:-0.94799423 8:-0.99717752 9:0.39655173 10:0 11:0 12:0 13:-0.88888889 14:-0.80645161 15:-0.93548387 16:1 17:0 18:1 19:1 20:0 21:1 22:0 23:-0.97222222 
10 1:0.6664175 2:1 3:0 4:-0.83514559 5:-0.92969242 6:-0.96745842 7:-0.94799423 8:-0.99717752 9:0.39655173 10:0 11:0 12:0 13:-0.88888889 14:-0.80645161 15:-0.93548387 16:1 17:0 18:1 19:1 20:0 21:1 22:0 23:-1 
6.739902866713025 1:0.6664175 2:1 3:0 4:-0.83514559 5:-0.92969242 6:-0.96745842 7:-0.94799423 8:-0.99717752 9:0.89028215 10:0 11:0 12:1 13:-0.66666667 14:-0.96774194 15:-1 16:0.7571935 17:1 18:0 19:1 20:0 21:1 22:0 23:-1 
10 1:0.6664175 2:1 3:0 4:-0.83514559 5:-0.92969242 6:-0.96745842 7:-0.94799423 8:-0.99717752 9:0.3416928 10:0 11:0 12:0 13:-0.75925926 14:-0.61290323 15:-1 16:0.7571935 17:1 18:0 19:1 20:0 21:1 22:0 23:-0.97222222 
10 1:0.6664175 2:1 3:0 4:-0.83514559 5:-0.92969242 6:-0.96745842 7:-0.94799423 8:-0.99717752 9:0.3416928 10:0 11:0 12:0 13:-0.75925926 14:-0.61290323 15:-1 16:0.7571935 17:1 18:0 19:1 20:0 21:1 22:0 23:-1 
10 1:0.6664175 2:1 3:0 4:-0.83514559 5:-0.92969242 6:-0.96745842 7:-0.94799423 8:-0.99717752 9:0.3416928 10:0 11:0 12:0 13:-0.75925926 14:-0.61290323 15:-1 16:0.7571935 17:1 18:0 19:1 20:0 21:1 22:0 23:-1 
4.254287713696799 1:0.6664175 2:1 3:0 4:-0.83514559 5:-0.92969242 6:-0.96745842 7:-0.94799423 8:-0.99717752 9:0.44297087 10:0 11:0 12:1 13:-0.87037037 14:-0.83870968 15:-0.87096774 16:0.7571935 17:1 18:0 19:0.98349595 20:0 21:0 22:0 23:-1 
10 1:0.6664175 2:1 3:0 4:-0.83514559 5:-0.92969242 6:-0.96745842 7:-0.94799423 8:-0.99717752 9:0.4173603 10:0 11:0 12:0 13:-0.85185185 14:-0.77419355 15:-0.90322581 16:1 17:0 18:1 19:1 20:0 21:1 22:0 23:-1 
10 1:0.6664175 2:1 3:0 4:-0.83514559 5:-0.92969242 6:-0.96745842 7:-0.94799423 8:-0.99717752 9:0.4173603 10:0 11:0 12:0 13:-0.85185185 14:-0.77419355 15:-0.90322581 16:1 17:0 18:1 19:1 20:0 21:1 22:0 23:-1 
3.211709833200985 1:0.5999999 2:0 3:0 4:-0.82222222 5:-0.95238095 6:-1 7:-0.84615385 8:-1 9:1 10:0 11:1 12:1 13:-0.92592593 14:-1 15:-1 16:0.7571935 17:1 18:0 19:1 20:0 21:1 22:0 23:-1 
10 1:0.6664175 2:1 3:0 4:-0.83514559 5:-0.92969242 6:-0.96745842 7:-0.94799423 8:-0.99717752 9:0.12225699 10:0 11:0 12:0 13:-0.92592593 14:-0.74193548 15:-1 16:0.4736842 17:0 18:0 19:1 20:0 21:1 22:0 23:-0.97222222 
10 1:0.6664175 2:1 3:0 4:-0.83514559 5:-0.92969242 6:-0.96745842 7:-0.94799423 8:-0.99717752 9:0.8729583 10:0 11:0 12:0 13:-0.72222222 14:-0.93548387 15:-0.93548387 16:0.7571935 17:1 18:0 19:1 20:0 21:1 22:1 23:-0.88888889 
10 1:0.6664175 2:1 3:0 4:-0.83514559 5:-0.92969242 6:-0.96745842 7:-0.94799423 8:-0.99717752 9:0.7502973 10:0 11:0 12:0 13:-0.81481481 14:-0.90322581 15:-0.90322581 16:0.9726027 17:0 18:0 19:0.9708352 20:0 21:0 22:0 23:-0.97222222 
10 1:0.6664175 2:1 3:0 4:-0.83514559 5:-0.92969242 6:-0.96745842 7:-0.94799423 8:-0.99717752 9:0.7586206 10:0 11:0 12:0 13:-0.88888889 14:-0.93548387 15:-0.93548387 16:1 17:0 18:1 19:1 20:0 21:1 22:0 23:-1 
10 1:0.6664175 2:1 3:0 4:-0.83514559 5:-0.92969242 6:-0.96745842 7:-0.94799423 8:-0.99717752 9:0.7586206 10:0 11:0 12:0 13:-0.88888889 14:-0.93548387 15:-0.93548387 16:1 17:0 18:1 19:1 20:0 21:1 22:0 23:-1 
10 1:0.6664175 2:1 3:0 4:-0.83514559 5:-0.92969242 6:-0.96745842 7:-0.94799423 8:-0.99717752 9:0.7586206 10:0 11:0 12:0 13:-0.88888889 14:-0.93548387 15:-0.93548387 16:1 17:0 18:1 19:1 20:0 21:1 22:0 23:-1 
10 1:0.6664175 2:1 3:0 4:-0.83514559 5:-0.92969242 6:-0.96745842 7:-0.94799423 8:-0.99717752 9:0.7586206 10:0 11:0 12:0 13:-0.88888889 14:-0.93548387 15:-0.93548387 16:1 17:0 18:1 19:1 20:0 21:1 22:0 23:-1 
10 1:0.6664175 2:1 3:0 4:-0.83514559 5:-0.92969242 6:-0.96745842 7:-0.94799423 8:-0.99717752 9:0.7586206 10:0 11:0 12:0 13:-0.88888889 14:-0.93548387 15:-0.93548387 16:0.7571935 17:1 18:0 19:1 20:0 21:1 22:0 23:-1 
10 1:0.6664175 2:1 3:0 4:-0.83514559 5:-0.92969242 6:-0.96745842 7:-0.94799423 8:-0.99717752 9:0.65517247 10:0 11:0 12:0 13:-0.94444444 14:-0.93548387 15:-0.93548387 16:1 17:0 18:1 19:1 20:0 21:1 22:0 23:-1 
10 1:0.6664175 2:1 3:0 4:-0.83514559 5:-0.92969242 6:-0.96745842 7:-0.94799423 8:-0.99717752 9:0.65517247 10:0 11:0 12:0 13:-0.94444444 14:-0.93548387 15:-0.93548387 16:1 17:0 18:1 19:1 20:0 21:1 22:0 23:-0.97222222 
10 1:0.6664175 2:1 3:0 4:-0.83514559 5:-0.92969242 6:-0.96745842 7:-0.94799423 8:-0.99717752 9:0.65517247 10:0 11:0 12:0 13:-0.94444444 14:-0.93548387 15:-0.93548387 16:1 17:0 18:1 19:1 20:0 21:1 22:0 23:-1 
10 1:0.6664175 2:1 3:0 4:-0.83514559 5:-0.92969242 6:-0.96745842 7:-0.94799423 8:-0.99717752 9:0.6982759 10:0 11:0 12:0 13:-0.92592593 14:-0.93548387 15:-0.93548387 16:1 17:0 18:1 19:1 20:0 21:1 22:0 23:-1 
10 1:0.6664175 2:1 3:0 4:-0.83514559 5:-0.92969242 6:-0.96745842 7:-0.94799423 8:-0.99717752 9:0.6982759 10:0 11:0 12:0 13:-0.92592593 14:-0.93548387 15:-0.93548387 16:1 17:0 18:1 19:1 20:0 21:1 22:0 23:-1 
10 1:0.6664175 2:1 3:0 4:-0.83514559 5:-0.92969242 6:-0.96745842 7:-0.94799423 8:-0.99717752 9:0.6982759 10:0 11:0 12:0 13:-0.92592593 14:-0.93548387 15:-0.93548387 16:1 17:0 18:1 19:1 20:0 21:1 22:0 23:-1 
10 1:0.6664175 2:1 3:0 4:-0.83514559 5:-0.92969242 6:-0.96745842 7:-0.94799423 8:-0.99717752 9:0.6982759 10:0 11:0 12:0 13:-0.92592593 14:-0.93548387 15:-0.93548387 16:1 17:0 18:1 19:1 20:0 21:1 22:0 23:-1 
10 1:0.6664175 2:1 3:0 4:-0.83514559 5:-0.92969242 6:-0.96745842 7:-0.94799423 8:-0.99717752 9:0.6982759 10:0 11:0 12:0 13:-0.92592593 14:-0.93548387 15:-0.93548387 16:1 17:0 18:1 19:1 20:0 21:1 22:0 23:-1 
10 1:0.6664175 2:1 3:0 4:-0.83514559 5:-0.92969242 6:-0.96745842 7:-0.94799423 8:-0.99717752 9:0.6982759 10:0 11:0 12:0 13:-0.92592593 14:-0.93548387 15:-0.93548387 16:1 17:0 18:1 19:1 20:0 21:1 22:0 23:-1 
10 1:0.29066658 2:0 3:0 4:0.15555556 5:-0.095238095 6:0.11764706 7:-1 8:-1 9:0.60225636 10:1 11:0 12:1 13:-0.85821357 14:-0.89946629 15:-0.94473468 16:0.7571935 17:1 18:0 19:0.68359995 20:1 21:0 22:0 23:-1 
2.326811725392966 1:0.6664175 2:1 3:0 4:-0.83514559 5:-0.92969242 6:-0.96745842 7:-0.94799423 8:-0.99717752 9:0.7318008 10:0 11:0 12:1 13:-0.90740741 14:-0.96774194 15:-1 16:1 17:0 18:1 19:1 20:0 21:1 22:0 23:-1 
9.99350170703555 1:0.6664175 2:1 3:0 4:-0.83514559 5:-0.92969242 6:-0.96745842 7:-0.94799423 8:-0.99717752 9:0.7318008 10:0 11:0 12:1 13:-0.90740741 14:-0.96774194 15:-1 16:1 17:0 18:1 19:1 20:0 21:1 22:0 23:-1 
10 1:0.6664175 2:1 3:0 4:-0.83514559 5:-0.92969242 6:-0.96745842 7:-0.94799423 8:-0.99717752 9:0.6982759 10:0 11:0 12:0 13:-0.92592593 14:-0.93548387 15:-0.93548387 16:1 17:0 18:1 19:1 20:0 21:1 22:0 23:-0.97222222 
4.257223585901134 1:0.6664175 2:1 3:0 4:-0.83514559 5:-0.92969242 6:-0.96745842 7:-0.94799423 8:-0.99717752 9:0.5172415 10:0 11:0 12:1 13:-0.83333333 14:-0.80645161 15:-0.80645161 16:0.7571935 17:1 18:0 19:0.68359995 20:1 21:0 22:0 23:-0.97222222 
10 1:0.6664175 2:1 3:0 4:-0.83514559 5:-0.92969242 6:-0.96745842 7:-0.94799423 8:-0.99717752 9:0.65517247 10:0 11:0 12:0 13:-0.94444444 14:-0.93548387 15:-0.93548387 16:1 17:0 18:1 19:1 20:0 21:1 22:0 23:-1 
10 1:0.6664175 2:1 3:0 4:-0.83514559 5:-0.92969242 6:-0.96745842 7:-0.94799423 8:-0.99717752 9:0.5172415 10:0 11:0 12:0 13:-0.90740741 14:-0.87096774 15:-0.87096774 16:0.6811594 17:0 18:0 19:0.6605891 20:0 21:0 22:0 23:-1 
5.758475841706744 1:0.6888888 2:0 3:0 4:-0.91111111 5:-0.95238095 6:-0.94117647 7:-1 8:-1 9:0.13793099 10:0 11:0 12:0 13:-0.88888889 14:-0.77419355 15:-0.87096774 16:1 17:0 18:1 19:1 20:0 21:1 22:0 23:-1 
10 1:0.6664175 2:1 3:0 4:-0.83514559 5:-0.92969242 6:-0.96745842 7:-0.94799423 8:-0.99717752 9:0.65517247 10:0 11:0 12:0 13:-0.94444444 14:-0.96774194 15:-1 16:0.7571935 17:1 18:0 19:1 20:0 21:1 22:1 23:-0.86111111 
10 1:0.43999994 2:0 3:0 4:-0.91111111 5:-0.9047619 6:-1 7:-0.84615385 8:-1 9:0.60225636 10:1 11:0 12:1 13:-0.85821357 14:-0.89946629 15:-0.94473468 16:0.61904764 17:0 18:0 19:0.68359995 20:1 21:0 22:0 23:-1 
10 1:0.6664175 2:1 3:0 4:-0.83514559 5:-0.92969242 6:-0.96745842 7:-0.94799423 8:-0.99717752 9:0.1434927 10:0 11:0 12:0 13:-0.87037037 14:-0.74193548 15:-0.83870968 16:0.7571935 17:1 18:0 19:1 20:0 21:1 22:1 23:-0.88888889 
10 1:0.6664175 2:1 3:0 4:-0.83514559 5:-0.92969242 6:-0.96745842 7:-0.94799423 8:-0.99717752 9:0.7586206 10:0 11:0 12:0 13:-0.88888889 14:-0.96774194 15:-1 16:1 17:0 18:1 19:1 20:0 21:1 22:0 23:-1 
10 1:0.6664175 2:1 3:0 4:-0.83514559 5:-0.92969242 6:-0.96745842 7:-0.94799423 8:-0.99717752 9:0.7318008 10:0 11:0 12:0 13:-0.90740741 14:-0.96774194 15:-1 16:1 17:0 18:1 19:1 20:0 21:1 22:0 23:-1 
10 1:0.6664175 2:1 3:0 4:-0.83514559 5:-0.92969242 6:-0.96745842 7:-0.94799423 8:-0.99717752 9:0.7318008 10:0 11:0 12:0 13:-0.90740741 14:-0.96774194 15:-1 16:1 17:0 18:1 19:1 20:0 21:1 22:0 23:-1 
10 1:0.6664175 2:1 3:0 4:-0.83514559 5:-0.92969242 6:-0.96745842 7:-0.94799423 8:-0.99717752 9:0.7318008 10:0 11:0 12:0 13:-0.90740741 14:-0.96774194 15:-1 16:1 17:0 18:1 19:1 20:0 21:1 22:0 23:-1 
10 1:0.6664175 2:1 3:0 4:-0.83514559 5:-0.92969242 6:-0.96745842 7:-0.94799423 8:-0.99717752 9:0.7318008 10:0 11:0 12:0 13:-0.90740741 14:-0.96774194 15:-1 16:1 17:0 18:1 19:1 20:0 21:1 22:0 23:-1 
10 1:0.6888888 2:0 3:0 4:-0.91111111 5:-0.95238095 6:-0.94117647 7:-1 8:-1 9:0.8580122 10:0 11:0 12:1 13:-0.90740741 14:-0.96774194 15:-0.96774194 16:1 17:0 18:1 19:1 20:0 21:1 22:0 23:-0.94444444 
10 1:0.6888888 2:0 3:0 4:-0.91111111 5:-0.95238095 6:-0.94117647 7:-1 8:-1 9:0.8580122 10:0 11:0 12:1 13:-0.90740741 14:-0.96774194 15:-0.96774194 16:1 17:0 18:1 19:1 20:0 21:1 22:0 23:-0.97222222 
10 1:0.6664175 2:1 3:0 4:-0.83514559 5:-0.92969242 6:-0.96745842 7:-0.94799423 8:-0.99717752 9:0.79885066 10:0 11:0 12:0 13:-0.85185185 14:-0.96774194 15:-1 16:0.7571935 17:1 18:0 19:1 20:0 21:1 22:0 23:-1 
10 1:0.6664175 2:1 3:0 4:-0.83514559 5:-0.92969242 6:-0.96745842 7:-0.94799423 8:-0.99717752 9:0.79885066 10:0 11:0 12:0 13:-0.85185185 14:-0.96774194 15:-1 16:0.7571935 17:1 18:0 19:0.9878342 20:0 21:0 22:0 23:-1 
10 1:0.6664175 2:1 3:0 4:-0.83514559 5:-0.92969242 6:-0.96745842 7:-0.94799423 8:-0.99717752 9:0.79885066 10:0 11:0 12:0 13:-0.85185185 14:-0.96774194 15:-1 16:0.7571935 17:1 18:0 19:0.9878342 20:0 21:0 22:1 23:-0.91666667 
10 1:0.6664175 2:1 3:0 4:-0.83514559 5:-0.92969242 6:-0.96745842 7:-0.94799423 8:-0.99717752 9:0.7586206 10:0 11:0 12:0 13:-0.72222222 14:-0.87096774 15:-1 16:1 17:0 18:1 19:1 20:0 21:1 22:0 23:-1 
10 1:0.6664175 2:1 3:0 4:-0.83514559 5:-0.92969242 6:-0.96745842 7:-0.94799423 8:-0.99717752 9:0.7586206 10:0 11:0 12:0 13:-0.72222222 14:-0.87096774 15:-1 16:1 17:0 18:1 19:1 20:0 21:1 22:0 23:-1 
10 1:0.06666672 2:0 3:0 4:-0.95555556 5:-0.9047619 6:-0.94117647 7:-0.84615385 8:-1 9:0.0844233 10:0 11:0 12:0 13:-0.88888889 14:-0.77419355 15:-0.90322581 16:0.5555556 17:0 18:0 19:1 20:0 21:1 22:0 23:-1 
10 1:0.79999983 2:0 3:0 4:-0.51111111 5:-0.9047619 6:-0.88235294 7:-1 8:-1 9:0.8275862 10:0 11:0 12:0 13:-0.81481481 14:-0.93548387 15:-0.93548387 16:-0.06382978 17:0 18:0 19:-0.13246393 20:0 21:0 22:0 23:-1 
10 1:0.6664175 2:1 3:0 4:-0.83514559 5:-0.92969242 6:-0.96745842 7:-0.94799423 8:-0.99717752 9:0.7318008 10:0 11:0 12:0 13:-0.90740741 14:-0.96774194 15:-1 16:0.7571935 17:1 18:0 19:0.5852535 20:0 21:0 22:0 23:-0.97222222 
10 1:0.06666672 2:0 3:0 4:-0.066666667 5:-0.14285714 6:-0.70588235 7:-1 8:-1 9:0.60225636 10:1 11:0 12:1 13:-0.85821357 14:-0.89946629 15:-0.94473468 16:0.7571935 17:1 18:0 19:0.68359995 20:1 21:0 22:0 23:-1 
10 1:0.17647064 2:0 3:0 4:-0.022222222 5:-0.23809524 6:-0.76470588 7:-1 8:-1 9:0.60225636 10:1 11:0 12:1 13:-0.85821357 14:-0.89946629 15:-0.94473468 16:0.7571935 17:1 18:0 19:0.68359995 20:1 21:0 22:0 23:-1 
10 1:0.82500005 2:0 3:0 4:-0.42222222 5:-0.95238095 6:-1 7:-1 8:-1 9:0.8491379 10:0 11:0 12:1 13:-0.77777778 14:-0.96774194 15:-1 16:0.4883721 17:0 18:0 19:0.45536387 20:0 21:0 22:0 23:-1 
10 1:0.6664175 2:1 3:0 4:-0.83514559 5:-0.92969242 6:-0.96745842 7:-0.94799423 8:-0.99717752 9:0.7318008 10:0 11:0 12:0 13:-0.75925926 14:-0.90322581 15:-0.93548387 16:0.13432837 17:0 18:0 19:0.078478694 20:0 21:0 22:0 23:-1 
7.486873831961217 1:0.6664175 2:1 3:0 4:-0.83514559 5:-0.92969242 6:-0.96745842 7:-0.94799423 8:-0.99717752 9:-0.056034446 10:0 11:0 12:0 13:-0.88888889 14:-0.5483871 15:-1 16:0.7571935 17:1 18:0 19:0.834267 20:0 21:0 22:1 23:-0.63888889 
10 1:0.6664175 2:1 3:0 4:-0.83514559 5:-0.92969242 6:-0.96745842 7:-0.94799423 8:-0.99717752 9:-0.056034446 10:0 11:0 12:0 13:-0.88888889 14:-0.5483871 15:-1 16:0.7571935 17:1 18:0 19:0.8614241 20:0 21:0 22:1 23:-0.83333333 
10 1:0.8444444 2:0 3:0 4:-0.33333333 5:-0.95238095 6:-1 7:-1 8:-1 9:0.8659003 10:0 11:0 12:0 13:-0.74074074 14:-0.96774194 15:-1 16:0.36842108 17:0 18:0 19:0.32767415 20:0 21:0 22:0 23:-0.94444444 
4.467033163850192 1:0.6664175 2:1 3:0 4:-0.83514559 5:-0.92969242 6:-0.96745842 7:-0.94799423 8:-0.99717752 9:0.7805643 10:0 11:0 12:0 13:-0.87037037 14:-0.93548387 15:-0.93548387 16:1 17:0 18:1 19:1 20:0 21:1 22:0 23:-1 
10 1:0.6664175 2:1 3:0 4:-0.83514559 5:-0.92969242 6:-0.96745842 7:-0.94799423 8:-0.99717752 9:0.7805643 10:0 11:0 12:0 13:-0.87037037 14:-0.93548387 15:-0.93548387 16:1 17:0 18:1 19:1 20:0 21:1 22:0 23:-1 
10 1:0.6664175 2:1 3:0 4:-0.83514559 5:-0.92969242 6:-0.96745842 7:-0.94799423 8:-0.99717752 9:0.7805643 10:0 11:0 12:0 13:-0.87037037 14:-0.93548387 15:-0.93548387 16:1 17:0 18:1 19:1 20:0 21:1 22:0 23:-1 
10 1:0.6664175 2:1 3:0 4:-0.83514559 5:-0.92969242 6:-0.96745842 7:-0.94799423 8:-0.99717752 9:0.7805643 10:0 11:0 12:0 13:-0.87037037 14:-0.93548387 15:-0.93548387 16:1 17:0 18:1 19:1 20:0 21:1 22:0 23:-1 
10 1:0.6664175 2:1 3:0 4:-0.83514559 5:-0.92969242 6:-0.96745842 7:-0.94799423 8:-0.99717752 9:0.7805643 10:0 11:0 12:0 13:-0.87037037 14:-0.93548387 15:-0.93548387 16:1 17:0 18:1 19:1 20:0 21:1 22:0 23:-1 
10 1:0.6664175 2:1 3:0 4:-0.83514559 5:-0.92969242 6:-0.96745842 7:-0.94799423 8:-0.99717752 9:0.7805643 10:0 11:0 12:0 13:-0.87037037 14:-0.93548387 15:-0.93548387 16:1 17:0 18:1 19:1 20:0 21:1 22:0 23:-1 
10 1:0.6664175 2:1 3:0 4:-0.83514559 5:-0.92969242 6:-0.96745842 7:-0.94799423 8:-0.99717752 9:0.7805643 10:0 11:0 12:0 13:-0.87037037 14:-0.93548387 15:-0.93548387 16:1 17:0 18:1 19:1 20:0 21:1 22:0 23:-1 
10 1:0.6664175 2:1 3:0 4:-0.83514559 5:-0.92969242 6:-0.96745842 7:-0.94799423 8:-0.99717752 9:0.7805643 10:0 11:0 12:0 13:-0.87037037 14:-0.93548387 15:-0.93548387 16:1 17:0 18:1 19:1 20:0 21:1 22:0 23:-1 
10 1:0.28205132 2:0 3:0 4:0.2 5:-0.047619048 6:0.17647059 7:-1 8:-1 9:0.60225636 10:1 11:0 12:1 13:-0.85821357 14:-0.89946629 15:-0.94473468 16:0.7571935 17:1 18:0 19:0.68359995 20:1 21:0 22:0 23:-1 
10 1:0.6664175 2:1 3:0 4:-0.83514559 5:-0.92969242 6:-0.96745842 7:-0.94799423 8:-0.99717752 9:0.83908045 10:0 11:0 12:0 13:-0.7962963 14:-0.96774194 15:-1 16:0.7571935 17:1 18:0 19:1 20:0 21:0 22:0 23:-0.94444444 
10 1:0.6664175 2:1 3:0 4:-0.83514559 5:-0.92969242 6:-0.96745842 7:-0.94799423 8:-0.99717752 9:0.44297087 10:0 11:0 12:0 13:-0.87037037 14:-0.80645161 15:-0.93548387 16:0.7571935 17:1 18:0 19:1 20:0 21:1 22:0 23:-1 
10 1:0.6664175 2:1 3:0 4:-0.83514559 5:-0.92969242 6:-0.96745842 7:-0.94799423 8:-0.99717752 9:0.7318008 10:0 11:0 12:0 13:-0.90740741 14:-0.96774194 15:-1 16:0.74358976 17:0 18:0 19:0.7270472 20:0 21:0 22:1 23:-0.88888889 
4.119544090354227 1:0.6888888 2:0 3:0 4:-0.91111111 5:-0.95238095 6:-0.94117647 7:-1 8:-1 9:0.6188748 10:0 11:0 12:0 13:-0.90740741 14:-0.90322581 15:-0.90322581 16:1 17:0 18:1 19:0.08755767 20:0 21:0 22:0 23:-1 
10 1:0.6664175 2:1 3:0 4:-0.83514559 5:-0.92969242 6:-0.96745842 7:-0.94799423 8:-0.99717752 9:0.7586206 10:0 11:0 12:0 13:-0.88888889 14:-0.96774194 15:-1 16:1 17:0 18:1 19:1 20:0 21:1 22:0 23:-1 
10 1:0.6664175 2:1 3:0 4:-0.83514559 5:-0.92969242 6:-0.96745842 7:-0.94799423 8:-0.99717752 9:0.7586206 10:0 11:0 12:0 13:-0.88888889 14:-0.96774194 15:-1 16:1 17:0 18:1 19:1 20:0 21:1 22:0 23:-1 
10 1:0.6664175 2:1 3:0 4:-0.83514559 5:-0.92969242 6:-0.96745842 7:-0.94799423 8:-0.99717752 9:0.7586206 10:0 11:0 12:0 13:-0.88888889 14:-0.96774194 15:-1 16:0.8181819 17:0 18:0 19:0.8064518 20:0 21:0 22:0 23:-1 
10 1:0.6664175 2:1 3:0 4:-0.83514559 5:-0.92969242 6:-0.96745842 7:-0.94799423 8:-0.99717752 9:0.7586206 10:0 11:0 12:0 13:-0.88888889 14:-0.96774194 15:-1 16:0.7777778 17:0 18:0 19:0.76344097 20:0 21:0 22:0 23:-1 
8.966759401446033 1:0.6664175 2:1 3:0 4:-0.83514559 5:-0.92969242 6:-0.96745842 7:-0.94799423 8:-0.99717752 9:-0.20689654 10:0 11:0 12:0 13:-0.90740741 14:-0.48387097 15:-1 16:0.7571935 17:1 18:0 19:1 20:0 21:1 22:0 23:-0.94444444 
3.645117247639385 1:0.6664175 2:1 3:0 4:-0.83514559 5:-0.92969242 6:-0.96745842 7:-0.94799423 8:-0.99717752 9:-0.20689654 10:0 11:0 12:0 13:-0.90740741 14:-0.48387097 15:-1 16:0.7571935 17:1 18:0 19:1 20:0 21:1 22:0 23:-0.94444444 
10 1:0.6664175 2:1 3:0 4:-0.83514559 5:-0.92969242 6:-0.96745842 7:-0.94799423 8:-0.99717752 9:0.7318008 10:0 11:0 12:1 13:-0.90740741 14:-0.96774194 15:-1 16:0.8125 17:0 18:0 19:0.80040336 20:0 21:0 22:0 23:-1 
10 1:0.29999995 2:0 3:0 4:-0.95555556 5:-0.95238095 6:-1 7:-0.84615385 8:-1 9:0.7318008 10:0 11:0 12:0 13:-0.90740741 14:-0.96774194 15:-1 16:1 17:0 18:1 19:1 20:0 21:1 22:0 23:-1 
10 1:0.7103449 2:0 3:0 4:-0.51111111 5:-0.9047619 6:-0.94117647 7:0.69230769 8:-1 9:0.7502973 10:0 11:0 12:0 13:-0.81481481 14:-0.93548387 15:-0.96774194 16:0.7571935 17:1 18:0 19:0.68359995 20:1 21:0 22:0 23:-1 
10 1:0.6664175 2:1 3:0 4:-0.83514559 5:-0.92969242 6:-0.96745842 7:-0.94799423 8:-0.99717752 9:0.65517247 10:0 11:0 12:0 13:-0.94444444 14:-0.93548387 15:-0.93548387 16:0.83606553 17:0 18:0 19:0.82548916 20:0 21:0 22:1 23:-0.91666667 
10 1:0.5999999 2:0 3:0 4:-0.95555556 5:-0.95238095 6:-0.94117647 7:-1 8:-1 9:0.5172415 10:0 11:0 12:0 13:-0.83333333 14:-0.90322581 15:-1 16:0.1428572 17:0 18:0 19:0.13573945 20:0 21:0 22:0 23:-1 
10 1:0.5999999 2:0 3:0 4:-0.95555556 5:-0.95238095 6:-0.94117647 7:-1 8:-1 9:0.45494986 10:0 11:0 12:0 13:-0.83333333 14:-0.87096774 15:-0.96774194 16:0.09090912 17:0 18:0 19:0.3225807 20:0 21:0 22:0 23:-1 
10 1:0.5999999 2:0 3:0 4:-0.95555556 5:-0.95238095 6:-0.94117647 7:-1 8:-1 9:0.4752624 10:0 11:0 12:0 13:-0.88888889 14:-0.90322581 15:-0.96774194 16:-0.058823526 17:0 18:0 19:0.29032266 20:0 21:0 22:0 23:-1 
6.335137678655004 1:1 2:0 3:1 4:-0.82222222 5:-1 6:-1 7:-1 8:-1 9:0.19540238 10:0 11:0 12:1 13:-0.92592593 14:-0.80645161 15:-0.83870968 16:0.6 17:0 18:0 19:1 20:0 21:1 22:0 23:-0.97222222 
10 1:0.29999995 2:0 3:0 4:-0.95555556 5:-0.95238095 6:-1 7:-0.84615385 8:-1 9:0.65517247 10:0 11:0 12:1 13:-0.83333333 14:-0.90322581 15:-1 16:1 17:0 18:1 19:1 20:0 21:1 22:0 23:-1 
10 1:0.06666672 2:0 3:0 4:-1 5:-0.95238095 6:-1 7:-0.84615385 8:-1 9:1 10:0 11:1 12:1 13:-0.7962963 14:-1 15:-1 16:1 17:0 18:1 19:0.76344097 20:0 21:0 22:0 23:-1 
10 1:0.6664175 2:1 3:0 4:-0.83514559 5:-0.92969242 6:-0.96745842 7:-0.94799423 8:-0.99717752 9:0.7805643 10:0 11:0 12:0 13:-0.87037037 14:-0.93548387 15:-0.93548387 16:0.7571935 17:1 18:0 19:0.75115216 20:0 21:0 22:0 23:-1 
0.01963363644981488 1:0.43999994 2:0 3:0 4:-0.91111111 5:-0.95238095 6:-1 7:-0.84615385 8:-1 9:1 10:0 11:1 12:1 13:-0.75925926 14:-1 15:-1 16:-1 17:0 18:0 19:0.36129034 20:0 21:0 22:0 23:-1 
10 1:0.5999999 2:0 3:0 4:-0.95555556 5:-0.95238095 6:-0.94117647 7:-1 8:-1 9:0.35632193 10:0 11:0 12:0 13:-0.85185185 14:-0.80645161 15:-0.93548387 16:-0.4285714 17:0 18:0 19:-0.09493083 20:0 21:0 22:0 23:-1 
3.855289832501556 1:0.5999999 2:0 3:0 4:-0.95555556 5:-0.95238095 6:-0.94117647 7:-1 8:-1 9:0.35632193 10:0 11:0 12:0 13:-0.85185185 14:-0.80645161 15:-0.93548387 16:-0.6 17:0 18:0 19:-0.5148883 20:0 21:0 22:0 23:-1 
10 1:0.6664175 2:1 3:0 4:-0.83514559 5:-0.92969242 6:-0.96745842 7:-0.94799423 8:-0.99717752 9:0.7318008 10:0 11:0 12:0 13:-0.90740741 14:-0.93548387 15:-0.93548387 16:0.7571935 17:1 18:0 19:0.9391706 20:0 21:0 22:0 23:-1 
10 1:0.6664175 2:1 3:0 4:-0.83514559 5:-0.92969242 6:-0.96745842 7:-0.94799423 8:-0.99717752 9:-0.06206894 10:0 11:0 12:0 13:-0.92592593 14:-0.64516129 15:-0.77419355 16:0.7571935 17:1 18:0 19:0.5502045 20:0 21:0 22:0 23:-0.94444444 
5.191827204952209 1:0.6664175 2:1 3:0 4:-0.83514559 5:-0.92969242 6:-0.96745842 7:-0.94799423 8:-0.99717752 9:0.8580122 10:0 11:0 12:0 13:-0.75925926 14:-0.93548387 15:-0.93548387 16:0.91999996 17:0 18:0 19:1 20:0 21:1 22:0 23:-1 
10 1:0.29999995 2:0 3:0 4:-0.95555556 5:-0.95238095 6:-1 7:-1 8:-1 9:0.45494986 10:0 11:0 12:0 13:-0.83333333 14:-0.87096774 15:-0.96774194 16:1 17:0 18:1 19:1 20:0 21:1 22:0 23:-0.94444444 
10 1:0.47500002 2:0 3:0 4:-0.51111111 5:-0.76190476 6:-0.76470588 7:-1 8:-1 9:0.5474138 10:0 11:0 12:0 13:-0.81481481 14:-0.83870968 15:-0.87096774 16:0.42465758 17:0 18:0 19:0.3875388 20:0 21:0 22:0 23:-1 
10 1:0.81333315 2:0 3:0 4:-0.46666667 5:-0.95238095 6:-1 7:-1 8:-1 9:0.83908045 10:0 11:0 12:0 13:-0.7962963 14:-0.96774194 15:-1 16:0.6888889 17:0 18:0 19:0.6688173 20:0 21:0 22:0 23:-1 
9.562230993502808 1:1 2:0 3:1 4:-0.86666667 5:-1 6:-1 7:-1 8:-1 9:0.5977011 10:0 11:0 12:1 13:-0.87037037 14:-0.93548387 15:-1 16:0.43589747 17:0 18:0 19:0.5806452 20:0 21:0 22:0 23:-0.97222222 
0.6766600994366652 1:1 2:0 3:1 4:-0.86666667 5:-1 6:-1 7:-1 8:-1 9:0.19540238 10:0 11:0 12:0 13:-0.88888889 14:-0.80645161 15:-0.90322581 16:-0.034482777 17:0 18:0 19:0.84792626 20:0 21:0 22:0 23:-0.97222222 
1.177427252441999 1:0.6664175 2:1 3:0 4:-0.83514559 5:-0.92969242 6:-0.96745842 7:-0.94799423 8:-0.99717752 9:-0.12643671 10:0 11:0 12:0 13:-0.90740741 14:-0.61290323 15:-1 16:0.7777778 17:0 18:0 19:0.3301922 20:0 21:0 22:0 23:-0.94444444 
10 1:0.6664175 2:1 3:0 4:-0.83514559 5:-0.92969242 6:-0.96745842 7:-0.94799423 8:-0.99717752 9:-0.12643671 10:0 11:0 12:0 13:-0.90740741 14:-0.61290323 15:-1 16:0.7777778 17:0 18:0 19:0.3301922 20:0 21:0 22:0 23:-0.94444444 
10 1:0.43999994 2:0 3:0 4:-0.91111111 5:-0.95238095 6:-1 7:-1 8:-1 9:1 10:0 11:1 12:1 13:-0.83333333 14:-1 15:-1 16:0.53846157 17:0 18:0 19:0.7023934 20:0 21:0 22:0 23:-1 
10 1:0.43999994 2:0 3:0 4:-0.91111111 5:-0.95238095 6:-1 7:-1 8:-1 9:1 10:0 11:1 12:1 13:-0.83333333 14:-1 15:-1 16:0.53846157 17:0 18:0 19:0.58792937 20:0 21:0 22:0 23:-1 
10 1:0.29999995 2:0 3:0 4:-0.95555556 5:-0.95238095 6:-1 7:-0.84615385 8:-1 9:0.81432366 10:0 11:0 12:1 13:-0.83333333 14:-0.96774194 15:-1 16:0.8909091 17:0 18:0 19:0.38494635 20:0 21:0 22:0 23:-0.97222222 
10 1:0.43999994 2:0 3:0 4:-0.91111111 5:-0.9047619 6:-1 7:-1 8:-1 9:0.5172415 10:0 11:0 12:0 13:-0.87037037 14:-0.83870968 15:-0.96774194 16:0.20000005 17:0 18:0 19:1 20:0 21:1 22:0 23:-1 
10 1:0.29999995 2:0 3:0 4:-0.95555556 5:-0.95238095 6:-1 7:-0.84615385 8:-1 9:0.5172415 10:0 11:0 12:0 13:-0.83333333 14:-0.87096774 15:-1 16:1 17:0 18:1 19:1 20:0 21:1 22:0 23:-1 
10 1:0.6664175 2:1 3:0 4:-0.83514559 5:-0.92969242 6:-0.96745842 7:-0.94799423 8:-0.99717752 9:0.8491379 10:0 11:0 12:0 13:-0.77777778 14:-0.96774194 15:-1 16:0.7571935 17:1 18:0 19:0.5390755 20:0 21:0 22:0 23:-1 
10 1:0.6664175 2:1 3:0 4:-0.83514559 5:-0.92969242 6:-0.96745842 7:-0.94799423 8:-0.99717752 9:0.6286472 10:0 11:0 12:0 13:-0.85185185 14:-0.93548387 15:-1 16:0.7571935 17:1 18:0 19:0.6101773 20:0 21:0 22:0 23:-1 
10 1:0.06666672 2:0 3:0 4:-0.95555556 5:-0.9047619 6:-0.94117647 7:-0.69230769 8:-1 9:0.39655173 10:0 11:0 12:0 13:-0.88888889 14:-0.83870968 15:-1 16:1 17:0 18:1 19:1 20:0 21:1 22:0 23:-1 
10 1:0.06666672 2:0 3:0 4:-0.95555556 5:-0.9047619 6:-0.94117647 7:-0.69230769 8:-1 9:0.39655173 10:0 11:0 12:0 13:-0.88888889 14:-0.83870968 15:-1 16:1 17:0 18:1 19:1 20:0 21:1 22:0 23:-1 
10 1:0.06666672 2:0 3:0 4:-0.95555556 5:-0.9047619 6:-0.94117647 7:-0.69230769 8:-1 9:0.39655173 10:0 11:0 12:0 13:-0.88888889 14:-0.83870968 15:-1 16:1 17:0 18:1 19:1 20:0 21:1 22:0 23:-1 
10 1:0.6664175 2:1 3:0 4:-0.83514559 5:-0.92969242 6:-0.96745842 7:-0.94799423 8:-0.99717752 9:0.19540238 10:0 11:0 12:1 13:-0.90740741 14:-0.77419355 15:-0.80645161 16:0.7571935 17:1 18:0 19:0.8362284 20:0 21:0 22:0 23:-1 
4.856345429483801 1:0.29999995 2:0 3:0 4:-0.95555556 5:-0.95238095 6:-1 7:-0.84615385 8:-1 9:1 10:0 11:1 12:1 13:-0.85185185 14:-1 15:-1 16:1 17:0 18:1 19:0.7188071 20:0 21:0 22:0 23:-1 
4.726273079074804 1:0.6888888 2:0 3:0 4:-0.91111111 5:-0.95238095 6:-0.94117647 7:-1 8:-1 9:0.5172415 10:0 11:0 12:0 13:-0.83333333 14:-0.90322581 15:-1 16:0.20000005 17:0 18:0 19:0.79127145 20:0 21:0 22:0 23:-1 
10 1:0.6888888 2:0 3:0 4:-0.91111111 5:-0.95238095 6:-0.94117647 7:-1 8:-1 9:0.5172415 10:0 11:0 12:0 13:-0.83333333 14:-0.90322581 15:-1 16:0.6 17:0 18:0 19:0.79127145 20:0 21:0 22:0 23:-1 
10 1:0.6888888 2:0 3:0 4:-0.91111111 5:-0.95238095 6:-0.94117647 7:-1 8:-1 9:0.5172415 10:0 11:0 12:0 13:-0.83333333 14:-0.90322581 15:-1 16:0.5 17:0 18:0 19:0.79127145 20:0 21:0 22:0 23:-1 
10 1:0.21967196 2:0 3:0 4:-0.11111111 5:-0.38095238 6:-0.47058824 7:-1 8:-1 9:0.60225636 10:1 11:0 12:1 13:-0.85821357 14:-0.89946629 15:-0.94473468 16:0.7571935 17:1 18:0 19:0.68359995 20:1 21:0 22:0 23:-1 
10 1:0.29999995 2:0 3:0 4:-0.95555556 5:-0.95238095 6:-1 7:-0.84615385 8:-1 9:0.24568963 10:0 11:0 12:1 13:-0.85185185 14:-0.80645161 15:-0.93548387 16:0.5 17:0 18:0 19:0.46774197 20:0 21:0 22:0 23:-0.97222222 
10 1:0.29999995 2:0 3:0 4:-0.95555556 5:-0.95238095 6:-1 7:-0.84615385 8:-1 9:-0.034482658 10:0 11:0 12:0 13:-0.90740741 14:-0.61290323 15:-1 16:1 17:0 18:1 19:0.896649 20:0 21:0 22:0 23:-0.97222222 
10 1:0.29999995 2:0 3:0 4:-0.95555556 5:-0.95238095 6:-1 7:-0.84615385 8:-1 9:-0.034482658 10:0 11:0 12:0 13:-0.90740741 14:-0.61290323 15:-1 16:1 17:0 18:1 19:0.896649 20:0 21:0 22:0 23:-0.97222222 
10 1:0.43999994 2:0 3:0 4:-0.91111111 5:-0.95238095 6:-1 7:-0.84615385 8:-1 9:0.766407 10:0 11:0 12:1 13:-0.7962963 14:-0.93548387 15:-0.96774194 16:0.8947369 17:0 18:0 19:0.6638371 20:0 21:0 22:0 23:-1 
10 1:0.6664175 2:1 3:0 4:-0.83514559 5:-0.92969242 6:-0.96745842 7:-0.94799423 8:-0.99717752 9:0.65517247 10:0 11:0 12:0 13:-0.88888889 14:-0.90322581 15:-0.90322581 16:0.7571935 17:1 18:0 19:0.96198165 20:0 21:0 22:0 23:-1 
10 1:0.6664175 2:1 3:0 4:-0.83514559 5:-0.92969242 6:-0.96745842 7:-0.94799423 8:-0.99717752 9:0.81432366 10:0 11:0 12:0 13:-0.83333333 14:-0.93548387 15:-0.93548387 16:0.8125 17:0 18:0 19:0.80040336 20:0 21:0 22:0 23:-0.97222222 
10 1:0.6664175 2:1 3:0 4:-0.83514559 5:-0.92969242 6:-0.96745842 7:-0.94799423 8:-0.99717752 9:0.39655173 10:0 11:0 12:0 13:-0.88888889 14:-0.80645161 15:-0.93548387 16:1 17:0 18:1 19:1 20:0 21:1 22:1 23:-0.80555556 
10 1:0.6664175 2:1 3:0 4:-0.83514559 5:-0.92969242 6:-0.96745842 7:-0.94799423 8:-0.99717752 9:0.39655173 10:0 11:0 12:0 13:-0.88888889 14:-0.80645161 15:-0.93548387 16:1 17:0 18:1 19:1 20:0 21:1 22:0 23:-0.97222222 
10 1:0.6664175 2:1 3:0 4:-0.83514559 5:-0.92969242 6:-0.96745842 7:-0.94799423 8:-0.99717752 9:0.8275862 10:0 11:0 12:0 13:-0.81481481 14:-0.96774194 15:-1 16:1 17:0 18:1 19:1 20:0 21:1 22:0 23:-1 
10 1:0.6664175 2:1 3:0 4:-0.83514559 5:-0.92969242 6:-0.96745842 7:-0.94799423 8:-0.99717752 9:0.8275862 10:0 11:0 12:0 13:-0.81481481 14:-0.96774194 15:-1 16:1 17:0 18:1 19:1 20:0 21:1 22:0 23:-1 
10 1:0.6664175 2:1 3:0 4:-0.83514559 5:-0.92969242 6:-0.96745842 7:-0.94799423 8:-0.99717752 9:0.65517247 10:0 11:0 12:0 13:-0.83333333 14:-0.93548387 15:-1 16:1 17:0 18:1 19:1 20:0 21:1 22:0 23:-1 
10 1:0.6664175 2:1 3:0 4:-0.83514559 5:-0.92969242 6:-0.96745842 7:-0.94799423 8:-0.99717752 9:0.65517247 10:0 11:0 12:0 13:-0.83333333 14:-0.93548387 15:-1 16:1 17:0 18:1 19:1 20:0 21:1 22:0 23:-1 
10 1:0.6664175 2:1 3:0 4:-0.83514559 5:-0.92969242 6:-0.96745842 7:-0.94799423 8:-0.99717752 9:0.65517247 10:0 11:0 12:0 13:-0.83333333 14:-0.93548387 15:-1 16:1 17:0 18:1 19:1 20:0 21:1 22:0 23:-0.97222222 
10 1:0.6664175 2:1 3:0 4:-0.83514559 5:-0.92969242 6:-0.96745842 7:-0.94799423 8:-0.99717752 9:0.65517247 10:0 11:0 12:0 13:-0.83333333 14:-0.93548387 15:-1 16:1 17:0 18:1 19:1 20:0 21:1 22:0 23:-0.97222222 
10 1:0.6664175 2:1 3:0 4:-0.83514559 5:-0.92969242 6:-0.96745842 7:-0.94799423 8:-0.99717752 9:0.65517247 10:0 11:0 12:0 13:-0.83333333 14:-0.93548387 15:-1 16:1 17:0 18:1 19:1 20:0 21:1 22:0 23:-0.97222222 
10 1:0.6664175 2:1 3:0 4:-0.83514559 5:-0.92969242 6:-0.96745842 7:-0.94799423 8:-0.99717752 9:0.65517247 10:0 11:0 12:0 13:-0.83333333 14:-0.93548387 15:-1 16:1 17:0 18:1 19:1 20:0 21:1 22:0 23:-0.97222222 
10 1:0.7846153 2:0 3:0 4:-0.28888889 5:-0.85714286 6:-0.94117647 7:-1 8:-1 9:0.8729583 10:0 11:0 12:0 13:-0.72222222 14:-0.93548387 15:-0.93548387 16:0.78313255 17:0 18:0 19:0.7691412 20:0 21:0 22:0 23:-1 
1.241745336069874 1:0.29999995 2:0 3:0 4:-0.95555556 5:-0.95238095 6:-1 7:-0.84615385 8:-1 9:0.19540238 10:0 11:0 12:1 13:-0.92592593 14:-0.83870968 15:-0.90322581 16:0.4666667 17:0 18:0 19:0.9495492 20:0 21:0 22:0 23:-0.94444444 
10 1:0.43999994 2:0 3:0 4:-0.91111111 5:-0.95238095 6:-1 7:-0.84615385 8:-1 9:1 10:0 11:1 12:1 13:-0.77777778 14:-1 15:-1 16:0.33333337 17:0 18:0 19:0.6215055 20:0 21:0 22:0 23:-1 
0.2124591863514807 1:1 2:0 3:1 4:-0.86666667 5:-1 6:-1 7:-1 8:-1 9:0.12225699 10:0 11:0 12:1 13:-0.92592593 14:-0.77419355 15:-0.80645161 16:-0.034482777 17:0 18:0 19:1 20:0 21:1 22:0 23:-0.97222222 
10 1:0.6888888 2:0 3:0 4:-0.91111111 5:-0.95238095 6:-0.94117647 7:-1 8:-1 9:0.7103448 10:0 11:0 12:1 13:-0.85185185 14:-0.93548387 15:-0.96774194 16:0.8181819 17:0 18:0 19:0.8121443 20:0 21:0 22:0 23:-1 
10 1:0.43999994 2:0 3:0 4:-0.91111111 5:-0.95238095 6:-1 7:-0.84615385 8:-1 9:0.9221356 10:0 11:0 12:0 13:-0.77777778 14:-0.96774194 15:-0.96774194 16:1 17:0 18:1 19:0.6315137 20:0 21:0 22:0 23:-0.94444444 
10 1:0.43999994 2:0 3:0 4:-0.91111111 5:-0.95238095 6:-1 7:-0.84615385 8:-1 9:0.5977011 10:0 11:0 12:1 13:-0.77777778 14:-0.87096774 15:-1 16:0.43589747 17:0 18:0 19:0.6255472 20:0 21:0 22:0 23:-0.94444444 
10 1:0.43999994 2:0 3:0 4:-0.91111111 5:-0.95238095 6:-1 7:-1 8:-1 9:0.42528737 10:0 11:0 12:1 13:-0.90740741 14:-0.87096774 15:-0.90322581 16:1 17:0 18:1 19:-0.018232763 20:0 21:0 22:0 23:-1 
5.216039191513997 1:-0.07692307 2:0 3:0 4:-0.73333333 5:-0.61904762 6:-0.76470588 7:-0.84615385 8:-1 9:0.034482837 10:0 11:0 12:0 13:-0.88888889 14:-0.70967742 15:-0.93548387 16:1 17:0 18:1 19:0.97758925 20:0 21:0 22:1 23:-0.88888889 
10 1:0.6664175 2:1 3:0 4:-0.83514559 5:-0.92969242 6:-0.96745842 7:-0.94799423 8:-0.99717752 9:0.37420177 10:0 11:0 12:0 13:-0.87037037 14:-0.77419355 15:-0.90322581 16:1 17:0 18:1 19:1 20:0 21:1 22:0 23:-0.97222222 
10 1:0.6664175 2:1 3:0 4:-0.83514559 5:-0.92969242 6:-0.96745842 7:-0.94799423 8:-0.99717752 9:0.37420177 10:0 11:0 12:0 13:-0.87037037 14:-0.77419355 15:-0.90322581 16:1 17:0 18:1 19:1 20:0 21:1 22:0 23:-1 
10 1:0.6664175 2:1 3:0 4:-0.83514559 5:-0.92969242 6:-0.96745842 7:-0.94799423 8:-0.99717752 9:0.9106003 10:0 11:0 12:0 13:-0.81481481 14:-0.96774194 15:-0.96774194 16:0.7571935 17:1 18:0 19:1 20:0 21:1 22:0 23:-1 
10 1:0.6664175 2:1 3:0 4:-0.83514559 5:-0.92969242 6:-0.96745842 7:-0.94799423 8:-0.99717752 9:0.9106003 10:0 11:0 12:0 13:-0.81481481 14:-0.96774194 15:-0.96774194 16:0.7571935 17:1 18:0 19:1 20:0 21:1 22:0 23:-0.97222222 
10 1:0.6664175 2:1 3:0 4:-0.83514559 5:-0.92969242 6:-0.96745842 7:-0.94799423 8:-0.99717752 9:0.07161808 10:0 11:0 12:0 13:-0.90740741 14:-0.67741935 15:-0.80645161 16:1 17:0 18:1 19:1 20:0 21:1 22:0 23:-0.94444444 
10 1:0.6664175 2:1 3:0 4:-0.83514559 5:-0.92969242 6:-0.96745842 7:-0.94799423 8:-0.99717752 9:0.07161808 10:0 11:0 12:0 13:-0.90740741 14:-0.67741935 15:-0.80645161 16:1 17:0 18:1 19:1 20:0 21:1 22:0 23:-0.94444444 
10 1:0.6664175 2:1 3:0 4:-0.83514559 5:-0.92969242 6:-0.96745842 7:-0.94799423 8:-0.99717752 9:0.07161808 10:0 11:0 12:0 13:-0.90740741 14:-0.67741935 15:-0.80645161 16:1 17:0 18:1 19:1 20:0 21:1 22:0 23:-0.94444444 
0.4613133183946736 1:1 2:0 3:1 4:-0.86666667 5:-1 6:-1 7:-1 8:-1 9:0.7805643 10:0 11:0 12:1 13:-0.87037037 14:-0.96774194 15:-1 16:1 17:0 18:1 19:0.68359995 20:1 21:0 22:0 23:-0.97222222 
10 1:0.6664175 2:1 3:0 4:-0.83514559 5:-0.92969242 6:-0.96745842 7:-0.94799423 8:-0.99717752 9:0.7318008 10:0 11:0 12:0 13:-0.90740741 14:-0.96774194 15:-1 16:1 17:0 18:1 19:1 20:0 21:1 22:0 23:-0.94444444 
10 1:0.6664175 2:1 3:0 4:-0.83514559 5:-0.92969242 6:-0.96745842 7:-0.94799423 8:-0.99717752 9:0.7318008 10:0 11:0 12:0 13:-0.90740741 14:-0.96774194 15:-1 16:1 17:0 18:1 19:1 20:0 21:1 22:0 23:-0.94444444 
10 1:0.6664175 2:1 3:0 4:-0.83514559 5:-0.92969242 6:-0.96745842 7:-0.94799423 8:-0.99717752 9:0.7318008 10:0 11:0 12:0 13:-0.90740741 14:-0.96774194 15:-1 16:1 17:0 18:1 19:1 20:0 21:1 22:0 23:-0.94444444 
10 1:0.6664175 2:1 3:0 4:-0.83514559 5:-0.92969242 6:-0.96745842 7:-0.94799423 8:-0.99717752 9:0.29006088 10:0 11:0 12:0 13:-0.94444444 14:-0.83870968 15:-0.96774194 16:0.7571935 17:1 18:0 19:1 20:0 21:1 22:0 23:-0.97222222 
10 1:0.6664175 2:1 3:0 4:-0.83514559 5:-0.92969242 6:-0.96745842 7:-0.94799423 8:-0.99717752 9:-0.034482658 10:0 11:0 12:0 13:-0.94444444 14:-0.70967742 15:-0.83870968 16:1 17:0 18:1 19:1 20:0 21:1 22:0 23:-1 
10 1:0.43999994 2:0 3:0 4:-0.91111111 5:-0.95238095 6:-1 7:-0.84615385 8:-1 9:0.5172415 10:0 11:0 12:1 13:-0.90740741 14:-0.90322581 15:-0.93548387 16:0.53846157 17:0 18:0 19:0.8064518 20:0 21:0 22:0 23:-0.97222222 
10 1:0.6664175 2:1 3:0 4:-0.83514559 5:-0.92969242 6:-0.96745842 7:-0.94799423 8:-0.99717752 9:0.7805643 10:0 11:0 12:0 13:-0.87037037 14:-0.96774194 15:-1 16:1 17:0 18:1 19:1 20:0 21:1 22:0 23:-1 
10 1:0.43999994 2:0 3:0 4:-0.91111111 5:-0.95238095 6:-1 7:-0.84615385 8:-1 9:0.60225636 10:1 11:0 12:1 13:-0.85821357 14:-0.89946629 15:-0.94473468 16:0.945946 17:0 18:0 19:0.68359995 20:1 21:0 22:0 23:-1 
10 1:0.6664175 2:1 3:0 4:-0.83514559 5:-0.92969242 6:-0.96745842 7:-0.94799423 8:-0.99717752 9:0.25729454 10:0 11:0 12:0 13:-0.88888889 14:-0.74193548 15:-0.87096774 16:0.7571935 17:1 18:0 19:1 20:0 21:1 22:0 23:-0.94444444 
10 1:0.6664175 2:1 3:0 4:-0.83514559 5:-0.92969242 6:-0.96745842 7:-0.94799423 8:-0.99717752 9:0.25729454 10:0 11:0 12:0 13:-0.88888889 14:-0.74193548 15:-0.87096774 16:0.7571935 17:1 18:0 19:1 20:0 21:0 22:0 23:-0.94444444 
10 1:0.6664175 2:1 3:0 4:-0.83514559 5:-0.92969242 6:-0.96745842 7:-0.94799423 8:-0.99717752 9:0.25729454 10:0 11:0 12:0 13:-0.88888889 14:-0.74193548 15:-0.87096774 16:0.7571935 17:1 18:0 19:1 20:0 21:0 22:0 23:-1 
10 1:0.6664175 2:1 3:0 4:-0.83514559 5:-0.92969242 6:-0.96745842 7:-0.94799423 8:-0.99717752 9:0.32413805 10:0 11:0 12:0 13:-0.88888889 14:-0.77419355 15:-0.90322581 16:0.7571935 17:1 18:0 19:1 20:0 21:1 22:0 23:-0.97222222 
10 1:0.6664175 2:1 3:0 4:-0.83514559 5:-0.92969242 6:-0.96745842 7:-0.94799423 8:-0.99717752 9:0.32413805 10:0 11:0 12:0 13:-0.88888889 14:-0.77419355 15:-0.90322581 16:0.7571935 17:1 18:0 19:1 20:0 21:1 22:0 23:-0.97222222 
10 1:0.6664175 2:1 3:0 4:-0.83514559 5:-0.92969242 6:-0.96745842 7:-0.94799423 8:-0.99717752 9:0.32413805 10:0 11:0 12:0 13:-0.88888889 14:-0.77419355 15:-0.90322581 16:0.7571935 17:1 18:0 19:1 20:0 21:1 22:0 23:-0.97222222 
10 1:0.6664175 2:1 3:0 4:-0.83514559 5:-0.92969242 6:-0.96745842 7:-0.94799423 8:-0.99717752 9:0.32413805 10:0 11:0 12:0 13:-0.88888889 14:-0.77419355 15:-0.90322581 16:0.7571935 17:1 18:0 19:1 20:0 21:1 22:0 23:-0.97222222 
10 1:0.6664175 2:1 3:0 4:-0.83514559 5:-0.92969242 6:-0.96745842 7:-0.94799423 8:-0.99717752 9:0.19540238 10:0 11:0 12:0 13:-0.92592593 14:-0.77419355 15:-0.90322581 16:1 17:0 18:1 19:1 20:0 21:1 22:0 23:-1 
10 1:0.6664175 2:1 3:0 4:-0.83514559 5:-0.92969242 6:-0.96745842 7:-0.94799423 8:-0.99717752 9:0.79885066 10:0 11:0 12:0 13:-0.85185185 14:-0.96774194 15:-1 16:0.7571935 17:1 18:0 19:0.9290323 20:0 21:0 22:0 23:-0.94444444 
10 1:0.6664175 2:1 3:0 4:-0.83514559 5:-0.92969242 6:-0.96745842 7:-0.94799423 8:-0.99717752 9:0.7586206 10:0 11:0 12:0 13:-0.88888889 14:-0.93548387 15:-0.93548387 16:0.7571935 17:1 18:0 19:0.8830203 20:0 21:0 22:0 23:-1 
10 1:0.6664175 2:1 3:0 4:-0.83514559 5:-0.92969242 6:-0.96745842 7:-0.94799423 8:-0.99717752 9:-0.01223582 10:0 11:0 12:0 13:-0.88888889 14:-0.58064516 15:-0.70967742 16:0.7571935 17:1 18:0 19:0.89025617 20:0 21:0 22:0 23:-0.97222222 
10 1:0.6664175 2:1 3:0 4:-0.83514559 5:-0.92969242 6:-0.96745842 7:-0.94799423 8:-0.99717752 9:0.79885066 10:0 11:0 12:0 13:-0.85185185 14:-0.96774194 15:-1 16:0.7571935 17:1 18:0 19:0.9174794 20:0 21:0 22:0 23:-0.97222222 
10 1:0.6664175 2:1 3:0 4:-0.83514559 5:-0.92969242 6:-0.96745842 7:-0.94799423 8:-0.99717752 9:0.5977011 10:0 11:0 12:0 13:-0.87037037 14:-0.93548387 15:-1 16:0.7571935 17:1 18:0 19:0.8862351 20:0 21:0 22:0 23:-1 
10 1:0.29999995 2:0 3:0 4:-0.95555556 5:-0.95238095 6:-1 7:-0.84615385 8:-1 9:0.2508918 10:0 11:0 12:0 13:-0.87037037 14:-0.83870968 15:-0.96774194 16:1 17:0 18:1 19:1 20:0 21:1 22:0 23:-1 
10 1:0.29999995 2:0 3:0 4:-0.95555556 5:-0.95238095 6:-1 7:-0.84615385 8:-1 9:0.2508918 10:0 11:0 12:0 13:-0.87037037 14:-0.83870968 15:-0.96774194 16:1 17:0 18:1 19:1 20:0 21:1 22:0 23:-0.97222222 
10 1:0.29999995 2:0 3:0 4:-0.95555556 5:-0.95238095 6:-1 7:-0.84615385 8:-1 9:0.2508918 10:0 11:0 12:0 13:-0.87037037 14:-0.83870968 15:-0.96774194 16:1 17:0 18:1 19:1 20:0 21:1 22:0 23:-0.97222222 
10 1:0.29999995 2:0 3:0 4:-0.95555556 5:-0.95238095 6:-1 7:-0.84615385 8:-1 9:0.2508918 10:0 11:0 12:0 13:-0.87037037 14:-0.83870968 15:-0.96774194 16:1 17:0 18:1 19:1 20:0 21:1 22:0 23:-0.97222222 
10 1:0.7199999 2:0 3:0 4:-0.68888889 5:-0.95238095 6:-1 7:-0.076923077 8:-1 9:0.7805643 10:0 11:0 12:0 13:-0.87037037 14:-0.96774194 15:-1 16:0.7571935 17:1 18:0 19:0.68359995 20:1 21:0 22:0 23:-1 
10 1:0.7199999 2:0 3:0 4:-0.68888889 5:-0.95238095 6:-1 7:-0.076923077 8:-1 9:0.7805643 10:0 11:0 12:0 13:-0.87037037 14:-0.96774194 15:-1 16:0.7571935 17:1 18:0 19:0.68359995 20:1 21:0 22:0 23:-1 
10 1:0.7199999 2:0 3:0 4:-0.68888889 5:-0.95238095 6:-1 7:-0.076923077 8:-1 9:0.7805643 10:0 11:0 12:0 13:-0.87037037 14:-0.96774194 15:-1 16:0.7571935 17:1 18:0 19:0.68359995 20:1 21:0 22:0 23:-1 
10 1:0.7199999 2:0 3:0 4:-0.68888889 5:-0.95238095 6:-1 7:-0.076923077 8:-1 9:0.7805643 10:0 11:0 12:0 13:-0.87037037 14:-0.96774194 15:-1 16:0.7571935 17:1 18:0 19:0.68359995 20:1 21:0 22:0 23:-1 
10 1:0.6664175 2:1 3:0 4:-0.83514559 5:-0.92969242 6:-0.96745842 7:-0.94799423 8:-0.99717752 9:0.81432366 10:0 11:0 12:0 13:-0.83333333 14:-0.96774194 15:-1 16:0.7571935 17:1 18:0 19:0.8494624 20:0 21:0 22:0 23:-1 
10 1:0.6664175 2:1 3:0 4:-0.83514559 5:-0.92969242 6:-0.96745842 7:-0.94799423 8:-0.99717752 9:0.5530013 10:0 11:0 12:0 13:-0.85185185 14:-0.87096774 15:-0.90322581 16:0.7571935 17:1 18:0 19:1 20:0 21:0 22:0 23:-1 
10 1:0.6664175 2:1 3:0 4:-0.83514559 5:-0.92969242 6:-0.96745842 7:-0.94799423 8:-0.99717752 9:0.5530013 10:0 11:0 12:0 13:-0.85185185 14:-0.87096774 15:-0.90322581 16:0.7571935 17:1 18:0 19:1 20:0 21:0 22:0 23:-1 
10 1:0.6664175 2:1 3:0 4:-0.83514559 5:-0.92969242 6:-0.96745842 7:-0.94799423 8:-0.99717752 9:0.5474138 10:0 11:0 12:0 13:-0.81481481 14:-0.80645161 15:-0.93548387 16:0.7571935 17:1 18:0 19:0.81600964 20:0 21:0 22:0 23:-0.97222222 
10 1:0.43999994 2:0 3:0 4:-0.91111111 5:-0.95238095 6:-1 7:-0.84615385 8:-1 9:0.83908045 10:0 11:0 12:1 13:-0.92592593 14:-0.96774194 15:-0.96774194 16:0.84615386 17:0 18:0 19:0.35411394 20:0 21:0 22:0 23:-0.97222222 
10 1:0.6664175 2:1 3:0 4:-0.83514559 5:-0.92969242 6:-0.96745842 7:-0.94799423 8:-0.99717752 9:0.79885066 10:0 11:0 12:0 13:-0.85185185 14:-0.96774194 15:-1 16:0.7571935 17:1 18:0 19:0.508685 20:0 21:0 22:0 23:-1 
8.522161762516816 1:0.74545443 2:0 3:0 4:-0.86666667 5:-0.95238095 6:-0.94117647 7:-0.84615385 8:-1 9:0.83908045 10:0 11:0 12:0 13:-0.92592593 14:-0.96774194 15:-0.96774194 16:1 17:0 18:1 19:1 20:0 21:1 22:1 23:-0.36111111 
10 1:0.06666672 2:0 3:0 4:-0.91111111 5:-0.85714286 6:-0.88235294 7:-1 8:-1 9:0.39655173 10:0 11:0 12:0 13:-0.94444444 14:-0.90322581 15:-0.93548387 16:1 17:0 18:1 19:1 20:0 21:1 22:1 23:-0.36111111 
10 1:0.6664175 2:1 3:0 4:-0.83514559 5:-0.92969242 6:-0.96745842 7:-0.94799423 8:-0.99717752 9:0.29922128 10:0 11:0 12:0 13:-0.85185185 14:-0.70967742 15:-0.83870968 16:0.7571935 17:1 18:0 19:0.75348055 20:0 21:0 22:0 23:-0.97222222 
2.068438518294509 1:-0.4933334 2:0 3:0 4:-0.77777778 5:-0.42857143 6:-1 7:-0.69230769 8:-1 9:-0.17595041 10:0 11:0 12:0 13:-0.87037037 14:-0.58064516 15:-0.96774194 16:0.7571935 17:1 18:0 19:1 20:0 21:1 22:0 23:-0.94444444 
10 1:0.62666667 2:0 3:0 4:-0.51111111 5:-0.9047619 6:-1 7:-0.84615385 8:-1 9:0.93810785 10:0 11:0 12:0 13:-0.7037037 14:-0.96774194 15:-0.96774194 16:0.7571935 17:1 18:0 19:1 20:0 21:1 22:0 23:-0.94444444 
10 1:0.6664175 2:1 3:0 4:-0.83514559 5:-0.92969242 6:-0.96745842 7:-0.94799423 8:-0.99717752 9:0.65517247 10:0 11:0 12:1 13:-0.88888889 14:-0.93548387 15:-0.96774194 16:0.7571935 17:1 18:0 19:0.7223002 20:0 21:0 22:0 23:-1 
10 1:0.6664175 2:1 3:0 4:-0.83514559 5:-0.92969242 6:-0.96745842 7:-0.94799423 8:-0.99717752 9:0.7103448 10:0 11:0 12:0 13:-0.85185185 14:-0.93548387 15:-0.96774194 16:0.7571935 17:1 18:0 19:0.68588054 20:0 21:0 22:0 23:-1 
3.968882052284832 1:0.06666672 2:0 3:0 4:-0.95555556 5:-0.9047619 6:-0.94117647 7:-0.84615385 8:-1 9:0.7805643 10:0 11:0 12:1 13:-0.87037037 14:-0.96774194 15:-1 16:0.42857146 17:0 18:0 19:1 20:0 21:1 22:0 23:-1 
10 1:0.5999999 2:0 3:0 4:-0.82222222 5:-0.95238095 6:-1 7:-1 8:-1 9:0.65517247 10:0 11:0 12:0 13:-0.94444444 14:-0.96774194 15:-1 16:0.54838705 17:0 18:0 19:0.58792937 20:0 21:0 22:0 23:-1 
10 1:0.5999999 2:0 3:0 4:-0.82222222 5:-0.95238095 6:-1 7:-1 8:-1 9:0.65517247 10:0 11:0 12:0 13:-0.94444444 14:-0.96774194 15:-1 16:0.54838705 17:0 18:0 19:0.58792937 20:0 21:0 22:0 23:-1 
10 1:0.6664175 2:1 3:0 4:-0.83514559 5:-0.92969242 6:-0.96745842 7:-0.94799423 8:-0.99717752 9:0.44297087 10:0 11:0 12:0 13:-0.87037037 14:-0.80645161 15:-0.93548387 16:0.7647059 17:0 18:0 19:0.74952567 20:0 21:0 22:0 23:-1 
10 1:0.6664175 2:1 3:0 4:-0.83514559 5:-0.92969242 6:-0.96745842 7:-0.94799423 8:-0.99717752 9:0.6982759 10:0 11:0 12:0 13:-0.7962963 14:-0.90322581 15:-0.93548387 16:0.7571935 17:1 18:0 19:0.46024537 20:0 21:0 22:0 23:-1 
10 1:0.6664175 2:1 3:0 4:-0.83514559 5:-0.92969242 6:-0.96745842 7:-0.94799423 8:-0.99717752 9:0.6982759 10:0 11:0 12:0 13:-0.7962963 14:-0.90322581 15:-0.93548387 16:0.7571935 17:1 18:0 19:0.49023175 20:0 21:0 22:0 23:-1 
10 1:0.20000005 2:0 3:0 4:-0.86666667 5:-0.9047619 6:-1 7:-1 8:-1 9:0.31034493 10:0 11:0 12:0 13:-0.96296296 14:-0.93548387 15:-1 16:1 17:0 18:1 19:1 20:0 21:1 22:1 23:-0.86111111 
10 1:0.20000005 2:0 3:0 4:-0.86666667 5:-0.9047619 6:-1 7:-1 8:-1 9:0.31034493 10:0 11:0 12:0 13:-0.96296296 14:-0.93548387 15:-1 16:1 17:0 18:1 19:1 20:0 21:1 22:1 23:-0.91666667 
10 1:0.6664175 2:1 3:0 4:-0.83514559 5:-0.92969242 6:-0.96745842 7:-0.94799423 8:-0.99717752 9:0.65517247 10:0 11:0 12:0 13:-0.83333333 14:-0.90322581 15:-0.93548387 16:0.8181819 17:0 18:0 19:0.8064518 20:0 21:0 22:0 23:-1 
3.921793232997086 1:1 2:0 3:1 4:-0.86666667 5:-1 6:-1 7:-1 8:-1 9:0.39655173 10:0 11:0 12:1 13:-0.88888889 14:-0.83870968 15:-0.87096774 16:0.7571935 17:1 18:0 19:0.9017371 20:0 21:0 22:0 23:-0.94444444 
10 1:0.29999995 2:0 3:0 4:-0.95555556 5:-0.95238095 6:-1 7:-0.84615385 8:-1 9:0.5530013 10:0 11:0 12:0 13:-0.85185185 14:-0.90322581 15:-0.96774194 16:1 17:0 18:1 19:0.9313216 20:0 21:0 22:0 23:-1 
10 1:0.6664175 2:1 3:0 4:-0.83514559 5:-0.92969242 6:-0.96745842 7:-0.94799423 8:-0.99717752 9:0.7318008 10:0 11:0 12:1 13:-0.75925926 14:-0.93548387 15:-1 16:0.7571935 17:1 18:0 19:0.9313216 20:0 21:0 22:0 23:-1 
10 1:0.43999994 2:0 3:0 4:-0.91111111 5:-0.95238095 6:-1 7:-0.84615385 8:-1 9:1 10:0 11:1 12:1 13:-0.85185185 14:-1 15:-1 16:0.037037015 17:0 18:0 19:0.1924361 20:0 21:0 22:0 23:-0.97222222 
10 1:0.6664175 2:1 3:0 4:-0.83514559 5:-0.92969242 6:-0.96745842 7:-0.94799423 8:-0.99717752 9:0.7805643 10:0 11:0 12:0 13:-0.87037037 14:-0.96774194 15:-1 16:1 17:0 18:1 19:1 20:0 21:1 22:0 23:-0.97222222 
10 1:0.6664175 2:1 3:0 4:-0.83514559 5:-0.92969242 6:-0.96745842 7:-0.94799423 8:-0.99717752 9:0.25729454 10:0 11:0 12:0 13:-0.88888889 14:-0.74193548 15:-0.87096774 16:1 17:0 18:1 19:1 20:0 21:1 22:1 23:-0.83333333 
10 1:0.6664175 2:1 3:0 4:-0.83514559 5:-0.92969242 6:-0.96745842 7:-0.94799423 8:-0.99717752 9:0.25729454 10:0 11:0 12:0 13:-0.88888889 14:-0.74193548 15:-0.87096774 16:1 17:0 18:1 19:1 20:0 21:1 22:1 23:-0.83333333 
10 1:0.43999994 2:0 3:0 4:-0.91111111 5:-0.95238095 6:-1 7:-0.84615385 8:-1 9:0.7805643 10:0 11:0 12:1 13:-0.87037037 14:-0.96774194 15:-1 16:1 17:0 18:1 19:0.93548405 20:0 21:0 22:0 23:-1 
10 1:0.6664175 2:1 3:0 4:-0.83514559 5:-0.92969242 6:-0.96745842 7:-0.94799423 8:-0.99717752 9:0.7805643 10:0 11:0 12:0 13:-0.87037037 14:-0.93548387 15:-0.93548387 16:0.7571935 17:1 18:0 19:0.6534134 20:0 21:0 22:0 23:-0.97222222 
0.6772854025807967 1:0.06666672 2:0 3:0 4:-1 5:-0.95238095 6:-1 7:-0.84615385 8:-1 9:1 10:0 11:1 12:1 13:-0.81481481 14:-1 15:-1 16:0.68421054 17:0 18:0 19:0.5655036 20:0 21:0 22:0 23:-1 
10 1:0.29999995 2:0 3:0 4:-0.95555556 5:-0.95238095 6:-1 7:-0.84615385 8:-1 9:0.65517247 10:0 11:0 12:1 13:-0.77777778 14:-0.87096774 15:-0.96774194 16:0.33333337 17:0 18:0 19:0.24731195 20:0 21:0 22:0 23:-1 
10 1:0.29999995 2:0 3:0 4:-0.95555556 5:-0.95238095 6:-1 7:-0.84615385 8:-1 9:0.65517247 10:0 11:0 12:1 13:-0.77777778 14:-0.87096774 15:-0.96774194 16:1 17:0 18:1 19:0.9672458 20:0 21:0 22:0 23:-1 
10 1:0.6664175 2:1 3:0 4:-0.83514559 5:-0.92969242 6:-0.96745842 7:-0.94799423 8:-0.99717752 9:0.5977011 10:0 11:0 12:0 13:-0.87037037 14:-0.93548387 15:-1 16:1 17:0 18:1 19:1 20:0 21:1 22:0 23:-0.97222222 
10 1:0.6664175 2:1 3:0 4:-0.83514559 5:-0.92969242 6:-0.96745842 7:-0.94799423 8:-0.99717752 9:0.5977011 10:0 11:0 12:0 13:-0.87037037 14:-0.93548387 15:-1 16:1 17:0 18:1 19:1 20:0 21:1 22:0 23:-1 
10 1:0.6664175 2:1 3:0 4:-0.83514559 5:-0.92969242 6:-0.96745842 7:-0.94799423 8:-0.99717752 9:0.5977011 10:0 11:0 12:0 13:-0.87037037 14:-0.93548387 15:-1 16:1 17:0 18:1 19:1 20:0 21:1 22:0 23:-0.94444444 
10 1:0.6664175 2:1 3:0 4:-0.83514559 5:-0.92969242 6:-0.96745842 7:-0.94799423 8:-0.99717752 9:0.5977011 10:0 11:0 12:0 13:-0.87037037 14:-0.93548387 15:-1 16:1 17:0 18:1 19:1 20:0 21:1 22:0 23:-0.97222222 
10 1:0.5333332 2:0 3:0 4:-0.86666667 5:-0.95238095 6:-1 7:-0.84615385 8:-1 9:0.83908045 10:0 11:0 12:1 13:-0.7962963 14:-0.96774194 15:-1 16:1 17:0 18:1 19:0.68359995 20:1 21:0 22:0 23:-0.97222222 
10 1:0.5333332 2:0 3:0 4:-0.86666667 5:-0.95238095 6:-1 7:-0.84615385 8:-1 9:0.83908045 10:0 11:0 12:1 13:-0.7962963 14:-0.96774194 15:-1 16:1 17:0 18:1 19:0.68359995 20:1 21:0 22:0 23:-0.97222222 
10 1:0.29999995 2:0 3:0 4:-0.95555556 5:-0.95238095 6:-1 7:-0.84615385 8:-1 9:0.35632193 10:0 11:0 12:0 13:-0.85185185 14:-0.80645161 15:-0.87096774 16:1 17:0 18:1 19:1 20:0 21:1 22:0 23:-1 
10 1:0.6664175 2:1 3:0 4:-0.83514559 5:-0.92969242 6:-0.96745842 7:-0.94799423 8:-0.99717752 9:0.48275864 10:0 11:0 12:0 13:-0.85185185 14:-0.80645161 15:-0.93548387 16:0.7571935 17:1 18:0 19:0.33206844 20:0 21:0 22:0 23:-1 
6.647529136096352 1:0.5999999 2:0 3:0 4:-0.95555556 5:-0.95238095 6:-0.94117647 7:-1 8:-1 9:0.19540238 10:0 11:0 12:0 13:-0.88888889 14:-0.80645161 15:-0.90322581 16:-0.39999998 17:0 18:0 19:0.9112904 20:0 21:0 22:0 23:-1 
10 1:0.29999995 2:0 3:0 4:-0.95555556 5:-0.95238095 6:-1 7:-0.84615385 8:-1 9:0.37931037 10:0 11:0 12:0 13:-0.81481481 14:-0.83870968 15:-0.96774194 16:1 17:0 18:1 19:0.95048773 20:0 21:0 22:0 23:-0.97222222 
10 1:0.29999995 2:0 3:0 4:-0.95555556 5:-0.95238095 6:-1 7:-0.84615385 8:-1 9:0.37931037 10:0 11:0 12:0 13:-0.81481481 14:-0.83870968 15:-0.96774194 16:1 17:0 18:1 19:0.95048773 20:0 21:0 22:0 23:-0.97222222 
10 1:0.29999995 2:0 3:0 4:-0.95555556 5:-0.95238095 6:-1 7:-0.84615385 8:-1 9:0.37931037 10:0 11:0 12:0 13:-0.81481481 14:-0.83870968 15:-0.96774194 16:1 17:0 18:1 19:0.95048773 20:0 21:0 22:0 23:-0.97222222 
3.511222450964534 1:0.3538462 2:0 3:0 4:-0.64444444 5:-0.76190476 6:-0.76470588 7:-1 8:-1 9:0.5474138 10:0 11:0 12:0 13:-0.81481481 14:-0.83870968 15:-0.87096774 16:1 17:0 18:1 19:0.5741936 20:0 21:0 22:1 23:-0.88888889 
10 1:0.39130425 2:0 3:0 4:-0.68888889 5:-0.76190476 6:-0.94117647 7:-0.84615385 8:-1 9:0.5838288 10:0 11:0 12:0 13:-0.83333333 14:-0.83870968 15:-0.96774194 16:1 17:0 18:1 19:0.8935485 20:0 21:0 22:1 23:-0.83333333 
10 1:0.6664175 2:1 3:0 4:-0.83514559 5:-0.92969242 6:-0.96745842 7:-0.94799423 8:-0.99717752 9:0.37931037 10:0 11:0 12:0 13:-0.81481481 14:-0.70967742 15:-0.96774194 16:0.7571935 17:1 18:0 19:0.7364056 20:0 21:0 22:0 23:-1 
10 1:0.5999999 2:0 3:0 4:-0.95555556 5:-0.95238095 6:-0.94117647 7:-1 8:-1 9:0.6188748 10:0 11:0 12:1 13:-0.90740741 14:-0.93548387 15:-0.96774194 16:0.76 17:0 18:0 19:0.67918694 20:0 21:0 22:0 23:-1 
10 1:0.5999999 2:0 3:0 4:-0.95555556 5:-0.95238095 6:-0.94117647 7:-1 8:-1 9:0.6188748 10:0 11:0 12:1 13:-0.90740741 14:-0.93548387 15:-0.96774194 16:0.76 17:0 18:0 19:0.67918694 20:0 21:0 22:0 23:-1 
10 1:0.5999999 2:0 3:0 4:-0.95555556 5:-0.95238095 6:-0.94117647 7:-1 8:-1 9:0.6188748 10:0 11:0 12:1 13:-0.90740741 14:-0.93548387 15:-0.96774194 16:0.76 17:0 18:0 19:0.67918694 20:0 21:0 22:0 23:-1 
10 1:0.5999999 2:0 3:0 4:-0.95555556 5:-0.95238095 6:-0.94117647 7:-1 8:-1 9:0.6188748 10:0 11:0 12:1 13:-0.90740741 14:-0.93548387 15:-0.96774194 16:0.76 17:0 18:0 19:0.67918694 20:0 21:0 22:0 23:-1 
10 1:0.5333332 2:0 3:0 4:-0.86666667 5:-0.95238095 6:-1 7:-0.84615385 8:-1 9:0.60225636 10:1 11:0 12:1 13:-0.85821357 14:-0.89946629 15:-0.94473468 16:0.5272727 17:0 18:0 19:0.68359995 20:1 21:0 22:0 23:-1 
10 1:0.6664175 2:1 3:0 4:-0.83514559 5:-0.92969242 6:-0.96745842 7:-0.94799423 8:-0.99717752 9:0.19540238 10:0 11:0 12:0 13:-0.92592593 14:-0.77419355 15:-0.90322581 16:0.7571935 17:1 18:0 19:0.9225807 20:0 21:0 22:1 23:-0.88888889 
6.024155802076226 1:0.43999994 2:0 3:0 4:-0.91111111 5:-0.95238095 6:-1 7:-0.84615385 8:-1 9:0.83908045 10:0 11:0 12:1 13:-0.92592593 14:-0.96774194 15:-0.96774194 16:0.33333337 17:0 18:0 19:0.9125056 20:0 21:0 22:0 23:-1 
10 1:0.6664175 2:1 3:0 4:-0.83514559 5:-0.92969242 6:-0.96745842 7:-0.94799423 8:-0.99717752 9:0.5530013 10:0 11:0 12:1 13:-0.85185185 14:-0.90322581 15:-0.96774194 16:0.7571935 17:1 18:0 19:0.5741936 20:0 21:0 22:0 23:-0.97222222 
10 1:0.6664175 2:1 3:0 4:-0.83514559 5:-0.92969242 6:-0.96745842 7:-0.94799423 8:-0.99717752 9:0.5530013 10:0 11:0 12:1 13:-0.85185185 14:-0.90322581 15:-0.96774194 16:0.7571935 17:1 18:0 19:0.5741936 20:0 21:0 22:0 23:-0.94444444 
10 1:0.6664175 2:1 3:0 4:-0.83514559 5:-0.92969242 6:-0.96745842 7:-0.94799423 8:-0.99717752 9:0.5530013 10:0 11:0 12:1 13:-0.85185185 14:-0.90322581 15:-0.96774194 16:0.7571935 17:1 18:0 19:0.5741936 20:0 21:0 22:0 23:-0.94444444 
10 1:0.6664175 2:1 3:0 4:-0.83514559 5:-0.92969242 6:-0.96745842 7:-0.94799423 8:-0.99717752 9:0.5172415 10:0 11:0 12:1 13:-0.75925926 14:-0.80645161 15:-1 16:0.7571935 17:1 18:0 19:0.62428856 20:0 21:0 22:0 23:-0.96676908 
10 1:0.6664175 2:1 3:0 4:-0.83514559 5:-0.92969242 6:-0.96745842 7:-0.94799423 8:-0.99717752 9:0.7805643 10:0 11:0 12:0 13:-0.87037037 14:-0.93548387 15:-0.93548387 16:0.7571935 17:1 18:0 19:0.7338711 20:0 21:0 22:0 23:-1 
10 1:0.6664175 2:1 3:0 4:-0.83514559 5:-0.92969242 6:-0.96745842 7:-0.94799423 8:-0.99717752 9:0.19540238 10:0 11:0 12:0 13:-0.92592593 14:-0.77419355 15:-0.90322581 16:0.88235295 17:0 18:0 19:0.8747629 20:0 21:0 22:0 23:-0.94444444 
9.62903953796674 1:0.29999995 2:0 3:0 4:-0.95555556 5:-0.95238095 6:-1 7:-0.84615385 8:-1 9:0.7103448 10:0 11:0 12:1 13:-0.85185185 14:-0.93548387 15:-0.96774194 16:0.9130435 17:0 18:0 19:1 20:0 21:1 22:0 23:-1 
10 1:0.6664175 2:1 3:0 4:-0.83514559 5:-0.92969242 6:-0.96745842 7:-0.94799423 8:-0.99717752 9:0.7805643 10:0 11:0 12:0 13:-0.87037037 14:-0.96774194 15:-1 16:0.6140351 17:0 18:0 19:0.6638371 20:0 21:0 22:0 23:-0.94444444 
10 1:0.6664175 2:1 3:0 4:-0.83514559 5:-0.92969242 6:-0.96745842 7:-0.94799423 8:-0.99717752 9:0.7805643 10:0 11:0 12:0 13:-0.87037037 14:-0.96774194 15:-1 16:0.6140351 17:0 18:0 19:0.6638371 20:0 21:0 22:0 23:-1 
10 1:0.6664175 2:1 3:0 4:-0.83514559 5:-0.92969242 6:-0.96745842 7:-0.94799423 8:-0.99717752 9:0.5530013 10:0 11:0 12:0 13:-0.85185185 14:-0.83870968 15:-0.83870968 16:0.40350878 17:0 18:0 19:0.36502552 20:0 21:0 22:0 23:-1 
10 1:0.6664175 2:1 3:0 4:-0.83514559 5:-0.92969242 6:-0.96745842 7:-0.94799423 8:-0.99717752 9:0.5530013 10:0 11:0 12:0 13:-0.85185185 14:-0.83870968 15:-0.83870968 16:0.40350878 17:0 18:0 19:0.36502552 20:0 21:0 22:0 23:-1 
10 1:0.6664175 2:1 3:0 4:-0.83514559 5:-0.92969242 6:-0.96745842 7:-0.94799423 8:-0.99717752 9:0.5530013 10:0 11:0 12:0 13:-0.85185185 14:-0.83870968 15:-0.83870968 16:0.17647064 17:0 18:0 19:0.12333977 20:0 21:0 22:0 23:-1 
10 1:0.6664175 2:1 3:0 4:-0.83514559 5:-0.92969242 6:-0.96745842 7:-0.94799423 8:-0.99717752 9:0.5530013 10:0 11:0 12:0 13:-0.85185185 14:-0.83870968 15:-0.83870968 16:0.20000005 17:0 18:0 19:0.1483872 20:0 21:0 22:0 23:-1 
10 1:0.29999995 2:0 3:0 4:-0.95555556 5:-0.95238095 6:-1 7:-0.84615385 8:-1 9:1 10:0 11:1 12:1 13:-0.81481481 14:-1 15:-1 16:0.4736842 17:0 18:0 19:0.49905133 20:0 21:0 22:0 23:-1 
10 1:0.29999995 2:0 3:0 4:-0.95555556 5:-0.95238095 6:-1 7:-0.84615385 8:-1 9:1 10:0 11:1 12:1 13:-0.81481481 14:-1 15:-1 16:0.4736842 17:0 18:0 19:0.49905133 20:0 21:0 22:0 23:-1 
10 1:0.29999995 2:0 3:0 4:-0.95555556 5:-0.95238095 6:-1 7:-0.84615385 8:-1 9:1 10:0 11:1 12:1 13:-0.81481481 14:-1 15:-1 16:0.4736842 17:0 18:0 19:0.49905133 20:0 21:0 22:0 23:-1 
10 1:0.29999995 2:0 3:0 4:-0.95555556 5:-0.9047619 6:-1 7:-0.84615385 8:-1 9:0.31034493 10:0 11:0 12:0 13:-0.87037037 14:-0.87096774 15:-1 16:0.945946 17:0 18:0 19:0.68359995 20:1 21:0 22:0 23:-1 
10 1:0.29999995 2:0 3:0 4:-0.95555556 5:-0.9047619 6:-1 7:-0.84615385 8:-1 9:0.31034493 10:0 11:0 12:0 13:-0.87037037 14:-0.87096774 15:-1 16:0.945946 17:0 18:0 19:0.68359995 20:1 21:0 22:0 23:-1 
10 1:0.43999994 2:0 3:0 4:-0.91111111 5:-0.95238095 6:-1 7:-0.84615385 8:-1 9:1 10:0 11:1 12:1 13:-0.7962963 14:-1 15:-1 16:0 17:0 18:0 19:0.15828955 20:0 21:0 22:0 23:-1 
10 1:0.6664175 2:1 3:0 4:-0.83514559 5:-0.92969242 6:-0.96745842 7:-0.94799423 8:-0.99717752 9:-0.07279688 10:0 11:0 12:0 13:-0.87037037 14:-0.58064516 15:-0.74193548 16:0.7571935 17:1 18:0 19:0.26090598 20:0 21:0 22:0 23:-1 
10 1:0.6664175 2:1 3:0 4:-0.83514559 5:-0.92969242 6:-0.96745842 7:-0.94799423 8:-0.99717752 9:-0.07279688 10:0 11:0 12:0 13:-0.87037037 14:-0.58064516 15:-0.74193548 16:0.7571935 17:1 18:0 19:0.2681452 20:0 21:0 22:0 23:-0.97222222 
10 1:0.6664175 2:1 3:0 4:-0.83514559 5:-0.92969242 6:-0.96745842 7:-0.94799423 8:-0.99717752 9:0.8491379 10:0 11:0 12:0 13:-0.77777778 14:-0.96774194 15:-1 16:0.7571935 17:1 18:0 19:0.9766041 20:0 21:0 22:0 23:-1 
4.715805024113372 1:0.43999994 2:0 3:0 4:-0.91111111 5:-0.95238095 6:-1 7:-0.84615385 8:-1 9:0.8491379 10:0 11:0 12:1 13:-0.77777778 14:-0.96774194 15:-1 16:1 17:0 18:1 19:0.68359995 20:1 21:0 22:0 23:-0.97222222 
10 1:0.6664175 2:1 3:0 4:-0.83514559 5:-0.92969242 6:-0.96745842 7:-0.94799423 8:-0.99717752 9:0.7805643 10:0 11:0 12:0 13:-0.87037037 14:-0.96774194 15:-1 16:0.7571935 17:1 18:0 19:0.7851436 20:0 21:0 22:0 23:-1 
10 1:-0.40000004 2:0 3:0 4:-0.82222222 5:-0.52380952 6:-0.88235294 7:-1 8:-1 9:-0.14337564 10:0 11:0 12:0 13:-0.87037037 14:-0.5483871 15:-0.93548387 16:1 17:0 18:1 19:1 20:0 21:1 22:0 23:-0.94444444 
10 1:0.6664175 2:1 3:0 4:-0.83514559 5:-0.92969242 6:-0.96745842 7:-0.94799423 8:-0.99717752 9:0.29922128 10:0 11:0 12:0 13:-0.85185185 14:-0.70967742 15:-0.83870968 16:0.7571935 17:1 18:0 19:0.9211471 20:0 21:0 22:0 23:-1 
10 1:0.29999995 2:0 3:0 4:-0.95555556 5:-0.95238095 6:-1 7:-0.84615385 8:-1 9:0.6188748 10:0 11:0 12:1 13:-0.90740741 14:-0.93548387 15:-0.96774194 16:1 17:0 18:1 19:1 20:0 21:1 22:0 23:-1 
10 1:0.29999995 2:0 3:0 4:-0.95555556 5:-0.95238095 6:-1 7:-0.84615385 8:-1 9:0.42528737 10:0 11:0 12:0 13:-0.90740741 14:-0.87096774 15:-0.96774194 16:1 17:0 18:1 19:1 20:0 21:1 22:0 23:-0.97222222 
10 1:0.4666667 2:0 3:0 4:0.42222222 5:-0.52380952 6:-0.76470588 7:-1 8:-1 9:0.60225636 10:1 11:0 12:1 13:-0.85821357 14:-0.89946629 15:-0.94473468 16:0.7571935 17:1 18:0 19:0.68359995 20:1 21:0 22:0 23:-1 
10 1:0.43999994 2:0 3:0 4:-0.91111111 5:-0.95238095 6:-1 7:-0.84615385 8:-1 9:0.35632193 10:0 11:0 12:1 13:-0.85185185 14:-0.77419355 15:-0.80645161 16:0.7391304 17:0 18:0 19:0.13434958 20:0 21:0 22:0 23:-1 
10 1:0.33333337 2:0 3:0 4:-0.73333333 5:-0.80952381 6:-0.82352941 7:-1 8:-1 9:0.48275864 10:0 11:0 12:0 13:-0.85185185 14:-0.80645161 15:-1 16:0.88235295 17:0 18:0 19:0.61786616 20:0 21:0 22:0 23:-0.97222222 
10 1:0.33333337 2:0 3:0 4:-0.73333333 5:-0.80952381 6:-0.82352941 7:-1 8:-1 9:0.48275864 10:0 11:0 12:0 13:-0.85185185 14:-0.80645161 15:-1 16:0.88235295 17:0 18:0 19:0.61786616 20:0 21:0 22:0 23:-0.97222222 
7.187967303374398 1:-0.12000001 2:0 3:0 4:-0.68888889 5:-0.57142857 6:-0.64705882 7:-1 8:-1 9:0.6080165 10:0 11:0 12:0 13:-0.14814815 14:-0.64516129 15:-0.90322581 16:0.7571935 17:1 18:0 19:0.68359995 20:1 21:0 22:0 23:-1 
10 1:0.6664175 2:1 3:0 4:-0.83514559 5:-0.92969242 6:-0.96745842 7:-0.94799423 8:-0.99717752 9:0.6286472 10:0 11:0 12:0 13:-0.85185185 14:-0.93548387 15:-1 16:0.7571935 17:1 18:0 19:0.94245875 20:0 21:0 22:0 23:-1 
4.677273465854375 1:1 2:0 3:1 4:-0.86666667 5:-1 6:-1 7:-1 8:-1 9:0.5474138 10:0 11:0 12:1 13:-0.81481481 14:-0.90322581 15:-1 16:0 17:0 18:0 19:0.98010266 20:0 21:0 22:0 23:-0.97222222 
10 1:0.6664175 2:1 3:0 4:-0.83514559 5:-0.92969242 6:-0.96745842 7:-0.94799423 8:-0.99717752 9:0.3416928 10:0 11:0 12:1 13:-0.90740741 14:-0.83870968 15:-0.87096774 16:0.7571935 17:1 18:0 19:0.97735083 20:0 21:0 22:0 23:-1 
10 1:0.6664175 2:1 3:0 4:-0.83514559 5:-0.92969242 6:-0.96745842 7:-0.94799423 8:-0.99717752 9:0.12225699 10:0 11:0 12:1 13:-0.92592593 14:-0.77419355 15:-0.80645161 16:0.7571935 17:1 18:0 19:0.7325338 20:0 21:0 22:0 23:-0.96676908 
10 1:0.6664175 2:1 3:0 4:-0.83514559 5:-0.92969242 6:-0.96745842 7:-0.94799423 8:-0.99717752 9:0.81432366 10:0 11:0 12:0 13:-0.83333333 14:-0.96774194 15:-1 16:0.7571935 17:1 18:0 19:0.687345 20:0 21:0 22:0 23:-0.97222222 
0.8892225131788672 1:0.74545443 2:0 3:0 4:-0.86666667 5:-0.95238095 6:-0.94117647 7:-1 8:-1 9:0.48275864 10:0 11:0 12:0 13:-0.85185185 14:-0.83870968 15:-1 16:1 17:0 18:1 19:1 20:0 21:1 22:1 23:-0.86111111 
10 1:0.74545443 2:0 3:0 4:-0.86666667 5:-0.95238095 6:-0.94117647 7:-1 8:-1 9:0.48275864 10:0 11:0 12:0 13:-0.85185185 14:-0.83870968 15:-1 16:1 17:0 18:1 19:1 20:0 21:1 22:0 23:-0.94444444 
10 1:0.6664175 2:1 3:0 4:-0.83514559 5:-0.92969242 6:-0.96745842 7:-0.94799423 8:-0.99717752 9:0.4173603 10:0 11:0 12:0 13:-0.85185185 14:-0.77419355 15:-0.90322581 16:0.7571935 17:1 18:0 19:0.6329256 20:0 21:0 22:0 23:-1 
10 1:0.6664175 2:1 3:0 4:-0.83514559 5:-0.92969242 6:-0.96745842 7:-0.94799423 8:-0.99717752 9:0.37420177 10:0 11:0 12:0 13:-0.87037037 14:-0.77419355 15:-0.90322581 16:0.8125 17:0 18:0 19:0.80040336 20:0 21:0 22:0 23:-0.94444444 
6.310907947595483 1:0.5333332 2:0 3:0 4:-0.86666667 5:-0.95238095 6:-1 7:-1 8:-1 9:1 10:0 11:1 12:1 13:-0.90740741 14:-1 15:-1 16:0.23076928 17:0 18:0 19:0.98010266 20:0 21:0 22:0 23:-1 
10 1:0.6664175 2:1 3:0 4:-0.83514559 5:-0.92969242 6:-0.96745842 7:-0.94799423 8:-0.99717752 9:0.39655173 10:0 11:0 12:0 13:-0.94444444 14:-0.90322581 15:-0.93548387 16:0.60919535 17:0 18:0 19:0.5839822 20:0 21:0 22:0 23:-0.94444444 
10 1:0.6664175 2:1 3:0 4:-0.83514559 5:-0.92969242 6:-0.96745842 7:-0.94799423 8:-0.99717752 9:0.7502973 10:0 11:0 12:0 13:-0.81481481 14:-0.93548387 15:-0.96774194 16:0.7571935 17:1 18:0 19:1 20:0 21:0 22:0 23:-0.97222222 
10 1:0.6664175 2:1 3:0 4:-0.83514559 5:-0.92969242 6:-0.96745842 7:-0.94799423 8:-0.99717752 9:0.7502973 10:0 11:0 12:0 13:-0.81481481 14:-0.93548387 15:-0.96774194 16:0.7571935 17:1 18:0 19:0.855659 20:0 21:0 22:0 23:-1 
10 1:0.6664175 2:1 3:0 4:-0.83514559 5:-0.92969242 6:-0.96745842 7:-0.94799423 8:-0.99717752 9:0.8275862 10:0 11:0 12:0 13:-0.81481481 14:-0.96774194 15:-1 16:0.7571935 17:1 18:0 19:1 20:0 21:1 22:0 23:-0.97222222 
10 1:0.6664175 2:1 3:0 4:-0.83514559 5:-0.92969242 6:-0.96745842 7:-0.94799423 8:-0.99717752 9:0.7318008 10:0 11:0 12:0 13:-0.90740741 14:-0.96774194 15:-1 16:0.7571935 17:1 18:0 19:0.9074335 20:0 21:0 22:0 23:-1 
10 1:0.6664175 2:1 3:0 4:-0.83514559 5:-0.92969242 6:-0.96745842 7:-0.94799423 8:-0.99717752 9:0.7318008 10:0 11:0 12:0 13:-0.90740741 14:-0.96774194 15:-1 16:0.7571935 17:1 18:0 19:0.8389809 20:0 21:0 22:0 23:-1 
1.258543986663204 1:0.6664175 2:1 3:0 4:-0.83514559 5:-0.92969242 6:-0.96745842 7:-0.94799423 8:-0.99717752 9:0.8659003 10:0 11:0 12:1 13:-0.74074074 14:-0.96774194 15:-1 16:0.7571935 17:1 18:0 19:1 20:0 21:1 22:1 23:-0.91666667 
9.993520840216259 1:0.6664175 2:1 3:0 4:-0.83514559 5:-0.92969242 6:-0.96745842 7:-0.94799423 8:-0.99717752 9:0.8659003 10:0 11:0 12:1 13:-0.74074074 14:-0.96774194 15:-1 16:0.7571935 17:1 18:0 19:1 20:0 21:1 22:1 23:-0.91666667 
10 1:0.6664175 2:1 3:0 4:-0.83514559 5:-0.92969242 6:-0.96745842 7:-0.94799423 8:-0.99717752 9:0.8275862 10:0 11:0 12:0 13:-0.81481481 14:-0.96774194 15:-1 16:1 17:0 18:1 19:1 20:0 21:1 22:1 23:-0.88888889 
6.380649510760454 1:0.5333332 2:0 3:0 4:-0.86666667 5:-0.95238095 6:-1 7:-0.84615385 8:-1 9:1 10:0 11:1 12:1 13:-0.7962963 14:-1 15:-1 16:-0.04000002 17:0 18:0 19:-0.19758058 20:0 21:0 22:0 23:-1 
10 1:0.6664175 2:1 3:0 4:-0.83514559 5:-0.92969242 6:-0.96745842 7:-0.94799423 8:-0.99717752 9:0.7586206 10:0 11:0 12:0 13:-0.88888889 14:-0.93548387 15:-0.93548387 16:0.7571935 17:1 18:0 19:0.69585264 20:0 21:0 22:0 23:-0.94444444 
10 1:0.6664175 2:1 3:0 4:-0.83514559 5:-0.92969242 6:-0.96745842 7:-0.94799423 8:-0.99717752 9:0.7586206 10:0 11:0 12:0 13:-0.88888889 14:-0.93548387 15:-0.93548387 16:0.7571935 17:1 18:0 19:0.62428856 20:0 21:0 22:0 23:-1 
10 1:0.6664175 2:1 3:0 4:-0.83514559 5:-0.92969242 6:-0.96745842 7:-0.94799423 8:-0.99717752 9:0.25729454 10:0 11:0 12:0 13:-0.88888889 14:-0.74193548 15:-0.87096774 16:0.7571935 17:1 18:0 19:0.78709686 20:0 21:0 22:0 23:-0.94444444 
10 1:0.29999995 2:0 3:0 4:-0.95555556 5:-0.95238095 6:-1 7:-0.84615385 8:-1 9:0.5474138 10:0 11:0 12:0 13:-0.81481481 14:-0.87096774 15:-0.93548387 16:0.6666666 17:0 18:0 19:0.22580647 20:0 21:0 22:0 23:-0.94444444 
10 1:0.6664175 2:1 3:0 4:-0.83514559 5:-0.92969242 6:-0.96745842 7:-0.94799423 8:-0.99717752 9:0.39655173 10:0 11:0 12:0 13:-0.94444444 14:-0.93548387 15:-1 16:1 17:0 18:1 19:1 20:0 21:1 22:0 23:-0.94444444 
10 1:0.6664175 2:1 3:0 4:-0.83514559 5:-0.92969242 6:-0.96745842 7:-0.94799423 8:-0.99717752 9:0.39655173 10:0 11:0 12:0 13:-0.94444444 14:-0.93548387 15:-1 16:1 17:0 18:1 19:1 20:0 21:1 22:0 23:-0.97222222 
10 1:0.6664175 2:1 3:0 4:-0.83514559 5:-0.92969242 6:-0.96745842 7:-0.94799423 8:-0.99717752 9:0.39655173 10:0 11:0 12:0 13:-0.94444444 14:-0.93548387 15:-1 16:1 17:0 18:1 19:1 20:0 21:1 22:0 23:-0.97222222 
10 1:0.6664175 2:1 3:0 4:-0.83514559 5:-0.92969242 6:-0.96745842 7:-0.94799423 8:-0.99717752 9:-0.20689654 10:0 11:0 12:0 13:-0.96296296 14:-0.67741935 15:-1 16:0.7571935 17:1 18:0 19:0.8273759 20:0 21:0 22:0 23:-0.96676908 
10 1:0.29999995 2:0 3:0 4:-0.95555556 5:-0.95238095 6:-1 7:-0.84615385 8:-1 9:1 10:0 11:1 12:1 13:-0.85185185 14:-1 15:-1 16:0.44000006 17:0 18:0 19:0.5655036 20:0 21:0 22:0 23:-1 
10 1:0.29999995 2:0 3:0 4:-0.95555556 5:-0.95238095 6:-1 7:-0.84615385 8:-1 9:1 10:0 11:1 12:1 13:-0.85185185 14:-1 15:-1 16:0.44000006 17:0 18:0 19:0.5655036 20:0 21:0 22:0 23:-1 
10 1:0.6664175 2:1 3:0 4:-0.83514559 5:-0.92969242 6:-0.96745842 7:-0.94799423 8:-0.99717752 9:-0.23951536 10:0 11:0 12:0 13:-0.88888889 14:-0.51612903 15:-0.96774194 16:0.7571935 17:1 18:0 19:0.5005975 20:0 21:0 22:0 23:-0.97222222 
10 1:0.43999994 2:0 3:0 4:-0.91111111 5:-0.95238095 6:-1 7:-0.84615385 8:-1 9:0.19540238 10:0 11:0 12:1 13:-0.92592593 14:-0.80645161 15:-0.90322581 16:1 17:0 18:1 19:0.8844712 20:0 21:0 22:0 23:-0.97222222 
10 1:0.43999994 2:0 3:0 4:-0.91111111 5:-0.95238095 6:-1 7:-0.84615385 8:-1 9:0.19540238 10:0 11:0 12:1 13:-0.92592593 14:-0.80645161 15:-0.90322581 16:0.68421054 17:0 18:0 19:0.8689828 20:0 21:0 22:0 23:-0.97222222 
10 1:0.29999995 2:0 3:0 4:-0.95555556 5:-0.95238095 6:-1 7:-0.84615385 8:-1 9:0.65517247 10:0 11:0 12:1 13:-0.83333333 14:-0.93548387 15:-1 16:1 17:0 18:1 19:1 20:0 21:1 22:0 23:-1 
2.355686358216619 1:-0.01818192 2:0 3:0 4:-0.77777778 5:-0.61904762 6:-1 7:-1 8:-1 9:0.60225636 10:1 11:0 12:1 13:-0.85821357 14:-0.89946629 15:-0.94473468 16:0.27999997 17:0 18:0 19:0.68359995 20:1 21:0 22:0 23:-0.96676908 
10 1:0.6664175 2:1 3:0 4:-0.83514559 5:-0.92969242 6:-0.96745842 7:-0.94799423 8:-0.99717752 9:0.5611285 10:0 11:0 12:0 13:-0.88888889 14:-0.93548387 15:-1 16:0.7571935 17:1 18:0 19:1 20:0 21:1 22:0 23:-1 
10 1:0.6664175 2:1 3:0 4:-0.83514559 5:-0.92969242 6:-0.96745842 7:-0.94799423 8:-0.99717752 9:0.6286472 10:0 11:0 12:0 13:-0.85185185 14:-0.93548387 15:-1 16:1 17:0 18:1 19:1 20:0 21:1 22:0 23:-1 
10 1:0.45806444 2:0 3:0 4:0.022222222 5:-0.57142857 6:-0.64705882 7:-1 8:-1 9:0.60225636 10:1 11:0 12:1 13:-0.85821357 14:-0.89946629 15:-0.94473468 16:0.7571935 17:1 18:0 19:0.68359995 20:1 21:0 22:0 23:-1 
10 1:0.45806444 2:0 3:0 4:0.022222222 5:-0.57142857 6:-0.64705882 7:-1 8:-1 9:0.60225636 10:1 11:0 12:1 13:-0.85821357 14:-0.89946629 15:-0.94473468 16:0.7571935 17:1 18:0 19:0.68359995 20:1 21:0 22:0 23:-1 
6.012086696597547 1:0.125 2:0 3:0 4:-0.6 5:-0.52380952 6:-1 7:-1 8:-1 9:0.24568963 10:0 11:0 12:0 13:-0.85185185 14:-0.67741935 15:-1 16:1 17:0 18:1 19:1 20:0 21:1 22:0 23:-0.97222222 
10 1:0.125 2:0 3:0 4:-0.6 5:-0.52380952 6:-1 7:-1 8:-1 9:0.24568963 10:0 11:0 12:0 13:-0.85185185 14:-0.67741935 15:-1 16:1 17:0 18:1 19:1 20:0 21:1 22:0 23:-0.97222222 
10 1:0.125 2:0 3:0 4:-0.6 5:-0.52380952 6:-1 7:-1 8:-1 9:0.24568963 10:0 11:0 12:0 13:-0.85185185 14:-0.67741935 15:-1 16:1 17:0 18:1 19:1 20:0 21:1 22:0 23:-0.97222222 
10 1:0.29999995 2:0 3:0 4:-0.95555556 5:-0.95238095 6:-1 7:-0.84615385 8:-1 9:0.29922128 10:0 11:0 12:0 13:-0.85185185 14:-0.77419355 15:-0.83870968 16:0.25 17:0 18:0 19:0.76344097 20:0 21:0 22:0 23:-1 
10 1:0.29999995 2:0 3:0 4:-0.95555556 5:-0.95238095 6:-1 7:-0.84615385 8:-1 9:0.29922128 10:0 11:0 12:0 13:-0.85185185 14:-0.77419355 15:-0.83870968 16:0.25 17:0 18:0 19:0.76344097 20:0 21:0 22:0 23:-1 
10 1:0.29999995 2:0 3:0 4:-0.95555556 5:-0.95238095 6:-1 7:-0.84615385 8:-1 9:0.29922128 10:0 11:0 12:0 13:-0.85185185 14:-0.77419355 15:-0.83870968 16:0.25 17:0 18:0 19:0.76344097 20:0 21:0 22:0 23:-1 
10 1:0.29999995 2:0 3:0 4:-0.95555556 5:-0.95238095 6:-1 7:-0.84615385 8:-1 9:0.29922128 10:0 11:0 12:0 13:-0.85185185 14:-0.77419355 15:-0.83870968 16:0.25 17:0 18:0 19:0.76344097 20:0 21:0 22:0 23:-1 
10 1:0.6664175 2:1 3:0 4:-0.83514559 5:-0.92969242 6:-0.96745842 7:-0.94799423 8:-0.99717752 9:0.25729454 10:0 11:0 12:0 13:-0.88888889 14:-0.83870968 15:-0.93548387 16:0.7571935 17:1 18:0 19:0.77304745 20:0 21:0 22:0 23:-1 
10 1:0.43999994 2:0 3:0 4:-0.91111111 5:-0.95238095 6:-1 7:-0.84615385 8:-1 9:1 10:0 11:1 12:1 13:-0.81481481 14:-1 15:-1 16:0.06666672 17:0 18:0 19:0.58089924 20:0 21:0 22:0 23:-1 
10 1:0.6664175 2:1 3:0 4:-0.83514559 5:-0.92969242 6:-0.96745842 7:-0.94799423 8:-0.99717752 9:0.7318008 10:0 11:0 12:1 13:-0.90740741 14:-0.96774194 15:-1 16:0.5813954 17:0 18:0 19:0.55438876 20:0 21:0 22:0 23:-1 
10 1:0.6664175 2:1 3:0 4:-0.83514559 5:-0.92969242 6:-0.96745842 7:-0.94799423 8:-0.99717752 9:0.7318008 10:0 11:0 12:1 13:-0.90740741 14:-0.96774194 15:-1 16:0.61904764 17:0 18:0 19:0.59447014 20:0 21:0 22:0 23:-1 
10 1:0.6664175 2:1 3:0 4:-0.83514559 5:-0.92969242 6:-0.96745842 7:-0.94799423 8:-0.99717752 9:0.7318008 10:0 11:0 12:1 13:-0.90740741 14:-0.96774194 15:-1 16:0.5813954 17:0 18:0 19:0.55438876 20:0 21:0 22:0 23:-1 
10 1:0.5578948 2:0 3:0 4:-0.73333333 5:-0.9047619 6:-0.94117647 7:-1 8:-1 9:0.7318008 10:0 11:0 12:0 13:-0.90740741 14:-0.96774194 15:-1 16:0.5890411 17:0 18:0 19:0.58602166 20:0 21:0 22:0 23:-0.94444444 
10 1:0.43999994 2:0 3:0 4:-0.91111111 5:-0.95238095 6:-1 7:-0.84615385 8:-1 9:0.83908045 10:0 11:0 12:1 13:-0.92592593 14:-0.96774194 15:-0.96774194 16:0.71428573 17:0 18:0 19:0.7278682 20:0 21:0 22:0 23:-1 
5.598464682867625 1:0.43999994 2:0 3:0 4:-0.91111111 5:-0.95238095 6:-1 7:-0.84615385 8:-1 9:0.60225636 10:1 11:0 12:1 13:-0.85821357 14:-0.89946629 15:-0.94473468 16:0.69696975 17:0 18:0 19:0.68359995 20:1 21:0 22:0 23:-0.97222222 
10 1:0.43999994 2:0 3:0 4:-0.91111111 5:-0.95238095 6:-1 7:-0.84615385 8:-1 9:0.60225636 10:1 11:0 12:1 13:-0.85821357 14:-0.89946629 15:-0.94473468 16:0.69696975 17:0 18:0 19:0.68359995 20:1 21:0 22:0 23:-0.97222222 
4.197833488519963 1:0.6888888 2:0 3:0 4:-0.91111111 5:-0.95238095 6:-0.94117647 7:-1 8:-1 9:0.2653674 10:0 11:0 12:0 13:-0.90740741 14:-0.87096774 15:-0.96774194 16:0.71428573 17:0 18:0 19:1 20:0 21:1 22:0 23:-1 
10 1:0.6664175 2:1 3:0 4:-0.83514559 5:-0.92969242 6:-0.96745842 7:-0.94799423 8:-0.99717752 9:0.5172415 10:0 11:0 12:0 13:-0.90740741 14:-0.93548387 15:-1 16:0.7571935 17:1 18:0 19:1 20:0 21:0 22:0 23:-1 
10 1:0.29999995 2:0 3:0 4:-0.95555556 5:-0.95238095 6:-1 7:-0.84615385 8:-1 9:0.034482837 10:0 11:0 12:0 13:-0.88888889 14:-0.74193548 15:-0.87096774 16:1 17:0 18:1 19:1 20:0 21:1 22:1 23:-0.88888889 
10 1:0.6664175 2:1 3:0 4:-0.83514559 5:-0.92969242 6:-0.96745842 7:-0.94799423 8:-0.99717752 9:0.7586206 10:0 11:0 12:0 13:-0.88888889 14:-0.93548387 15:-0.93548387 16:0.7571935 17:1 18:0 19:0.8121443 20:0 21:0 22:0 23:-1 
10 1:0.06666672 2:0 3:0 4:-0.95555556 5:-0.9047619 6:-0.94117647 7:-0.84615385 8:-1 9:0.4173603 10:0 11:0 12:0 13:-0.85185185 14:-0.83870968 15:-0.90322581 16:0.4193548 17:0 18:0 19:0.78709686 20:0 21:0 22:0 23:-1 
10 1:0.5999999 2:0 3:0 4:-0.82222222 5:-0.95238095 6:-1 7:-0.84615385 8:-1 9:0.19540238 10:0 11:0 12:0 13:-0.94444444 14:-0.80645161 15:-1 16:1 17:0 18:1 19:1 20:0 21:1 22:0 23:-0.97222222 
10 1:0.6664175 2:1 3:0 4:-0.83514559 5:-0.92969242 6:-0.96745842 7:-0.94799423 8:-0.99717752 9:-0.0057471395 10:0 11:0 12:0 13:-0.92592593 14:-0.67741935 15:-0.80645161 16:0.6 17:0 18:0 19:0.5741936 20:0 21:0 22:0 23:-1 
0.2018287295876529 1:0.6664175 2:1 3:0 4:-0.83514559 5:-0.92969242 6:-0.96745842 7:-0.94799423 8:-0.99717752 9:0.39655173 10:0 11:0 12:0 13:-0.77777778 14:-0.67741935 15:-1 16:1 17:0 18:1 19:0.63049865 20:0 21:0 22:0 23:-0.94444444 
10 1:0.6664175 2:1 3:0 4:-0.83514559 5:-0.92969242 6:-0.96745842 7:-0.94799423 8:-0.99717752 9:0.39655173 10:0 11:0 12:0 13:-0.77777778 14:-0.67741935 15:-1 16:1 17:0 18:1 19:0.6018884 20:0 21:0 22:0 23:-0.94444444 
10 1:0.6664175 2:1 3:0 4:-0.83514559 5:-0.92969242 6:-0.96745842 7:-0.94799423 8:-0.99717752 9:0.65517247 10:0 11:0 12:0 13:-0.88888889 14:-0.90322581 15:-0.90322581 16:0.7571935 17:1 18:0 19:0.9245025 20:0 21:0 22:0 23:-1 
10 1:0.43999994 2:0 3:0 4:-0.91111111 5:-0.95238095 6:-1 7:-0.84615385 8:-1 9:0.5172415 10:0 11:0 12:1 13:-0.90740741 14:-0.90322581 15:-0.93548387 16:0.6 17:0 18:0 19:0.9818033 20:0 21:0 22:0 23:-1 
10 1:0.3538462 2:0 3:0 4:-0.86666667 5:-0.9047619 6:-0.94117647 7:-1 8:-1 9:0.44297087 10:0 11:0 12:0 13:-0.96296296 14:-0.93548387 15:-0.96774194 16:1 17:0 18:1 19:1 20:0 21:1 22:0 23:-0.97222222 
10 1:0.43999994 2:0 3:0 4:-0.91111111 5:-0.9047619 6:-1 7:-0.84615385 8:-1 9:0.25729454 10:0 11:0 12:0 13:-0.88888889 14:-0.74193548 15:-1 16:0.53846157 17:0 18:0 19:0.562914 20:0 21:0 22:0 23:-0.97222222 
10 1:0.29999995 2:0 3:0 4:-0.95555556 5:-0.95238095 6:-1 7:-0.84615385 8:-1 9:1 10:0 11:1 12:1 13:-0.85185185 14:-1 15:-1 16:-0.4285714 17:0 18:0 19:0.69585264 20:0 21:0 22:0 23:-1 
10 1:0.5333332 2:0 3:0 4:-0.86666667 5:-0.95238095 6:-1 7:-0.84615385 8:-1 9:0.766407 10:0 11:0 12:1 13:-0.7962963 14:-0.93548387 15:-0.96774194 16:0.42857146 17:0 18:0 19:0.85146296 20:0 21:0 22:0 23:-1 
10 1:0.81333315 2:0 3:0 4:-0.46666667 5:-0.95238095 6:-1 7:-1 8:-1 9:0.83908045 10:0 11:0 12:1 13:-0.7962963 14:-0.96774194 15:-1 16:0.939394 17:0 18:0 19:0.93548405 20:0 21:0 22:0 23:-1 
10 1:0.81333315 2:0 3:0 4:-0.46666667 5:-0.95238095 6:-1 7:-1 8:-1 9:0.83908045 10:0 11:0 12:1 13:-0.7962963 14:-0.96774194 15:-1 16:0.939394 17:0 18:0 19:0.93548405 20:0 21:0 22:0 23:-1 
10 1:0.81333315 2:0 3:0 4:-0.46666667 5:-0.95238095 6:-1 7:-1 8:-1 9:0.83908045 10:0 11:0 12:1 13:-0.7962963 14:-0.96774194 15:-1 16:0.939394 17:0 18:0 19:0.93548405 20:0 21:0 22:0 23:-1 
10 1:0.81333315 2:0 3:0 4:-0.46666667 5:-0.95238095 6:-1 7:-1 8:-1 9:0.83908045 10:0 11:0 12:1 13:-0.7962963 14:-0.96774194 15:-1 16:0.939394 17:0 18:0 19:0.93548405 20:0 21:0 22:0 23:-1 
10 1:0.43999994 2:0 3:0 4:-0.91111111 5:-0.95238095 6:-1 7:-0.84615385 8:-1 9:0.36479127 10:0 11:0 12:0 13:-0.92592593 14:-0.90322581 15:-0.96774194 16:1 17:0 18:1 19:0.22822583 20:0 21:0 22:0 23:-1 
10 1:0.29999995 2:0 3:0 4:-0.95555556 5:-0.95238095 6:-1 7:-1 8:-1 9:0.5530013 10:0 11:0 12:0 13:-0.85185185 14:-0.90322581 15:-0.96774194 16:0.73333335 17:0 18:0 19:0.70521104 20:0 21:0 22:0 23:-1 
10 1:0.29999995 2:0 3:0 4:-0.95555556 5:-0.95238095 6:-1 7:-0.84615385 8:-1 9:-0.01223582 10:0 11:0 12:0 13:-0.88888889 14:-0.70967742 15:-0.96774194 16:0.33333337 17:0 18:0 19:0.9824047 20:0 21:0 22:0 23:-0.94444444 
10 1:0.6664175 2:1 3:0 4:-0.83514559 5:-0.92969242 6:-0.96745842 7:-0.94799423 8:-0.99717752 9:0.6781609 10:0 11:0 12:0 13:-0.81481481 14:-0.90322581 15:-0.93548387 16:0.6140351 17:0 18:0 19:0.5891342 20:0 21:0 22:0 23:-0.97222222 
10 1:0.6664175 2:1 3:0 4:-0.83514559 5:-0.92969242 6:-0.96745842 7:-0.94799423 8:-0.99717752 9:0.6781609 10:0 11:0 12:0 13:-0.81481481 14:-0.90322581 15:-0.93548387 16:0.12195122 17:0 18:0 19:0.06530297 20:0 21:0 22:0 23:-0.97222222 
10 1:0.6664175 2:1 3:0 4:-0.83514559 5:-0.92969242 6:-0.96745842 7:-0.94799423 8:-0.99717752 9:0.32413805 10:0 11:0 12:0 13:-0.88888889 14:-0.77419355 15:-0.90322581 16:0.95000005 17:0 18:0 19:0.94540954 20:0 21:0 22:0 23:-0.94444444 
10 1:0.29999995 2:0 3:0 4:-0.95555556 5:-0.95238095 6:-1 7:-0.84615385 8:-1 9:1 10:0 11:1 12:1 13:-0.85185185 14:-1 15:-1 16:0.7391304 17:0 18:0 19:0.65756834 20:0 21:0 22:0 23:-1 
9.747373577479086 1:0.29999995 2:0 3:0 4:-0.95555556 5:-0.95238095 6:-1 7:-0.84615385 8:-1 9:0.48275864 10:0 11:0 12:1 13:-0.85185185 14:-0.83870968 15:-0.87096774 16:1 17:0 18:1 19:-0.17463845 20:0 21:0 22:0 23:-1 
10 1:0.29999995 2:0 3:0 4:-0.95555556 5:-0.9047619 6:-1 7:-0.69230769 8:-1 9:0.35632193 10:0 11:0 12:0 13:-0.85185185 14:-0.74193548 15:-1 16:1 17:0 18:1 19:1 20:0 21:1 22:0 23:-1 
10 1:0.29999995 2:0 3:0 4:-0.95555556 5:-0.9047619 6:-1 7:-0.69230769 8:-1 9:0.35632193 10:0 11:0 12:0 13:-0.85185185 14:-0.74193548 15:-1 16:1 17:0 18:1 19:1 20:0 21:1 22:0 23:-1 
10 1:0.6664175 2:1 3:0 4:-0.83514559 5:-0.92969242 6:-0.96745842 7:-0.94799423 8:-0.99717752 9:0.7586206 10:0 11:0 12:0 13:-0.88888889 14:-0.96774194 15:-1 16:0.7571935 17:1 18:0 19:0.7270472 20:0 21:0 22:0 23:-0.97222222 
