svm_type c_svc
kernel_type rbf
gamma 0.5
nr_class 2
total_sv 9694
rho -4.9543
label 1 -1
nr_sv 4842 4852
SV
10 1:0.6664175 2:-0.83514559 3:-0.92969242 4:-0.96745842 5:-0.94799423 6:0.7586206 7:-0.88888889 8:-0.93548387 9:-0.93548387 10:1 11:1 12:1 13:-0.88888889 
10 1:0.82500005 2:-0.42222222 3:-0.95238095 4:-1 5:-1 6:0.8491379 7:-0.77777778 8:-0.96774194 9:-1 10:1 11:1 12:0 13:-1 
10 1:0.82500005 2:-0.42222222 3:-0.95238095 4:-1 5:-1 6:0.8491379 7:-0.77777778 8:-0.96774194 9:-1 10:1 11:1 12:0 13:-0.97222222 
10 1:0.6664175 2:-0.83514559 3:-0.92969242 4:-0.96745842 5:-0.94799423 6:0.7586206 7:-0.88888889 8:-0.93548387 9:-0.93548387 10:1 11:1 12:1 13:-0.91666667 
10 1:0.6664175 2:-0.83514559 3:-0.92969242 4:-0.96745842 5:-0.94799423 6:0.7805643 7:-0.87037037 8:-0.96774194 9:-1 10:1 11:1 12:0 13:-0.97222222 
10 1:0.6664175 2:-0.83514559 3:-0.92969242 4:-0.96745842 5:-0.94799423 6:0.7805643 7:-0.87037037 8:-0.96774194 9:-1 10:1 11:1 12:0 13:-0.97222222 
10 1:0.6664175 2:-0.83514559 3:-0.92969242 4:-0.96745842 5:-0.94799423 6:0.7586206 7:-0.88888889 8:-0.93548387 9:-0.93548387 10:1 11:1 12:1 13:-0.91666667 
10 1:0.4857142 2:0.68888889 3:-0.23809524 4:-0.17647059 5:-1 6:0.60225636 7:-0.85821357 8:-0.89946629 9:-0.94473468 10:0.7571935 11:0.68359995 12:0 13:-1 
10 1:0.6664175 2:-0.83514559 3:-0.92969242 4:-0.96745842 5:-0.94799423 6:0.7586206 7:-0.88888889 8:-0.96774194 9:-1 10:0.98148143 11:1 12:0 13:-0.94444444 
10 1:0.6664175 2:-0.83514559 3:-0.92969242 4:-0.96745842 5:-0.94799423 6:0.7586206 7:-0.88888889 8:-0.96774194 9:-1 10:0.98148143 11:1 12:0 13:-1 
10 1:0.6664175 2:-0.83514559 3:-0.92969242 4:-0.96745842 5:-0.94799423 6:0.7586206 7:-0.88888889 8:-0.96774194 9:-1 10:0.98148143 11:1 12:0 13:-0.97222222 
10 1:0.6664175 2:-0.83514559 3:-0.92969242 4:-0.96745842 5:-0.94799423 6:0.7586206 7:-0.88888889 8:-0.96774194 9:-1 10:0.98148143 11:1 12:0 13:-1 
10 1:0.6664175 2:-0.83514559 3:-0.92969242 4:-0.96745842 5:-0.94799423 6:0.8275862 7:-0.81481481 8:-0.96774194 9:-1 10:1 11:1 12:0 13:-1 
10 1:0.29999995 2:-0.82222222 3:-0.85714286 4:-1 5:-1 6:0.39655173 7:-0.94444444 8:-0.90322581 9:-1 10:0.978022 11:0.9766041 12:0 13:-1 
10 1:0.43999994 2:-0.82222222 3:-0.9047619 4:-0.94117647 5:-1 6:0.5172415 7:-0.94444444 8:-0.93548387 9:-0.96774194 10:0.97849464 11:0.9771073 12:0 13:-1 
10 1:0.06666672 2:-0.86666667 3:-0.85714286 4:-0.94117647 5:-1 6:0.19540238 7:-0.96296296 8:-0.90322581 9:-0.96774194 10:0.97849464 11:0.9771073 12:0 13:-1 
10 1:0.43999994 2:-0.82222222 3:-0.9047619 4:-0.94117647 5:-1 6:0.5172415 7:-0.94444444 8:-0.93548387 9:-0.96774194 10:0.95652175 11:0.95371675 12:0 13:-1 
10 1:0.63870966 2:0.11111111 3:-0.61904762 4:-0.88235294 5:-0.84615385 6:0.60225636 7:-0.85821357 8:-0.89946629 9:-0.94473468 10:0.7571935 11:0.68359995 12:0 13:-1 
10 1:0.6664175 2:-0.83514559 3:-0.92969242 4:-0.96745842 5:-0.94799423 6:0.19540238 7:-0.90740741 8:-0.77419355 9:-1 10:0.7571935 11:1 12:1 13:-0.83333333 
10 1:0.43999994 2:-0.91111111 3:-0.9047619 4:-1 5:-1 6:0.19540238 7:-0.90740741 8:-0.77419355 9:-0.93548387 10:1 11:1 12:1 13:-0.80555556 
10 1:0.43999994 2:-0.91111111 3:-0.9047619 4:-1 5:-1 6:0.19540238 7:-0.90740741 8:-0.77419355 9:-0.93548387 10:1 11:1 12:1 13:-0.91666667 
10 1:0.43999994 2:-0.91111111 3:-0.9047619 4:-1 5:-1 6:0.19540238 7:-0.90740741 8:-0.77419355 9:-0.93548387 10:1 11:1 12:0 13:-0.97222222 
10 1:0.43999994 2:-0.91111111 3:-0.9047619 4:-1 5:-1 6:0.19540238 7:-0.90740741 8:-0.77419355 9:-0.93548387 10:1 11:1 12:0 13:-0.97222222 
10 1:0.43999994 2:-0.91111111 3:-0.9047619 4:-1 5:-1 6:0.19540238 7:-0.90740741 8:-0.77419355 9:-0.93548387 10:1 11:1 12:0 13:-0.94444444 
10 1:0.43999994 2:-0.91111111 3:-0.9047619 4:-1 5:-1 6:0.19540238 7:-0.90740741 8:-0.77419355 9:-0.93548387 10:1 11:1 12:0 13:-0.94444444 
10 1:0.6664175 2:-0.83514559 3:-0.92969242 4:-0.96745842 5:-0.94799423 6:0.6982759 7:-0.92592593 8:-0.96774194 9:-1 10:0.97590363 11:0.97434914 12:0 13:-1 
10 1:0.29999995 2:-0.95555556 3:-0.95238095 4:-1 5:-0.84615385 6:1 7:-0.7962963 8:-1 9:-1 10:0.5 11:0.501716 12:0 13:-1 
10 1:0.6664175 2:-0.83514559 3:-0.92969242 4:-0.96745842 5:-0.94799423 6:0.7318008 7:-0.90740741 8:-0.96774194 9:-1 10:0.7571935 11:0.5228033 12:0 13:-0.97222222 
10 1:0.6664175 2:-0.83514559 3:-0.92969242 4:-0.96745842 5:-0.94799423 6:0.7318008 7:-0.90740741 8:-0.96774194 9:-1 10:0.7571935 11:0.73128724 12:0 13:-1 
10 1:0.6664175 2:-0.83514559 3:-0.92969242 4:-0.96745842 5:-0.94799423 6:0.2653674 7:-0.90740741 8:-0.80645161 9:-0.83870968 10:0.7571935 11:1 12:0 13:-1 
10 1:0.6664175 2:-0.83514559 3:-0.92969242 4:-0.96745842 5:-0.94799423 6:0.7805643 7:-0.87037037 8:-0.96774194 9:-1 10:0.7571935 11:1 12:0 13:-1 
10 1:0.6664175 2:-0.83514559 3:-0.92969242 4:-0.96745842 5:-0.94799423 6:0.7805643 7:-0.87037037 8:-0.96774194 9:-1 10:0.7571935 11:1 12:0 13:-1 
10 1:0.6664175 2:-0.83514559 3:-0.92969242 4:-0.96745842 5:-0.94799423 6:0.7318008 7:-0.90740741 8:-0.93548387 9:-0.93548387 10:0.7571935 11:0.9780513 12:1 13:-0.91666667 
10 1:0.6664175 2:-0.83514559 3:-0.92969242 4:-0.96745842 5:-0.94799423 6:0.83908045 7:-0.7962963 8:-0.96774194 9:-1 10:0.7571935 11:0.6890178 12:0 13:-0.97222222 
10 1:0.6664175 2:-0.83514559 3:-0.92969242 4:-0.96745842 5:-0.94799423 6:0.6781609 7:-0.81481481 8:-0.90322581 9:-0.93548387 10:0.7571935 11:0.9125056 12:0 13:-1 
10 1:0.6664175 2:-0.83514559 3:-0.92969242 4:-0.96745842 5:-0.94799423 6:0.8275862 7:-0.81481481 8:-0.96774194 9:-1 10:0.7571935 11:1 12:0 13:-0.97222222 
10 1:0.6664175 2:-0.83514559 3:-0.92969242 4:-0.96745842 5:-0.94799423 6:0.7586206 7:-0.88888889 8:-0.96774194 9:-1 10:0.7571935 11:1 12:0 13:-0.97222222 
10 1:0.6664175 2:-0.83514559 3:-0.92969242 4:-0.96745842 5:-0.94799423 6:0.7586206 7:-0.88888889 8:-0.96774194 9:-1 10:0.7571935 11:1 12:0 13:-0.97222222 
10 1:0.6664175 2:-0.83514559 3:-0.92969242 4:-0.96745842 5:-0.94799423 6:0.7586206 7:-0.88888889 8:-0.96774194 9:-1 10:0.7571935 11:1 12:0 13:-0.97222222 
10 1:0.6664175 2:-0.83514559 3:-0.92969242 4:-0.96745842 5:-0.94799423 6:0.88505745 7:-0.87037037 8:-0.96774194 9:-0.96774194 10:0.7571935 11:0.6605891 12:0 13:-1 
10 1:0.6664175 2:-0.83514559 3:-0.92969242 4:-0.96745842 5:-0.94799423 6:0.88505745 7:-0.87037037 8:-0.96774194 9:-0.96774194 10:0.7571935 11:0.6605891 12:0 13:-1 
10 1:0.6664175 2:-0.83514559 3:-0.92969242 4:-0.96745842 5:-0.94799423 6:0.88505745 7:-0.87037037 8:-0.96774194 9:-0.96774194 10:0.7571935 11:0.6605891 12:0 13:-1 
10 1:0.6664175 2:-0.83514559 3:-0.92969242 4:-0.96745842 5:-0.94799423 6:0.65517247 7:-0.94444444 8:-0.93548387 9:-0.93548387 10:1 11:1 12:0 13:-1 
10 1:0.6664175 2:-0.83514559 3:-0.92969242 4:-0.96745842 5:-0.94799423 6:0.65517247 7:-0.94444444 8:-0.93548387 9:-0.93548387 10:1 11:1 12:0 13:-1 
10 1:0.6664175 2:-0.83514559 3:-0.92969242 4:-0.96745842 5:-0.94799423 6:0.65517247 7:-0.94444444 8:-0.93548387 9:-0.93548387 10:1 11:1 12:0 13:-1 
10 1:0.6664175 2:-0.83514559 3:-0.92969242 4:-0.96745842 5:-0.94799423 6:0.65517247 7:-0.94444444 8:-0.93548387 9:-0.93548387 10:1 11:1 12:0 13:-1 
10 1:0.79999983 2:-0.51111111 3:-0.9047619 4:-0.88235294 5:-1 6:0.60225636 7:-0.85821357 8:-0.89946629 9:-0.94473468 10:0.7571935 11:0.68359995 12:0 13:-1 
10 1:0.6664175 2:-0.83514559 3:-0.92969242 4:-0.96745842 5:-0.94799423 6:0.19540238 7:-0.94444444 8:-0.80645161 9:-0.80645161 10:0.95121956 11:0.94807255 12:0 13:-1 
10 1:0.6664175 2:-0.83514559 3:-0.92969242 4:-0.96745842 5:-0.94799423 6:0.7318008 7:-0.90740741 8:-0.96774194 9:-1 10:0.7571935 11:1 12:0 13:-1 
10 1:0.6664175 2:-0.83514559 3:-0.92969242 4:-0.96745842 5:-0.94799423 6:0.7318008 7:-0.90740741 8:-0.96774194 9:-1 10:0.7571935 11:0.54838717 12:0 13:-0.97222222 
10 1:0.6664175 2:-0.83514559 3:-0.92969242 4:-0.96745842 5:-0.94799423 6:0.7318008 7:-0.90740741 8:-0.96774194 9:-1 10:0.7571935 11:0.54838717 12:0 13:-0.97222222 
10 1:1 2:-0.86666667 3:-1 4:-1 5:-1 6:0.7318008 7:-0.90740741 8:-0.96774194 9:-1 10:0.9130435 11:0.965098 12:1 13:-0.86111111 
3.634979983711879 1:0.80465114 2:-0.2 3:-0.9047619 4:-0.94117647 5:-1 6:0.88505745 7:-0.68518519 8:-0.96774194 9:-1 10:0.6 11:0.5741936 12:0 13:-1 
10 1:0.3538462 2:0.022222222 3:-0.57142857 4:-0.94117647 5:-1 6:0.60225636 7:-0.85821357 8:-0.89946629 9:-0.94473468 10:0.7571935 11:0.68359995 12:0 13:-1 
10 1:0.6664175 2:-0.83514559 3:-0.92969242 4:-0.96745842 5:-0.94799423 6:0.81432366 7:-0.83333333 8:-0.96774194 9:-1 10:0.7571935 11:0.51741934 12:0 13:-1 
10 1:0.6664175 2:-0.83514559 3:-0.92969242 4:-0.96745842 5:-0.94799423 6:0.81432366 7:-0.83333333 8:-0.96774194 9:-1 10:0.7571935 11:0.51741934 12:0 13:-1 
10 1:0.6664175 2:-0.83514559 3:-0.92969242 4:-0.96745842 5:-0.94799423 6:0.5172415 7:-0.90740741 8:-0.93548387 9:-1 10:0.7571935 11:0.5891342 12:0 13:-1 
10 1:0.43999994 2:-0.91111111 3:-0.95238095 4:-1 5:-0.84615385 6:0.8491379 7:-0.77777778 8:-0.96774194 9:-1 10:0.11111116 11:0.4145162 12:0 13:-0.97222222 
10 1:0.43999994 2:-0.91111111 3:-0.95238095 4:-1 5:-0.84615385 6:-0.034482658 7:-0.94444444 8:-0.74193548 9:-0.77419355 10:0.7391304 11:0.67076826 12:0 13:-1 
10 1:0.6664175 2:-0.83514559 3:-0.92969242 4:-0.96745842 5:-0.94799423 6:0.7318008 7:-0.90740741 8:-0.96774194 9:-1 10:0.7571935 11:0.51384306 12:0 13:-1 
10 1:0.43999994 2:-0.91111111 3:-0.95238095 4:-1 5:-0.84615385 6:1 7:-0.72222222 8:-1 9:-1 10:0.2941177 11:0.35046482 12:0 13:-1 
10 1:0.6664175 2:-0.83514559 3:-0.92969242 4:-0.96745842 5:-0.94799423 6:0.5611285 7:-0.88888889 8:-0.90322581 9:-0.93548387 10:0.7571935 11:0.6895163 12:0 13:-1 
10 1:0.5999999 2:-0.82222222 3:-0.95238095 4:-1 5:-1 6:0.65517247 7:-0.94444444 8:-0.96774194 9:-1 10:1 11:1 12:1 13:-0.88888889 
10 1:0.76666653 2:-0.6 3:-0.95238095 4:-1 5:0.23076923 6:0.8275862 7:-0.81481481 8:-0.96774194 9:-1 10:0.7571935 11:0.68359995 12:0 13:-1 
10 1:0.6664175 2:-0.83514559 3:-0.92969242 4:-0.96745842 5:-0.94799423 6:0.79885066 7:-0.85185185 8:-0.96774194 9:-1 10:0.7571935 11:0.42458594 12:0 13:-0.97222222 
10 1:0.6664175 2:-0.83514559 3:-0.92969242 4:-0.96745842 5:-0.94799423 6:0.6781609 7:-0.81481481 8:-0.93548387 9:-1 10:0.7571935 11:0.43161595 12:1 13:-0.83333333 
10 1:0.6664175 2:-0.83514559 3:-0.92969242 4:-0.96745842 5:-0.94799423 6:0.6781609 7:-0.81481481 8:-0.93548387 9:-1 10:0.7571935 11:0.43161595 12:0 13:-1 
10 1:0.6664175 2:-0.83514559 3:-0.92969242 4:-0.96745842 5:-0.94799423 6:0.6781609 7:-0.81481481 8:-0.93548387 9:-1 10:0.7571935 11:0.43161595 12:1 13:-0.83333333 
10 1:0.76666653 2:-0.6 3:-0.95238095 4:-1 5:0.23076923 6:0.8275862 7:-0.81481481 8:-0.96774194 9:-1 10:0.7571935 11:0.68359995 12:0 13:-1 
10 1:0.76666653 2:-0.6 3:-0.95238095 4:-1 5:0.23076923 6:0.8275862 7:-0.81481481 8:-0.96774194 9:-1 10:0.7571935 11:0.68359995 12:0 13:-1 
10 1:0.76666653 2:-0.6 3:-0.95238095 4:-1 5:0.23076923 6:0.8275862 7:-0.81481481 8:-0.96774194 9:-1 10:0.7571935 11:0.68359995 12:0 13:-1 
10 1:0.76666653 2:-0.6 3:-0.95238095 4:-1 5:0.23076923 6:0.8275862 7:-0.81481481 8:-0.96774194 9:-1 10:0.7571935 11:0.68359995 12:0 13:-1 
10 1:0.76666653 2:-0.6 3:-0.95238095 4:-1 5:0.23076923 6:0.8275862 7:-0.81481481 8:-0.96774194 9:-1 10:0.7571935 11:0.68359995 12:0 13:-1 
10 1:0.76666653 2:-0.6 3:-0.95238095 4:-1 5:0.23076923 6:0.8275862 7:-0.81481481 8:-0.96774194 9:-1 10:0.7571935 11:0.68359995 12:0 13:-1 
10 1:0.6664175 2:-0.83514559 3:-0.92969242 4:-0.96745842 5:-0.94799423 6:0.6738118 7:-0.75925926 8:-0.87096774 9:-0.90322581 10:0.7571935 11:0.72447824 12:0 13:-1 
10 1:0.6664175 2:-0.83514559 3:-0.92969242 4:-0.96745842 5:-0.94799423 6:0.6738118 7:-0.75925926 8:-0.87096774 9:-0.90322581 10:0.7571935 11:0.72447824 12:0 13:-1 
10 1:0.6664175 2:-0.83514559 3:-0.92969242 4:-0.96745842 5:-0.94799423 6:0.7805643 7:-0.87037037 8:-0.96774194 9:-1 10:0.92592597 11:0.9211471 12:0 13:-0.97222222 
10 1:0.6664175 2:-0.83514559 3:-0.92969242 4:-0.96745842 5:-0.94799423 6:0.7805643 7:-0.87037037 8:-0.96774194 9:-1 10:0.92592597 11:0.9211471 12:0 13:-0.97222222 
10 1:0.6664175 2:-0.83514559 3:-0.92969242 4:-0.96745842 5:-0.94799423 6:0.7805643 7:-0.87037037 8:-0.96774194 9:-1 10:0.92592597 11:0.9211471 12:0 13:-0.97222222 
10 1:0.76666653 2:-0.6 3:-0.95238095 4:-1 5:0.38461538 6:0.81432366 7:-0.83333333 8:-0.96774194 9:-1 10:0.7571935 11:0.68359995 12:0 13:-1 
10 1:0.76666653 2:-0.6 3:-0.95238095 4:-1 5:0.38461538 6:0.81432366 7:-0.83333333 8:-0.96774194 9:-1 10:0.7571935 11:0.68359995 12:0 13:-1 
10 1:0.6664175 2:-0.83514559 3:-0.92969242 4:-0.96745842 5:-0.94799423 6:0.9106003 7:-0.81481481 8:-0.96774194 9:-0.96774194 10:0.7571935 11:0.74952567 12:0 13:-1 
10 1:0.29999995 2:-0.82222222 3:-0.85714286 4:-1 5:-1 6:0.39655173 7:-0.94444444 8:-0.90322581 9:-1 10:1 11:1 12:0 13:-1 
10 1:0.6664175 2:-0.83514559 3:-0.92969242 4:-0.96745842 5:-0.94799423 6:0.2653674 7:-0.90740741 8:-0.77419355 9:-0.77419355 10:0.7571935 11:0.7758914 12:0 13:-1 
10 1:0.7199999 2:-0.68888889 3:-0.95238095 4:-1 5:0.076923077 6:0.7586206 7:-0.88888889 8:-0.96774194 9:-1 10:0.7571935 11:0.68359995 12:0 13:-1 
10 1:0.6664175 2:-0.83514559 3:-0.92969242 4:-0.96745842 5:-0.94799423 6:0.7805643 7:-0.87037037 8:-0.96774194 9:-1 10:0.7571935 11:1 12:1 13:-0.86111111 
10 1:0.6664175 2:-0.83514559 3:-0.92969242 4:-0.96745842 5:-0.94799423 6:0.7805643 7:-0.87037037 8:-0.96774194 9:-1 10:0.7571935 11:1 12:0 13:-1 
10 1:0.6664175 2:-0.83514559 3:-0.92969242 4:-0.96745842 5:-0.94799423 6:0.7805643 7:-0.87037037 8:-0.96774194 9:-1 10:0.7571935 11:1 12:0 13:-1 
10 1:0.6664175 2:-0.83514559 3:-0.92969242 4:-0.96745842 5:-0.94799423 6:0.7586206 7:-0.88888889 8:-0.96774194 9:-1 10:1 11:1 12:0 13:-1 
10 1:0.6664175 2:-0.83514559 3:-0.92969242 4:-0.96745842 5:-0.94799423 6:0.7318008 7:-0.90740741 8:-0.96774194 9:-1 10:0.7571935 11:1 12:1 13:-0.88888889 
10 1:0.6664175 2:-0.83514559 3:-0.92969242 4:-0.96745842 5:-0.94799423 6:0.7586206 7:-0.88888889 8:-0.96774194 9:-1 10:0.7571935 11:0.92529726 12:0 13:-1 
10 1:0.6664175 2:-0.83514559 3:-0.92969242 4:-0.96745842 5:-0.94799423 6:0.81432366 7:-0.83333333 8:-0.96774194 9:-1 10:1 11:1 12:0 13:-1 
10 1:0.6664175 2:-0.83514559 3:-0.92969242 4:-0.96745842 5:-0.94799423 6:0.81432366 7:-0.83333333 8:-0.96774194 9:-1 10:1 11:1 12:0 13:-1 
10 1:0.6664175 2:-0.83514559 3:-0.92969242 4:-0.96745842 5:-0.94799423 6:0.81432366 7:-0.83333333 8:-0.96774194 9:-1 10:1 11:1 12:0 13:-1 
10 1:0.6664175 2:-0.83514559 3:-0.92969242 4:-0.96745842 5:-0.94799423 6:0.81432366 7:-0.83333333 8:-0.96774194 9:-1 10:1 11:1 12:0 13:-1 
10 1:0.6664175 2:-0.83514559 3:-0.92969242 4:-0.96745842 5:-0.94799423 6:0.81432366 7:-0.83333333 8:-0.96774194 9:-1 10:1 11:1 12:0 13:-1 
10 1:0.6664175 2:-0.83514559 3:-0.92969242 4:-0.96745842 5:-0.94799423 6:0.81432366 7:-0.83333333 8:-0.96774194 9:-1 10:1 11:1 12:0 13:-1 
10 1:0.6664175 2:-0.83514559 3:-0.92969242 4:-0.96745842 5:-0.94799423 6:0.81432366 7:-0.83333333 8:-0.96774194 9:-1 10:1 11:1 12:0 13:-1 
10 1:0.6664175 2:-0.83514559 3:-0.92969242 4:-0.96745842 5:-0.94799423 6:0.81432366 7:-0.83333333 8:-0.96774194 9:-1 10:1 11:1 12:0 13:-1 
10 1:0.6664175 2:-0.83514559 3:-0.92969242 4:-0.96745842 5:-0.94799423 6:0.6982759 7:-0.92592593 8:-0.93548387 9:-0.93548387 10:0.74358976 11:0.7270472 12:0 13:-1 
10 1:0.6664175 2:-0.83514559 3:-0.92969242 4:-0.96745842 5:-0.94799423 6:0.6982759 7:-0.92592593 8:-0.93548387 9:-0.93548387 10:1 11:1 12:0 13:-1 
10 1:0.6664175 2:-0.83514559 3:-0.92969242 4:-0.96745842 5:-0.94799423 6:0.6982759 7:-0.92592593 8:-0.93548387 9:-0.93548387 10:1 11:1 12:1 13:-0.88888889 
10 1:0.6664175 2:-0.83514559 3:-0.92969242 4:-0.96745842 5:-0.94799423 6:0.8491379 7:-0.77777778 8:-0.96774194 9:-1 10:0.7571935 11:0.68359995 12:0 13:-1 
10 1:0.6664175 2:-0.83514559 3:-0.92969242 4:-0.96745842 5:-0.94799423 6:0.8491379 7:-0.77777778 8:-0.96774194 9:-1 10:0.7571935 11:0.68359995 12:0 13:-1 
10 1:0.6664175 2:-0.83514559 3:-0.92969242 4:-0.96745842 5:-0.94799423 6:0.8491379 7:-0.77777778 8:-0.96774194 9:-1 10:0.7571935 11:0.68359995 12:0 13:-1 
10 1:0.6664175 2:-0.83514559 3:-0.92969242 4:-0.96745842 5:-0.94799423 6:0.8491379 7:-0.77777778 8:-0.96774194 9:-1 10:0.7571935 11:0.68359995 12:0 13:-1 
10 1:0.6664175 2:-0.83514559 3:-0.92969242 4:-0.96745842 5:-0.94799423 6:0.8491379 7:-0.77777778 8:-0.96774194 9:-1 10:0.7571935 11:0.68359995 12:0 13:-1 
10 1:0.6664175 2:-0.83514559 3:-0.92969242 4:-0.96745842 5:-0.94799423 6:0.8491379 7:-0.77777778 8:-0.96774194 9:-1 10:0.7571935 11:0.68359995 12:0 13:-1 
10 1:0.6664175 2:-0.83514559 3:-0.92969242 4:-0.96745842 5:-0.94799423 6:0.8491379 7:-0.77777778 8:-0.96774194 9:-1 10:0.7571935 11:0.68359995 12:0 13:-1 
10 1:0.6664175 2:-0.83514559 3:-0.92969242 4:-0.96745842 5:-0.94799423 6:0.8491379 7:-0.77777778 8:-0.96774194 9:-1 10:0.7571935 11:0.68359995 12:0 13:-1 
10 1:0.6664175 2:-0.83514559 3:-0.92969242 4:-0.96745842 5:-0.94799423 6:0.6982759 7:-0.7962963 8:-0.93548387 9:-1 10:0.7571935 11:0.68359995 12:0 13:-1 
10 1:0.6664175 2:-0.83514559 3:-0.92969242 4:-0.96745842 5:-0.94799423 6:0.8491379 7:-0.77777778 8:-0.96774194 9:-1 10:0.7571935 11:0.68359995 12:0 13:-0.97222222 
10 1:0.6664175 2:-0.83514559 3:-0.92969242 4:-0.96745842 5:-0.94799423 6:0.8491379 7:-0.77777778 8:-0.96774194 9:-1 10:0.7571935 11:0.68359995 12:0 13:-0.97222222 
10 1:0.6664175 2:-0.83514559 3:-0.92969242 4:-0.96745842 5:-0.94799423 6:0.8491379 7:-0.77777778 8:-0.96774194 9:-1 10:0.7571935 11:0.68359995 12:0 13:-0.94444444 
10 1:0.6664175 2:-0.83514559 3:-0.92969242 4:-0.96745842 5:-0.94799423 6:0.8491379 7:-0.77777778 8:-0.96774194 9:-1 10:0.7571935 11:0.68359995 12:0 13:-0.97222222 
10 1:0.6664175 2:-0.83514559 3:-0.92969242 4:-0.96745842 5:-0.94799423 6:0.8491379 7:-0.77777778 8:-0.96774194 9:-1 10:0.7571935 11:0.68359995 12:0 13:-1 
10 1:0.6664175 2:-0.83514559 3:-0.92969242 4:-0.96745842 5:-0.94799423 6:0.8491379 7:-0.77777778 8:-0.96774194 9:-1 10:0.7571935 11:0.68359995 12:0 13:-1 
10 1:0.6664175 2:-0.83514559 3:-0.92969242 4:-0.96745842 5:-0.94799423 6:0.8491379 7:-0.77777778 8:-0.96774194 9:-1 10:0.7571935 11:0.68359995 12:0 13:-1 
10 1:0.6664175 2:-0.83514559 3:-0.92969242 4:-0.96745842 5:-0.94799423 6:0.8491379 7:-0.77777778 8:-0.96774194 9:-1 10:0.7571935 11:0.68359995 12:0 13:-1 
10 1:0.6664175 2:-0.83514559 3:-0.92969242 4:-0.96745842 5:-0.94799423 6:0.5172415 7:-0.87037037 8:-0.87096774 9:-0.90322581 10:0.7571935 11:0.8790324 12:0 13:-1 
10 1:0.6664175 2:-0.83514559 3:-0.92969242 4:-0.96745842 5:-0.94799423 6:0.65517247 7:-0.94444444 8:-0.93548387 9:-0.93548387 10:0.88235295 11:0.8747629 12:0 13:-1 
10 1:0.6664175 2:-0.83514559 3:-0.92969242 4:-0.96745842 5:-0.94799423 6:0.65517247 7:-0.94444444 8:-0.93548387 9:-0.93548387 10:0.88235295 11:0.8747629 12:0 13:-1 
10 1:0.6664175 2:-0.83514559 3:-0.92969242 4:-0.96745842 5:-0.94799423 6:-0.07279688 7:-0.87037037 8:-0.51612903 9:-0.61290323 10:0.7571935 11:1 12:1 13:-0.77777778 
10 1:0.6664175 2:-0.83514559 3:-0.92969242 4:-0.96745842 5:-0.94799423 6:0.19540238 7:-0.90740741 8:-0.83870968 9:-0.93548387 10:0.7571935 11:1 12:0 13:-1 
10 1:0.6664175 2:-0.83514559 3:-0.92969242 4:-0.96745842 5:-0.94799423 6:0.6982759 7:-0.92592593 8:-0.93548387 9:-0.93548387 10:0.76744187 11:0.7524382 12:0 13:-1 
10 1:0.6664175 2:-0.83514559 3:-0.92969242 4:-0.96745842 5:-0.94799423 6:0.25729454 7:-0.88888889 8:-0.77419355 9:-0.80645161 10:0.7571935 11:1 12:0 13:-1 
10 1:0.6664175 2:-0.83514559 3:-0.92969242 4:-0.96745842 5:-0.94799423 6:0.61067843 7:-0.81481481 8:-0.90322581 9:-0.96774194 10:0.7571935 11:1 12:1 13:-0.88888889 
10 1:0.6664175 2:-0.83514559 3:-0.92969242 4:-0.96745842 5:-0.94799423 6:0.25729454 7:-0.88888889 8:-0.77419355 9:-0.80645161 10:0.7571935 11:1 12:0 13:-1 
10 1:0.6664175 2:-0.83514559 3:-0.92969242 4:-0.96745842 5:-0.94799423 6:0.25729454 7:-0.88888889 8:-0.77419355 9:-0.80645161 10:0.7571935 11:1 12:0 13:-1 
10 1:0.74545443 2:-0.86666667 3:-0.95238095 4:-0.94117647 5:-1 6:0.69053936 7:-0.74074074 8:-0.90322581 9:-0.96774194 10:1 11:0.97198653 12:0 13:-1 
10 1:0.6664175 2:-0.83514559 3:-0.92969242 4:-0.96745842 5:-0.94799423 6:0.65517247 7:-0.94444444 8:-0.96774194 9:-1 10:1 11:1 12:1 13:-0.88888889 
10 1:0.6888888 2:-0.91111111 3:-0.95238095 4:-0.94117647 5:-1 6:0.35632193 7:-0.85185185 8:-0.87096774 9:-1 10:0.6 11:0.68359995 12:0 13:-1 
10 1:0.3830508 2:-0.066666667 3:-0.57142857 4:-0.70588235 5:-1 6:0.60225636 7:-0.85821357 8:-0.89946629 9:-0.94473468 10:0.7571935 11:0.68359995 12:0 13:-1 
10 1:0.27741933 2:-0.066666667 3:-0.42857143 4:-0.52941176 5:-1 6:0.60225636 7:-0.85821357 8:-0.89946629 9:-0.94473468 10:0.7571935 11:0.68359995 12:0 13:-1 
10 1:0.27741933 2:-0.066666667 3:-0.42857143 4:-0.52941176 5:-0.84615385 6:0.60225636 7:-0.85821357 8:-0.89946629 9:-0.94473468 10:0.7571935 11:0.68359995 12:0 13:-1 
10 1:0.5333332 2:-0.86666667 3:-0.95238095 4:-1 5:-0.84615385 6:0.36479127 7:-0.92592593 8:-0.87096774 9:-0.90322581 10:1 11:1 12:0 13:-0.97222222 
10 1:0.5333332 2:-0.86666667 3:-0.95238095 4:-1 5:-0.84615385 6:0.36479127 7:-0.92592593 8:-0.87096774 9:-0.90322581 10:1 11:1 12:0 13:-0.97222222 
10 1:0.43999994 2:-0.91111111 3:-0.95238095 4:-1 5:-0.84615385 6:0.5977011 7:-0.87037037 8:-0.90322581 9:-0.93548387 10:1 11:1 12:0 13:-1 
6.063739406986693 1:0.82500005 2:-0.42222222 3:-0.95238095 4:-1 5:-1 6:0.8491379 7:-0.77777778 8:-0.96774194 9:-1 10:1 11:1 12:1 13:-0.91666667 
10 1:0.6664175 2:-0.83514559 3:-0.92969242 4:-0.96745842 5:-0.94799423 6:0.7586206 7:-0.88888889 8:-0.96774194 9:-1 10:0.8571428 11:0.84792626 12:0 13:-0.97222222 
10 1:0.6664175 2:-0.83514559 3:-0.92969242 4:-0.96745842 5:-0.94799423 6:0.7586206 7:-0.88888889 8:-0.96774194 9:-1 10:0.8571428 11:0.84792626 12:0 13:-1 
10 1:0.6664175 2:-0.83514559 3:-0.92969242 4:-0.96745842 5:-0.94799423 6:0.7586206 7:-0.88888889 8:-0.96774194 9:-1 10:0.8571428 11:0.84792626 12:0 13:-1 
10 1:0.43999994 2:-0.91111111 3:-0.95238095 4:-1 5:-0.84615385 6:0.37420177 7:-0.87037037 8:-0.80645161 9:-0.83870968 10:0.39999998 11:0.9737158 12:0 13:-1 
10 1:0.6664175 2:-0.83514559 3:-0.92969242 4:-0.96745842 5:-0.94799423 6:0.7318008 7:-0.90740741 8:-0.96774194 9:-1 10:0.97590363 11:0.97434914 12:0 13:-0.97222222 
10 1:0.6664175 2:-0.83514559 3:-0.92969242 4:-0.96745842 5:-0.94799423 6:0.7318008 7:-0.90740741 8:-0.96774194 9:-1 10:0.97590363 11:0.97434914 12:0 13:-1 
10 1:0.6664175 2:-0.83514559 3:-0.92969242 4:-0.96745842 5:-0.94799423 6:-0.09717864 7:-0.94444444 8:-0.67741935 9:-1 10:0.7571935 11:0.9900975 12:1 13:-0.88888889 
10 1:0.6664175 2:-0.83514559 3:-0.92969242 4:-0.96745842 5:-0.94799423 6:-0.29973477 7:-0.94444444 8:-0.67741935 9:-1 10:0.7571935 11:1 12:0 13:-1 
10 1:0.6664175 2:-0.83514559 3:-0.92969242 4:-0.96745842 5:-0.94799423 6:-0.29973477 7:-0.94444444 8:-0.67741935 9:-1 10:0.7571935 11:0.9900975 12:1 13:-0.88888889 
10 1:0.65 2:-0.77777778 3:-0.9047619 4:-1 5:-1 6:1 7:-0.92592593 8:-1 9:-1 10:0.962963 11:1 12:0 13:-1 
10 1:0.6664175 2:-0.83514559 3:-0.92969242 4:-0.96745842 5:-0.94799423 6:0.1310345 7:-0.90740741 8:-0.80645161 9:-0.90322581 10:0.7571935 11:0.8442173 12:0 13:-1 
10 1:0.6664175 2:-0.83514559 3:-0.92969242 4:-0.96745842 5:-0.94799423 6:0.7586206 7:-0.88888889 8:-0.96774194 9:-1 10:0.7571935 11:0.8747629 12:0 13:-0.97222222 
10 1:0.6664175 2:-0.83514559 3:-0.92969242 4:-0.96745842 5:-0.94799423 6:0.7586206 7:-0.88888889 8:-0.96774194 9:-1 10:0.7571935 11:0.8747629 12:0 13:-0.97222222 
10 1:0.6664175 2:-0.83514559 3:-0.92969242 4:-0.96745842 5:-0.94799423 6:0.81432366 7:-0.83333333 8:-0.96774194 9:-1 10:0.7571935 11:0.8209226 12:0 13:-0.97222222 
10 1:1 2:-0.91111111 3:-1 4:-1 5:-1 6:0.6982759 7:-0.7962963 8:-0.93548387 9:-1 10:1 11:1 12:0 13:-1 
10 1:1 2:-0.91111111 3:-1 4:-1 5:-1 6:0.6982759 7:-0.7962963 8:-0.93548387 9:-1 10:1 11:1 12:0 13:-1 
10 1:0.6664175 2:-0.83514559 3:-0.92969242 4:-0.96745842 5:-0.94799423 6:0.6982759 7:-0.92592593 8:-0.93548387 9:-0.93548387 10:0.44000006 11:0.40387106 12:0 13:-1 
10 1:0.6664175 2:-0.83514559 3:-0.92969242 4:-0.96745842 5:-0.94799423 6:0.19540238 7:-0.94444444 8:-0.80645161 9:-0.93548387 10:0.7571935 11:1 12:0 13:-0.97222222 
10 1:0.6664175 2:-0.83514559 3:-0.92969242 4:-0.96745842 5:-0.94799423 6:0.65517247 7:-0.94444444 8:-0.93548387 9:-0.93548387 10:0.82456136 11:0.8132428 12:0 13:-1 
10 1:0.6664175 2:-0.83514559 3:-0.92969242 4:-0.96745842 5:-0.94799423 6:0.65517247 7:-0.94444444 8:-0.93548387 9:-0.93548387 10:0.82456136 11:0.8132428 12:0 13:-1 
10 1:0.6664175 2:-0.83514559 3:-0.92969242 4:-0.96745842 5:-0.94799423 6:0.65517247 7:-0.94444444 8:-0.93548387 9:-0.93548387 10:0.82456136 11:0.8132428 12:0 13:-1 
10 1:0.6664175 2:-0.83514559 3:-0.92969242 4:-0.96745842 5:-0.94799423 6:0.65517247 7:-0.94444444 8:-0.93548387 9:-0.93548387 10:0.82456136 11:0.8132428 12:0 13:-1 
10 1:0.6664175 2:-0.83514559 3:-0.92969242 4:-0.96745842 5:-0.94799423 6:0.65517247 7:-0.94444444 8:-0.93548387 9:-0.93548387 10:0.82456136 11:0.8132428 12:0 13:-1 
10 1:0.6664175 2:-0.83514559 3:-0.92969242 4:-0.96745842 5:-0.94799423 6:0.65517247 7:-0.94444444 8:-0.93548387 9:-0.93548387 10:0.82456136 11:0.8132428 12:0 13:-1 
10 1:0.6664175 2:-0.83514559 3:-0.92969242 4:-0.96745842 5:-0.94799423 6:0.65517247 7:-0.94444444 8:-0.93548387 9:-0.93548387 10:0.82456136 11:0.8132428 12:0 13:-1 
10 1:0.6664175 2:-0.83514559 3:-0.92969242 4:-0.96745842 5:-0.94799423 6:0.8275862 7:-0.81481481 8:-0.96774194 9:-1 10:0.7571935 11:0.9846834 12:1 13:-0.91666667 
10 1:0.6664175 2:-0.83514559 3:-0.92969242 4:-0.96745842 5:-0.94799423 6:0.8275862 7:-0.81481481 8:-0.96774194 9:-1 10:0.7571935 11:0.9846834 12:1 13:-0.91666667 
10 1:0.6664175 2:-0.83514559 3:-0.92969242 4:-0.96745842 5:-0.94799423 6:0.8275862 7:-0.81481481 8:-0.96774194 9:-1 10:0.7571935 11:0.9846834 12:1 13:-0.91666667 
10 1:0.6664175 2:-0.83514559 3:-0.92969242 4:-0.96745842 5:-0.94799423 6:0.8275862 7:-0.81481481 8:-0.96774194 9:-1 10:0.7571935 11:0.9695853 12:0 13:-0.97222222 
10 1:0.6664175 2:-0.83514559 3:-0.92969242 4:-0.96745842 5:-0.94799423 6:0.83908045 7:-0.92592593 8:-0.96774194 9:-0.96774194 10:0.7571935 11:0.46774197 12:0 13:-1 
10 1:0.06666672 2:-0.95555556 3:-0.9047619 4:-0.94117647 5:-0.84615385 6:1 7:-0.75925926 8:-1 9:-1 10:-0.125 11:0.4545455 12:0 13:-1 
10 1:0.29999995 2:-0.95555556 3:-0.95238095 4:-1 5:-1 6:0.2653674 7:-0.90740741 8:-0.87096774 9:-0.96774194 10:0.17647064 11:0.056202173 12:0 13:-1 
10 1:0.43999994 2:-0.91111111 3:-0.95238095 4:-1 5:-0.84615385 6:1 7:-0.81481481 8:-1 9:-1 10:-0.125 11:0.15725815 12:0 13:-1 
10 1:0.6664175 2:-0.83514559 3:-0.92969242 4:-0.96745842 5:-0.94799423 6:-0.408046 7:-0.96296296 8:-0.67741935 9:-0.80645161 10:0.8181819 11:0.68359995 12:0 13:-1 
10 1:0.06666672 2:-0.95555556 3:-0.9047619 4:-0.94117647 5:-0.84615385 6:0.43204868 7:-0.81481481 8:-0.87096774 9:-1 10:0.6774193 11:-0.4516129 12:0 13:-1 
10 1:0.43999994 2:-0.91111111 3:-0.95238095 4:-1 5:-0.84615385 6:0.60225636 7:-0.85821357 8:-0.89946629 9:-0.94473468 10:0.91999996 11:1 12:1 13:-0.88888889 
10 1:0.43999994 2:-0.91111111 3:-0.95238095 4:-1 5:-0.84615385 6:0.60225636 7:-0.85821357 8:-0.89946629 9:-0.94473468 10:0.91999996 11:1 12:1 13:-0.91666667 
10 1:0.6664175 2:-0.83514559 3:-0.92969242 4:-0.96745842 5:-0.94799423 6:0.8659003 7:-0.74074074 8:-0.96774194 9:-1 10:0.7571935 11:0.9090158 12:0 13:-1 
10 1:0.6664175 2:-0.83514559 3:-0.92969242 4:-0.96745842 5:-0.94799423 6:0.8659003 7:-0.74074074 8:-0.96774194 9:-1 10:0.7571935 11:0.9090158 12:0 13:-1 
10 1:0.6664175 2:-0.83514559 3:-0.92969242 4:-0.96745842 5:-0.94799423 6:0.8659003 7:-0.74074074 8:-0.96774194 9:-1 10:0.7571935 11:0.9090158 12:0 13:-1 
10 1:0.6664175 2:-0.83514559 3:-0.92969242 4:-0.96745842 5:-0.94799423 6:0.39655173 7:-0.88888889 8:-0.80645161 9:-0.93548387 10:1 11:1 12:0 13:-0.97222222 
10 1:0.6664175 2:-0.83514559 3:-0.92969242 4:-0.96745842 5:-0.94799423 6:0.39655173 7:-0.88888889 8:-0.80645161 9:-0.93548387 10:1 11:1 12:0 13:-0.97222222 
10 1:0.6664175 2:-0.83514559 3:-0.92969242 4:-0.96745842 5:-0.94799423 6:0.39655173 7:-0.88888889 8:-0.80645161 9:-0.93548387 10:1 11:1 12:0 13:-0.97222222 
10 1:0.6664175 2:-0.83514559 3:-0.92969242 4:-0.96745842 5:-0.94799423 6:0.39655173 7:-0.88888889 8:-0.80645161 9:-0.93548387 10:1 11:1 12:0 13:-1 
10 1:0.6664175 2:-0.83514559 3:-0.92969242 4:-0.96745842 5:-0.94799423 6:0.89028215 7:-0.66666667 8:-0.96774194 9:-1 10:0.7571935 11:1 12:0 13:-1 
10 1:0.6664175 2:-0.83514559 3:-0.92969242 4:-0.96745842 5:-0.94799423 6:0.89028215 7:-0.66666667 8:-0.96774194 9:-1 10:0.7571935 11:1 12:0 13:-1 
10 1:0.6664175 2:-0.83514559 3:-0.92969242 4:-0.96745842 5:-0.94799423 6:0.3416928 7:-0.75925926 8:-0.61290323 9:-1 10:0.7571935 11:1 12:0 13:-1 
10 1:0.6664175 2:-0.83514559 3:-0.92969242 4:-0.96745842 5:-0.94799423 6:0.3416928 7:-0.75925926 8:-0.61290323 9:-1 10:0.7571935 11:1 12:0 13:-1 
10 1:0.6664175 2:-0.83514559 3:-0.92969242 4:-0.96745842 5:-0.94799423 6:0.8275862 7:-0.81481481 8:-0.96774194 9:-1 10:0.7571935 11:1 12:0 13:-1 
10 1:0.6664175 2:-0.83514559 3:-0.92969242 4:-0.96745842 5:-0.94799423 6:0.44297087 7:-0.87037037 8:-0.83870968 9:-0.87096774 10:0.7571935 11:0.98349595 12:0 13:-1 
10 1:0.6664175 2:-0.83514559 3:-0.92969242 4:-0.96745842 5:-0.94799423 6:0.44297087 7:-0.87037037 8:-0.83870968 9:-0.87096774 10:0.7571935 11:0.93548405 12:0 13:-1 
10 1:0.6664175 2:-0.83514559 3:-0.92969242 4:-0.96745842 5:-0.94799423 6:0.37420177 7:-0.87037037 8:-0.80645161 9:-0.83870968 10:0.7571935 11:0.9519769 12:0 13:-1 
10 1:0.6664175 2:-0.83514559 3:-0.92969242 4:-0.96745842 5:-0.94799423 6:0.44297087 7:-0.87037037 8:-0.83870968 9:-0.87096774 10:0.7571935 11:0.93548405 12:0 13:-1 
10 1:0.6664175 2:-0.83514559 3:-0.92969242 4:-0.96745842 5:-0.94799423 6:0.37420177 7:-0.87037037 8:-0.80645161 9:-0.83870968 10:0.7571935 11:0.9519769 12:0 13:-1 
10 1:0.6664175 2:-0.83514559 3:-0.92969242 4:-0.96745842 5:-0.94799423 6:0.44297087 7:-0.87037037 8:-0.83870968 9:-0.87096774 10:0.7571935 11:0.8434535 12:0 13:-1 
10 1:0.6664175 2:-0.83514559 3:-0.92969242 4:-0.96745842 5:-0.94799423 6:0.37420177 7:-0.87037037 8:-0.80645161 9:-0.83870968 10:0.7571935 11:0.8290559 12:0 13:-1 
10 1:0.6664175 2:-0.83514559 3:-0.92969242 4:-0.96745842 5:-0.94799423 6:0.4173603 7:-0.85185185 8:-0.77419355 9:-0.90322581 10:1 11:1 12:0 13:-1 
10 1:0.6664175 2:-0.83514559 3:-0.92969242 4:-0.96745842 5:-0.94799423 6:0.4173603 7:-0.85185185 8:-0.77419355 9:-0.90322581 10:1 11:1 12:0 13:-1 
10 1:0.6664175 2:-0.83514559 3:-0.92969242 4:-0.96745842 5:-0.94799423 6:0.12225699 7:-0.92592593 8:-0.74193548 9:-1 10:0.4736842 11:1 12:0 13:-0.97222222 
10 1:0.6664175 2:-0.83514559 3:-0.92969242 4:-0.96745842 5:-0.94799423 6:0.2758621 7:-0.92592593 8:-0.80645161 9:-0.80645161 10:0.7571935 11:0.9884918 12:0 13:-1 
10 1:0.6664175 2:-0.83514559 3:-0.92969242 4:-0.96745842 5:-0.94799423 6:0.2758621 7:-0.92592593 8:-0.80645161 9:-0.80645161 10:0.7571935 11:0.9884918 12:0 13:-1 
10 1:0.8444444 2:-0.33333333 3:-0.9047619 4:-1 5:-1 6:0.8659003 7:-0.74074074 8:-0.93548387 9:-1 10:1 11:1 12:0 13:-1 
9.390465814148671 1:0.6664175 2:-0.83514559 3:-0.92969242 4:-0.96745842 5:-0.94799423 6:0.7805643 7:-0.87037037 8:-0.93548387 9:-0.93548387 10:1 11:1 12:1 13:-0.86111111 
10 1:0.6664175 2:-0.83514559 3:-0.92969242 4:-0.96745842 5:-0.94799423 6:0.79885066 7:-0.85185185 8:-0.96774194 9:-1 10:0.7571935 11:0.98210907 12:0 13:-0.97222222 
10 1:0.6664175 2:-0.83514559 3:-0.92969242 4:-0.96745842 5:-0.94799423 6:0.79885066 7:-0.85185185 8:-0.96774194 9:-1 10:0.7571935 11:0.98210907 12:0 13:-0.97222222 
10 1:0.6664175 2:-0.83514559 3:-0.92969242 4:-0.96745842 5:-0.94799423 6:0.79885066 7:-0.85185185 8:-0.96774194 9:-1 10:0.7571935 11:0.98210907 12:0 13:-0.97222222 
10 1:0.6664175 2:-0.83514559 3:-0.92969242 4:-0.96745842 5:-0.94799423 6:0.79885066 7:-0.85185185 8:-0.96774194 9:-1 10:1 11:1 12:0 13:-1 
10 1:0.6664175 2:-0.83514559 3:-0.92969242 4:-0.96745842 5:-0.94799423 6:0.79885066 7:-0.85185185 8:-0.96774194 9:-1 10:1 11:1 12:0 13:-0.97222222 
10 1:0.6664175 2:-0.83514559 3:-0.92969242 4:-0.96745842 5:-0.94799423 6:0.79885066 7:-0.85185185 8:-0.96774194 9:-1 10:1 11:1 12:0 13:-1 
10 1:0.6664175 2:-0.83514559 3:-0.92969242 4:-0.96745842 5:-0.94799423 6:0.7318008 7:-0.90740741 8:-0.96774194 9:-1 10:1 11:1 12:0 13:-0.94444444 
10 1:0.6664175 2:-0.83514559 3:-0.92969242 4:-0.96745842 5:-0.94799423 6:0.7318008 7:-0.90740741 8:-0.96774194 9:-1 10:1 11:1 12:0 13:-0.97222222 
10 1:0.6664175 2:-0.83514559 3:-0.92969242 4:-0.96745842 5:-0.94799423 6:0.7318008 7:-0.90740741 8:-0.96774194 9:-1 10:1 11:1 12:0 13:-0.97222222 
10 1:0.6664175 2:-0.83514559 3:-0.92969242 4:-0.96745842 5:-0.94799423 6:0.65517247 7:-0.94444444 8:-0.93548387 9:-0.93548387 10:1 11:1 12:0 13:-1 
10 1:0.6664175 2:-0.83514559 3:-0.92969242 4:-0.96745842 5:-0.94799423 6:0.65517247 7:-0.94444444 8:-0.93548387 9:-0.93548387 10:1 11:1 12:0 13:-1 
10 1:0.6664175 2:-0.83514559 3:-0.92969242 4:-0.96745842 5:-0.94799423 6:0.7318008 7:-0.90740741 8:-0.93548387 9:-0.93548387 10:1 11:1 12:1 13:-0.88888889 
10 1:0.6664175 2:-0.83514559 3:-0.92969242 4:-0.96745842 5:-0.94799423 6:0.6982759 7:-0.92592593 8:-0.93548387 9:-0.93548387 10:1 11:1 12:0 13:-1 
10 1:0.6664175 2:-0.83514559 3:-0.92969242 4:-0.96745842 5:-0.94799423 6:0.6982759 7:-0.92592593 8:-0.93548387 9:-0.93548387 10:1 11:1 12:0 13:-1 
10 1:0.6664175 2:-0.83514559 3:-0.92969242 4:-0.96745842 5:-0.94799423 6:0.6982759 7:-0.92592593 8:-0.93548387 9:-0.93548387 10:1 11:1 12:0 13:-1 
10 1:0.6664175 2:-0.83514559 3:-0.92969242 4:-0.96745842 5:-0.94799423 6:0.6982759 7:-0.92592593 8:-0.93548387 9:-0.93548387 10:1 11:1 12:0 13:-1 
10 1:0.6664175 2:-0.83514559 3:-0.92969242 4:-0.96745842 5:-0.94799423 6:0.6982759 7:-0.92592593 8:-0.93548387 9:-0.93548387 10:1 11:1 12:0 13:-1 
10 1:0.6664175 2:-0.83514559 3:-0.92969242 4:-0.96745842 5:-0.94799423 6:0.6982759 7:-0.92592593 8:-0.93548387 9:-0.93548387 10:1 11:1 12:0 13:-1 
10 1:0.6664175 2:-0.83514559 3:-0.92969242 4:-0.96745842 5:-0.94799423 6:0.4636016 7:-0.92592593 8:-0.87096774 9:-0.87096774 10:1 11:1 12:0 13:-1 
10 1:0.6664175 2:-0.83514559 3:-0.92969242 4:-0.96745842 5:-0.94799423 6:0.6982759 7:-0.92592593 8:-0.93548387 9:-0.93548387 10:1 11:1 12:0 13:-1 
10 1:0.6664175 2:-0.83514559 3:-0.92969242 4:-0.96745842 5:-0.94799423 6:0.7318008 7:-0.90740741 8:-0.96774194 9:-1 10:1 11:1 12:0 13:-1 
10 1:0.6664175 2:-0.83514559 3:-0.92969242 4:-0.96745842 5:-0.94799423 6:0.7318008 7:-0.90740741 8:-0.96774194 9:-1 10:1 11:1 12:0 13:-1 
10 1:0.6664175 2:-0.83514559 3:-0.92969242 4:-0.96745842 5:-0.94799423 6:0.7318008 7:-0.90740741 8:-0.96774194 9:-1 10:1 11:1 12:0 13:-1 
10 1:0.6664175 2:-0.83514559 3:-0.92969242 4:-0.96745842 5:-0.94799423 6:0.7318008 7:-0.90740741 8:-0.96774194 9:-1 10:1 11:1 12:0 13:-1 
10 1:0.6664175 2:-0.83514559 3:-0.92969242 4:-0.96745842 5:-0.94799423 6:0.6982759 7:-0.92592593 8:-0.93548387 9:-0.93548387 10:0.7297298 11:0.712293 12:0 13:-1 
10 1:0.6664175 2:-0.83514559 3:-0.92969242 4:-0.96745842 5:-0.94799423 6:0.7805643 7:-0.87037037 8:-0.96774194 9:-1 10:0.7571935 11:0.5268818 12:0 13:-0.97222222 
10 1:0.6664175 2:-0.83514559 3:-0.92969242 4:-0.96745842 5:-0.94799423 6:0.7805643 7:-0.87037037 8:-0.96774194 9:-1 10:0.7571935 11:0.30742323 12:0 13:-0.97222222 
10 1:0.6664175 2:-0.83514559 3:-0.92969242 4:-0.96745842 5:-0.94799423 6:0.7805643 7:-0.87037037 8:-0.96774194 9:-1 10:0.7571935 11:0.5741936 12:0 13:-0.97222222 
10 1:0.6664175 2:-0.83514559 3:-0.92969242 4:-0.96745842 5:-0.94799423 6:0.79885066 7:-0.85185185 8:-0.96774194 9:-1 10:0.7571935 11:0.77350736 12:0 13:-1 
0.008138859552320001 1:0.7729728 2:-0.33333333 3:-0.85714286 4:-0.82352941 5:-1 6:0.60225636 7:-0.85821357 8:-0.89946629 9:-0.94473468 10:0.7571935 11:0.68359995 12:0 13:-1 
10 1:0.6664175 2:-0.83514559 3:-0.92969242 4:-0.96745842 5:-0.94799423 6:0.7805643 7:-0.87037037 8:-0.96774194 9:-1 10:1 11:1 12:0 13:-1 
10 1:0.6664175 2:-0.83514559 3:-0.92969242 4:-0.96745842 5:-0.94799423 6:0.65517247 7:-0.94444444 8:-0.93548387 9:-0.93548387 10:1 11:1 12:0 13:-1 
10 1:0.6664175 2:-0.83514559 3:-0.92969242 4:-0.96745842 5:-0.94799423 6:0.8659003 7:-0.74074074 8:-0.96774194 9:-1 10:0.7571935 11:1 12:0 13:-1 
10 1:0.6664175 2:-0.83514559 3:-0.92969242 4:-0.96745842 5:-0.94799423 6:0.7318008 7:-0.90740741 8:-0.93548387 9:-0.93548387 10:1 11:1 12:1 13:-0.91666667 
10 1:0.6664175 2:-0.83514559 3:-0.92969242 4:-0.96745842 5:-0.94799423 6:0.7318008 7:-0.90740741 8:-0.93548387 9:-0.93548387 10:1 11:1 12:1 13:-0.91666667 
10 1:0.6664175 2:-0.83514559 3:-0.92969242 4:-0.96745842 5:-0.94799423 6:0.7586206 7:-0.88888889 8:-0.96774194 9:-1 10:0.7571935 11:0.9327675 12:0 13:-0.97222222 
10 1:1 2:-0.86666667 3:-1 4:-1 5:-1 6:0.65517247 7:-0.83333333 8:-0.93548387 9:-1 10:1 11:1 12:0 13:-0.97222222 
10 1:1 2:-0.86666667 3:-1 4:-1 5:-1 6:0.65517247 7:-0.83333333 8:-0.93548387 9:-1 10:1 11:1 12:0 13:-0.97222222 
10 1:1 2:-0.86666667 3:-1 4:-1 5:-1 6:0.65517247 7:-0.83333333 8:-0.93548387 9:-1 10:1 11:1 12:0 13:-0.97222222 
10 1:1 2:-0.86666667 3:-1 4:-1 5:-1 6:0.65517247 7:-0.83333333 8:-0.93548387 9:-1 10:1 11:1 12:0 13:-0.97222222 
10 1:0.6888888 2:-0.91111111 3:-0.95238095 4:-0.94117647 5:-1 6:0.13793099 7:-0.88888889 8:-0.77419355 9:-0.87096774 10:1 11:1 12:0 13:-1 
10 1:0.6664175 2:-0.83514559 3:-0.92969242 4:-0.96745842 5:-0.94799423 6:0.65517247 7:-0.94444444 8:-0.96774194 9:-1 10:0.7571935 11:1 12:1 13:-0.86111111 
10 1:0.6664175 2:-0.83514559 3:-0.92969242 4:-0.96745842 5:-0.94799423 6:0.7318008 7:-0.90740741 8:-0.96774194 9:-1 10:0.7571935 11:0.78709686 12:1 13:-0.91666667 
10 1:0.43999994 2:-0.91111111 3:-0.9047619 4:-1 5:-0.84615385 6:0.60225636 7:-0.85821357 8:-0.89946629 9:-0.94473468 10:0.61904764 11:0.68359995 12:0 13:-1 
10 1:0.6664175 2:-0.83514559 3:-0.92969242 4:-0.96745842 5:-0.94799423 6:0.1434927 7:-0.87037037 8:-0.74193548 9:-0.83870968 10:0.7571935 11:1 12:1 13:-0.88888889 
10 1:0.6664175 2:-0.83514559 3:-0.92969242 4:-0.96745842 5:-0.94799423 6:0.7805643 7:-0.87037037 8:-0.93548387 9:-1 10:1 11:0.9846834 12:0 13:-1 
10 1:0.6664175 2:-0.83514559 3:-0.92969242 4:-0.96745842 5:-0.94799423 6:0.7586206 7:-0.88888889 8:-0.96774194 9:-1 10:1 11:1 12:0 13:-1 
10 1:0.6664175 2:-0.83514559 3:-0.92969242 4:-0.96745842 5:-0.94799423 6:0.7318008 7:-0.90740741 8:-0.96774194 9:-1 10:1 11:1 12:0 13:-1 
10 1:0.6664175 2:-0.83514559 3:-0.92969242 4:-0.96745842 5:-0.94799423 6:0.7318008 7:-0.90740741 8:-0.96774194 9:-1 10:1 11:1 12:0 13:-1 
10 1:0.6664175 2:-0.83514559 3:-0.92969242 4:-0.96745842 5:-0.94799423 6:0.7318008 7:-0.90740741 8:-0.96774194 9:-1 10:1 11:1 12:0 13:-1 
10 1:0.6664175 2:-0.83514559 3:-0.92969242 4:-0.96745842 5:-0.94799423 6:0.7318008 7:-0.90740741 8:-0.96774194 9:-1 10:1 11:1 12:0 13:-1 
10 1:0.6664175 2:-0.83514559 3:-0.92969242 4:-0.96745842 5:-0.94799423 6:0.79885066 7:-0.85185185 8:-0.96774194 9:-1 10:0.7571935 11:1 12:0 13:-1 
10 1:0.6664175 2:-0.83514559 3:-0.92969242 4:-0.96745842 5:-0.94799423 6:0.79885066 7:-0.85185185 8:-0.96774194 9:-1 10:0.7571935 11:0.9878342 12:0 13:-1 
10 1:0.6664175 2:-0.83514559 3:-0.92969242 4:-0.96745842 5:-0.94799423 6:0.79885066 7:-0.85185185 8:-0.96774194 9:-1 10:0.7571935 11:0.9878342 12:1 13:-0.91666667 
10 1:0.6664175 2:-0.83514559 3:-0.92969242 4:-0.96745842 5:-0.94799423 6:0.7586206 7:-0.72222222 8:-0.87096774 9:-1 10:1 11:1 12:0 13:-1 
10 1:0.6664175 2:-0.83514559 3:-0.92969242 4:-0.96745842 5:-0.94799423 6:0.7586206 7:-0.72222222 8:-0.87096774 9:-1 10:1 11:1 12:0 13:-1 
10 1:0.43999994 2:-0.91111111 3:-0.95238095 4:-1 5:-0.84615385 6:0.8580122 7:-0.75925926 8:-0.96774194 9:-1 10:0.5652174 11:0.68359995 12:0 13:-1 
10 1:0.43999994 2:-0.91111111 3:-0.95238095 4:-1 5:-0.84615385 6:1 7:-0.74074074 8:-1 9:-1 10:0.5652174 11:0.68359995 12:0 13:-1 
10 1:0.43999994 2:-0.91111111 3:-0.95238095 4:-1 5:-0.84615385 6:1 7:-0.74074074 8:-1 9:-1 10:0.5652174 11:0.68359995 12:0 13:-1 
10 1:0.43999994 2:-0.91111111 3:-0.95238095 4:-1 5:-0.84615385 6:1 7:-0.74074074 8:-1 9:-1 10:0.5652174 11:0.68359995 12:0 13:-1 
10 1:0.06666672 2:-0.95555556 3:-0.9047619 4:-0.94117647 5:-0.84615385 6:0.0844233 7:-0.88888889 8:-0.77419355 9:-0.90322581 10:0.5555556 11:1 12:0 13:-1 
9.972501704485413 1:0.6664175 2:-0.83514559 3:-0.92969242 4:-0.96745842 5:-0.94799423 6:0.7586206 7:-0.88888889 8:-0.96774194 9:-1 10:0.10344827 11:0.045606256 12:1 13:-0.91666667 
10 1:0.6664175 2:-0.83514559 3:-0.92969242 4:-0.96745842 5:-0.94799423 6:0.39655173 7:-0.94444444 8:-0.87096774 9:-0.87096774 10:0.7571935 11:0.6282643 12:0 13:-1 
10 1:0.6664175 2:-0.83514559 3:-0.92969242 4:-0.96745842 5:-0.94799423 6:0.7318008 7:-0.90740741 8:-0.96774194 9:-1 10:0.7571935 11:0.5852535 12:0 13:-0.97222222 
10 1:0.43999994 2:-0.91111111 3:-0.95238095 4:-1 5:-0.84615385 6:0.36479127 7:-0.92592593 8:-0.87096774 9:-0.90322581 10:-0.09677422 11:0.07196045 12:1 13:-0.88888889 
10 1:0.6664175 2:-0.83514559 3:-0.92969242 4:-0.96745842 5:-0.94799423 6:0.7805643 7:-0.87037037 8:-0.96774194 9:-1 10:-0.023255825 11:-0.08927226 12:0 13:-0.97222222 
10 1:0.6888888 2:-0.91111111 3:-0.95238095 4:-0.94117647 5:-1 6:0.5172415 7:-0.7962963 8:-0.87096774 9:-0.96774194 10:0.75 11:0.6078099 12:0 13:-1 
10 1:0.6888888 2:-0.91111111 3:-0.95238095 4:-0.94117647 5:-1 6:0.5172415 7:-0.7962963 8:-0.87096774 9:-0.96774194 10:0.4736842 11:0.6078099 12:0 13:-1 
10 1:0.6664175 2:-0.83514559 3:-0.92969242 4:-0.96745842 5:-0.94799423 6:0.79885066 7:-0.85185185 8:-0.96774194 9:-1 10:0.70370376 11:0.68458796 12:0 13:-1 
10 1:0.06666672 2:-0.066666667 3:-0.14285714 4:-0.70588235 5:-1 6:0.60225636 7:-0.85821357 8:-0.89946629 9:-0.94473468 10:0.7571935 11:0.68359995 12:0 13:-1 
10 1:0.17647064 2:-0.022222222 3:-0.23809524 4:-0.76470588 5:-1 6:0.60225636 7:-0.85821357 8:-0.89946629 9:-0.94473468 10:0.7571935 11:0.68359995 12:0 13:-1 
10 1:0.82500005 2:-0.42222222 3:-0.95238095 4:-1 5:-1 6:0.8491379 7:-0.77777778 8:-0.96774194 9:-1 10:0.4883721 11:0.45536387 12:0 13:-1 
10 1:0.6664175 2:-0.83514559 3:-0.92969242 4:-0.96745842 5:-0.94799423 6:0.8491379 7:-0.77777778 8:-0.96774194 9:-1 10:0.7571935 11:0.4967742 12:0 13:-1 
10 1:0.6664175 2:-0.83514559 3:-0.92969242 4:-0.96745842 5:-0.94799423 6:0.7318008 7:-0.75925926 8:-0.90322581 9:-0.93548387 10:0.13432837 11:0.078478694 12:0 13:-1 
10 1:0.6664175 2:-0.83514559 3:-0.92969242 4:-0.96745842 5:-0.94799423 6:-0.056034446 7:-0.88888889 8:-0.5483871 9:-1 10:0.7571935 11:0.834267 12:1 13:-0.63888889 
10 1:0.6664175 2:-0.83514559 3:-0.92969242 4:-0.96745842 5:-0.94799423 6:-0.056034446 7:-0.88888889 8:-0.5483871 9:-1 10:0.7571935 11:0.8614241 12:1 13:-0.83333333 
10 1:0.6888888 2:-0.91111111 3:-0.95238095 4:-0.94117647 5:-1 6:-0.09717864 7:-0.94444444 8:-0.74193548 9:-0.80645161 10:0.6 11:-0.29262674 12:0 13:-1 
10 1:0.6664175 2:-0.83514559 3:-0.92969242 4:-0.96745842 5:-0.94799423 6:0.4173603 7:-0.85185185 8:-0.80645161 9:-0.83870968 10:0.7571935 11:0.5905708 12:0 13:-1 
10 1:0.43999994 2:-0.91111111 3:-0.95238095 4:-1 5:-0.84615385 6:0.60225636 7:-0.85821357 8:-0.89946629 9:-0.94473468 10:1 11:1 12:1 13:-0.86111111 
10 1:0.6664175 2:-0.83514559 3:-0.92969242 4:-0.96745842 5:-0.94799423 6:0.65517247 7:-0.94444444 8:-0.93548387 9:-0.93548387 10:0.7777778 11:0.76344097 12:0 13:-1 
10 1:0.6664175 2:-0.83514559 3:-0.92969242 4:-0.96745842 5:-0.94799423 6:0.65517247 7:-0.94444444 8:-0.93548387 9:-0.93548387 10:0.7777778 11:0.76344097 12:0 13:-1 
10 1:0.6664175 2:-0.83514559 3:-0.92969242 4:-0.96745842 5:-0.94799423 6:0.89505255 7:-0.85185185 8:-0.96774194 9:-0.96774194 10:0.7571935 11:0.6008066 12:0 13:-1 
10 1:0.6664175 2:-0.83514559 3:-0.92969242 4:-0.96745842 5:-0.94799423 6:0.89505255 7:-0.85185185 8:-0.96774194 9:-0.96774194 10:0.7571935 11:0.6008066 12:0 13:-1 
10 1:0.6664175 2:-0.83514559 3:-0.92969242 4:-0.96745842 5:-0.94799423 6:0.89505255 7:-0.85185185 8:-0.96774194 9:-0.96774194 10:0.7571935 11:0.6008066 12:0 13:-1 
10 1:0.6664175 2:-0.83514559 3:-0.92969242 4:-0.96745842 5:-0.94799423 6:0.89505255 7:-0.85185185 8:-0.96774194 9:-0.96774194 10:0.7571935 11:0.6008066 12:0 13:-1 
10 1:0.6664175 2:-0.83514559 3:-0.92969242 4:-0.96745842 5:-0.94799423 6:0.44297087 7:-0.87037037 8:-0.80645161 9:-0.93548387 10:0.7571935 11:1 12:0 13:-1 
7.530065447899784 1:1 2:-0.91111111 3:-1 4:-1 5:-1 6:0.5172415 7:-0.94444444 8:-0.93548387 9:-0.96774194 10:0.84615386 11:1 12:1 13:-0.80555556 
10 1:0.6664175 2:-0.83514559 3:-0.92969242 4:-0.96745842 5:-0.94799423 6:0.7318008 7:-0.90740741 8:-0.96774194 9:-1 10:0.74358976 11:0.7270472 12:1 13:-0.88888889 
10 1:0.6664175 2:-0.83514559 3:-0.92969242 4:-0.96745842 5:-0.94799423 6:0.88505745 7:-0.87037037 8:-0.96774194 9:-0.96774194 10:0.7571935 11:0.7259662 12:0 13:-1 
10 1:0.6664175 2:-0.83514559 3:-0.92969242 4:-0.96745842 5:-0.94799423 6:0.88505745 7:-0.87037037 8:-0.96774194 9:-0.96774194 10:0.7571935 11:0.7259662 12:0 13:-1 
10 1:0.6888888 2:-0.91111111 3:-0.95238095 4:-0.94117647 5:-1 6:0.1434927 7:-0.87037037 8:-0.77419355 9:-0.90322581 10:1 11:0.84111714 12:0 13:-1 
10 1:0.6888888 2:-0.91111111 3:-0.95238095 4:-0.94117647 5:-1 6:0.35632193 7:-0.85185185 8:-0.80645161 9:-0.93548387 10:0.7391304 11:1 12:0 13:-1 
10 1:0.6888888 2:-0.91111111 3:-0.95238095 4:-0.94117647 5:-1 6:0.35632193 7:-0.85185185 8:-0.80645161 9:-0.93548387 10:0.7391304 11:1 12:0 13:-1 
10 1:0.6664175 2:-0.83514559 3:-0.92969242 4:-0.96745842 5:-0.94799423 6:0.7586206 7:-0.88888889 8:-0.96774194 9:-1 10:1 11:1 12:0 13:-1 
10 1:0.6664175 2:-0.83514559 3:-0.92969242 4:-0.96745842 5:-0.94799423 6:0.7586206 7:-0.88888889 8:-0.96774194 9:-1 10:1 11:1 12:0 13:-1 
10 1:0.6664175 2:-0.83514559 3:-0.92969242 4:-0.96745842 5:-0.94799423 6:0.7586206 7:-0.88888889 8:-0.96774194 9:-1 10:0.8181819 11:0.8064518 12:0 13:-1 
10 1:0.6664175 2:-0.83514559 3:-0.92969242 4:-0.96745842 5:-0.94799423 6:0.7586206 7:-0.88888889 8:-0.96774194 9:-1 10:0.7777778 11:0.76344097 12:0 13:-1 
10 1:0.6664175 2:-0.83514559 3:-0.92969242 4:-0.96745842 5:-0.94799423 6:0.7318008 7:-0.90740741 8:-0.96774194 9:-1 10:0.8125 11:0.80040336 12:0 13:-1 
10 1:0.29999995 2:-0.95555556 3:-0.95238095 4:-1 5:-0.84615385 6:0.7318008 7:-0.90740741 8:-0.96774194 9:-1 10:1 11:1 12:0 13:-1 
0.184336820008056 1:-0.12000001 2:-0.95555556 3:-0.9047619 4:-1 5:-1 6:1 7:-0.74074074 8:-1 9:-1 10:-0.27272725 11:0.44317627 12:0 13:-1 
1.223642217013345 1:-0.12000001 2:-0.95555556 3:-0.9047619 4:-1 5:-1 6:1 7:-0.74074074 8:-1 9:-1 10:-0.27272725 11:0.44317627 12:0 13:-1 
10 1:0.7103449 2:-0.51111111 3:-0.9047619 4:-0.94117647 5:0.69230769 6:0.7502973 7:-0.81481481 8:-0.93548387 9:-0.96774194 10:0.7571935 11:0.68359995 12:0 13:-1 
10 1:0.5999999 2:-0.95555556 3:-0.95238095 4:-0.94117647 5:-1 6:0.5172415 7:-0.83333333 8:-0.90322581 9:-1 10:0.1428572 11:0.13573945 12:0 13:-1 
10 1:0.5999999 2:-0.95555556 3:-0.95238095 4:-0.94117647 5:-1 6:0.45494986 7:-0.83333333 8:-0.87096774 9:-0.96774194 10:0.09090912 11:0.3225807 12:0 13:-1 
10 1:0.5999999 2:-0.95555556 3:-0.95238095 4:-0.94117647 5:-1 6:0.4752624 7:-0.88888889 8:-0.90322581 9:-0.96774194 10:-0.058823526 11:0.29032266 12:0 13:-1 
10 1:0.29999995 2:-0.95555556 3:-0.95238095 4:-1 5:-0.84615385 6:0.65517247 7:-0.83333333 8:-0.90322581 9:-1 10:1 11:1 12:0 13:-1 
10 1:0.29999995 2:-0.95555556 3:-0.95238095 4:-1 5:-0.84615385 6:0.65517247 7:-0.83333333 8:-0.90322581 9:-1 10:1 11:1 12:1 13:-0.91666667 
10 1:0.6664175 2:-0.83514559 3:-0.92969242 4:-0.96745842 5:-0.94799423 6:0.6982759 7:-0.92592593 8:-0.93548387 9:-0.93548387 10:0.5510204 11:0.5220541 12:0 13:-1 
10 1:0.6664175 2:-0.83514559 3:-0.92969242 4:-0.96745842 5:-0.94799423 6:0.6982759 7:-0.92592593 8:-0.93548387 9:-0.93548387 10:0.5510204 11:0.5220541 12:0 13:-1 
10 1:0.6664175 2:-0.83514559 3:-0.92969242 4:-0.96745842 5:-0.94799423 6:0.6982759 7:-0.92592593 8:-0.93548387 9:-0.93548387 10:0.5510204 11:0.5220541 12:0 13:-1 
10 1:0.6664175 2:-0.83514559 3:-0.92969242 4:-0.96745842 5:-0.94799423 6:0.6982759 7:-0.92592593 8:-0.93548387 9:-0.93548387 10:0.5510204 11:0.5220541 12:0 13:-1 
10 1:0.6664175 2:-0.83514559 3:-0.92969242 4:-0.96745842 5:-0.94799423 6:0.6982759 7:-0.92592593 8:-0.93548387 9:-0.93548387 10:0.5510204 11:0.5220541 12:0 13:-1 
10 1:0.6664175 2:-0.83514559 3:-0.92969242 4:-0.96745842 5:-0.94799423 6:0.7586206 7:-0.88888889 8:-0.96774194 9:-1 10:0.7571935 11:0.55316615 12:0 13:-0.97222222 
10 1:0.6664175 2:-0.83514559 3:-0.92969242 4:-0.96745842 5:-0.94799423 6:0.7586206 7:-0.88888889 8:-0.96774194 9:-1 10:0.7571935 11:0.6638371 12:0 13:-0.97222222 
0.01204168286239931 1:0.43999994 2:-0.91111111 3:-0.95238095 4:-1 5:-0.84615385 6:1 7:-0.75925926 8:-1 9:-1 10:-1 11:0.36129034 12:0 13:-1 
10 1:0.29999995 2:-0.95555556 3:-0.95238095 4:-1 5:-1 6:0.45494986 7:-0.83333333 8:-0.87096774 9:-0.96774194 10:1 11:1 12:0 13:-0.94444444 
10 1:0.43999994 2:-0.91111111 3:-0.95238095 4:-1 5:-0.84615385 6:0.4752624 7:-0.88888889 8:-0.87096774 9:-0.90322581 10:0.68421054 11:1 12:1 13:-0.91666667 
10 1:0.47500002 2:-0.51111111 3:-0.76190476 4:-0.76470588 5:-1 6:0.5474138 7:-0.81481481 8:-0.83870968 9:-0.87096774 10:0.42465758 11:0.3875388 12:0 13:-1 
10 1:0.6664175 2:-0.83514559 3:-0.92969242 4:-0.96745842 5:-0.94799423 6:0.9221356 7:-0.77777778 8:-0.96774194 9:-0.96774194 10:0.7571935 11:0.5470146 12:0 13:-1 
10 1:0.81333315 2:-0.46666667 3:-0.95238095 4:-1 5:-1 6:0.83908045 7:-0.7962963 8:-0.96774194 9:-1 10:0.6888889 11:0.6688173 12:0 13:-1 
10 1:0.43999994 2:-0.91111111 3:-0.95238095 4:-1 5:-1 6:1 7:-0.83333333 8:-1 9:-1 10:0.53846157 11:0.7023934 12:0 13:-1 
10 1:0.43999994 2:-0.91111111 3:-0.95238095 4:-1 5:-1 6:1 7:-0.83333333 8:-1 9:-1 10:0.53846157 11:0.58792937 12:0 13:-1 
4.225377127725333 1:0.43999994 2:-0.91111111 3:-0.9047619 4:-1 5:-1 6:0.5172415 7:-0.87037037 8:-0.83870968 9:-0.96774194 10:0.20000005 11:1 12:0 13:-1 
10 1:0.29999995 2:-0.95555556 3:-0.95238095 4:-1 5:-0.84615385 6:0.5172415 7:-0.83333333 8:-0.87096774 9:-1 10:1 11:1 12:0 13:-1 
10 1:0.6664175 2:-0.83514559 3:-0.92969242 4:-0.96745842 5:-0.94799423 6:0.8491379 7:-0.77777778 8:-0.96774194 9:-1 10:0.7571935 11:0.5390755 12:0 13:-1 
10 1:0.6664175 2:-0.83514559 3:-0.92969242 4:-0.96745842 5:-0.94799423 6:0.6286472 7:-0.85185185 8:-0.93548387 9:-1 10:0.7571935 11:0.6101773 12:0 13:-1 
10 1:0.6888888 2:-0.91111111 3:-0.95238095 4:-0.94117647 5:-1 6:0.65517247 7:-0.83333333 8:-0.93548387 9:-1 10:0.53846157 11:0.68359995 12:0 13:-1 
10 1:0.6888888 2:-0.91111111 3:-0.95238095 4:-0.94117647 5:-1 6:0.65517247 7:-0.83333333 8:-0.93548387 9:-1 10:0.53846157 11:0.68359995 12:0 13:-1 
10 1:0.6664175 2:-0.83514559 3:-0.92969242 4:-0.96745842 5:-0.94799423 6:0.79885066 7:-0.85185185 8:-0.96774194 9:-1 10:0.7571935 11:0.55438876 12:0 13:-0.97222222 
10 1:0.6664175 2:-0.83514559 3:-0.92969242 4:-0.96745842 5:-0.94799423 6:0.93103445 7:-0.74074074 8:-0.96774194 9:-0.96774194 10:0.7571935 11:0.5308913 12:0 13:-1 
10 1:0.06666672 2:-0.95555556 3:-0.9047619 4:-0.94117647 5:-0.69230769 6:0.39655173 7:-0.88888889 8:-0.83870968 9:-1 10:1 11:1 12:0 13:-1 
10 1:0.06666672 2:-0.95555556 3:-0.9047619 4:-0.94117647 5:-0.69230769 6:0.39655173 7:-0.88888889 8:-0.83870968 9:-1 10:1 11:1 12:0 13:-1 
10 1:0.06666672 2:-0.95555556 3:-0.9047619 4:-0.94117647 5:-0.69230769 6:0.39655173 7:-0.88888889 8:-0.83870968 9:-1 10:1 11:1 12:0 13:-1 
10 1:0.6664175 2:-0.83514559 3:-0.92969242 4:-0.96745842 5:-0.94799423 6:0.4636016 7:-0.92592593 8:-0.87096774 9:-0.87096774 10:0.7571935 11:0.7983024 12:0 13:-1 
10 1:0.6664175 2:-0.83514559 3:-0.92969242 4:-0.96745842 5:-0.94799423 6:0.19540238 7:-0.90740741 8:-0.77419355 9:-0.80645161 10:0.7571935 11:0.8362284 12:0 13:-1 
10 1:0.6664175 2:-0.83514559 3:-0.92969242 4:-0.96745842 5:-0.94799423 6:0.65517247 7:-0.94444444 8:-0.93548387 9:-0.93548387 10:0.5333333 11:0.5032258 12:0 13:-1 
10 1:0.6888888 2:-0.91111111 3:-0.95238095 4:-0.94117647 5:-1 6:0.5172415 7:-0.83333333 8:-0.90322581 9:-1 10:0.20000005 11:0.79127145 12:0 13:-1 
10 1:0.6888888 2:-0.91111111 3:-0.95238095 4:-0.94117647 5:-1 6:0.5172415 7:-0.83333333 8:-0.90322581 9:-1 10:0.6 11:0.79127145 12:0 13:-1 
10 1:0.6888888 2:-0.91111111 3:-0.95238095 4:-0.94117647 5:-1 6:0.5172415 7:-0.83333333 8:-0.90322581 9:-1 10:0.5 11:0.79127145 12:0 13:-1 
10 1:0.21967196 2:-0.11111111 3:-0.38095238 4:-0.47058824 5:-1 6:0.60225636 7:-0.85821357 8:-0.89946629 9:-0.94473468 10:0.7571935 11:0.68359995 12:0 13:-1 
10 1:0.29999995 2:-0.95555556 3:-0.95238095 4:-1 5:-0.84615385 6:0.24568963 7:-0.85185185 8:-0.80645161 9:-0.93548387 10:0.5 11:0.46774197 12:0 13:-0.97222222 
10 1:0.6664175 2:-0.83514559 3:-0.92969242 4:-0.96745842 5:-0.94799423 6:0.7318008 7:-0.90740741 8:-0.96774194 9:-1 10:0.7571935 11:0.8175117 12:0 13:-1 
10 1:0.6664175 2:-0.83514559 3:-0.92969242 4:-0.96745842 5:-0.94799423 6:0.7805643 7:-0.87037037 8:-0.96774194 9:-1 10:0.7571935 11:0.7366146 12:0 13:-1 
10 1:0.6664175 2:-0.83514559 3:-0.92969242 4:-0.96745842 5:-0.94799423 6:0.7805643 7:-0.87037037 8:-0.96774194 9:-1 10:0.7571935 11:0.7366146 12:0 13:-0.97222222 
10 1:0.6664175 2:-0.83514559 3:-0.92969242 4:-0.96745842 5:-0.94799423 6:0.7805643 7:-0.87037037 8:-0.96774194 9:-1 10:0.7571935 11:0.7366146 12:0 13:-1 
10 1:0.6664175 2:-0.83514559 3:-0.92969242 4:-0.96745842 5:-0.94799423 6:0.19540238 7:-0.87037037 8:-0.74193548 9:-0.80645161 10:0.7571935 11:1 12:0 13:-1 
10 1:0.6664175 2:-0.83514559 3:-0.92969242 4:-0.96745842 5:-0.94799423 6:0.79885066 7:-0.85185185 8:-0.96774194 9:-1 10:0.7571935 11:0.9780513 12:0 13:-0.97222222 
10 1:0.6888888 2:-0.91111111 3:-0.95238095 4:-0.94117647 5:-1 6:0.8275862 7:-0.81481481 8:-0.96774194 9:-1 10:0.6923077 11:0.47229123 12:0 13:-1 
10 1:0.43999994 2:-0.91111111 3:-0.95238095 4:-1 5:-0.84615385 6:0.766407 7:-0.7962963 8:-0.93548387 9:-0.96774194 10:0.8947369 11:0.6638371 12:0 13:-1 
10 1:0.6664175 2:-0.83514559 3:-0.92969242 4:-0.96745842 5:-0.94799423 6:0.7586206 7:-0.88888889 8:-0.96774194 9:-1 10:0.7571935 11:1 12:0 13:-1 
10 1:0.6664175 2:-0.83514559 3:-0.92969242 4:-0.96745842 5:-0.94799423 6:0.7586206 7:-0.88888889 8:-0.96774194 9:-1 10:0.7571935 11:1 12:0 13:-1 
10 1:0.6664175 2:-0.83514559 3:-0.92969242 4:-0.96745842 5:-0.94799423 6:0.7586206 7:-0.88888889 8:-0.96774194 9:-1 10:0.7571935 11:1 12:0 13:-1 
10 1:0.6664175 2:-0.83514559 3:-0.92969242 4:-0.96745842 5:-0.94799423 6:0.7586206 7:-0.88888889 8:-0.96774194 9:-1 10:0.7571935 11:0.7811276 12:0 13:-1 
10 1:0.6664175 2:-0.83514559 3:-0.92969242 4:-0.96745842 5:-0.94799423 6:0.7586206 7:-0.88888889 8:-0.96774194 9:-1 10:0.7571935 11:0.6638371 12:0 13:-1 
10 1:0.6664175 2:-0.83514559 3:-0.92969242 4:-0.96745842 5:-0.94799423 6:0.39655173 7:-0.88888889 8:-0.80645161 9:-0.93548387 10:1 11:1 12:1 13:-0.80555556 
10 1:0.6664175 2:-0.83514559 3:-0.92969242 4:-0.96745842 5:-0.94799423 6:0.39655173 7:-0.88888889 8:-0.80645161 9:-0.93548387 10:1 11:1 12:0 13:-0.97222222 
10 1:1 2:-0.86666667 3:-1 4:-1 5:-1 6:0.65517247 7:-0.83333333 8:-0.93548387 9:-1 10:1 11:1 12:1 13:-0.91666667 
10 1:0.6664175 2:-0.83514559 3:-0.92969242 4:-0.96745842 5:-0.94799423 6:0.31034493 7:-0.87037037 8:-0.77419355 9:-0.80645161 10:0.7571935 11:1 12:0 13:-1 
10 1:0.6664175 2:-0.83514559 3:-0.92969242 4:-0.96745842 5:-0.94799423 6:0.31034493 7:-0.87037037 8:-0.77419355 9:-0.80645161 10:0.7571935 11:1 12:0 13:-1 
10 1:0.6664175 2:-0.83514559 3:-0.92969242 4:-0.96745842 5:-0.94799423 6:0.31034493 7:-0.87037037 8:-0.77419355 9:-0.80645161 10:0.7571935 11:1 12:0 13:-1 
10 1:0.6664175 2:-0.83514559 3:-0.92969242 4:-0.96745842 5:-0.94799423 6:0.31034493 7:-0.87037037 8:-0.77419355 9:-0.80645161 10:0.7571935 11:0.95371675 12:0 13:-1 
10 1:0.6664175 2:-0.83514559 3:-0.92969242 4:-0.96745842 5:-0.94799423 6:0.31034493 7:-0.87037037 8:-0.77419355 9:-0.80645161 10:0.7571935 11:1 12:0 13:-1 
10 1:0.6664175 2:-0.83514559 3:-0.92969242 4:-0.96745842 5:-0.94799423 6:0.31034493 7:-0.87037037 8:-0.77419355 9:-0.80645161 10:0.7571935 11:1 12:0 13:-1 
10 1:0.6664175 2:-0.83514559 3:-0.92969242 4:-0.96745842 5:-0.94799423 6:0.31034493 7:-0.87037037 8:-0.77419355 9:-0.80645161 10:0.7571935 11:1 12:0 13:-1 
10 1:0.6664175 2:-0.83514559 3:-0.92969242 4:-0.96745842 5:-0.94799423 6:0.31034493 7:-0.87037037 8:-0.77419355 9:-0.80645161 10:0.7571935 11:1 12:0 13:-1 
10 1:0.6664175 2:-0.83514559 3:-0.92969242 4:-0.96745842 5:-0.94799423 6:0.8275862 7:-0.81481481 8:-0.96774194 9:-1 10:1 11:1 12:0 13:-1 
10 1:0.6664175 2:-0.83514559 3:-0.92969242 4:-0.96745842 5:-0.94799423 6:0.8275862 7:-0.81481481 8:-0.96774194 9:-1 10:1 11:1 12:0 13:-1 
10 1:0.6664175 2:-0.83514559 3:-0.92969242 4:-0.96745842 5:-0.94799423 6:0.65517247 7:-0.83333333 8:-0.93548387 9:-1 10:1 11:1 12:0 13:-1 
10 1:0.6664175 2:-0.83514559 3:-0.92969242 4:-0.96745842 5:-0.94799423 6:0.65517247 7:-0.83333333 8:-0.93548387 9:-1 10:1 11:1 12:0 13:-1 
10 1:0.6664175 2:-0.83514559 3:-0.92969242 4:-0.96745842 5:-0.94799423 6:0.65517247 7:-0.83333333 8:-0.93548387 9:-1 10:1 11:1 12:0 13:-0.97222222 
10 1:0.6664175 2:-0.83514559 3:-0.92969242 4:-0.96745842 5:-0.94799423 6:0.65517247 7:-0.83333333 8:-0.93548387 9:-1 10:1 11:1 12:0 13:-0.97222222 
10 1:0.6664175 2:-0.83514559 3:-0.92969242 4:-0.96745842 5:-0.94799423 6:0.65517247 7:-0.83333333 8:-0.93548387 9:-1 10:1 11:1 12:0 13:-0.97222222 
10 1:0.6664175 2:-0.83514559 3:-0.92969242 4:-0.96745842 5:-0.94799423 6:0.65517247 7:-0.83333333 8:-0.93548387 9:-1 10:1 11:1 12:0 13:-0.97222222 
10 1:0.29999995 2:-0.95555556 3:-0.95238095 4:-1 5:-0.84615385 6:0.19540238 7:-0.92592593 8:-0.83870968 9:-0.90322581 10:0.4666667 11:0.9495492 12:0 13:-0.94444444 
10 1:0.43999994 2:-0.91111111 3:-0.95238095 4:-1 5:-0.84615385 6:1 7:-0.77777778 8:-1 9:-1 10:0.33333337 11:0.6215055 12:0 13:-1 
10 1:0.6888888 2:-0.91111111 3:-0.95238095 4:-0.94117647 5:-1 6:0.7103448 7:-0.85185185 8:-0.93548387 9:-0.96774194 10:0.8181819 11:0.8121443 12:0 13:-1 
10 1:0.43999994 2:-0.91111111 3:-0.95238095 4:-1 5:-0.84615385 6:0.5977011 7:-0.77777778 8:-0.87096774 9:-1 10:0.43589747 11:0.6255472 12:0 13:-0.94444444 
10 1:0.43999994 2:-0.91111111 3:-0.95238095 4:-1 5:-1 6:0.42528737 7:-0.90740741 8:-0.87096774 9:-0.90322581 10:1 11:-0.018232763 12:0 13:-1 
10 1:-0.07692307 2:-0.73333333 3:-0.61904762 4:-0.76470588 5:-0.84615385 6:0.034482837 7:-0.88888889 8:-0.70967742 9:-0.93548387 10:1 11:0.97758925 12:1 13:-0.88888889 
10 1:0.6664175 2:-0.83514559 3:-0.92969242 4:-0.96745842 5:-0.94799423 6:0.37420177 7:-0.87037037 8:-0.77419355 9:-0.90322581 10:1 11:1 12:0 13:-1 
10 1:0.6664175 2:-0.83514559 3:-0.92969242 4:-0.96745842 5:-0.94799423 6:0.7318008 7:-0.90740741 8:-0.96774194 9:-1 10:1 11:1 12:0 13:-0.94444444 
10 1:0.6664175 2:-0.83514559 3:-0.92969242 4:-0.96745842 5:-0.94799423 6:0.7318008 7:-0.90740741 8:-0.96774194 9:-1 10:1 11:1 12:0 13:-0.94444444 
10 1:0.6664175 2:-0.83514559 3:-0.92969242 4:-0.96745842 5:-0.94799423 6:0.7318008 7:-0.90740741 8:-0.96774194 9:-1 10:1 11:1 12:0 13:-0.94444444 
10 1:0.43999994 2:-0.91111111 3:-0.95238095 4:-1 5:-0.84615385 6:0.60225636 7:-0.85821357 8:-0.89946629 9:-0.94473468 10:1 11:0.68359995 12:0 13:-1 
10 1:0.43999994 2:-0.91111111 3:-0.95238095 4:-1 5:-0.84615385 6:0.60225636 7:-0.85821357 8:-0.89946629 9:-0.94473468 10:1 11:0.68359995 12:0 13:-1 
10 1:0.43999994 2:-0.91111111 3:-0.95238095 4:-1 5:-0.84615385 6:0.60225636 7:-0.85821357 8:-0.89946629 9:-0.94473468 10:1 11:0.68359995 12:0 13:-1 
10 1:0.6664175 2:-0.83514559 3:-0.92969242 4:-0.96745842 5:-0.94799423 6:0.7586206 7:-0.88888889 8:-0.96774194 9:-1 10:0.8867924 11:0.8794888 12:0 13:-0.97222222 
10 1:0.6664175 2:-0.83514559 3:-0.92969242 4:-0.96745842 5:-0.94799423 6:0.7586206 7:-0.88888889 8:-0.96774194 9:-1 10:0.8867924 11:0.8794888 12:0 13:-1 
10 1:0.6664175 2:-0.83514559 3:-0.92969242 4:-0.96745842 5:-0.94799423 6:0.29006088 7:-0.94444444 8:-0.83870968 9:-0.96774194 10:0.7571935 11:1 12:0 13:-0.97222222 
10 1:0.6664175 2:-0.83514559 3:-0.92969242 4:-0.96745842 5:-0.94799423 6:-0.034482658 7:-0.94444444 8:-0.70967742 9:-0.83870968 10:1 11:1 12:0 13:-1 
10 1:0.43999994 2:-0.91111111 3:-0.95238095 4:-1 5:-0.84615385 6:0.5172415 7:-0.90740741 8:-0.90322581 9:-0.93548387 10:0.53846157 11:0.8064518 12:0 13:-0.97222222 
10 1:0.6664175 2:-0.83514559 3:-0.92969242 4:-0.96745842 5:-0.94799423 6:0.7805643 7:-0.87037037 8:-0.96774194 9:-1 10:0.7571935 11:0.8747629 12:0 13:-0.97222222 
10 1:0.6664175 2:-0.83514559 3:-0.92969242 4:-0.96745842 5:-0.94799423 6:0.7805643 7:-0.87037037 8:-0.96774194 9:-1 10:0.7571935 11:0.8747629 12:0 13:-0.97222222 
10 1:0.6664175 2:-0.83514559 3:-0.92969242 4:-0.96745842 5:-0.94799423 6:0.7805643 7:-0.87037037 8:-0.96774194 9:-1 10:1 11:1 12:0 13:-1 
10 1:0.43999994 2:-0.91111111 3:-0.95238095 4:-1 5:-0.84615385 6:0.60225636 7:-0.85821357 8:-0.89946629 9:-0.94473468 10:0.945946 11:0.68359995 12:0 13:-1 
10 1:0.6664175 2:-0.83514559 3:-0.92969242 4:-0.96745842 5:-0.94799423 6:0.8275862 7:-0.81481481 8:-0.96774194 9:-1 10:0.7571935 11:0.8393184 12:0 13:-1 
10 1:0.6664175 2:-0.83514559 3:-0.92969242 4:-0.96745842 5:-0.94799423 6:0.25729454 7:-0.88888889 8:-0.74193548 9:-0.87096774 10:0.7571935 11:1 12:0 13:-1 
10 1:0.6664175 2:-0.83514559 3:-0.92969242 4:-0.96745842 5:-0.94799423 6:0.8275862 7:-0.81481481 8:-0.96774194 9:-1 10:0.7571935 11:0.9373814 12:0 13:-1 
10 1:0.6664175 2:-0.83514559 3:-0.92969242 4:-0.96745842 5:-0.94799423 6:0.8275862 7:-0.81481481 8:-0.96774194 9:-1 10:0.7571935 11:0.98422945 12:0 13:-1 
10 1:0.6664175 2:-0.83514559 3:-0.92969242 4:-0.96745842 5:-0.94799423 6:0.8275862 7:-0.81481481 8:-0.96774194 9:-1 10:0.7571935 11:0.98422945 12:0 13:-1 
10 1:0.6664175 2:-0.83514559 3:-0.92969242 4:-0.96745842 5:-0.94799423 6:0.8275862 7:-0.81481481 8:-0.96774194 9:-1 10:0.7571935 11:0.98422945 12:0 13:-1 
10 1:0.6664175 2:-0.83514559 3:-0.92969242 4:-0.96745842 5:-0.94799423 6:0.32413805 7:-0.88888889 8:-0.77419355 9:-0.90322581 10:0.7571935 11:1 12:0 13:-0.97222222 
10 1:0.6664175 2:-0.83514559 3:-0.92969242 4:-0.96745842 5:-0.94799423 6:0.32413805 7:-0.88888889 8:-0.77419355 9:-0.90322581 10:0.7571935 11:1 12:0 13:-0.97222222 
10 1:0.6664175 2:-0.83514559 3:-0.92969242 4:-0.96745842 5:-0.94799423 6:0.32413805 7:-0.88888889 8:-0.77419355 9:-0.90322581 10:0.7571935 11:1 12:0 13:-0.97222222 
10 1:0.6664175 2:-0.83514559 3:-0.92969242 4:-0.96745842 5:-0.94799423 6:0.32413805 7:-0.88888889 8:-0.77419355 9:-0.90322581 10:0.7571935 11:1 12:0 13:-0.97222222 
10 1:0.6664175 2:-0.83514559 3:-0.92969242 4:-0.96745842 5:-0.94799423 6:0.7160244 7:-0.77777778 8:-0.87096774 9:-1 10:0.7571935 11:0.31829023 12:0 13:-1 
10 1:0.6664175 2:-0.83514559 3:-0.92969242 4:-0.96745842 5:-0.94799423 6:0.19540238 7:-0.92592593 8:-0.77419355 9:-0.90322581 10:1 11:1 12:0 13:-1 
10 1:0.6664175 2:-0.83514559 3:-0.92969242 4:-0.96745842 5:-0.94799423 6:0.79885066 7:-0.85185185 8:-0.96774194 9:-1 10:0.7571935 11:0.94930875 12:0 13:-0.97222222 
10 1:0.6664175 2:-0.83514559 3:-0.92969242 4:-0.96745842 5:-0.94799423 6:0.79885066 7:-0.85185185 8:-0.96774194 9:-1 10:0.7571935 11:0.94930875 12:0 13:-1 
10 1:0.06666672 2:-0.95555556 3:-0.9047619 4:-0.94117647 5:-1 6:0.60225636 7:-0.85821357 8:-0.89946629 9:-0.94473468 10:1 11:0.68359995 12:0 13:-1 
10 1:0.6664175 2:-0.83514559 3:-0.92969242 4:-0.96745842 5:-0.94799423 6:-0.01223582 7:-0.88888889 8:-0.58064516 9:-0.70967742 10:0.7571935 11:0.89025617 12:0 13:-0.97222222 
10 1:0.6664175 2:-0.83514559 3:-0.92969242 4:-0.96745842 5:-0.94799423 6:0.7318008 7:-0.90740741 8:-0.96774194 9:-1 10:0.7571935 11:0.78709686 12:0 13:-1 
10 1:0.6664175 2:-0.83514559 3:-0.92969242 4:-0.96745842 5:-0.94799423 6:0.7318008 7:-0.90740741 8:-0.96774194 9:-1 10:0.7571935 11:0.78709686 12:0 13:-1 
10 1:0.6664175 2:-0.83514559 3:-0.92969242 4:-0.96745842 5:-0.94799423 6:0.79885066 7:-0.85185185 8:-0.96774194 9:-1 10:0.7571935 11:0.9174794 12:0 13:-0.97222222 
10 1:0.6664175 2:-0.83514559 3:-0.92969242 4:-0.96745842 5:-0.94799423 6:0.5977011 7:-0.87037037 8:-0.93548387 9:-1 10:0.7571935 11:0.8862351 12:0 13:-1 
10 1:0.29999995 2:-0.95555556 3:-0.95238095 4:-1 5:-0.84615385 6:0.2508918 7:-0.87037037 8:-0.83870968 9:-0.96774194 10:1 11:1 12:0 13:-1 
10 1:0.29999995 2:-0.95555556 3:-0.95238095 4:-1 5:-0.84615385 6:0.2508918 7:-0.87037037 8:-0.83870968 9:-0.96774194 10:1 11:1 12:0 13:-0.97222222 
10 1:0.29999995 2:-0.95555556 3:-0.95238095 4:-1 5:-0.84615385 6:0.2508918 7:-0.87037037 8:-0.83870968 9:-0.96774194 10:1 11:1 12:0 13:-0.97222222 
10 1:0.29999995 2:-0.95555556 3:-0.95238095 4:-1 5:-0.84615385 6:0.2508918 7:-0.87037037 8:-0.83870968 9:-0.96774194 10:1 11:1 12:0 13:-0.97222222 
10 1:0.7199999 2:-0.68888889 3:-0.95238095 4:-1 5:-0.076923077 6:0.7805643 7:-0.87037037 8:-0.96774194 9:-1 10:0.7571935 11:0.68359995 12:0 13:-1 
10 1:0.7199999 2:-0.68888889 3:-0.95238095 4:-1 5:-0.076923077 6:0.7805643 7:-0.87037037 8:-0.96774194 9:-1 10:0.7571935 11:0.68359995 12:0 13:-1 
10 1:0.7199999 2:-0.68888889 3:-0.95238095 4:-1 5:-0.076923077 6:0.7805643 7:-0.87037037 8:-0.96774194 9:-1 10:0.7571935 11:0.68359995 12:0 13:-1 
10 1:0.7199999 2:-0.68888889 3:-0.95238095 4:-1 5:-0.076923077 6:0.7805643 7:-0.87037037 8:-0.96774194 9:-1 10:0.7571935 11:0.68359995 12:0 13:-1 
10 1:0.6664175 2:-0.83514559 3:-0.92969242 4:-0.96745842 5:-0.94799423 6:0.81432366 7:-0.83333333 8:-0.96774194 9:-1 10:0.7571935 11:0.8494624 12:0 13:-1 
10 1:0.6664175 2:-0.83514559 3:-0.92969242 4:-0.96745842 5:-0.94799423 6:0.5530013 7:-0.85185185 8:-0.87096774 9:-0.90322581 10:0.7571935 11:1 12:0 13:-1 
10 1:0.6664175 2:-0.83514559 3:-0.92969242 4:-0.96745842 5:-0.94799423 6:0.5530013 7:-0.85185185 8:-0.87096774 9:-0.90322581 10:0.7571935 11:1 12:0 13:-1 
10 1:0.6664175 2:-0.83514559 3:-0.92969242 4:-0.96745842 5:-0.94799423 6:0.8580122 7:-0.90740741 8:-0.96774194 9:-0.96774194 10:0.7571935 11:0.33926594 12:0 13:-1 
10 1:0.29999995 2:-0.95555556 3:-0.95238095 4:-1 5:-0.84615385 6:0.5474138 7:-0.81481481 8:-0.87096774 9:-0.93548387 10:1 11:1 12:0 13:-1 
10 1:0.29999995 2:-0.95555556 3:-0.95238095 4:-1 5:-0.84615385 6:0.5474138 7:-0.81481481 8:-0.87096774 9:-0.93548387 10:1 11:1 12:0 13:-1 
10 1:0.29999995 2:-0.95555556 3:-0.95238095 4:-1 5:-0.84615385 6:0.5474138 7:-0.81481481 8:-0.87096774 9:-0.93548387 10:1 11:1 12:0 13:-1 
10 1:0.29999995 2:-0.95555556 3:-0.95238095 4:-1 5:-0.84615385 6:0.5474138 7:-0.81481481 8:-0.87096774 9:-0.93548387 10:1 11:1 12:0 13:-1 
10 1:0.5333332 2:-0.86666667 3:-0.95238095 4:-1 5:-0.84615385 6:0.60225636 7:-0.85821357 8:-0.89946629 9:-0.94473468 10:0.79310346 11:0.68359995 12:0 13:-0.96676908 
10 1:0.5333332 2:-0.86666667 3:-0.95238095 4:-1 5:-0.84615385 6:0.60225636 7:-0.85821357 8:-0.89946629 9:-0.94473468 10:0.79310346 11:0.68359995 12:0 13:-0.96676908 
10 1:0.5333332 2:-0.86666667 3:-0.95238095 4:-1 5:-0.84615385 6:0.60225636 7:-0.85821357 8:-0.89946629 9:-0.94473468 10:0.79310346 11:0.68359995 12:0 13:-0.96676908 
10 1:0.5333332 2:-0.86666667 3:-0.95238095 4:-1 5:-0.84615385 6:0.60225636 7:-0.85821357 8:-0.89946629 9:-0.94473468 10:0.79310346 11:0.68359995 12:0 13:-0.96676908 
10 1:0.43999994 2:-0.91111111 3:-0.95238095 4:-1 5:-0.84615385 6:0.60225636 7:-0.85821357 8:-0.89946629 9:-0.94473468 10:0.41176474 11:0.9612905 12:1 13:-0.91666667 
10 1:0.6664175 2:-0.83514559 3:-0.92969242 4:-0.96745842 5:-0.94799423 6:0.81432366 7:-0.83333333 8:-0.96774194 9:-1 10:0.7571935 11:0.62085736 12:0 13:-1 
10 1:0.6664175 2:-0.83514559 3:-0.92969242 4:-0.96745842 5:-0.94799423 6:0.79885066 7:-0.85185185 8:-0.96774194 9:-1 10:0.7571935 11:0.508685 12:0 13:-1 
10 1:0.74545443 2:-0.86666667 3:-0.95238095 4:-0.94117647 5:-0.84615385 6:0.83908045 7:-0.92592593 8:-0.96774194 9:-0.96774194 10:1 11:1 12:1 13:-0.36111111 
10 1:0.06666672 2:-0.91111111 3:-0.85714286 4:-0.88235294 5:-1 6:0.39655173 7:-0.94444444 8:-0.90322581 9:-0.93548387 10:1 11:1 12:1 13:-0.36111111 
10 1:0.06666672 2:-0.95555556 3:-0.9047619 4:-0.94117647 5:-0.84615385 6:1 7:-0.77777778 8:-1 9:-1 10:0.33333337 11:0.51443124 12:0 13:-1 
10 1:0.06666672 2:-0.95555556 3:-0.9047619 4:-0.94117647 5:-0.84615385 6:1 7:-0.77777778 8:-1 9:-1 10:0.33333337 11:0.51443124 12:0 13:-1 
10 1:0.06666672 2:-0.95555556 3:-0.9047619 4:-0.94117647 5:-0.84615385 6:1 7:-0.77777778 8:-1 9:-1 10:0.33333337 11:0.51443124 12:0 13:-1 
10 1:-0.4933334 2:-0.77777778 3:-0.42857143 4:-1 5:-0.69230769 6:-0.17595041 7:-0.87037037 8:-0.58064516 9:-0.96774194 10:0.7571935 11:1 12:0 13:-0.94444444 
10 1:-0.4933334 2:-0.77777778 3:-0.42857143 4:-1 5:-0.69230769 6:-0.17595041 7:-0.87037037 8:-0.58064516 9:-0.96774194 10:0.7571935 11:1 12:0 13:-0.94444444 
10 1:0.6664175 2:-0.83514559 3:-0.92969242 4:-0.96745842 5:-0.94799423 6:0.31034493 7:-0.96296296 8:-0.87096774 9:-0.87096774 10:0.7058823 11:0.68690705 12:0 13:-1 
10 1:0.6664175 2:-0.83514559 3:-0.92969242 4:-0.96745842 5:-0.94799423 6:0.31034493 7:-0.96296296 8:-0.87096774 9:-0.87096774 10:0.7058823 11:0.68690705 12:0 13:-1 
10 1:0.6664175 2:-0.83514559 3:-0.92969242 4:-0.96745842 5:-0.94799423 6:0.5172415 7:-0.75925926 8:-0.80645161 9:-0.87096774 10:0.7571935 11:0.34876668 12:0 13:-1 
10 1:0.6664175 2:-0.83514559 3:-0.92969242 4:-0.96745842 5:-0.94799423 6:0.65517247 7:-0.88888889 8:-0.93548387 9:-0.96774194 10:0.7571935 11:0.7223002 12:0 13:-1 
10 1:0.6664175 2:-0.83514559 3:-0.92969242 4:-0.96745842 5:-0.94799423 6:0.7103448 7:-0.85185185 8:-0.93548387 9:-0.96774194 10:0.7571935 11:0.68588054 12:0 13:-1 
8.700405386603686 1:0.06666672 2:-0.95555556 3:-0.9047619 4:-0.94117647 5:-0.84615385 6:0.7805643 7:-0.87037037 8:-0.96774194 9:-1 10:0.42857146 11:1 12:0 13:-1 
10 1:0.43999994 2:-0.91111111 3:-0.95238095 4:-1 5:-0.84615385 6:1 7:-0.75925926 8:-1 9:-1 10:0.6923077 11:0.36704457 12:0 13:-1 
10 1:0.43999994 2:-0.91111111 3:-0.95238095 4:-1 5:-0.84615385 6:1 7:-0.75925926 8:-1 9:-1 10:0.6923077 11:0.36704457 12:0 13:-1 
10 1:0.43999994 2:-0.91111111 3:-0.95238095 4:-1 5:-0.84615385 6:1 7:-0.75925926 8:-1 9:-1 10:0.6923077 11:0.36704457 12:0 13:-1 
10 1:0.43999994 2:-0.91111111 3:-0.95238095 4:-1 5:-0.84615385 6:1 7:-0.75925926 8:-1 9:-1 10:0.6923077 11:0.36704457 12:0 13:-1 
10 1:0.5999999 2:-0.82222222 3:-0.95238095 4:-1 5:-1 6:0.65517247 7:-0.94444444 8:-0.96774194 9:-1 10:0.54838705 11:0.58792937 12:0 13:-1 
10 1:0.5999999 2:-0.82222222 3:-0.95238095 4:-1 5:-1 6:0.65517247 7:-0.94444444 8:-0.96774194 9:-1 10:0.54838705 11:0.58792937 12:0 13:-1 
10 1:0.6664175 2:-0.83514559 3:-0.92969242 4:-0.96745842 5:-0.94799423 6:0.83908045 7:-0.7962963 8:-0.96774194 9:-1 10:0.7571935 11:0.773136 12:1 13:-0.91666667 
10 1:0.6664175 2:-0.83514559 3:-0.92969242 4:-0.96745842 5:-0.94799423 6:0.44297087 7:-0.87037037 8:-0.80645161 9:-0.93548387 10:0.7647059 11:0.74952567 12:0 13:-1 
10 1:0.6664175 2:-0.83514559 3:-0.92969242 4:-0.96745842 5:-0.94799423 6:0.6982759 7:-0.7962963 8:-0.90322581 9:-0.93548387 10:0.7571935 11:0.46024537 12:0 13:-1 
10 1:0.6664175 2:-0.83514559 3:-0.92969242 4:-0.96745842 5:-0.94799423 6:0.6982759 7:-0.7962963 8:-0.90322581 9:-0.93548387 10:0.7571935 11:0.49023175 12:0 13:-1 
10 1:0.5333332 2:-0.64444444 3:-0.9047619 4:-1 5:-0.69230769 6:0.60225636 7:-0.85821357 8:-0.89946629 9:-0.94473468 10:0.84000003 11:0.68359995 12:1 13:-0.91666667 
10 1:0.20000005 2:-0.86666667 3:-0.9047619 4:-1 5:-1 6:0.31034493 7:-0.96296296 8:-0.93548387 9:-1 10:1 11:1 12:1 13:-0.86111111 
10 1:0.20000005 2:-0.86666667 3:-0.9047619 4:-1 5:-1 6:0.31034493 7:-0.96296296 8:-0.93548387 9:-1 10:1 11:1 12:1 13:-0.91666667 
10 1:0.6664175 2:-0.83514559 3:-0.92969242 4:-0.96745842 5:-0.94799423 6:0.65517247 7:-0.83333333 8:-0.90322581 9:-0.93548387 10:0.8181819 11:0.8064518 12:0 13:-1 
10 1:0.6664175 2:-0.83514559 3:-0.92969242 4:-0.96745842 5:-0.94799423 6:0.9221356 7:-0.77777778 8:-0.96774194 9:-0.96774194 10:0.7571935 11:0.79338515 12:0 13:-1 
10 1:0.29999995 2:-0.95555556 3:-0.95238095 4:-1 5:-0.84615385 6:0.5530013 7:-0.85185185 8:-0.90322581 9:-0.96774194 10:1 11:0.9313216 12:0 13:-1 
10 1:1 2:-0.86666667 3:-1 4:-1 5:-1 6:0.4636016 7:-0.7962963 8:-0.87096774 9:-1 10:0.68421054 11:0.85806465 12:1 13:-0.91666667 
10 1:0.6664175 2:-0.83514559 3:-0.92969242 4:-0.96745842 5:-0.94799423 6:0.7318008 7:-0.75925926 8:-0.93548387 9:-1 10:0.7571935 11:0.9313216 12:0 13:-1 
10 1:0.6888888 2:-0.91111111 3:-0.95238095 4:-0.94117647 5:-1 6:0.8275862 7:-0.81481481 8:-0.96774194 9:-1 10:1 11:0.79127145 12:0 13:-1 
10 1:0.6664175 2:-0.83514559 3:-0.92969242 4:-0.96745842 5:-0.94799423 6:0.07161808 7:-0.90740741 8:-0.67741935 9:-0.67741935 10:0.7571935 11:0.85146296 12:0 13:-1 
10 1:0.6664175 2:-0.83514559 3:-0.92969242 4:-0.96745842 5:-0.94799423 6:0.7586206 7:-0.88888889 8:-0.96774194 9:-1 10:0.7571935 11:0.96391475 12:0 13:-1 
10 1:0.6664175 2:-0.83514559 3:-0.92969242 4:-0.96745842 5:-0.94799423 6:0.6781609 7:-0.81481481 8:-0.90322581 9:-0.93548387 10:0.7571935 11:0.98296785 12:0 13:-1 
10 1:0.6664175 2:-0.83514559 3:-0.92969242 4:-0.96745842 5:-0.94799423 6:0.6781609 7:-0.81481481 8:-0.90322581 9:-0.93548387 10:0.7571935 11:0.98296785 12:0 13:-1 
10 1:0.6664175 2:-0.83514559 3:-0.92969242 4:-0.96745842 5:-0.94799423 6:0.5838288 7:-0.83333333 8:-0.87096774 9:-0.90322581 10:0.7571935 11:1 12:0 13:-1 
10 1:0.6664175 2:-0.83514559 3:-0.92969242 4:-0.96745842 5:-0.94799423 6:0.5838288 7:-0.83333333 8:-0.87096774 9:-0.90322581 10:0.7571935 11:0.33843637 12:0 13:-1 
10 1:0.6664175 2:-0.83514559 3:-0.92969242 4:-0.96745842 5:-0.94799423 6:0.7805643 7:-0.87037037 8:-0.96774194 9:-1 10:1 11:1 12:0 13:-0.97222222 
9.806066054032843 1:0.6664175 2:-0.83514559 3:-0.92969242 4:-0.96745842 5:-0.94799423 6:0.25729454 7:-0.88888889 8:-0.74193548 9:-0.87096774 10:1 11:1 12:1 13:-0.83333333 
10 1:0.6664175 2:-0.83514559 3:-0.92969242 4:-0.96745842 5:-0.94799423 6:0.25729454 7:-0.88888889 8:-0.74193548 9:-0.87096774 10:1 11:1 12:1 13:-0.83333333 
10 1:1 2:-0.91111111 3:-1 4:-1 5:-1 6:0.7318008 7:-0.90740741 8:-0.96774194 9:-1 10:1 11:1 12:1 13:-0.75 
10 1:0.43999994 2:-0.91111111 3:-0.95238095 4:-1 5:-0.84615385 6:0.60225636 7:-0.85821357 8:-0.89946629 9:-0.94473468 10:0.39999998 11:0.68359995 12:0 13:-0.97222222 
10 1:0.43999994 2:-0.91111111 3:-0.95238095 4:-1 5:-0.84615385 6:0.60225636 7:-0.85821357 8:-0.89946629 9:-0.94473468 10:0.9090909 11:0.68359995 12:0 13:-0.97222222 
10 1:0.43999994 2:-0.91111111 3:-0.95238095 4:-1 5:-0.84615385 6:0.7805643 7:-0.87037037 8:-0.96774194 9:-1 10:1 11:0.93548405 12:0 13:-1 
10 1:0.29999995 2:-0.95555556 3:-0.95238095 4:-1 5:-0.84615385 6:0.65517247 7:-0.77777778 8:-0.87096774 9:-0.96774194 10:0.33333337 11:0.24731195 12:0 13:-1 
10 1:0.29999995 2:-0.95555556 3:-0.95238095 4:-1 5:-0.84615385 6:0.65517247 7:-0.77777778 8:-0.87096774 9:-0.96774194 10:1 11:0.9672458 12:0 13:-1 
10 1:0.6664175 2:-0.83514559 3:-0.92969242 4:-0.96745842 5:-0.94799423 6:0.8275862 7:-0.81481481 8:-0.96774194 9:-1 10:0.7571935 11:0.8225808 12:0 13:-0.97222222 
10 1:0.6664175 2:-0.83514559 3:-0.92969242 4:-0.96745842 5:-0.94799423 6:0.5977011 7:-0.87037037 8:-0.93548387 9:-1 10:1 11:1 12:0 13:-0.97222222 
10 1:0.6664175 2:-0.83514559 3:-0.92969242 4:-0.96745842 5:-0.94799423 6:0.5977011 7:-0.87037037 8:-0.93548387 9:-1 10:1 11:1 12:0 13:-1 
10 1:0.6664175 2:-0.83514559 3:-0.92969242 4:-0.96745842 5:-0.94799423 6:0.5977011 7:-0.87037037 8:-0.93548387 9:-1 10:1 11:1 12:0 13:-0.94444444 
10 1:0.6664175 2:-0.83514559 3:-0.92969242 4:-0.96745842 5:-0.94799423 6:0.5977011 7:-0.87037037 8:-0.93548387 9:-1 10:1 11:1 12:0 13:-0.97222222 
10 1:0.5333332 2:-0.86666667 3:-0.95238095 4:-1 5:-0.84615385 6:0.83908045 7:-0.7962963 8:-0.96774194 9:-1 10:1 11:0.68359995 12:0 13:-0.97222222 
10 1:0.5333332 2:-0.86666667 3:-0.95238095 4:-1 5:-0.84615385 6:0.83908045 7:-0.7962963 8:-0.96774194 9:-1 10:1 11:0.68359995 12:0 13:-0.97222222 
10 1:0.5333332 2:-0.86666667 3:-0.95238095 4:-1 5:-0.84615385 6:0.83908045 7:-0.7962963 8:-0.96774194 9:-1 10:0.93103445 11:0.68359995 12:0 13:-0.97222222 
10 1:0.5333332 2:-0.86666667 3:-0.95238095 4:-1 5:-0.84615385 6:0.83908045 7:-0.7962963 8:-0.96774194 9:-1 10:0.93103445 11:0.68359995 12:0 13:-0.97222222 
10 1:0.29999995 2:-0.95555556 3:-0.95238095 4:-1 5:-0.84615385 6:0.35632193 7:-0.85185185 8:-0.80645161 9:-0.87096774 10:1 11:1 12:0 13:-1 
10 1:0.6664175 2:-0.83514559 3:-0.92969242 4:-0.96745842 5:-0.94799423 6:0.79885066 7:-0.85185185 8:-0.96774194 9:-1 10:0.7571935 11:0.85530865 12:0 13:-1 
10 1:0.6664175 2:-0.83514559 3:-0.92969242 4:-0.96745842 5:-0.94799423 6:0.79885066 7:-0.85185185 8:-0.96774194 9:-1 10:0.7571935 11:0.85530865 12:0 13:-1 
10 1:0.6664175 2:-0.83514559 3:-0.92969242 4:-0.96745842 5:-0.94799423 6:0.7805643 7:-0.87037037 8:-0.96774194 9:-1 10:0.7571935 11:0.7338711 12:0 13:-0.94444444 
10 1:0.6664175 2:-0.83514559 3:-0.92969242 4:-0.96745842 5:-0.94799423 6:0.7805643 7:-0.87037037 8:-0.96774194 9:-1 10:0.7571935 11:0.7338711 12:0 13:-1 
10 1:0.6664175 2:-0.83514559 3:-0.92969242 4:-0.96745842 5:-0.94799423 6:0.7805643 7:-0.87037037 8:-0.96774194 9:-1 10:0.7571935 11:0.7338711 12:0 13:-1 
10 1:0.6664175 2:-0.83514559 3:-0.92969242 4:-0.96745842 5:-0.94799423 6:0.48275864 7:-0.85185185 8:-0.80645161 9:-0.93548387 10:0.7571935 11:0.33206844 12:0 13:-1 
10 1:0.29999995 2:-0.95555556 3:-0.95238095 4:-1 5:-0.84615385 6:0.37931037 7:-0.81481481 8:-0.83870968 9:-0.96774194 10:1 11:0.95048773 12:0 13:-0.97222222 
10 1:0.29999995 2:-0.95555556 3:-0.95238095 4:-1 5:-0.84615385 6:0.37931037 7:-0.81481481 8:-0.83870968 9:-0.96774194 10:1 11:0.95048773 12:0 13:-0.97222222 
10 1:0.29999995 2:-0.95555556 3:-0.95238095 4:-1 5:-0.84615385 6:0.37931037 7:-0.81481481 8:-0.83870968 9:-0.96774194 10:1 11:0.95048773 12:0 13:-0.97222222 
10 1:0.39130425 2:-0.68888889 3:-0.76190476 4:-0.94117647 5:-0.84615385 6:0.5838288 7:-0.83333333 8:-0.83870968 9:-0.96774194 10:1 11:0.8935485 12:1 13:-0.83333333 
10 1:0.63478243 2:-0.64444444 3:-0.9047619 4:-0.94117647 5:-1 6:0.5172415 7:-0.83333333 8:-0.87096774 9:-1 10:1 11:0.8442173 12:1 13:-0.86111111 
10 1:0.63478243 2:-0.64444444 3:-0.9047619 4:-0.94117647 5:-1 6:0.5172415 7:-0.83333333 8:-0.87096774 9:-1 10:1 11:0.8442173 12:1 13:-0.83333333 
10 1:0.6664175 2:-0.83514559 3:-0.92969242 4:-0.96745842 5:-0.94799423 6:0.37931037 7:-0.81481481 8:-0.70967742 9:-0.96774194 10:0.7571935 11:0.7364056 12:0 13:-1 
10 1:0.6664175 2:-0.83514559 3:-0.92969242 4:-0.96745842 5:-0.94799423 6:0.7805643 7:-0.87037037 8:-0.96774194 9:-1 10:0.7571935 11:0.8095989 12:0 13:-1 
10 1:0.5333332 2:-0.86666667 3:-0.95238095 4:-1 5:-0.84615385 6:0.60225636 7:-0.85821357 8:-0.89946629 9:-0.94473468 10:0.5272727 11:0.68359995 12:0 13:-1 
10 1:0.5333332 2:-0.86666667 3:-0.95238095 4:-1 5:-0.84615385 6:0.60225636 7:-0.85821357 8:-0.89946629 9:-0.94473468 10:0.5272727 11:0.68359995 12:0 13:-0.97222222 
10 1:0.5333332 2:-0.86666667 3:-0.95238095 4:-1 5:-0.84615385 6:0.60225636 7:-0.85821357 8:-0.89946629 9:-0.94473468 10:0.5272727 11:0.68359995 12:0 13:-0.97222222 
10 1:0.6664175 2:-0.83514559 3:-0.92969242 4:-0.96745842 5:-0.94799423 6:0.19540238 7:-0.92592593 8:-0.77419355 9:-0.90322581 10:0.7571935 11:0.9225807 12:1 13:-0.88888889 
10 1:0.6664175 2:-0.83514559 3:-0.92969242 4:-0.96745842 5:-0.94799423 6:0.5530013 7:-0.85185185 8:-0.90322581 9:-0.96774194 10:0.7571935 11:0.5741936 12:0 13:-0.97222222 
10 1:0.6664175 2:-0.83514559 3:-0.92969242 4:-0.96745842 5:-0.94799423 6:0.5530013 7:-0.85185185 8:-0.90322581 9:-0.96774194 10:0.7571935 11:0.5741936 12:0 13:-0.94444444 
10 1:0.6664175 2:-0.83514559 3:-0.92969242 4:-0.96745842 5:-0.94799423 6:0.5530013 7:-0.85185185 8:-0.90322581 9:-0.96774194 10:0.7571935 11:0.5741936 12:0 13:-0.94444444 
10 1:0.6664175 2:-0.83514559 3:-0.92969242 4:-0.96745842 5:-0.94799423 6:0.5530013 7:-0.85185185 8:-0.90322581 9:-0.96774194 10:0.7571935 11:0.5741936 12:1 13:-0.91666667 
10 1:0.6664175 2:-0.83514559 3:-0.92969242 4:-0.96745842 5:-0.94799423 6:0.65517247 7:-0.77777778 8:-0.87096774 9:-0.90322581 10:0.7571935 11:0.34491324 12:0 13:-1 
10 1:0.6664175 2:-0.83514559 3:-0.92969242 4:-0.96745842 5:-0.94799423 6:0.65517247 7:-0.94444444 8:-0.93548387 9:-0.93548387 10:0.25842702 11:0.21058369 12:0 13:-1 
10 1:0.6664175 2:-0.83514559 3:-0.92969242 4:-0.96745842 5:-0.94799423 6:0.5172415 7:-0.75925926 8:-0.80645161 9:-1 10:0.7571935 11:0.62428856 12:0 13:-0.96676908 
10 1:0.6664175 2:-0.83514559 3:-0.92969242 4:-0.96745842 5:-0.94799423 6:0.7318008 7:-0.90740741 8:-0.96774194 9:-1 10:0.7571935 11:0.6895163 12:0 13:-0.94444444 
10 1:0.6888888 2:-0.91111111 3:-0.95238095 4:-0.94117647 5:-1 6:0.37931037 7:-0.81481481 8:-0.83870968 9:-0.96774194 10:0.4545455 11:0.79127145 12:0 13:-1 
10 1:0.6888888 2:-0.91111111 3:-0.95238095 4:-0.94117647 5:-1 6:0.37931037 7:-0.81481481 8:-0.83870968 9:-0.96774194 10:0.4545455 11:0.79127145 12:0 13:-1 
10 1:0.6888888 2:-0.91111111 3:-0.95238095 4:-0.94117647 5:-1 6:0.37931037 7:-0.81481481 8:-0.83870968 9:-0.96774194 10:0.4545455 11:0.79127145 12:0 13:-1 
10 1:0.6664175 2:-0.83514559 3:-0.92969242 4:-0.96745842 5:-0.94799423 6:0.7805643 7:-0.87037037 8:-0.96774194 9:-1 10:0.6140351 11:0.6638371 12:0 13:-1 
10 1:0.43999994 2:-0.91111111 3:-0.95238095 4:-1 5:-0.84615385 6:1 7:-0.77777778 8:-1 9:-1 10:0.80645156 11:0.68359995 12:0 13:-1 
10 1:0.43999994 2:-0.91111111 3:-0.95238095 4:-1 5:-0.84615385 6:0.8491379 7:-0.77777778 8:-0.96774194 9:-1 10:0.75 11:1 12:0 13:-1 
10 1:0.29999995 2:-0.95555556 3:-0.95238095 4:-1 5:-0.84615385 6:1 7:-0.81481481 8:-1 9:-1 10:0.4736842 11:0.49905133 12:0 13:-1 
10 1:0.29999995 2:-0.95555556 3:-0.95238095 4:-1 5:-0.84615385 6:1 7:-0.81481481 8:-1 9:-1 10:0.4736842 11:0.49905133 12:0 13:-1 
10 1:0.29999995 2:-0.95555556 3:-0.95238095 4:-1 5:-0.84615385 6:1 7:-0.81481481 8:-1 9:-1 10:0.4736842 11:0.49905133 12:0 13:-1 
10 1:0.29999995 2:-0.95555556 3:-0.9047619 4:-1 5:-0.84615385 6:0.31034493 7:-0.87037037 8:-0.87096774 9:-1 10:0.945946 11:0.68359995 12:0 13:-1 
10 1:0.29999995 2:-0.95555556 3:-0.9047619 4:-1 5:-0.84615385 6:0.31034493 7:-0.87037037 8:-0.87096774 9:-1 10:0.945946 11:0.68359995 12:0 13:-1 
10 1:0.6664175 2:-0.83514559 3:-0.92969242 4:-0.96745842 5:-0.94799423 6:0.7805643 7:-0.87037037 8:-0.96774194 9:-1 10:0.7571935 11:0.8362284 12:0 13:-1 
10 1:0.43999994 2:-0.91111111 3:-0.95238095 4:-1 5:-0.84615385 6:1 7:-0.7962963 8:-1 9:-1 10:0 11:0.15828955 12:0 13:-1 
10 1:0.6664175 2:-0.83514559 3:-0.92969242 4:-0.96745842 5:-0.94799423 6:0.7586206 7:-0.88888889 8:-0.96774194 9:-1 10:0.7571935 11:0.8747629 12:0 13:-0.97222222 
10 1:0.6664175 2:-0.83514559 3:-0.92969242 4:-0.96745842 5:-0.94799423 6:0.7586206 7:-0.88888889 8:-0.96774194 9:-1 10:0.7571935 11:0.55733 12:0 13:-0.97222222 
10 1:0.6664175 2:-0.83514559 3:-0.92969242 4:-0.96745842 5:-0.94799423 6:-0.07279688 7:-0.87037037 8:-0.58064516 9:-0.74193548 10:0.7571935 11:0.26090598 12:0 13:-1 
10 1:0.6664175 2:-0.83514559 3:-0.92969242 4:-0.96745842 5:-0.94799423 6:-0.07279688 7:-0.87037037 8:-0.58064516 9:-0.74193548 10:0.7571935 11:0.2681452 12:0 13:-0.97222222 
10 1:0.74545443 2:-0.86666667 3:-0.95238095 4:-0.94117647 5:-1 6:0.4636016 7:-0.92592593 8:-0.90322581 9:-0.93548387 10:0.68421054 11:0.68359995 12:0 13:-1 
10 1:0.6664175 2:-0.83514559 3:-0.92969242 4:-0.96745842 5:-0.94799423 6:0.8491379 7:-0.77777778 8:-0.96774194 9:-1 10:0.7571935 11:0.9766041 12:0 13:-1 
10 1:0.6664175 2:-0.83514559 3:-0.92969242 4:-0.96745842 5:-0.94799423 6:0.7805643 7:-0.87037037 8:-0.96774194 9:-1 10:0.7571935 11:0.7851436 12:0 13:-1 
10 1:-0.40000004 2:-0.82222222 3:-0.52380952 4:-0.88235294 5:-1 6:-0.14337564 7:-0.87037037 8:-0.5483871 9:-0.93548387 10:1 11:1 12:0 13:-0.94444444 
10 1:0.6664175 2:-0.83514559 3:-0.92969242 4:-0.96745842 5:-0.94799423 6:0.29922128 7:-0.85185185 8:-0.70967742 9:-0.83870968 10:0.7571935 11:0.9211471 12:0 13:-1 
10 1:0.6664175 2:-0.83514559 3:-0.92969242 4:-0.96745842 5:-0.94799423 6:0.7805643 7:-0.87037037 8:-0.96774194 9:-1 10:0.7058823 11:0.68690705 12:0 13:-1 
10 1:0.6888888 2:-0.91111111 3:-0.95238095 4:-0.94117647 5:-1 6:-0.11405826 7:-0.92592593 8:-0.77419355 9:-0.93548387 10:0.6666666 11:0.68359995 12:0 13:-1 
10 1:0.6888888 2:-0.91111111 3:-0.95238095 4:-0.94117647 5:-1 6:-0.11405826 7:-0.92592593 8:-0.77419355 9:-0.93548387 10:0.6666666 11:0.68359995 12:0 13:-1 
10 1:0.6888888 2:-0.91111111 3:-0.95238095 4:-0.94117647 5:-1 6:-0.11405826 7:-0.92592593 8:-0.77419355 9:-0.93548387 10:0.6666666 11:0.68359995 12:0 13:-1 
10 1:0.29999995 2:-0.95555556 3:-0.95238095 4:-1 5:-0.84615385 6:0.6188748 7:-0.90740741 8:-0.93548387 9:-0.96774194 10:1 11:1 12:0 13:-1 
10 1:0.29999995 2:-0.95555556 3:-0.95238095 4:-1 5:-0.84615385 6:0.42528737 7:-0.90740741 8:-0.87096774 9:-0.96774194 10:1 11:1 12:0 13:-0.97222222 
10 1:0.06666672 2:-1 3:-0.95238095 4:-1 5:-0.84615385 6:0.81432366 7:-0.83333333 8:-0.96774194 9:-1 10:1 11:1 12:0 13:-1 
10 1:0.6664175 2:-0.83514559 3:-0.92969242 4:-0.96745842 5:-0.94799423 6:0.8275862 7:-0.81481481 8:-0.96774194 9:-1 10:0.7571935 11:0.44645166 12:0 13:-0.97222222 
10 1:0.6664175 2:-0.83514559 3:-0.92969242 4:-0.96745842 5:-0.94799423 6:0.8275862 7:-0.81481481 8:-0.96774194 9:-1 10:0.7571935 11:0.48903227 12:0 13:-0.97222222 
10 1:0.4666667 2:0.42222222 3:-0.52380952 4:-0.76470588 5:-1 6:0.60225636 7:-0.85821357 8:-0.89946629 9:-0.94473468 10:0.7571935 11:0.68359995 12:0 13:-1 
10 1:0.43999994 2:-0.91111111 3:-0.95238095 4:-1 5:-0.84615385 6:0.35632193 7:-0.85185185 8:-0.77419355 9:-0.80645161 10:0.7391304 11:0.13434958 12:0 13:-1 
10 1:0.33333337 2:-0.73333333 3:-0.80952381 4:-0.82352941 5:-1 6:0.48275864 7:-0.85185185 8:-0.80645161 9:-1 10:0.88235295 11:0.61786616 12:0 13:-0.97222222 
10 1:0.33333337 2:-0.73333333 3:-0.80952381 4:-0.82352941 5:-1 6:0.48275864 7:-0.85185185 8:-0.80645161 9:-1 10:0.88235295 11:0.61786616 12:0 13:-0.97222222 
4.761007565402864 1:-0.12000001 2:-0.68888889 3:-0.57142857 4:-0.64705882 5:-1 6:0.6080165 7:-0.14814815 8:-0.64516129 9:-0.90322581 10:0.7571935 11:0.68359995 12:0 13:-1 
10 1:0.6664175 2:-0.83514559 3:-0.92969242 4:-0.96745842 5:-0.94799423 6:0.6982759 7:-0.92592593 8:-0.93548387 9:-0.93548387 10:0.10144925 11:0.04347825 12:0 13:-1 
10 1:0.6664175 2:-0.83514559 3:-0.92969242 4:-0.96745842 5:-0.94799423 6:0.6286472 7:-0.85185185 8:-0.93548387 9:-1 10:0.7571935 11:0.94245875 12:0 13:-1 
10 1:0.5999999 2:-0.82222222 3:-0.95238095 4:-1 5:-0.84615385 6:0.32413805 7:-0.88888889 8:-0.80645161 9:-0.83870968 10:0.73333335 11:0.08755767 12:0 13:-0.97222222 
8.210070379827076 1:0.43999994 2:-0.91111111 3:-0.95238095 4:-1 5:-0.84615385 6:0.766407 7:-0.7962963 8:-0.90322581 9:-0.96774194 10:0.945946 11:0.68359995 12:0 13:-1 
10 1:0.6664175 2:-0.83514559 3:-0.92969242 4:-0.96745842 5:-0.94799423 6:0.3416928 7:-0.90740741 8:-0.83870968 9:-0.87096774 10:0.7571935 11:0.97735083 12:0 13:-1 
10 1:0.6664175 2:-0.83514559 3:-0.92969242 4:-0.96745842 5:-0.94799423 6:0.12225699 7:-0.92592593 8:-0.77419355 9:-0.80645161 10:0.7571935 11:0.7325338 12:0 13:-0.96676908 
10 1:0.6664175 2:-0.83514559 3:-0.92969242 4:-0.96745842 5:-0.94799423 6:0.81432366 7:-0.83333333 8:-0.96774194 9:-1 10:0.7571935 11:0.687345 12:0 13:-0.97222222 
10 1:0.74545443 2:-0.86666667 3:-0.95238095 4:-0.94117647 5:-1 6:0.48275864 7:-0.85185185 8:-0.83870968 9:-1 10:1 11:1 12:1 13:-0.86111111 
10 1:0.6664175 2:-0.83514559 3:-0.92969242 4:-0.96745842 5:-0.94799423 6:0.4173603 7:-0.85185185 8:-0.77419355 9:-0.90322581 10:0.7571935 11:0.6329256 12:0 13:-1 
10 1:0.6664175 2:-0.83514559 3:-0.92969242 4:-0.96745842 5:-0.94799423 6:0.79885066 7:-0.85185185 8:-0.96774194 9:-1 10:0.7571935 11:0.8064518 12:0 13:-1 
10 1:0.6664175 2:-0.83514559 3:-0.92969242 4:-0.96745842 5:-0.94799423 6:0.39655173 7:-0.94444444 8:-0.90322581 9:-0.93548387 10:0.60919535 11:0.5839822 12:0 13:-0.94444444 
10 1:0.6664175 2:-0.83514559 3:-0.92969242 4:-0.96745842 5:-0.94799423 6:0.8491379 7:-0.77777778 8:-0.96774194 9:-1 10:0.7571935 11:0.6752325 12:0 13:-1 
10 1:0.6664175 2:-0.83514559 3:-0.92969242 4:-0.96745842 5:-0.94799423 6:0.7502973 7:-0.81481481 8:-0.93548387 9:-0.96774194 10:0.7571935 11:0.855659 12:0 13:-1 
10 1:0.6664175 2:-0.83514559 3:-0.92969242 4:-0.96745842 5:-0.94799423 6:0.8275862 7:-0.81481481 8:-0.96774194 9:-1 10:0.7571935 11:1 12:0 13:-0.97222222 
10 1:0.6664175 2:-0.83514559 3:-0.92969242 4:-0.96745842 5:-0.94799423 6:0.7318008 7:-0.90740741 8:-0.96774194 9:-1 10:0.7571935 11:0.9074335 12:0 13:-1 
10 1:0.6664175 2:-0.83514559 3:-0.92969242 4:-0.96745842 5:-0.94799423 6:0.7318008 7:-0.90740741 8:-0.96774194 9:-1 10:0.7571935 11:0.8389809 12:0 13:-1 
10 1:0.6664175 2:-0.83514559 3:-0.92969242 4:-0.96745842 5:-0.94799423 6:0.7805643 7:-0.87037037 8:-0.96774194 9:-1 10:0.7571935 11:0.77975535 12:0 13:-1 
10 1:0.43999994 2:-0.91111111 3:-0.95238095 4:-1 5:-0.84615385 6:0.60225636 7:-0.85821357 8:-0.89946629 9:-0.94473468 10:0.7391304 11:0.68359995 12:0 13:-0.96676908 
10 1:0.43999994 2:-0.91111111 3:-0.95238095 4:-1 5:-0.84615385 6:0.60225636 7:-0.85821357 8:-0.89946629 9:-0.94473468 10:0.7391304 11:0.68359995 12:0 13:-0.96676908 
10 1:0.43999994 2:-0.91111111 3:-0.95238095 4:-1 5:-0.84615385 6:0.60225636 7:-0.85821357 8:-0.89946629 9:-0.94473468 10:0.7391304 11:0.68359995 12:0 13:-0.96676908 
10 1:0.6664175 2:-0.83514559 3:-0.92969242 4:-0.96745842 5:-0.94799423 6:0.8659003 7:-0.74074074 8:-0.96774194 9:-1 10:0.7571935 11:1 12:0 13:-1 
10 1:0.6664175 2:-0.83514559 3:-0.92969242 4:-0.96745842 5:-0.94799423 6:0.8659003 7:-0.74074074 8:-0.96774194 9:-1 10:0.7571935 11:1 12:1 13:-0.91666667 
10 1:0.6664175 2:-0.83514559 3:-0.92969242 4:-0.96745842 5:-0.94799423 6:0.8659003 7:-0.74074074 8:-0.96774194 9:-1 10:0.7571935 11:1 12:1 13:-0.91666667 
10 1:0.6664175 2:-0.83514559 3:-0.92969242 4:-0.96745842 5:-0.94799423 6:0.8659003 7:-0.74074074 8:-0.96774194 9:-1 10:0.7571935 11:0.9869385 12:1 13:-0.91666667 
10 1:0.6664175 2:-0.83514559 3:-0.92969242 4:-0.96745842 5:-0.94799423 6:0.8275862 7:-0.81481481 8:-0.96774194 9:-1 10:1 11:1 12:1 13:-0.88888889 
3.802668203902539 1:0.5333332 2:-0.86666667 3:-0.95238095 4:-1 5:-0.84615385 6:1 7:-0.7962963 8:-1 9:-1 10:-0.04000002 11:-0.19758058 12:0 13:-1 
10 1:0.43999994 2:-0.91111111 3:-0.95238095 4:-1 5:-0.84615385 6:0.83908045 7:-0.7962963 8:-0.96774194 9:-1 10:0.79310346 11:0.68359995 12:0 13:-1 
10 1:0.6664175 2:-0.83514559 3:-0.92969242 4:-0.96745842 5:-0.94799423 6:0.6982759 7:-0.92592593 8:-0.93548387 9:-0.93548387 10:0.7571935 11:0.69585264 12:0 13:-1 
10 1:0.6664175 2:-0.83514559 3:-0.92969242 4:-0.96745842 5:-0.94799423 6:0.39655173 7:-0.94444444 8:-0.93548387 9:-1 10:1 11:1 12:0 13:-0.94444444 
10 1:0.6664175 2:-0.83514559 3:-0.92969242 4:-0.96745842 5:-0.94799423 6:0.39655173 7:-0.94444444 8:-0.93548387 9:-1 10:1 11:1 12:0 13:-0.97222222 
10 1:0.6664175 2:-0.83514559 3:-0.92969242 4:-0.96745842 5:-0.94799423 6:0.39655173 7:-0.94444444 8:-0.93548387 9:-1 10:1 11:1 12:0 13:-0.97222222 
10 1:0.5333332 2:-0.86666667 3:-0.95238095 4:-1 5:-0.84615385 6:1 7:-0.74074074 8:-1 9:-1 10:0.1428572 11:0.26135623 12:0 13:-1 
10 1:0.43999994 2:-0.91111111 3:-0.95238095 4:-1 5:-0.84615385 6:0.19540238 7:-0.92592593 8:-0.80645161 9:-0.90322581 10:1 11:0.8844712 12:0 13:-0.97222222 
10 1:0.43999994 2:-0.91111111 3:-0.95238095 4:-1 5:-0.84615385 6:0.19540238 7:-0.92592593 8:-0.80645161 9:-0.90322581 10:0.68421054 11:0.8689828 12:0 13:-0.97222222 
10 1:0.29999995 2:-0.95555556 3:-0.95238095 4:-1 5:-0.84615385 6:0.65517247 7:-0.83333333 8:-0.93548387 9:-1 10:1 11:1 12:0 13:-1 
10 1:-0.01818192 2:-0.77777778 3:-0.61904762 4:-1 5:-1 6:0.60225636 7:-0.85821357 8:-0.89946629 9:-0.94473468 10:0.27999997 11:0.68359995 12:0 13:-0.96676908 
10 1:0.6664175 2:-0.83514559 3:-0.92969242 4:-0.96745842 5:-0.94799423 6:0.29922128 7:-0.85185185 8:-0.74193548 9:-0.77419355 10:0.7571935 11:0.74264455 12:0 13:-1 
5.470173764181505 1:0.43999994 2:-0.91111111 3:-0.95238095 4:-1 5:-0.84615385 6:1 7:-0.75925926 8:-1 9:-1 10:0.41176474 11:0.68359995 12:0 13:-1 
10 1:0.43999994 2:-0.91111111 3:-0.95238095 4:-1 5:-0.84615385 6:1 7:-0.75925926 8:-1 9:-1 10:0.41176474 11:0.68359995 12:0 13:-1 
10 1:0.6664175 2:-0.83514559 3:-0.92969242 4:-0.96745842 5:-0.94799423 6:0.5611285 7:-0.88888889 8:-0.93548387 9:-1 10:0.7571935 11:1 12:0 13:-1 
10 1:0.74545443 2:-0.86666667 3:-0.95238095 4:-0.94117647 5:-1 6:1 7:-0.83333333 8:-1 9:-1 10:1 11:1 12:0 13:-1 
10 1:0.6664175 2:-0.83514559 3:-0.92969242 4:-0.96745842 5:-0.94799423 6:0.6286472 7:-0.85185185 8:-0.93548387 9:-1 10:1 11:1 12:0 13:-1 
10 1:0.6664175 2:-0.83514559 3:-0.92969242 4:-0.96745842 5:-0.94799423 6:0.6982759 7:-0.92592593 8:-0.93548387 9:-0.93548387 10:0.4054054 11:0.36704457 12:0 13:-1 
10 1:0.45806444 2:0.022222222 3:-0.57142857 4:-0.64705882 5:-1 6:0.60225636 7:-0.85821357 8:-0.89946629 9:-0.94473468 10:0.7571935 11:0.68359995 12:0 13:-1 
10 1:0.45806444 2:0.022222222 3:-0.57142857 4:-0.64705882 5:-1 6:0.60225636 7:-0.85821357 8:-0.89946629 9:-0.94473468 10:0.7571935 11:0.68359995 12:0 13:-1 
10 1:0.125 2:-0.6 3:-0.52380952 4:-1 5:-1 6:0.24568963 7:-0.85185185 8:-0.67741935 9:-1 10:1 11:1 12:0 13:-0.97222222 
10 1:0.125 2:-0.6 3:-0.52380952 4:-1 5:-1 6:0.24568963 7:-0.85185185 8:-0.67741935 9:-1 10:1 11:1 12:0 13:-0.97222222 
10 1:0.125 2:-0.6 3:-0.52380952 4:-1 5:-1 6:0.24568963 7:-0.85185185 8:-0.67741935 9:-1 10:1 11:1 12:0 13:-0.97222222 
10 1:0.29999995 2:-0.95555556 3:-0.95238095 4:-1 5:-0.84615385 6:0.29922128 7:-0.85185185 8:-0.77419355 9:-0.83870968 10:0.25 11:0.76344097 12:0 13:-1 
10 1:0.29999995 2:-0.95555556 3:-0.95238095 4:-1 5:-0.84615385 6:0.29922128 7:-0.85185185 8:-0.77419355 9:-0.83870968 10:0.25 11:0.76344097 12:0 13:-1 
10 1:0.29999995 2:-0.95555556 3:-0.95238095 4:-1 5:-0.84615385 6:0.29922128 7:-0.85185185 8:-0.77419355 9:-0.83870968 10:0.25 11:0.76344097 12:0 13:-1 
10 1:0.29999995 2:-0.95555556 3:-0.95238095 4:-1 5:-0.84615385 6:0.29922128 7:-0.85185185 8:-0.77419355 9:-0.83870968 10:0.25 11:0.76344097 12:0 13:-1 
10 1:0.6664175 2:-0.83514559 3:-0.92969242 4:-0.96745842 5:-0.94799423 6:0.25729454 7:-0.88888889 8:-0.83870968 9:-0.93548387 10:0.7571935 11:0.77304745 12:0 13:-1 
10 1:0.43999994 2:-0.91111111 3:-0.95238095 4:-1 5:-0.84615385 6:1 7:-0.81481481 8:-1 9:-1 10:0.06666672 11:0.58089924 12:0 13:-1 
10 1:0.6664175 2:-0.83514559 3:-0.92969242 4:-0.96745842 5:-0.94799423 6:0.5172415 7:-0.87037037 8:-0.87096774 9:-0.90322581 10:0.7571935 11:0.7965894 12:0 13:-1 
10 1:0.6664175 2:-0.83514559 3:-0.92969242 4:-0.96745842 5:-0.94799423 6:0.7318008 7:-0.90740741 8:-0.96774194 9:-1 10:0.5813954 11:0.55438876 12:0 13:-1 
10 1:0.6664175 2:-0.83514559 3:-0.92969242 4:-0.96745842 5:-0.94799423 6:0.7318008 7:-0.90740741 8:-0.96774194 9:-1 10:0.61904764 11:0.59447014 12:0 13:-1 
10 1:0.6664175 2:-0.83514559 3:-0.92969242 4:-0.96745842 5:-0.94799423 6:0.7318008 7:-0.90740741 8:-0.96774194 9:-1 10:0.5813954 11:0.55438876 12:0 13:-1 
10 1:0.5578948 2:-0.73333333 3:-0.9047619 4:-0.94117647 5:-1 6:0.7318008 7:-0.90740741 8:-0.96774194 9:-1 10:0.5890411 11:0.58602166 12:0 13:-0.94444444 
10 1:0.74545443 2:-0.86666667 3:-0.95238095 4:-0.94117647 5:-1 6:0.8491379 7:-0.77777778 8:-0.96774194 9:-1 10:0.38461542 11:0.23963141 12:0 13:-1 
10 1:0.74545443 2:-0.86666667 3:-0.95238095 4:-0.94117647 5:-1 6:0.8491379 7:-0.77777778 8:-0.96774194 9:-1 10:0.38461542 11:0.23963141 12:0 13:-1 
7.913463555583882 1:0.74545443 2:-0.86666667 3:-0.95238095 4:-0.94117647 5:-1 6:0.8491379 7:-0.77777778 8:-0.96774194 9:-1 10:0.38461542 11:0.23963141 12:0 13:-1 
10 1:0.6664175 2:-0.83514559 3:-0.92969242 4:-0.96745842 5:-0.94799423 6:0.7318008 7:-0.90740741 8:-0.96774194 9:-1 10:0.64705884 11:0.62428856 12:0 13:-0.94444444 
10 1:0.6664175 2:-0.83514559 3:-0.92969242 4:-0.96745842 5:-0.94799423 6:0.7318008 7:-0.90740741 8:-0.96774194 9:-1 10:0.64705884 11:0.62428856 12:0 13:-0.94444444 
5.241220165087919 1:0.82500005 2:-0.42222222 3:-0.9047619 4:-1 5:-1 6:1 7:-0.7962963 8:-1 9:-1 10:0.037037015 11:-0.025089562 12:0 13:-0.97222222 
10 1:0.6664175 2:-0.83514559 3:-0.92969242 4:-0.96745842 5:-0.94799423 6:0.44297087 7:-0.87037037 8:-0.83870968 9:-0.87096774 10:0.7571935 11:0.79914796 12:0 13:-1 
10 1:0.6664175 2:-0.83514559 3:-0.92969242 4:-0.96745842 5:-0.94799423 6:0.44297087 7:-0.87037037 8:-0.83870968 9:-0.87096774 10:0.7571935 11:0.79914796 12:0 13:-1 
10 1:0.6664175 2:-0.83514559 3:-0.92969242 4:-0.96745842 5:-0.94799423 6:0.44297087 7:-0.87037037 8:-0.83870968 9:-0.87096774 10:0.7571935 11:0.6329256 12:0 13:-1 
10 1:0.43999994 2:-0.91111111 3:-0.95238095 4:-1 5:-0.84615385 6:0.60225636 7:-0.85821357 8:-0.89946629 9:-0.94473468 10:0.69696975 11:0.68359995 12:0 13:-0.97222222 
10 1:0.43999994 2:-0.91111111 3:-0.95238095 4:-1 5:-0.84615385 6:0.60225636 7:-0.85821357 8:-0.89946629 9:-0.94473468 10:0.69696975 11:0.68359995 12:0 13:-0.97222222 
10 1:0.43999994 2:-0.91111111 3:-0.95238095 4:-1 5:-0.84615385 6:0.60225636 7:-0.85821357 8:-0.89946629 9:-0.94473468 10:0.69696975 11:0.68359995 12:0 13:-0.97222222 
10 1:-0.12000001 2:-0.95555556 3:-0.85714286 4:-1 5:-0.84615385 6:1 7:-0.72222222 8:-1 9:-1 10:0.6 11:0.68359995 12:0 13:-1 
10 1:0.6888888 2:-0.91111111 3:-0.95238095 4:-0.94117647 5:-1 6:0.2653674 7:-0.90740741 8:-0.87096774 9:-0.96774194 10:0.71428573 11:1 12:0 13:-1 
10 1:0.6888888 2:-0.91111111 3:-0.95238095 4:-0.94117647 5:-1 6:0.2653674 7:-0.90740741 8:-0.87096774 9:-0.96774194 10:0.71428573 11:1 12:0 13:-1 
10 1:0.6664175 2:-0.83514559 3:-0.92969242 4:-0.96745842 5:-0.94799423 6:0.5172415 7:-0.90740741 8:-0.93548387 9:-1 10:0.7571935 11:1 12:0 13:-1 
10 1:0.29999995 2:-0.95555556 3:-0.95238095 4:-1 5:-0.84615385 6:0.034482837 7:-0.88888889 8:-0.74193548 9:-0.87096774 10:1 11:1 12:1 13:-0.88888889 
10 1:0.6664175 2:-0.83514559 3:-0.92969242 4:-0.96745842 5:-0.94799423 6:0.6982759 7:-0.92592593 8:-0.93548387 9:-0.93548387 10:0.84615386 11:0.8362284 12:0 13:-1 
10 1:0.6888888 2:-0.91111111 3:-0.95238095 4:-0.94117647 5:-1 6:0.8659003 7:-0.74074074 8:-0.96774194 9:-1 10:0.75 11:0.68359995 12:0 13:-1 
10 1:0.6888888 2:-0.91111111 3:-0.95238095 4:-0.94117647 5:-1 6:0.37931037 7:-0.81481481 8:-0.80645161 9:-0.90322581 10:0.64705884 11:0.68359995 12:0 13:-1 
10 1:0.06666672 2:-0.95555556 3:-0.9047619 4:-0.94117647 5:-0.84615385 6:0.4173603 7:-0.85185185 8:-0.83870968 9:-0.90322581 10:0.4193548 11:0.78709686 12:0 13:-1 
10 1:0.5333332 2:-0.86666667 3:-0.95238095 4:-1 5:-0.84615385 6:0.1310345 7:-0.90740741 8:-0.74193548 9:-0.77419355 10:0.826087 11:0.9313216 12:0 13:-1 
10 1:0.5999999 2:-0.82222222 3:-0.95238095 4:-1 5:-0.84615385 6:0.19540238 7:-0.94444444 8:-0.80645161 9:-1 10:1 11:1 12:0 13:-0.97222222 
10 1:0.6664175 2:-0.83514559 3:-0.92969242 4:-0.96745842 5:-0.94799423 6:-0.0057471395 7:-0.92592593 8:-0.67741935 9:-0.80645161 10:0.6 11:0.5741936 12:0 13:-1 
10 1:0.43999994 2:-0.91111111 3:-0.95238095 4:-1 5:-0.84615385 6:0.5172415 7:-0.90740741 8:-0.90322581 9:-0.93548387 10:0.6 11:0.9818033 12:0 13:-1 
10 1:0.3538462 2:-0.86666667 3:-0.9047619 4:-0.94117647 5:-1 6:0.44297087 7:-0.96296296 8:-0.93548387 9:-0.96774194 10:1 11:1 12:0 13:-0.97222222 
10 1:0.43999994 2:-0.91111111 3:-0.9047619 4:-1 5:-0.84615385 6:0.25729454 7:-0.88888889 8:-0.74193548 9:-1 10:0.53846157 11:0.562914 12:0 13:-0.97222222 
10 1:0.29999995 2:-0.95555556 3:-0.95238095 4:-1 5:-0.84615385 6:1 7:-0.85185185 8:-1 9:-1 10:-0.4285714 11:0.69585264 12:0 13:-1 
10 1:0.5333332 2:-0.86666667 3:-0.95238095 4:-1 5:-0.84615385 6:0.766407 7:-0.7962963 8:-0.93548387 9:-0.96774194 10:0.42857146 11:0.85146296 12:0 13:-1 
10 1:0.81333315 2:-0.46666667 3:-0.95238095 4:-1 5:-1 6:0.83908045 7:-0.7962963 8:-0.96774194 9:-1 10:0.939394 11:0.93548405 12:0 13:-1 
10 1:0.81333315 2:-0.46666667 3:-0.95238095 4:-1 5:-1 6:0.83908045 7:-0.7962963 8:-0.96774194 9:-1 10:0.939394 11:0.93548405 12:0 13:-1 
10 1:0.81333315 2:-0.46666667 3:-0.95238095 4:-1 5:-1 6:0.83908045 7:-0.7962963 8:-0.96774194 9:-1 10:0.939394 11:0.93548405 12:0 13:-1 
10 1:0.81333315 2:-0.46666667 3:-0.95238095 4:-1 5:-1 6:0.83908045 7:-0.7962963 8:-0.96774194 9:-1 10:0.939394 11:0.93548405 12:0 13:-1 
10 1:0.43999994 2:-0.91111111 3:-0.95238095 4:-1 5:-0.84615385 6:0.32413805 7:-0.88888889 8:-0.80645161 9:-0.83870968 10:0.73333335 11:1 12:1 13:-0.77777778 
10 1:0.43999994 2:-0.91111111 3:-0.95238095 4:-1 5:-0.84615385 6:0.36479127 7:-0.92592593 8:-0.90322581 9:-0.96774194 10:1 11:0.22822583 12:0 13:-1 
10 1:0.29999995 2:-0.95555556 3:-0.95238095 4:-1 5:-1 6:0.5530013 7:-0.85185185 8:-0.90322581 9:-0.96774194 10:0.73333335 11:0.70521104 12:0 13:-1 
10 1:0.29999995 2:-0.95555556 3:-0.95238095 4:-1 5:-0.84615385 6:-0.01223582 7:-0.88888889 8:-0.70967742 9:-0.96774194 10:0.33333337 11:0.9824047 12:0 13:-0.94444444 
