svm_type c_svc
kernel_type rbf
gamma 0.5
nr_class 2
total_sv 1166
rho -1.15132
label 1 -1
nr_sv 597 569
SV
10 1:0.82500005 2:0 3:0 4:-0.42222222 5:-0.95238095 6:-1 7:-1 8:-1 9:0.8491379 10:0 11:0 12:1 13:-0.77777778 14:-0.96774194 15:-1 16:1 17:0 18:1 19:1 20:0 21:1 22:0 23:-1 
0.5124271372472589 1:0.8319999 2:0 3:0 4:1 5:-0.85714286 6:-1 7:-0.84615385 8:-1 9:0.60225636 10:1 11:0 12:1 13:-0.85821357 14:-0.89946629 15:-0.94473468 16:0.7571935 17:1 18:0 19:0.68359995 20:1 21:0 22:1 23:-0.63888889 
10 1:0.06666672 2:0 3:0 4:-0.86666667 5:-0.85714286 6:-0.94117647 7:-1 8:-1 9:0.19540238 10:0 11:0 12:0 13:-0.96296296 14:-0.90322581 15:-0.96774194 16:0.97849464 17:0 18:0 19:0.9771073 20:0 21:0 22:0 23:-1 
10 1:0.43999994 2:0 3:0 4:-0.82222222 5:-0.9047619 6:-0.94117647 7:-1 8:-1 9:0.5172415 10:0 11:0 12:0 13:-0.94444444 14:-0.93548387 15:-0.96774194 16:0.95652175 17:0 18:0 19:0.95371675 20:0 21:0 22:0 23:-1 
10 1:0.6664175 2:1 3:0 4:-0.83514559 5:-0.92969242 6:-0.96745842 7:-0.94799423 8:-0.99717752 9:0.19540238 10:0 11:0 12:0 13:-0.90740741 14:-0.77419355 15:-1 16:0.7571935 17:1 18:0 19:1 20:0 21:1 22:1 23:-0.83333333 
10 1:0.43999994 2:0 3:0 4:-0.91111111 5:-0.9047619 6:-1 7:-1 8:-1 9:0.19540238 10:0 11:0 12:0 13:-0.90740741 14:-0.77419355 15:-0.93548387 16:1 17:0 18:1 19:1 20:0 21:1 22:0 23:-0.94444444 
10 1:0.6664175 2:1 3:0 4:-0.83514559 5:-0.92969242 6:-0.96745842 7:-0.94799423 8:-0.99717752 9:0.7318008 10:0 11:0 12:1 13:-0.90740741 14:-0.96774194 15:-1 16:0.7571935 17:1 18:0 19:0.73128724 20:0 21:0 22:0 23:-1 
10 1:0.6664175 2:1 3:0 4:-0.83514559 5:-0.92969242 6:-0.96745842 7:-0.94799423 8:-0.99717752 9:0.7318008 10:0 11:0 12:1 13:-0.90740741 14:-0.96774194 15:-1 16:0.7571935 17:1 18:0 19:1 20:0 21:1 22:0 23:-1 
10 1:0.6664175 2:1 3:0 4:-0.83514559 5:-0.92969242 6:-0.96745842 7:-0.94799423 8:-0.99717752 9:0.6982759 10:0 11:0 12:0 13:-0.7962963 14:-0.87096774 15:-0.87096774 16:0.7571935 17:1 18:0 19:0.68359995 20:1 21:0 22:0 23:-1 
10 1:0.6664175 2:1 3:0 4:-0.83514559 5:-0.92969242 6:-0.96745842 7:-0.94799423 8:-0.99717752 9:0.6982759 10:0 11:0 12:0 13:-0.7962963 14:-0.87096774 15:-0.87096774 16:0.7571935 17:1 18:0 19:0.68359995 20:1 21:0 22:0 23:-1 
10 1:0.3538462 2:0 3:0 4:0.022222222 5:-0.57142857 6:-0.94117647 7:-1 8:-1 9:0.60225636 10:1 11:0 12:1 13:-0.85821357 14:-0.89946629 15:-0.94473468 16:0.7571935 17:1 18:0 19:0.68359995 20:1 21:0 22:0 23:-1 
10 1:0.6664175 2:1 3:0 4:-0.83514559 5:-0.92969242 6:-0.96745842 7:-0.94799423 8:-0.99717752 9:0.81432366 10:0 11:0 12:0 13:-0.83333333 14:-0.96774194 15:-1 16:0.7571935 17:1 18:0 19:0.51741934 20:0 21:0 22:0 23:-1 
10 1:0.6664175 2:1 3:0 4:-0.83514559 5:-0.92969242 6:-0.96745842 7:-0.94799423 8:-0.99717752 9:0.81432366 10:0 11:0 12:0 13:-0.83333333 14:-0.96774194 15:-1 16:0.7571935 17:1 18:0 19:0.51741934 20:0 21:0 22:0 23:-1 
10 1:0.6664175 2:1 3:0 4:-0.83514559 5:-0.92969242 6:-0.96745842 7:-0.94799423 8:-0.99717752 9:0.5172415 10:0 11:0 12:0 13:-0.90740741 14:-0.93548387 15:-1 16:0.7571935 17:1 18:0 19:0.5891342 20:0 21:0 22:0 23:-1 
10 1:0.43999994 2:0 3:0 4:-0.91111111 5:-0.95238095 6:-1 7:-0.84615385 8:-1 9:0.8491379 10:0 11:0 12:1 13:-0.77777778 14:-0.96774194 15:-1 16:0.11111116 17:0 18:0 19:0.4145162 20:0 21:0 22:0 23:-0.97222222 
1.464412232277401 1:0.43999994 2:0 3:0 4:-0.91111111 5:-0.95238095 6:-1 7:-0.84615385 8:-1 9:-0.034482658 10:0 11:0 12:1 13:-0.94444444 14:-0.74193548 15:-0.77419355 16:0.7391304 17:0 18:0 19:0.67076826 20:0 21:0 22:0 23:-1 
10 1:0.6664175 2:1 3:0 4:-0.83514559 5:-0.92969242 6:-0.96745842 7:-0.94799423 8:-0.99717752 9:0.7318008 10:0 11:0 12:1 13:-0.90740741 14:-0.96774194 15:-1 16:0.7571935 17:1 18:0 19:0.51384306 20:0 21:0 22:0 23:-1 
10 1:0.43999994 2:0 3:0 4:-0.91111111 5:-0.95238095 6:-1 7:-0.84615385 8:-1 9:1 10:0 11:1 12:1 13:-0.72222222 14:-1 15:-1 16:0.2941177 17:0 18:0 19:0.35046482 20:0 21:0 22:0 23:-1 
10 1:0.6664175 2:1 3:0 4:-0.83514559 5:-0.92969242 6:-0.96745842 7:-0.94799423 8:-0.99717752 9:0.5611285 10:0 11:0 12:0 13:-0.88888889 14:-0.90322581 15:-0.93548387 16:0.7571935 17:1 18:0 19:0.6895163 20:0 21:0 22:0 23:-1 
10 1:0.6664175 2:1 3:0 4:-0.83514559 5:-0.92969242 6:-0.96745842 7:-0.94799423 8:-0.99717752 9:0.6982759 10:0 11:0 12:0 13:-0.92592593 14:-0.93548387 15:-0.93548387 16:0.7571935 17:1 18:0 19:0.8273759 20:0 21:0 22:0 23:-1 
10 1:0.29999995 2:0 3:0 4:-0.95555556 5:-0.95238095 6:-1 7:-1 8:-1 9:0.7805643 10:0 11:0 12:0 13:-0.77777778 14:-0.90322581 15:-0.90322581 16:1 17:0 18:1 19:1 20:0 21:1 22:0 23:-0.97222222 
10 1:0.29999995 2:0 3:0 4:-0.95555556 5:-0.95238095 6:-1 7:-1 8:-1 9:0.65517247 10:0 11:0 12:0 13:-0.83333333 14:-0.90322581 15:-0.93548387 16:1 17:0 18:1 19:1 20:0 21:1 22:0 23:-0.94444444 
0.8624000663136928 1:0.6888888 2:0 3:0 4:-0.91111111 5:-0.95238095 6:-0.94117647 7:-1 8:-1 9:1 10:0 11:1 12:1 13:-0.87037037 14:-1 15:-1 16:1 17:0 18:1 19:1 20:0 21:1 22:0 23:-0.97222222 
10 1:0.6664175 2:1 3:0 4:-0.83514559 5:-0.92969242 6:-0.96745842 7:-0.94799423 8:-0.99717752 9:0.65517247 10:0 11:0 12:0 13:-0.88888889 14:-0.90322581 15:-0.90322581 16:0.4375 17:0 18:0 19:0.4012097 20:0 21:0 22:0 23:-1 
7.409065853614625 1:0.6664175 2:1 3:0 4:-0.83514559 5:-0.92969242 6:-0.96745842 7:-0.94799423 8:-0.99717752 9:0.7805643 10:0 11:0 12:1 13:-0.87037037 14:-0.96774194 15:-1 16:0.7571935 17:1 18:0 19:1 20:0 21:1 22:0 23:-0.94444444 
10 1:0.6664175 2:1 3:0 4:-0.83514559 5:-0.92969242 6:-0.96745842 7:-0.94799423 8:-0.99717752 9:0.8491379 10:0 11:0 12:0 13:-0.77777778 14:-0.96774194 15:-1 16:0.7571935 17:1 18:0 19:0.68359995 20:1 21:0 22:0 23:-1 
10 1:0.6664175 2:1 3:0 4:-0.83514559 5:-0.92969242 6:-0.96745842 7:-0.94799423 8:-0.99717752 9:0.8491379 10:0 11:0 12:0 13:-0.77777778 14:-0.96774194 15:-1 16:0.7571935 17:1 18:0 19:0.68359995 20:1 21:0 22:0 23:-1 
10 1:0.6664175 2:1 3:0 4:-0.83514559 5:-0.92969242 6:-0.96745842 7:-0.94799423 8:-0.99717752 9:0.8491379 10:0 11:0 12:0 13:-0.77777778 14:-0.96774194 15:-1 16:0.7571935 17:1 18:0 19:0.68359995 20:1 21:0 22:0 23:-1 
10 1:0.6664175 2:1 3:0 4:-0.83514559 5:-0.92969242 6:-0.96745842 7:-0.94799423 8:-0.99717752 9:0.8491379 10:0 11:0 12:0 13:-0.77777778 14:-0.96774194 15:-1 16:0.7571935 17:1 18:0 19:0.68359995 20:1 21:0 22:0 23:-1 
10 1:0.6664175 2:1 3:0 4:-0.83514559 5:-0.92969242 6:-0.96745842 7:-0.94799423 8:-0.99717752 9:0.8491379 10:0 11:0 12:0 13:-0.77777778 14:-0.96774194 15:-1 16:0.7571935 17:1 18:0 19:0.68359995 20:1 21:0 22:0 23:-1 
10 1:0.6664175 2:1 3:0 4:-0.83514559 5:-0.92969242 6:-0.96745842 7:-0.94799423 8:-0.99717752 9:0.19540238 10:0 11:0 12:0 13:-0.90740741 14:-0.83870968 15:-0.93548387 16:0.7571935 17:1 18:0 19:1 20:0 21:1 22:0 23:-1 
10 1:0.27741933 2:0 3:0 4:-0.066666667 5:-0.42857143 6:-0.52941176 7:-1 8:-1 9:0.60225636 10:1 11:0 12:1 13:-0.85821357 14:-0.89946629 15:-0.94473468 16:0.7571935 17:1 18:0 19:0.68359995 20:1 21:0 22:0 23:-1 
4.655927249693284 1:0.43999994 2:0 3:0 4:-0.91111111 5:-0.95238095 6:-1 7:-0.84615385 8:-1 9:0.5977011 10:0 11:0 12:1 13:-0.87037037 14:-0.90322581 15:-0.93548387 16:1 17:0 18:1 19:1 20:0 21:1 22:1 23:-0.91666667 
10 1:0.82500005 2:0 3:0 4:-0.42222222 5:-0.95238095 6:-1 7:-1 8:-1 9:0.8491379 10:0 11:0 12:0 13:-0.77777778 14:-0.96774194 15:-1 16:1 17:0 18:1 19:1 20:0 21:1 22:1 23:-0.91666667 
10 1:0.6664175 2:1 3:0 4:-0.83514559 5:-0.92969242 6:-0.96745842 7:-0.94799423 8:-0.99717752 9:-0.09717864 10:0 11:0 12:0 13:-0.94444444 14:-0.67741935 15:-1 16:0.7571935 17:1 18:0 19:0.9900975 20:0 21:0 22:1 23:-0.88888889 
10 1:0.6664175 2:1 3:0 4:-0.83514559 5:-0.92969242 6:-0.96745842 7:-0.94799423 8:-0.99717752 9:0.7318008 10:0 11:0 12:0 13:-0.90740741 14:-0.93548387 15:-0.93548387 16:0.824 17:0 18:0 19:0.8126453 20:0 21:0 22:0 23:-0.97222222 
10 1:0.6664175 2:1 3:0 4:-0.83514559 5:-0.92969242 6:-0.96745842 7:-0.94799423 8:-0.99717752 9:0.1310345 10:0 11:0 12:0 13:-0.90740741 14:-0.80645161 15:-0.90322581 16:0.7571935 17:1 18:0 19:0.8442173 20:0 21:0 22:0 23:-1 
10 1:0.6664175 2:1 3:0 4:-0.83514559 5:-0.92969242 6:-0.96745842 7:-0.94799423 8:-0.99717752 9:0.89028215 10:0 11:0 12:0 13:-0.66666667 14:-0.96774194 15:-1 16:0.7571935 17:1 18:0 19:1 20:0 21:1 22:0 23:-0.97222222 
2.926301305595045 1:0.06666672 2:0 3:0 4:-0.95555556 5:-0.9047619 6:-0.94117647 7:-0.84615385 8:-1 9:1 10:0 11:1 12:1 13:-0.75925926 14:-1 15:-1 16:-0.125 17:0 18:0 19:0.4545455 20:0 21:0 22:0 23:-1 
10 1:0.29999995 2:0 3:0 4:-0.95555556 5:-0.95238095 6:-1 7:-1 8:-1 9:0.2653674 10:0 11:0 12:0 13:-0.90740741 14:-0.87096774 15:-0.96774194 16:0.17647064 17:0 18:0 19:0.056202173 20:0 21:0 22:0 23:-1 
2.457102600879498 1:0.06666672 2:0 3:0 4:-0.95555556 5:-0.9047619 6:-0.94117647 7:-0.84615385 8:-1 9:0.43204868 10:0 11:0 12:1 13:-0.81481481 14:-0.87096774 15:-1 16:0.6774193 17:0 18:0 19:-0.4516129 20:0 21:0 22:0 23:-1 
10 1:0.6664175 2:1 3:0 4:-0.83514559 5:-0.92969242 6:-0.96745842 7:-0.94799423 8:-0.99717752 9:0.8659003 10:0 11:0 12:0 13:-0.74074074 14:-0.96774194 15:-1 16:0.7571935 17:1 18:0 19:0.9090158 20:0 21:0 22:0 23:-1 
10 1:0.6664175 2:1 3:0 4:-0.83514559 5:-0.92969242 6:-0.96745842 7:-0.94799423 8:-0.99717752 9:0.39655173 10:0 11:0 12:0 13:-0.88888889 14:-0.80645161 15:-0.93548387 16:1 17:0 18:1 19:1 20:0 21:1 22:0 23:-0.97222222 
10 1:0.6664175 2:1 3:0 4:-0.83514559 5:-0.92969242 6:-0.96745842 7:-0.94799423 8:-0.99717752 9:0.39655173 10:0 11:0 12:0 13:-0.88888889 14:-0.80645161 15:-0.93548387 16:1 17:0 18:1 19:1 20:0 21:1 22:0 23:-0.97222222 
10 1:0.6664175 2:1 3:0 4:-0.83514559 5:-0.92969242 6:-0.96745842 7:-0.94799423 8:-0.99717752 9:0.39655173 10:0 11:0 12:0 13:-0.88888889 14:-0.80645161 15:-0.93548387 16:1 17:0 18:1 19:1 20:0 21:1 22:0 23:-1 
10 1:0.6664175 2:1 3:0 4:-0.83514559 5:-0.92969242 6:-0.96745842 7:-0.94799423 8:-0.99717752 9:0.4173603 10:0 11:0 12:0 13:-0.85185185 14:-0.77419355 15:-0.90322581 16:1 17:0 18:1 19:1 20:0 21:1 22:0 23:-1 
10 1:0.6664175 2:1 3:0 4:-0.83514559 5:-0.92969242 6:-0.96745842 7:-0.94799423 8:-0.99717752 9:0.4173603 10:0 11:0 12:0 13:-0.85185185 14:-0.77419355 15:-0.90322581 16:1 17:0 18:1 19:1 20:0 21:1 22:0 23:-1 
10 1:0.6664175 2:1 3:0 4:-0.83514559 5:-0.92969242 6:-0.96745842 7:-0.94799423 8:-0.99717752 9:0.8729583 10:0 11:0 12:0 13:-0.72222222 14:-0.93548387 15:-0.93548387 16:0.7571935 17:1 18:0 19:1 20:0 21:1 22:1 23:-0.88888889 
10 1:0.6664175 2:1 3:0 4:-0.83514559 5:-0.92969242 6:-0.96745842 7:-0.94799423 8:-0.99717752 9:0.7502973 10:0 11:0 12:0 13:-0.81481481 14:-0.90322581 15:-0.90322581 16:1 17:0 18:1 19:1 20:0 21:1 22:0 23:-1 
1.102566897920093 1:0.6664175 2:1 3:0 4:-0.83514559 5:-0.92969242 6:-0.96745842 7:-0.94799423 8:-0.99717752 9:0.7318008 10:0 11:0 12:1 13:-0.90740741 14:-0.96774194 15:-1 16:1 17:0 18:1 19:1 20:0 21:1 22:0 23:-0.97222222 
10 1:0.6664175 2:1 3:0 4:-0.83514559 5:-0.92969242 6:-0.96745842 7:-0.94799423 8:-0.99717752 9:0.7586206 10:0 11:0 12:0 13:-0.88888889 14:-0.93548387 15:-0.93548387 16:1 17:0 18:1 19:1 20:0 21:1 22:0 23:-1 
10 1:0.6664175 2:1 3:0 4:-0.83514559 5:-0.92969242 6:-0.96745842 7:-0.94799423 8:-0.99717752 9:0.7586206 10:0 11:0 12:0 13:-0.88888889 14:-0.93548387 15:-0.93548387 16:1 17:0 18:1 19:1 20:0 21:1 22:0 23:-1 
10 1:0.6664175 2:1 3:0 4:-0.83514559 5:-0.92969242 6:-0.96745842 7:-0.94799423 8:-0.99717752 9:0.7586206 10:0 11:0 12:0 13:-0.88888889 14:-0.93548387 15:-0.93548387 16:0.7571935 17:1 18:0 19:1 20:0 21:1 22:0 23:-1 
10 1:0.6664175 2:1 3:0 4:-0.83514559 5:-0.92969242 6:-0.96745842 7:-0.94799423 8:-0.99717752 9:0.6982759 10:0 11:0 12:0 13:-0.92592593 14:-0.93548387 15:-0.93548387 16:1 17:0 18:1 19:1 20:0 21:1 22:0 23:-1 
10 1:0.6664175 2:1 3:0 4:-0.83514559 5:-0.92969242 6:-0.96745842 7:-0.94799423 8:-0.99717752 9:0.6982759 10:0 11:0 12:0 13:-0.92592593 14:-0.93548387 15:-0.93548387 16:1 17:0 18:1 19:1 20:0 21:1 22:0 23:-1 
2.621274065941446 1:0.6664175 2:1 3:0 4:-0.83514559 5:-0.92969242 6:-0.96745842 7:-0.94799423 8:-0.99717752 9:0.81432366 10:0 11:0 12:1 13:-0.83333333 14:-0.93548387 15:-0.93548387 16:0.7571935 17:1 18:0 19:0.68359995 20:1 21:0 22:0 23:-1 
10 1:0.6664175 2:1 3:0 4:-0.83514559 5:-0.92969242 6:-0.96745842 7:-0.94799423 8:-0.99717752 9:0.65517247 10:0 11:0 12:0 13:-0.94444444 14:-0.93548387 15:-0.93548387 16:1 17:0 18:1 19:1 20:0 21:1 22:0 23:-1 
10 1:0.6664175 2:1 3:0 4:-0.83514559 5:-0.92969242 6:-0.96745842 7:-0.94799423 8:-0.99717752 9:0.65517247 10:0 11:0 12:0 13:-0.94444444 14:-0.96774194 15:-1 16:0.7571935 17:1 18:0 19:1 20:0 21:1 22:1 23:-0.86111111 
10 1:0.6664175 2:1 3:0 4:-0.83514559 5:-0.92969242 6:-0.96745842 7:-0.94799423 8:-0.99717752 9:0.1434927 10:0 11:0 12:0 13:-0.87037037 14:-0.74193548 15:-0.83870968 16:0.7571935 17:1 18:0 19:1 20:0 21:1 22:1 23:-0.88888889 
10 1:0.6888888 2:0 3:0 4:-0.91111111 5:-0.95238095 6:-0.94117647 7:-1 8:-1 9:0.8580122 10:0 11:0 12:1 13:-0.90740741 14:-0.96774194 15:-0.96774194 16:1 17:0 18:1 19:1 20:0 21:1 22:0 23:-0.94444444 
10 1:0.6888888 2:0 3:0 4:-0.91111111 5:-0.95238095 6:-0.94117647 7:-1 8:-1 9:0.8580122 10:0 11:0 12:1 13:-0.90740741 14:-0.96774194 15:-0.96774194 16:1 17:0 18:1 19:1 20:0 21:1 22:0 23:-0.97222222 
10 1:0.06666672 2:0 3:0 4:-0.95555556 5:-0.9047619 6:-0.94117647 7:-0.84615385 8:-1 9:0.0844233 10:0 11:0 12:0 13:-0.88888889 14:-0.77419355 15:-0.90322581 16:0.5555556 17:0 18:0 19:1 20:0 21:1 22:0 23:-1 
5.092216526335057 1:0.6664175 2:1 3:0 4:-0.83514559 5:-0.92969242 6:-0.96745842 7:-0.94799423 8:-0.99717752 9:0.39655173 10:0 11:0 12:1 13:-0.94444444 14:-0.87096774 15:-0.87096774 16:0.7571935 17:1 18:0 19:0.6282643 20:0 21:0 22:0 23:-1 
10 1:0.6664175 2:1 3:0 4:-0.83514559 5:-0.92969242 6:-0.96745842 7:-0.94799423 8:-0.99717752 9:0.7318008 10:0 11:0 12:0 13:-0.90740741 14:-0.96774194 15:-1 16:0.7571935 17:1 18:0 19:0.5852535 20:0 21:0 22:0 23:-0.97222222 
0.3286534990831815 1:0.43999994 2:0 3:0 4:-0.91111111 5:-0.95238095 6:-1 7:-0.84615385 8:-1 9:0.36479127 10:0 11:0 12:1 13:-0.92592593 14:-0.87096774 15:-0.90322581 16:-0.125 17:0 18:0 19:0.07196045 20:0 21:0 22:1 23:-0.88888889 
10 1:0.06666672 2:0 3:0 4:-0.066666667 5:-0.14285714 6:-0.70588235 7:-1 8:-1 9:0.60225636 10:1 11:0 12:1 13:-0.85821357 14:-0.89946629 15:-0.94473468 16:0.7571935 17:1 18:0 19:0.68359995 20:1 21:0 22:0 23:-1 
10 1:0.17647064 2:0 3:0 4:-0.022222222 5:-0.23809524 6:-0.76470588 7:-1 8:-1 9:0.60225636 10:1 11:0 12:1 13:-0.85821357 14:-0.89946629 15:-0.94473468 16:0.7571935 17:1 18:0 19:0.68359995 20:1 21:0 22:0 23:-1 
10 1:0.6664175 2:1 3:0 4:-0.83514559 5:-0.92969242 6:-0.96745842 7:-0.94799423 8:-0.99717752 9:0.7805643 10:0 11:0 12:0 13:-0.87037037 14:-0.93548387 15:-0.93548387 16:1 17:0 18:1 19:1 20:0 21:1 22:0 23:-1 
10 1:0.6664175 2:1 3:0 4:-0.83514559 5:-0.92969242 6:-0.96745842 7:-0.94799423 8:-0.99717752 9:0.7805643 10:0 11:0 12:0 13:-0.87037037 14:-0.93548387 15:-0.93548387 16:1 17:0 18:1 19:1 20:0 21:1 22:0 23:-1 
10 1:0.6664175 2:1 3:0 4:-0.83514559 5:-0.92969242 6:-0.96745842 7:-0.94799423 8:-0.99717752 9:0.7805643 10:0 11:0 12:0 13:-0.87037037 14:-0.93548387 15:-0.93548387 16:1 17:0 18:1 19:1 20:0 21:1 22:0 23:-1 
10 1:0.6664175 2:1 3:0 4:-0.83514559 5:-0.92969242 6:-0.96745842 7:-0.94799423 8:-0.99717752 9:0.7805643 10:0 11:0 12:0 13:-0.87037037 14:-0.93548387 15:-0.93548387 16:1 17:0 18:1 19:1 20:0 21:1 22:0 23:-1 
10 1:0.6664175 2:1 3:0 4:-0.83514559 5:-0.92969242 6:-0.96745842 7:-0.94799423 8:-0.99717752 9:0.7805643 10:0 11:0 12:0 13:-0.87037037 14:-0.93548387 15:-0.93548387 16:1 17:0 18:1 19:1 20:0 21:1 22:0 23:-1 
1.931983108884715 1:0.43999994 2:0 3:0 4:-0.91111111 5:-0.95238095 6:-1 7:-0.84615385 8:-1 9:1 10:0 11:1 12:1 13:-0.92592593 14:-1 15:-1 16:1 17:0 18:1 19:0.5741936 20:0 21:0 22:0 23:-0.97222222 
10 1:0.6664175 2:1 3:0 4:-0.83514559 5:-0.92969242 6:-0.96745842 7:-0.94799423 8:-0.99717752 9:0.44297087 10:0 11:0 12:0 13:-0.87037037 14:-0.80645161 15:-0.93548387 16:0.7571935 17:1 18:0 19:1 20:0 21:1 22:0 23:-1 
2.05820741554058 1:0.6888888 2:0 3:0 4:-0.91111111 5:-0.95238095 6:-0.94117647 7:-1 8:-1 9:0.5172415 10:0 11:0 12:0 13:-0.90740741 14:-0.87096774 15:-0.93548387 16:1 17:0 18:1 19:0.08755767 20:0 21:0 22:0 23:-1 
0.9129182602901975 1:0.43999994 2:0 3:0 4:-0.91111111 5:-0.95238095 6:-1 7:-0.84615385 8:-1 9:1 10:0 11:1 12:1 13:-0.75925926 14:-1 15:-1 16:0.3714286 17:0 18:0 19:0.47545588 20:0 21:0 22:0 23:-0.97222222 
2.404497055399131 1:0.6664175 2:1 3:0 4:-0.83514559 5:-0.92969242 6:-0.96745842 7:-0.94799423 8:-0.99717752 9:0.7318008 10:0 11:0 12:1 13:-0.90740741 14:-0.96774194 15:-1 16:0.8125 17:0 18:0 19:0.80040336 20:0 21:0 22:0 23:-1 
10 1:0.29999995 2:0 3:0 4:-0.95555556 5:-0.95238095 6:-1 7:-0.84615385 8:-1 9:0.7318008 10:0 11:0 12:0 13:-0.90740741 14:-0.96774194 15:-1 16:1 17:0 18:1 19:1 20:0 21:1 22:0 23:-1 
10 1:0.5999999 2:0 3:0 4:-0.95555556 5:-0.95238095 6:-0.94117647 7:-1 8:-1 9:0.35632193 10:0 11:0 12:0 13:-0.85185185 14:-0.80645161 15:-0.93548387 16:-0.4285714 17:0 18:0 19:-0.09493083 20:0 21:0 22:0 23:-1 
1.314001290432982 1:0.6664175 2:1 3:0 4:-0.83514559 5:-0.92969242 6:-0.96745842 7:-0.94799423 8:-0.99717752 9:-0.28735638 10:0 11:0 12:0 13:-0.92592593 14:-0.5483871 15:-1 16:1 17:0 18:1 19:0.68359995 20:1 21:0 22:0 23:-0.94444444 
10 1:0.6664175 2:1 3:0 4:-0.83514559 5:-0.92969242 6:-0.96745842 7:-0.94799423 8:-0.99717752 9:0.79885066 10:0 11:0 12:0 13:-0.85185185 14:-0.93548387 15:-0.93548387 16:0.7571935 17:1 18:0 19:0.8102844 20:0 21:0 22:0 23:-1 
10 1:0.6664175 2:1 3:0 4:-0.83514559 5:-0.92969242 6:-0.96745842 7:-0.94799423 8:-0.99717752 9:-0.06206894 10:0 11:0 12:0 13:-0.92592593 14:-0.64516129 15:-0.77419355 16:0.7571935 17:1 18:0 19:0.5502045 20:0 21:0 22:0 23:-0.94444444 
10 1:0.47500002 2:0 3:0 4:-0.51111111 5:-0.76190476 6:-0.76470588 7:-1 8:-1 9:0.5474138 10:0 11:0 12:0 13:-0.81481481 14:-0.83870968 15:-0.87096774 16:0.42465758 17:0 18:0 19:0.3875388 20:0 21:0 22:0 23:-1 
5.956269874621263 1:0.6664175 2:1 3:0 4:-0.83514559 5:-0.92969242 6:-0.96745842 7:-0.94799423 8:-0.99717752 9:-0.12643671 10:0 11:0 12:0 13:-0.90740741 14:-0.61290323 15:-1 16:0.7777778 17:0 18:0 19:0.3301922 20:0 21:0 22:0 23:-0.94444444 
10 1:0.43999994 2:0 3:0 4:-0.91111111 5:-0.95238095 6:-1 7:-1 8:-1 9:1 10:0 11:1 12:1 13:-0.83333333 14:-1 15:-1 16:0.53846157 17:0 18:0 19:0.58792937 20:0 21:0 22:0 23:-1 
10 1:0.43999994 2:0 3:0 4:-0.91111111 5:-0.95238095 6:-1 7:-0.84615385 8:-1 9:0.5977011 10:0 11:0 12:1 13:-0.87037037 14:-0.90322581 15:-0.93548387 16:0.939394 17:0 18:0 19:0.9622067 20:0 21:0 22:0 23:-0.94444444 
10 1:0.6664175 2:1 3:0 4:-0.83514559 5:-0.92969242 6:-0.96745842 7:-0.94799423 8:-0.99717752 9:0.6286472 10:0 11:0 12:0 13:-0.85185185 14:-0.93548387 15:-1 16:0.7571935 17:1 18:0 19:0.6101773 20:0 21:0 22:0 23:-1 
10 1:0.06666672 2:0 3:0 4:-0.95555556 5:-0.9047619 6:-0.94117647 7:-0.69230769 8:-1 9:0.39655173 10:0 11:0 12:0 13:-0.88888889 14:-0.83870968 15:-1 16:1 17:0 18:1 19:1 20:0 21:1 22:0 23:-1 
10 1:0.6664175 2:1 3:0 4:-0.83514559 5:-0.92969242 6:-0.96745842 7:-0.94799423 8:-0.99717752 9:0.19540238 10:0 11:0 12:1 13:-0.90740741 14:-0.77419355 15:-0.80645161 16:0.7571935 17:1 18:0 19:0.8362284 20:0 21:0 22:0 23:-1 
10 1:0.6888888 2:0 3:0 4:-0.91111111 5:-0.95238095 6:-0.94117647 7:-1 8:-1 9:0.5172415 10:0 11:0 12:0 13:-0.83333333 14:-0.90322581 15:-1 16:0.5 17:0 18:0 19:0.79127145 20:0 21:0 22:0 23:-1 
10 1:0.6664175 2:1 3:0 4:-0.83514559 5:-0.92969242 6:-0.96745842 7:-0.94799423 8:-0.99717752 9:0.81432366 10:0 11:0 12:0 13:-0.83333333 14:-0.93548387 15:-0.93548387 16:0.8125 17:0 18:0 19:0.80040336 20:0 21:0 22:0 23:-0.97222222 
10 1:0.6664175 2:1 3:0 4:-0.83514559 5:-0.92969242 6:-0.96745842 7:-0.94799423 8:-0.99717752 9:0.39655173 10:0 11:0 12:0 13:-0.88888889 14:-0.80645161 15:-0.93548387 16:1 17:0 18:1 19:1 20:0 21:1 22:0 23:-0.97222222 
10 1:0.29999995 2:0 3:0 4:-0.95555556 5:-0.95238095 6:-1 7:-0.84615385 8:-1 9:0.19540238 10:0 11:0 12:1 13:-0.92592593 14:-0.83870968 15:-0.90322581 16:0.4666667 17:0 18:0 19:0.9495492 20:0 21:0 22:0 23:-0.94444444 
10 1:0.43999994 2:0 3:0 4:-0.91111111 5:-0.95238095 6:-1 7:-0.84615385 8:-1 9:0.9221356 10:0 11:0 12:0 13:-0.77777778 14:-0.96774194 15:-0.96774194 16:1 17:0 18:1 19:0.6315137 20:0 21:0 22:0 23:-0.94444444 
7.495879148684008 1:0.6888888 2:0 3:0 4:-0.91111111 5:-0.95238095 6:-0.94117647 7:-1 8:-1 9:0.61067843 10:0 11:0 12:0 13:-0.81481481 14:-0.87096774 15:-0.96774194 16:1 17:0 18:1 19:0.68359995 20:1 21:0 22:0 23:-1 
10 1:0.6664175 2:1 3:0 4:-0.83514559 5:-0.92969242 6:-0.96745842 7:-0.94799423 8:-0.99717752 9:0.7318008 10:0 11:0 12:0 13:-0.90740741 14:-0.96774194 15:-1 16:1 17:0 18:1 19:1 20:0 21:1 22:0 23:-0.94444444 
10 1:0.6664175 2:1 3:0 4:-0.83514559 5:-0.92969242 6:-0.96745842 7:-0.94799423 8:-0.99717752 9:0.7318008 10:0 11:0 12:0 13:-0.90740741 14:-0.96774194 15:-1 16:1 17:0 18:1 19:1 20:0 21:1 22:0 23:-0.94444444 
4.665305594731127 1:0.06666672 2:0 3:0 4:-0.91111111 5:-0.80952381 6:-0.76470588 7:-0.84615385 8:-1 9:0.42528737 10:0 11:0 12:0 13:-0.75925926 14:-0.67741935 15:-0.67741935 16:1 17:0 18:1 19:1 20:0 21:1 22:0 23:-1 
10 1:0.6664175 2:1 3:0 4:-0.83514559 5:-0.92969242 6:-0.96745842 7:-0.94799423 8:-0.99717752 9:0.7805643 10:0 11:0 12:0 13:-0.87037037 14:-0.96774194 15:-1 16:1 17:0 18:1 19:1 20:0 21:1 22:0 23:-1 
10 1:0.43999994 2:0 3:0 4:-0.91111111 5:-0.95238095 6:-1 7:-0.84615385 8:-1 9:0.60225636 10:1 11:0 12:1 13:-0.85821357 14:-0.89946629 15:-0.94473468 16:0.945946 17:0 18:0 19:0.68359995 20:1 21:0 22:0 23:-1 
10 1:0.6664175 2:1 3:0 4:-0.83514559 5:-0.92969242 6:-0.96745842 7:-0.94799423 8:-0.99717752 9:0.25729454 10:0 11:0 12:0 13:-0.88888889 14:-0.74193548 15:-0.87096774 16:0.7571935 17:1 18:0 19:1 20:0 21:0 22:0 23:-0.94444444 
10 1:0.6664175 2:1 3:0 4:-0.83514559 5:-0.92969242 6:-0.96745842 7:-0.94799423 8:-0.99717752 9:0.32413805 10:0 11:0 12:0 13:-0.88888889 14:-0.77419355 15:-0.90322581 16:0.7571935 17:1 18:0 19:1 20:0 21:1 22:0 23:-0.97222222 
10 1:0.6664175 2:1 3:0 4:-0.83514559 5:-0.92969242 6:-0.96745842 7:-0.94799423 8:-0.99717752 9:0.32413805 10:0 11:0 12:0 13:-0.88888889 14:-0.77419355 15:-0.90322581 16:0.7571935 17:1 18:0 19:1 20:0 21:1 22:0 23:-0.97222222 
10 1:0.6664175 2:1 3:0 4:-0.83514559 5:-0.92969242 6:-0.96745842 7:-0.94799423 8:-0.99717752 9:0.32413805 10:0 11:0 12:0 13:-0.88888889 14:-0.77419355 15:-0.90322581 16:0.7571935 17:1 18:0 19:1 20:0 21:1 22:0 23:-0.97222222 
10 1:0.6664175 2:1 3:0 4:-0.83514559 5:-0.92969242 6:-0.96745842 7:-0.94799423 8:-0.99717752 9:0.7586206 10:0 11:0 12:0 13:-0.88888889 14:-0.93548387 15:-0.93548387 16:0.7571935 17:1 18:0 19:0.8830203 20:0 21:0 22:0 23:-1 
1.276788875323904 1:0.6664175 2:1 3:0 4:-0.83514559 5:-0.92969242 6:-0.96745842 7:-0.94799423 8:-0.99717752 9:0.7318008 10:0 11:0 12:1 13:-0.90740741 14:-0.96774194 15:-1 16:0.7571935 17:1 18:0 19:0.78709686 20:0 21:0 22:0 23:-1 
10 1:0.6664175 2:1 3:0 4:-0.83514559 5:-0.92969242 6:-0.96745842 7:-0.94799423 8:-0.99717752 9:0.79885066 10:0 11:0 12:0 13:-0.85185185 14:-0.96774194 15:-1 16:0.7571935 17:1 18:0 19:0.9174794 20:0 21:0 22:0 23:-0.97222222 
10 1:0.29999995 2:0 3:0 4:-0.95555556 5:-0.95238095 6:-1 7:-0.84615385 8:-1 9:0.2508918 10:0 11:0 12:0 13:-0.87037037 14:-0.83870968 15:-0.96774194 16:1 17:0 18:1 19:1 20:0 21:1 22:0 23:-1 
10 1:0.29999995 2:0 3:0 4:-0.95555556 5:-0.95238095 6:-1 7:-0.84615385 8:-1 9:0.2508918 10:0 11:0 12:0 13:-0.87037037 14:-0.83870968 15:-0.96774194 16:1 17:0 18:1 19:1 20:0 21:1 22:0 23:-0.97222222 
10 1:0.7199999 2:0 3:0 4:-0.68888889 5:-0.95238095 6:-1 7:-0.076923077 8:-1 9:0.7805643 10:0 11:0 12:0 13:-0.87037037 14:-0.96774194 15:-1 16:0.7571935 17:1 18:0 19:0.68359995 20:1 21:0 22:0 23:-1 
10 1:0.7199999 2:0 3:0 4:-0.68888889 5:-0.95238095 6:-1 7:-0.076923077 8:-1 9:0.7805643 10:0 11:0 12:0 13:-0.87037037 14:-0.96774194 15:-1 16:0.7571935 17:1 18:0 19:0.68359995 20:1 21:0 22:0 23:-1 
10 1:0.29999995 2:0 3:0 4:-0.95555556 5:-0.95238095 6:-1 7:-0.84615385 8:-1 9:0.5474138 10:0 11:0 12:1 13:-0.81481481 14:-0.87096774 15:-0.93548387 16:1 17:0 18:1 19:1 20:0 21:1 22:0 23:-1 
5.847460561243222 1:0.43999994 2:0 3:0 4:-0.91111111 5:-0.95238095 6:-1 7:-0.84615385 8:-1 9:0.83908045 10:0 11:0 12:1 13:-0.92592593 14:-0.96774194 15:-0.96774194 16:0.84615386 17:0 18:0 19:0.35411394 20:0 21:0 22:0 23:-0.97222222 
10 1:0.6664175 2:1 3:0 4:-0.83514559 5:-0.92969242 6:-0.96745842 7:-0.94799423 8:-0.99717752 9:0.79885066 10:0 11:0 12:0 13:-0.85185185 14:-0.96774194 15:-1 16:0.7571935 17:1 18:0 19:0.508685 20:0 21:0 22:0 23:-1 
2.321877145791237 1:-0.4933334 2:0 3:0 4:-0.77777778 5:-0.42857143 6:-1 7:-0.69230769 8:-1 9:-0.17595041 10:0 11:0 12:0 13:-0.87037037 14:-0.58064516 15:-0.96774194 16:0.7571935 17:1 18:0 19:1 20:0 21:1 22:0 23:-0.94444444 
1.663749933365665 1:0.81333315 2:0 3:0 4:-0.46666667 5:-0.95238095 6:-1 7:-0.84615385 8:-1 9:0.93810785 10:0 11:0 12:0 13:-0.7037037 14:-0.96774194 15:-0.96774194 16:0.7571935 17:1 18:0 19:1 20:0 21:1 22:1 23:-0.91666667 
10 1:0.6664175 2:1 3:0 4:-0.83514559 5:-0.92969242 6:-0.96745842 7:-0.94799423 8:-0.99717752 9:0.7103448 10:0 11:0 12:0 13:-0.85185185 14:-0.93548387 15:-0.96774194 16:0.7571935 17:1 18:0 19:0.68588054 20:0 21:0 22:0 23:-1 
4.026195898830911 1:0.29999995 2:0 3:0 4:-0.95555556 5:-0.95238095 6:-1 7:-0.84615385 8:-1 9:0.7805643 10:0 11:0 12:1 13:-0.87037037 14:-0.96774194 15:-1 16:1 17:0 18:1 19:1 20:0 21:1 22:0 23:-0.97222222 
10 1:0.5999999 2:0 3:0 4:-0.82222222 5:-0.95238095 6:-1 7:-1 8:-1 9:0.65517247 10:0 11:0 12:0 13:-0.94444444 14:-0.96774194 15:-1 16:0.54838705 17:0 18:0 19:0.58792937 20:0 21:0 22:0 23:-1 
0.3649726522293783 1:0.43999994 2:0 3:0 4:-0.91111111 5:-0.95238095 6:-1 7:-0.84615385 8:-1 9:0.42528737 10:0 11:0 12:1 13:-0.90740741 14:-0.87096774 15:-0.90322581 16:0.20000005 17:0 18:0 19:0.9824047 20:0 21:0 22:0 23:-0.97222222 
10 1:0.6664175 2:1 3:0 4:-0.83514559 5:-0.92969242 6:-0.96745842 7:-0.94799423 8:-0.99717752 9:0.6982759 10:0 11:0 12:0 13:-0.7962963 14:-0.90322581 15:-0.93548387 16:0.7571935 17:1 18:0 19:0.49023175 20:0 21:0 22:0 23:-1 
10 1:0.6664175 2:1 3:0 4:-0.83514559 5:-0.92969242 6:-0.96745842 7:-0.94799423 8:-0.99717752 9:0.7318008 10:0 11:0 12:1 13:-0.75925926 14:-0.93548387 15:-1 16:0.7571935 17:1 18:0 19:0.9313216 20:0 21:0 22:0 23:-1 
10 1:0.6664175 2:1 3:0 4:-0.83514559 5:-0.92969242 6:-0.96745842 7:-0.94799423 8:-0.99717752 9:0.25729454 10:0 11:0 12:0 13:-0.88888889 14:-0.74193548 15:-0.87096774 16:1 17:0 18:1 19:1 20:0 21:1 22:1 23:-0.83333333 
10 1:0.29999995 2:0 3:0 4:-0.95555556 5:-0.95238095 6:-1 7:-0.84615385 8:-1 9:0.65517247 10:0 11:0 12:1 13:-0.77777778 14:-0.87096774 15:-0.96774194 16:0.33333337 17:0 18:0 19:0.24731195 20:0 21:0 22:0 23:-1 
10 1:0.6664175 2:1 3:0 4:-0.83514559 5:-0.92969242 6:-0.96745842 7:-0.94799423 8:-0.99717752 9:0.5977011 10:0 11:0 12:0 13:-0.87037037 14:-0.93548387 15:-1 16:1 17:0 18:1 19:1 20:0 21:1 22:0 23:-0.97222222 
5.384237482074152 1:0.5333332 2:0 3:0 4:-0.86666667 5:-0.95238095 6:-1 7:-0.84615385 8:-1 9:0.83908045 10:0 11:0 12:1 13:-0.7962963 14:-0.96774194 15:-1 16:1 17:0 18:1 19:0.68359995 20:1 21:0 22:0 23:-0.97222222 
10 1:0.29999995 2:0 3:0 4:-0.95555556 5:-0.95238095 6:-1 7:-0.84615385 8:-1 9:0.37931037 10:0 11:0 12:0 13:-0.81481481 14:-0.83870968 15:-0.96774194 16:1 17:0 18:1 19:0.95048773 20:0 21:0 22:0 23:-0.97222222 
10 1:0.29999995 2:0 3:0 4:-0.95555556 5:-0.95238095 6:-1 7:-0.84615385 8:-1 9:0.37931037 10:0 11:0 12:0 13:-0.81481481 14:-0.83870968 15:-0.96774194 16:1 17:0 18:1 19:0.95048773 20:0 21:0 22:0 23:-0.97222222 
0.2916084806855148 1:0.3538462 2:0 3:0 4:-0.64444444 5:-0.76190476 6:-0.76470588 7:-1 8:-1 9:0.5474138 10:0 11:0 12:0 13:-0.81481481 14:-0.83870968 15:-0.87096774 16:1 17:0 18:1 19:0.5741936 20:0 21:0 22:1 23:-0.88888889 
10 1:0.5999999 2:0 3:0 4:-0.95555556 5:-0.95238095 6:-0.94117647 7:-1 8:-1 9:0.6188748 10:0 11:0 12:1 13:-0.90740741 14:-0.93548387 15:-0.96774194 16:0.76 17:0 18:0 19:0.67918694 20:0 21:0 22:0 23:-1 
10 1:0.5999999 2:0 3:0 4:-0.95555556 5:-0.95238095 6:-0.94117647 7:-1 8:-1 9:0.6188748 10:0 11:0 12:1 13:-0.90740741 14:-0.93548387 15:-0.96774194 16:0.76 17:0 18:0 19:0.67918694 20:0 21:0 22:0 23:-1 
0.1098778674491278 1:0.6664175 2:1 3:0 4:-0.83514559 5:-0.92969242 6:-0.96745842 7:-0.94799423 8:-0.99717752 9:0.6342739 10:0 11:0 12:0 13:-0.7962963 14:-0.83870968 15:-0.83870968 16:0.7571935 17:1 18:0 19:0.7108723 20:0 21:0 22:0 23:-1 
7.844861342302941 1:0.29999995 2:0 3:0 4:-0.95555556 5:-0.95238095 6:-1 7:-0.84615385 8:-1 9:0.7103448 10:0 11:0 12:1 13:-0.85185185 14:-0.93548387 15:-0.96774194 16:0.9130435 17:0 18:0 19:1 20:0 21:1 22:0 23:-1 
0.1151868406480431 1:0.6664175 2:1 3:0 4:-0.83514559 5:-0.92969242 6:-0.96745842 7:-0.94799423 8:-0.99717752 9:0.5530013 10:0 11:0 12:0 13:-0.85185185 14:-0.83870968 15:-0.83870968 16:0.40350878 17:0 18:0 19:0.36502552 20:0 21:0 22:0 23:-1 
10 1:0.6664175 2:1 3:0 4:-0.83514559 5:-0.92969242 6:-0.96745842 7:-0.94799423 8:-0.99717752 9:0.5530013 10:0 11:0 12:0 13:-0.85185185 14:-0.83870968 15:-0.83870968 16:0.17647064 17:0 18:0 19:0.12333977 20:0 21:0 22:0 23:-1 
10 1:0.29999995 2:0 3:0 4:-0.95555556 5:-0.95238095 6:-1 7:-0.84615385 8:-1 9:1 10:0 11:1 12:1 13:-0.81481481 14:-1 15:-1 16:0.4736842 17:0 18:0 19:0.49905133 20:0 21:0 22:0 23:-1 
10 1:0.29999995 2:0 3:0 4:-0.95555556 5:-0.95238095 6:-1 7:-0.84615385 8:-1 9:1 10:0 11:1 12:1 13:-0.81481481 14:-1 15:-1 16:0.4736842 17:0 18:0 19:0.49905133 20:0 21:0 22:0 23:-1 
10 1:0.29999995 2:0 3:0 4:-0.95555556 5:-0.9047619 6:-1 7:-0.84615385 8:-1 9:0.31034493 10:0 11:0 12:0 13:-0.87037037 14:-0.87096774 15:-1 16:0.945946 17:0 18:0 19:0.68359995 20:1 21:0 22:0 23:-1 
10 1:0.6664175 2:1 3:0 4:-0.83514559 5:-0.92969242 6:-0.96745842 7:-0.94799423 8:-0.99717752 9:-0.07279688 10:0 11:0 12:0 13:-0.87037037 14:-0.58064516 15:-0.74193548 16:0.7571935 17:1 18:0 19:0.26090598 20:0 21:0 22:0 23:-1 
2.989794443765498 1:0.74545443 2:0 3:0 4:-0.86666667 5:-0.95238095 6:-0.94117647 7:-1 8:-1 9:0.4636016 10:0 11:0 12:1 13:-0.92592593 14:-0.90322581 15:-0.93548387 16:0.68421054 17:0 18:0 19:0.68359995 20:1 21:0 22:0 23:-1 
10 1:0.6664175 2:1 3:0 4:-0.83514559 5:-0.92969242 6:-0.96745842 7:-0.94799423 8:-0.99717752 9:0.7805643 10:0 11:0 12:0 13:-0.87037037 14:-0.96774194 15:-1 16:0.7571935 17:1 18:0 19:0.7851436 20:0 21:0 22:0 23:-1 
10 1:0.4666667 2:0 3:0 4:0.42222222 5:-0.52380952 6:-0.76470588 7:-1 8:-1 9:0.60225636 10:1 11:0 12:1 13:-0.85821357 14:-0.89946629 15:-0.94473468 16:0.7571935 17:1 18:0 19:0.68359995 20:1 21:0 22:0 23:-1 
10 1:0.33333337 2:0 3:0 4:-0.73333333 5:-0.80952381 6:-0.82352941 7:-1 8:-1 9:0.48275864 10:0 11:0 12:0 13:-0.85185185 14:-0.80645161 15:-1 16:0.88235295 17:0 18:0 19:0.61786616 20:0 21:0 22:0 23:-0.97222222 
10 1:0.6664175 2:1 3:0 4:-0.83514559 5:-0.92969242 6:-0.96745842 7:-0.94799423 8:-0.99717752 9:0.12225699 10:0 11:0 12:1 13:-0.92592593 14:-0.77419355 15:-0.80645161 16:0.7571935 17:1 18:0 19:0.7325338 20:0 21:0 22:0 23:-0.96676908 
10 1:0.6664175 2:1 3:0 4:-0.83514559 5:-0.92969242 6:-0.96745842 7:-0.94799423 8:-0.99717752 9:0.81432366 10:0 11:0 12:0 13:-0.83333333 14:-0.96774194 15:-1 16:0.7571935 17:1 18:0 19:0.687345 20:0 21:0 22:0 23:-0.97222222 
10 1:0.5333332 2:0 3:0 4:-0.86666667 5:-0.95238095 6:-1 7:-1 8:-1 9:1 10:0 11:1 12:1 13:-0.90740741 14:-1 15:-1 16:0.23076928 17:0 18:0 19:0.98010266 20:0 21:0 22:0 23:-1 
10 1:0.6664175 2:1 3:0 4:-0.83514559 5:-0.92969242 6:-0.96745842 7:-0.94799423 8:-0.99717752 9:0.39655173 10:0 11:0 12:0 13:-0.94444444 14:-0.90322581 15:-0.93548387 16:0.60919535 17:0 18:0 19:0.5839822 20:0 21:0 22:0 23:-0.94444444 
10 1:0.6664175 2:1 3:0 4:-0.83514559 5:-0.92969242 6:-0.96745842 7:-0.94799423 8:-0.99717752 9:0.7502973 10:0 11:0 12:0 13:-0.81481481 14:-0.93548387 15:-0.96774194 16:0.7571935 17:1 18:0 19:0.855659 20:0 21:0 22:0 23:-1 
10 1:0.6664175 2:1 3:0 4:-0.83514559 5:-0.92969242 6:-0.96745842 7:-0.94799423 8:-0.99717752 9:0.8275862 10:0 11:0 12:0 13:-0.81481481 14:-0.96774194 15:-1 16:0.7571935 17:1 18:0 19:1 20:0 21:1 22:0 23:-0.97222222 
10 1:0.6664175 2:1 3:0 4:-0.83514559 5:-0.92969242 6:-0.96745842 7:-0.94799423 8:-0.99717752 9:0.7318008 10:0 11:0 12:0 13:-0.90740741 14:-0.96774194 15:-1 16:0.7571935 17:1 18:0 19:0.9074335 20:0 21:0 22:0 23:-1 
10 1:0.6664175 2:1 3:0 4:-0.83514559 5:-0.92969242 6:-0.96745842 7:-0.94799423 8:-0.99717752 9:0.36479127 10:0 11:0 12:0 13:-0.7962963 14:-0.67741935 15:-0.80645161 16:0.7571935 17:1 18:0 19:1 20:0 21:1 22:0 23:-1 
10 1:0.43999994 2:0 3:0 4:-0.91111111 5:-0.95238095 6:-1 7:-0.84615385 8:-1 9:0.60225636 10:1 11:0 12:1 13:-0.85821357 14:-0.89946629 15:-0.94473468 16:0.7391304 17:0 18:0 19:0.68359995 20:1 21:0 22:0 23:-0.96676908 
10 1:0.43999994 2:0 3:0 4:-0.91111111 5:-0.95238095 6:-1 7:-0.84615385 8:-1 9:0.60225636 10:1 11:0 12:1 13:-0.85821357 14:-0.89946629 15:-0.94473468 16:0.7391304 17:0 18:0 19:0.68359995 20:1 21:0 22:0 23:-0.96676908 
10 1:0.6664175 2:1 3:0 4:-0.83514559 5:-0.92969242 6:-0.96745842 7:-0.94799423 8:-0.99717752 9:0.8275862 10:0 11:0 12:0 13:-0.81481481 14:-0.96774194 15:-1 16:1 17:0 18:1 19:1 20:0 21:1 22:1 23:-0.88888889 
10 1:0.6664175 2:1 3:0 4:-0.83514559 5:-0.92969242 6:-0.96745842 7:-0.94799423 8:-0.99717752 9:0.19540238 10:0 11:0 12:0 13:-0.87037037 14:-0.67741935 15:-0.80645161 16:1 17:0 18:1 19:1 20:0 21:1 22:0 23:-1 
4.484054422829159 1:0.5333332 2:0 3:0 4:-0.86666667 5:-0.95238095 6:-1 7:-0.84615385 8:-1 9:1 10:0 11:1 12:1 13:-0.7962963 14:-1 15:-1 16:-0.04000002 17:0 18:0 19:-0.19758058 20:0 21:0 22:0 23:-1 
10 1:0.06666672 2:0 3:0 4:-0.95555556 5:-0.9047619 6:-0.94117647 7:-0.84615385 8:-1 9:1 10:0 11:1 12:1 13:-0.88888889 14:-1 15:-1 16:1 17:0 18:1 19:0.7161292 20:0 21:0 22:0 23:-1 
10 1:0.6664175 2:1 3:0 4:-0.83514559 5:-0.92969242 6:-0.96745842 7:-0.94799423 8:-0.99717752 9:0.39655173 10:0 11:0 12:0 13:-0.94444444 14:-0.93548387 15:-1 16:1 17:0 18:1 19:1 20:0 21:1 22:0 23:-0.94444444 
10 1:0.6664175 2:1 3:0 4:-0.83514559 5:-0.92969242 6:-0.96745842 7:-0.94799423 8:-0.99717752 9:0.39655173 10:0 11:0 12:0 13:-0.94444444 14:-0.93548387 15:-1 16:1 17:0 18:1 19:1 20:0 21:1 22:0 23:-0.97222222 
2.828553289160987 1:-0.40000004 2:0 3:0 4:-0.91111111 5:-0.61904762 6:-1 7:-1 8:-1 9:0.60225636 10:1 11:0 12:1 13:-0.85821357 14:-0.89946629 15:-0.94473468 16:0.8666667 17:0 18:0 19:0.68359995 20:1 21:0 22:0 23:-0.96676908 
10 1:0.29999995 2:0 3:0 4:-0.95555556 5:-0.95238095 6:-1 7:-0.84615385 8:-1 9:0.65517247 10:0 11:0 12:1 13:-0.83333333 14:-0.93548387 15:-1 16:1 17:0 18:1 19:1 20:0 21:1 22:0 23:-1 
10 1:0.6664175 2:1 3:0 4:-0.83514559 5:-0.92969242 6:-0.96745842 7:-0.94799423 8:-0.99717752 9:0.6286472 10:0 11:0 12:0 13:-0.85185185 14:-0.93548387 15:-1 16:1 17:0 18:1 19:1 20:0 21:1 22:0 23:-1 
10 1:0.125 2:0 3:0 4:-0.6 5:-0.52380952 6:-1 7:-1 8:-1 9:0.24568963 10:0 11:0 12:0 13:-0.85185185 14:-0.67741935 15:-1 16:1 17:0 18:1 19:1 20:0 21:1 22:0 23:-0.97222222 
10 1:0.29999995 2:0 3:0 4:-0.95555556 5:-0.95238095 6:-1 7:-0.84615385 8:-1 9:0.29922128 10:0 11:0 12:0 13:-0.85185185 14:-0.77419355 15:-0.83870968 16:0.25 17:0 18:0 19:0.76344097 20:0 21:0 22:0 23:-1 
10 1:0.29999995 2:0 3:0 4:-0.95555556 5:-0.95238095 6:-1 7:-0.84615385 8:-1 9:0.29922128 10:0 11:0 12:0 13:-0.85185185 14:-0.77419355 15:-0.83870968 16:0.25 17:0 18:0 19:0.76344097 20:0 21:0 22:0 23:-1 
10 1:0.43999994 2:0 3:0 4:-0.91111111 5:-0.95238095 6:-1 7:-0.84615385 8:-1 9:0.83908045 10:0 11:0 12:1 13:-0.92592593 14:-0.96774194 15:-0.96774194 16:0.71428573 17:0 18:0 19:0.7278682 20:0 21:0 22:0 23:-1 
10 1:0.6888888 2:0 3:0 4:-0.91111111 5:-0.95238095 6:-0.94117647 7:-1 8:-1 9:0.2653674 10:0 11:0 12:0 13:-0.90740741 14:-0.87096774 15:-0.96774194 16:0.71428573 17:0 18:0 19:1 20:0 21:1 22:0 23:-1 
10 1:0.06666672 2:0 3:0 4:-0.95555556 5:-0.9047619 6:-0.94117647 7:-0.84615385 8:-1 9:0.4173603 10:0 11:0 12:0 13:-0.85185185 14:-0.83870968 15:-0.90322581 16:0.4193548 17:0 18:0 19:0.78709686 20:0 21:0 22:0 23:-1 
2.228795755305778 1:0.6664175 2:1 3:0 4:-0.83514559 5:-0.92969242 6:-0.96745842 7:-0.94799423 8:-0.99717752 9:0.39655173 10:0 11:0 12:0 13:-0.77777778 14:-0.67741935 15:-1 16:1 17:0 18:1 19:0.63049865 20:0 21:0 22:0 23:-0.94444444 
10 1:0.3538462 2:0 3:0 4:-0.86666667 5:-0.9047619 6:-0.94117647 7:-1 8:-1 9:0.44297087 10:0 11:0 12:0 13:-0.96296296 14:-0.93548387 15:-0.96774194 16:1 17:0 18:1 19:1 20:0 21:1 22:0 23:-0.97222222 
10 1:0.43999994 2:0 3:0 4:-0.91111111 5:-0.9047619 6:-1 7:-0.84615385 8:-1 9:0.25729454 10:0 11:0 12:0 13:-0.88888889 14:-0.74193548 15:-1 16:0.53846157 17:0 18:0 19:0.562914 20:0 21:0 22:0 23:-0.97222222 
10 1:0.43999994 2:0 3:0 4:-0.91111111 5:-0.95238095 6:-1 7:-0.84615385 8:-1 9:1 10:0 11:1 12:1 13:-0.83333333 14:-1 15:-1 16:0.1428572 17:0 18:0 19:0.5677905 20:0 21:0 22:0 23:-0.97222222 
10 1:0.81333315 2:0 3:0 4:-0.46666667 5:-0.95238095 6:-1 7:-1 8:-1 9:0.83908045 10:0 11:0 12:1 13:-0.7962963 14:-0.96774194 15:-1 16:0.939394 17:0 18:0 19:0.93548405 20:0 21:0 22:0 23:-1 
10 1:0.81333315 2:0 3:0 4:-0.46666667 5:-0.95238095 6:-1 7:-1 8:-1 9:0.83908045 10:0 11:0 12:1 13:-0.7962963 14:-0.96774194 15:-1 16:0.939394 17:0 18:0 19:0.93548405 20:0 21:0 22:0 23:-1 
10 1:0.29999995 2:0 3:0 4:-0.95555556 5:-0.95238095 6:-1 7:-1 8:-1 9:0.5530013 10:0 11:0 12:0 13:-0.85185185 14:-0.90322581 15:-0.96774194 16:0.73333335 17:0 18:0 19:0.70521104 20:0 21:0 22:0 23:-1 
10 1:0.6664175 2:1 3:0 4:-0.83514559 5:-0.92969242 6:-0.96745842 7:-0.94799423 8:-0.99717752 9:0.6781609 10:0 11:0 12:0 13:-0.81481481 14:-0.90322581 15:-0.93548387 16:0.6140351 17:0 18:0 19:0.5891342 20:0 21:0 22:0 23:-0.97222222 
0.138014575559769 1:1 2:0 3:1 4:-0.91111111 5:-1 6:-1 7:-1 8:-1 9:0.81432366 10:0 11:0 12:1 13:-0.83333333 14:-0.96774194 15:-1 16:-0.71428573 17:0 18:0 19:0.7140107 20:0 21:0 22:0 23:-0.97222222 
10 1:0.29999995 2:0 3:0 4:-0.95555556 5:-0.95238095 6:-1 7:-0.84615385 8:-1 9:0.48275864 10:0 11:0 12:1 13:-0.85185185 14:-0.83870968 15:-0.87096774 16:1 17:0 18:1 19:-0.17463845 20:0 21:0 22:0 23:-1 
10 1:0.6664175 2:1 3:0 4:-0.83514559 5:-0.92969242 6:-0.96745842 7:-0.94799423 8:-0.99717752 9:0.7586206 10:0 11:0 12:0 13:-0.88888889 14:-0.96774194 15:-1 16:0.7571935 17:1 18:0 19:0.7270472 20:0 21:0 22:0 23:-0.97222222 
6.049612834478823 1:0.8599998 2:0 3:0 4:-0.24444444 5:-0.95238095 6:-1 7:-1 8:-1 9:0.87931037 10:0 11:0 12:1 13:-0.7037037 14:-0.96774194 15:-1 16:0.75757575 17:0 18:0 19:0.7419356 20:0 21:0 22:0 23:-0.97222222 
10 1:0.43999994 2:0 3:0 4:-0.91111111 5:-0.95238095 6:-1 7:-1 8:-1 9:0.39655173 10:0 11:0 12:0 13:-0.88888889 14:-0.87096774 15:-0.93548387 16:1 17:0 18:1 19:1 20:0 21:1 22:1 23:-0.91666667 
0.343387552861758 1:0.6888888 2:0 3:0 4:-0.91111111 5:-0.95238095 6:-0.94117647 7:-1 8:-1 9:0.9221356 10:0 11:0 12:0 13:-0.77777778 14:-0.96774194 15:-0.96774194 16:0.71428573 17:0 18:0 19:0.68359995 20:1 21:0 22:0 23:-1 
0.5914107561266129 1:0.6888888 2:0 3:0 4:-0.91111111 5:-0.95238095 6:-0.94117647 7:-1 8:-1 9:0.13793099 10:0 11:0 12:0 13:-0.88888889 14:-0.80645161 15:-1 16:1 17:0 18:1 19:0.39170516 20:0 21:0 22:0 23:-1 
10 1:0.6664175 2:1 3:0 4:-0.83514559 5:-0.92969242 6:-0.96745842 7:-0.94799423 8:-0.99717752 9:0.32413805 10:0 11:0 12:0 13:-0.88888889 14:-0.77419355 15:-0.90322581 16:0.9473684 17:0 18:0 19:0.94397295 20:0 21:0 22:0 23:-0.94444444 
10 1:0.6664175 2:1 3:0 4:-0.83514559 5:-0.92969242 6:-0.96745842 7:-0.94799423 8:-0.99717752 9:0.81432366 10:0 11:0 12:0 13:-0.83333333 14:-0.96774194 15:-1 16:0.5909091 17:0 18:0 19:0.5645162 20:0 21:0 22:1 23:-0.88888889 
10 1:0.6664175 2:1 3:0 4:-0.83514559 5:-0.92969242 6:-0.96745842 7:-0.94799423 8:-0.99717752 9:0.7805643 10:0 11:0 12:0 13:-0.87037037 14:-0.93548387 15:-0.93548387 16:0.7882353 17:0 18:0 19:0.7745732 20:0 21:0 22:1 23:-0.91666667 
10 1:0.6888888 2:0 3:0 4:-0.91111111 5:-0.95238095 6:-0.94117647 7:-1 8:-1 9:0.5172415 10:0 11:0 12:1 13:-0.90740741 14:-0.90322581 15:-0.93548387 16:0.6 17:0 18:0 19:0.5741936 20:0 21:0 22:0 23:-1 
10 1:0.5441859 2:0 3:0 4:-0.28888889 5:-0.76190476 6:-0.82352941 7:-1 8:-1 9:0.60225636 10:1 11:0 12:1 13:-0.85821357 14:-0.89946629 15:-0.94473468 16:0.7571935 17:1 18:0 19:0.68359995 20:1 21:0 22:0 23:-1 
10 1:0.06666672 2:0 3:0 4:-0.95555556 5:-0.9047619 6:-0.94117647 7:-1 8:-1 9:0.2758621 10:0 11:0 12:1 13:-0.92592593 14:-0.87096774 15:-0.93548387 16:1 17:0 18:1 19:1 20:0 21:1 22:0 23:-1 
10 1:0.6664175 2:1 3:0 4:-0.83514559 5:-0.92969242 6:-0.96745842 7:-0.94799423 8:-0.99717752 9:0.4752624 10:0 11:0 12:0 13:-0.88888889 14:-0.83870968 15:-0.83870968 16:0.7571935 17:1 18:0 19:0.85976446 20:0 21:0 22:0 23:-0.97222222 
10 1:0.6664175 2:1 3:0 4:-0.83514559 5:-0.92969242 6:-0.96745842 7:-0.94799423 8:-0.99717752 9:0.5172415 10:0 11:0 12:0 13:-0.90740741 14:-0.90322581 15:-0.93548387 16:0.7571935 17:1 18:0 19:1 20:0 21:0 22:1 23:-0.91666667 
4.46548009191934 1:0.6664175 2:1 3:0 4:-0.83514559 5:-0.92969242 6:-0.96745842 7:-0.94799423 8:-0.99717752 9:0.19540238 10:0 11:0 12:1 13:-0.87037037 14:-0.74193548 15:-0.80645161 16:0.7571935 17:1 18:0 19:1 20:0 21:1 22:0 23:-1 
10 1:0.3538462 2:0 3:0 4:-0.86666667 5:-0.85714286 6:-0.82352941 7:-0.69230769 8:-1 9:0.5977011 10:0 11:0 12:0 13:-0.77777778 14:-0.80645161 15:-0.80645161 16:-0.09677422 17:0 18:0 19:0.472 20:0 21:0 22:0 23:-0.94444444 
10 1:0.6664175 2:1 3:0 4:-0.83514559 5:-0.92969242 6:-0.96745842 7:-0.94799423 8:-0.99717752 9:0.79885066 10:0 11:0 12:0 13:-0.85185185 14:-0.96774194 15:-1 16:0.8636364 17:0 18:0 19:0.85483885 20:0 21:0 22:0 23:-0.97222222 
10 1:0.6664175 2:1 3:0 4:-0.83514559 5:-0.92969242 6:-0.96745842 7:-0.94799423 8:-0.99717752 9:0.38251805 10:0 11:0 12:0 13:-0.75925926 14:-0.80645161 15:-0.96774194 16:0.7571935 17:1 18:0 19:0.8935485 20:0 21:0 22:0 23:-1 
7.808512741987859 1:0.43999994 2:0 3:0 4:-0.91111111 5:-0.95238095 6:-1 7:-0.84615385 8:-1 9:0.19540238 10:0 11:0 12:1 13:-0.88888889 14:-0.74193548 15:-0.77419355 16:-0.12195122 17:0 18:0 19:-0.4020456 20:0 21:0 22:0 23:-0.97222222 
10 1:0.6664175 2:1 3:0 4:-0.83514559 5:-0.92969242 6:-0.96745842 7:-0.94799423 8:-0.99717752 9:0.92685485 10:0 11:0 12:0 13:-0.75925926 14:-0.96774194 15:-0.96774194 16:0.38775516 17:0 18:0 19:0.34825552 20:0 21:0 22:0 23:-1 
10 1:0.8444444 2:0 3:0 4:-0.33333333 5:-0.9047619 6:-0.88235294 7:-1 8:-1 9:0.8659003 10:0 11:0 12:0 13:-0.74074074 14:-0.93548387 15:-0.93548387 16:0.8876405 17:0 18:0 19:0.9032259 20:0 21:0 22:0 23:-1 
0.6384759250433817 1:0.6664175 2:1 3:0 4:-0.83514559 5:-0.92969242 6:-0.96745842 7:-0.94799423 8:-0.99717752 9:0.36479127 10:0 11:0 12:0 13:-0.7962963 14:-0.67741935 15:-0.80645161 16:0.7571935 17:1 18:0 19:0.7223002 20:0 21:0 22:0 23:-1 
10 1:0.29999995 2:0 3:0 4:-0.95555556 5:-0.95238095 6:-1 7:-0.84615385 8:-1 9:1 10:0 11:1 12:1 13:-0.7962963 14:-1 15:-1 16:0.5652174 17:0 18:0 19:0.5741936 20:0 21:0 22:0 23:-1 
10 1:0.6664175 2:1 3:0 4:-0.83514559 5:-0.92969242 6:-0.96745842 7:-0.94799423 8:-0.99717752 9:0.7586206 10:0 11:0 12:0 13:-0.88888889 14:-0.93548387 15:-0.93548387 16:0.7571935 17:1 18:0 19:0.81135166 20:0 21:0 22:0 23:-1 
10 1:0.06666672 2:0 3:0 4:-0.91111111 5:-0.9047619 6:-1 7:-1 8:-1 9:1 10:0 11:1 12:1 13:-0.7962963 14:-1 15:-1 16:0.53846157 17:0 18:0 19:0.61786616 20:0 21:0 22:0 23:-1 
10 1:0.6664175 2:1 3:0 4:-0.83514559 5:-0.92969242 6:-0.96745842 7:-0.94799423 8:-0.99717752 9:0.8491379 10:0 11:0 12:0 13:-0.77777778 14:-0.96774194 15:-1 16:0.7571935 17:1 18:0 19:0.97305036 20:0 21:0 22:0 23:-1 
10 1:0.6664175 2:1 3:0 4:-0.83514559 5:-0.92969242 6:-0.96745842 7:-0.94799423 8:-0.99717752 9:0.81432366 10:0 11:0 12:0 13:-0.83333333 14:-0.96774194 15:-1 16:0.97849464 17:0 18:0 19:0.9771073 20:0 21:0 22:0 23:-1 
9.424997923060895 1:0.5333332 2:0 3:0 4:-0.86666667 5:-0.95238095 6:-1 7:-1 8:-1 9:0.8491379 10:0 11:0 12:1 13:-0.77777778 14:-0.96774194 15:-1 16:1 17:0 18:1 19:1 20:0 21:1 22:0 23:-1 
10 1:0.5333332 2:0 3:0 4:-0.86666667 5:-0.95238095 6:-1 7:-1 8:-1 9:0.8491379 10:0 11:0 12:1 13:-0.77777778 14:-0.96774194 15:-1 16:1 17:0 18:1 19:1 20:0 21:1 22:0 23:-1 
10 1:0.6664175 2:1 3:0 4:-0.83514559 5:-0.92969242 6:-0.96745842 7:-0.94799423 8:-0.99717752 9:-0.20689654 10:0 11:0 12:0 13:-0.92592593 14:-0.61290323 15:-1 16:1 17:0 18:1 19:1 20:0 21:1 22:1 23:-0.88888889 
10 1:0.29999995 2:0 3:0 4:-0.95555556 5:-0.95238095 6:-1 7:-0.84615385 8:-1 9:0.32413805 10:0 11:0 12:0 13:-0.88888889 14:-0.87096774 15:-0.96774194 16:1 17:0 18:1 19:1 20:0 21:1 22:0 23:-1 
10 1:0.29999995 2:0 3:0 4:-0.95555556 5:-0.95238095 6:-1 7:-0.84615385 8:-1 9:0.32413805 10:0 11:0 12:0 13:-0.88888889 14:-0.87096774 15:-0.96774194 16:1 17:0 18:1 19:1 20:0 21:1 22:0 23:-1 
10 1:0.6664175 2:1 3:0 4:-0.83514559 5:-0.92969242 6:-0.96745842 7:-0.94799423 8:-0.99717752 9:0.5611285 10:0 11:0 12:0 13:-0.88888889 14:-0.87096774 15:-0.87096774 16:0.7571935 17:1 18:0 19:1 20:0 21:1 22:0 23:-0.97222222 
4.323783479874537 1:0.6664175 2:1 3:0 4:-0.83514559 5:-0.92969242 6:-0.96745842 7:-0.94799423 8:-0.99717752 9:0.5474138 10:0 11:0 12:1 13:-0.81481481 14:-0.80645161 15:-0.80645161 16:0.7571935 17:1 18:0 19:1 20:0 21:1 22:1 23:-0.91666667 
10 1:0.6888888 2:0 3:0 4:-0.91111111 5:-0.95238095 6:-0.94117647 7:-1 8:-1 9:0.37420177 10:0 11:0 12:0 13:-0.87037037 14:-0.87096774 15:-0.96774194 16:1 17:0 18:1 19:0.15351737 20:0 21:0 22:0 23:-1 
10 1:0.6664175 2:1 3:0 4:-0.83514559 5:-0.92969242 6:-0.96745842 7:-0.94799423 8:-0.99717752 9:0.8659003 10:0 11:0 12:0 13:-0.74074074 14:-0.93548387 15:-0.93548387 16:0.7571935 17:1 18:0 19:0.8467097 20:0 21:0 22:0 23:-1 
10 1:0.23636365 2:0 3:0 4:-0.91111111 5:-0.9047619 6:-0.94117647 7:-1 8:-1 9:1 10:0 11:1 12:1 13:-0.85185185 14:-1 15:-1 16:0.79999995 17:0 18:0 19:0.79914796 20:0 21:0 22:0 23:-0.94444444 
10 1:0.29999995 2:0 3:0 4:-0.95555556 5:-0.95238095 6:-1 7:-0.84615385 8:-1 9:0.8580122 10:0 11:0 12:1 13:-0.90740741 14:-0.96774194 15:-0.96774194 16:0.12000001 17:0 18:0 19:0.6542598 20:0 21:0 22:0 23:-1 
10 1:0.6664175 2:1 3:0 4:-0.83514559 5:-0.92969242 6:-0.96745842 7:-0.94799423 8:-0.99717752 9:-0.13590252 10:0 11:0 12:0 13:-0.88888889 14:-0.5483871 15:-0.74193548 16:0.7571935 17:1 18:0 19:1 20:0 21:1 22:1 23:-0.91666667 
10 1:0.06666672 2:0 3:0 4:-0.95555556 5:-0.9047619 6:-0.94117647 7:-1 8:-1 9:1 10:0 11:1 12:1 13:-0.74074074 14:-1 15:-1 16:0.42857146 17:0 18:0 19:0.47957003 20:0 21:0 22:0 23:-1 
10 1:0.06666672 2:0 3:0 4:-0.95555556 5:-0.9047619 6:-0.94117647 7:-1 8:-1 9:1 10:0 11:1 12:1 13:-0.72222222 14:-1 15:-1 16:0.42857146 17:0 18:0 19:0.47957003 20:0 21:0 22:0 23:-1 
10 1:0.6664175 2:1 3:0 4:-0.83514559 5:-0.92969242 6:-0.96745842 7:-0.94799423 8:-0.99717752 9:0.7586206 10:0 11:0 12:0 13:-0.72222222 14:-0.93548387 15:-1 16:0.7571935 17:1 18:0 19:0.9749527 20:0 21:0 22:0 23:-0.97222222 
10 1:0.29999995 2:0 3:0 4:-0.95555556 5:-0.95238095 6:-1 7:-0.84615385 8:-1 9:0.19540238 10:0 11:0 12:0 13:-0.92592593 14:-0.80645161 15:-0.90322581 16:0.79999995 17:0 18:0 19:0.9074335 20:0 21:0 22:0 23:-1 
3.288392800182247 1:-0.19999999 2:0 3:0 4:-0.82222222 5:-0.61904762 6:-0.94117647 7:-1 8:-1 9:0.7805643 10:0 11:0 12:1 13:-0.87037037 14:-0.96774194 15:-1 16:1 17:0 18:1 19:0.98210907 20:0 21:0 22:0 23:-0.94444444 
10 1:0.6664175 2:1 3:0 4:-0.83514559 5:-0.92969242 6:-0.96745842 7:-0.94799423 8:-0.99717752 9:0.5611285 10:0 11:0 12:0 13:-0.88888889 14:-0.87096774 15:-0.87096774 16:0.7571935 17:1 18:0 19:0.98210907 20:0 21:0 22:0 23:-1 
10 1:0.6664175 2:1 3:0 4:-0.83514559 5:-0.92969242 6:-0.96745842 7:-0.94799423 8:-0.99717752 9:0.81432366 10:0 11:0 12:0 13:-0.83333333 14:-0.93548387 15:-0.93548387 16:0.85915494 17:0 18:0 19:0.8500682 20:0 21:0 22:0 23:-1 
10 1:0.6664175 2:1 3:0 4:-0.83514559 5:-0.92969242 6:-0.96745842 7:-0.94799423 8:-0.99717752 9:0.81432366 10:0 11:0 12:0 13:-0.83333333 14:-0.93548387 15:-0.93548387 16:0.85915494 17:0 18:0 19:0.8500682 20:0 21:0 22:0 23:-1 
0.1745734185872498 1:0.43999994 2:0 3:0 4:-0.91111111 5:-0.95238095 6:-1 7:-0.84615385 8:-1 9:0.8275862 10:0 11:0 12:1 13:-0.81481481 14:-0.96774194 15:-1 16:0.945946 17:0 18:0 19:0.68359995 20:1 21:0 22:0 23:-0.97222222 
9.279557630977706 1:0.6664175 2:1 3:0 4:-0.83514559 5:-0.92969242 6:-0.96745842 7:-0.94799423 8:-0.99717752 9:0.7318008 10:0 11:0 12:1 13:-0.90740741 14:-0.93548387 15:-0.93548387 16:1 17:0 18:1 19:1 20:0 21:1 22:1 23:-0.91666667 
10 1:0.6664175 2:1 3:0 4:-0.83514559 5:-0.92969242 6:-0.96745842 7:-0.94799423 8:-0.99717752 9:0.6982759 10:0 11:0 12:0 13:-0.92592593 14:-0.93548387 15:-0.93548387 16:1 17:0 18:1 19:1 20:0 21:1 22:1 23:-0.88888889 
10 1:0.6664175 2:1 3:0 4:-0.83514559 5:-0.92969242 6:-0.96745842 7:-0.94799423 8:-0.99717752 9:0.65517247 10:0 11:0 12:0 13:-0.94444444 14:-0.93548387 15:-0.93548387 16:1 17:0 18:1 19:1 20:0 21:1 22:0 23:-1 
10 1:0.6664175 2:1 3:0 4:-0.83514559 5:-0.92969242 6:-0.96745842 7:-0.94799423 8:-0.99717752 9:0.65517247 10:0 11:0 12:0 13:-0.94444444 14:-0.93548387 15:-0.93548387 16:1 17:0 18:1 19:1 20:0 21:1 22:0 23:-1 
10 1:0.6664175 2:1 3:0 4:-0.83514559 5:-0.92969242 6:-0.96745842 7:-0.94799423 8:-0.99717752 9:0.89505255 10:0 11:0 12:0 13:-0.85185185 14:-0.96774194 15:-0.96774194 16:0.7571935 17:1 18:0 19:1 20:0 21:1 22:0 23:-1 
2.331650638814422 1:0.6664175 2:1 3:0 4:-0.83514559 5:-0.92969242 6:-0.96745842 7:-0.94799423 8:-0.99717752 9:0.93476236 10:0 11:0 12:1 13:-0.72222222 14:-0.96774194 15:-0.96774194 16:0.7571935 17:1 18:0 19:1 20:0 21:1 22:1 23:-0.83333333 
6.86268121359515 1:0.87826097 2:0 3:0 4:0.37777778 5:-0.85714286 6:-0.82352941 7:-0.84615385 8:-1 9:0.60225636 10:1 11:0 12:1 13:-0.85821357 14:-0.89946629 15:-0.94473468 16:0.7571935 17:1 18:0 19:0.68359995 20:1 21:0 22:0 23:-1 
10 1:0.76666653 2:0 3:0 4:-0.6 5:-0.9047619 6:-0.88235294 7:-1 8:-1 9:0.79885066 10:0 11:0 12:1 13:-0.85185185 14:-0.93548387 15:-0.93548387 16:0.28813565 17:0 18:0 19:0.24220896 20:0 21:0 22:0 23:-1 
10 1:0.29999995 2:0 3:0 4:-0.95555556 5:-0.95238095 6:-1 7:-0.84615385 8:-1 9:0.61067843 10:0 11:0 12:0 13:-0.81481481 14:-0.90322581 15:-0.96774194 16:1 17:0 18:1 19:1 20:0 21:1 22:0 23:-1 
10 1:0.29999995 2:0 3:0 4:-0.95555556 5:-0.95238095 6:-1 7:-0.84615385 8:-1 9:0.61067843 10:0 11:0 12:0 13:-0.81481481 14:-0.90322581 15:-0.96774194 16:1 17:0 18:1 19:1 20:0 21:1 22:0 23:-0.97222222 
10 1:0.43999994 2:0 3:0 4:-0.91111111 5:-0.95238095 6:-1 7:-1 8:-1 9:0.5172415 10:0 11:0 12:0 13:-0.83333333 14:-0.87096774 15:-0.93548387 16:0.625 17:0 18:0 19:0.14045286 20:0 21:0 22:0 23:-1 
10 1:0.1310345 2:0 3:0 4:-0.64444444 5:-0.57142857 6:-0.94117647 7:-1 8:-1 9:0.39655173 10:0 11:0 12:0 13:-0.83333333 14:-0.74193548 15:-1 16:0.6666666 17:0 18:0 19:0.19917142 20:0 21:0 22:0 23:-0.94444444 
6.176695222208891 1:0.74545443 2:0 3:0 4:-0.64444444 5:-0.9047619 6:-0.88235294 7:-1 8:-1 9:0.7805643 10:0 11:0 12:1 13:-0.87037037 14:-0.93548387 15:-0.93548387 16:0.30337083 17:0 18:0 19:0.25842702 20:0 21:0 22:0 23:-0.97222222 
10 1:0.6664175 2:1 3:0 4:-0.83514559 5:-0.92969242 6:-0.96745842 7:-0.94799423 8:-0.99717752 9:0.79885066 10:0 11:0 12:0 13:-0.85185185 14:-0.93548387 15:-0.93548387 16:0.7571935 17:1 18:0 19:0.88594484 20:0 21:0 22:0 23:-1 
10 1:0.6664175 2:1 3:0 4:-0.83514559 5:-0.92969242 6:-0.96745842 7:-0.94799423 8:-0.99717752 9:0.7103448 10:0 11:0 12:0 13:-0.85185185 14:-0.93548387 15:-0.96774194 16:0.7571935 17:1 18:0 19:0.7785808 20:0 21:0 22:0 23:-1 
10 1:0.43999994 2:0 3:0 4:-0.91111111 5:-0.95238095 6:-1 7:-1 8:-1 9:0.5172415 10:0 11:0 12:1 13:-0.83333333 14:-0.87096774 15:-1 16:1 17:0 18:1 19:0.72528625 20:0 21:0 22:0 23:-1 
10 1:0.6664175 2:1 3:0 4:-0.83514559 5:-0.92969242 6:-0.96745842 7:-0.94799423 8:-0.99717752 9:0.81432366 10:0 11:0 12:0 13:-0.83333333 14:-0.96774194 15:-1 16:0.7571935 17:1 18:0 19:0.81646276 20:0 21:0 22:0 23:-0.94444444 
10 1:0.6664175 2:1 3:0 4:-0.83514559 5:-0.92969242 6:-0.96745842 7:-0.94799423 8:-0.99717752 9:0.7586206 10:0 11:0 12:0 13:-0.88888889 14:-0.96774194 15:-1 16:0.7571935 17:1 18:0 19:0.7918992 20:0 21:0 22:0 23:-0.97222222 
10 1:0.6664175 2:1 3:0 4:-0.83514559 5:-0.92969242 6:-0.96745842 7:-0.94799423 8:-0.99717752 9:0.5611285 10:0 11:0 12:0 13:-0.88888889 14:-0.93548387 15:-1 16:0.95555556 17:0 18:0 19:0.95268834 20:0 21:0 22:0 23:-0.94444444 
10 1:0.6664175 2:1 3:0 4:-0.83514559 5:-0.92969242 6:-0.96745842 7:-0.94799423 8:-0.99717752 9:0.5977011 10:0 11:0 12:0 13:-0.87037037 14:-0.93548387 15:-1 16:0.95555556 17:0 18:0 19:0.95268834 20:0 21:0 22:0 23:-1 
10 1:0.6664175 2:1 3:0 4:-0.83514559 5:-0.92969242 6:-0.96745842 7:-0.94799423 8:-0.99717752 9:0.19540238 10:0 11:0 12:0 13:-0.88888889 14:-0.70967742 15:-0.83870968 16:0.95555556 17:0 18:0 19:0.95268834 20:0 21:0 22:0 23:-1 
2.072520272031997 1:1 2:0 3:1 4:-0.86666667 5:-1 6:-1 7:-1 8:-1 9:0.48275864 10:0 11:0 12:1 13:-0.85185185 14:-0.90322581 15:-1 16:1 17:0 18:1 19:1 20:0 21:1 22:0 23:-0.97222222 
10 1:0.6664175 2:1 3:0 4:-0.83514559 5:-0.92969242 6:-0.96745842 7:-0.94799423 8:-0.99717752 9:0.24137938 10:0 11:0 12:0 13:-0.83333333 14:-0.64516129 15:-0.77419355 16:0.7571935 17:1 18:0 19:0.66007054 20:0 21:0 22:0 23:-1 
0.687561090685557 1:1 2:0 3:1 4:-0.91111111 5:-1 6:-1 7:-1 8:-1 9:0.44297087 10:0 11:0 12:0 13:-0.87037037 14:-0.90322581 15:-1 16:1 17:0 18:1 19:1 20:0 21:1 22:0 23:-0.97222222 
10 1:0.6664175 2:1 3:0 4:-0.83514559 5:-0.92969242 6:-0.96745842 7:-0.94799423 8:-0.99717752 9:-0.034482658 10:0 11:0 12:0 13:-0.90740741 14:-0.64516129 15:-0.67741935 16:0.7571935 17:1 18:0 19:1 20:0 21:1 22:0 23:-0.97222222 
10 1:0.6664175 2:1 3:0 4:-0.83514559 5:-0.92969242 6:-0.96745842 7:-0.94799423 8:-0.99717752 9:0.5740366 10:0 11:0 12:0 13:-0.92592593 14:-0.90322581 15:-0.90322581 16:0.83606553 17:0 18:0 19:0.82548916 20:0 21:0 22:0 23:-1 
10 1:0.6664175 2:1 3:0 4:-0.83514559 5:-0.92969242 6:-0.96745842 7:-0.94799423 8:-0.99717752 9:0.7586206 10:0 11:0 12:0 13:-0.88888889 14:-0.93548387 15:-0.93548387 16:0.83606553 17:0 18:0 19:0.82548916 20:0 21:0 22:0 23:-0.94444444 
6.191103830904858 1:0.6888888 2:0 3:0 4:-0.91111111 5:-0.95238095 6:-0.94117647 7:-1 8:-1 9:0.36479127 10:0 11:0 12:1 13:-0.92592593 14:-0.87096774 15:-0.90322581 16:1 17:0 18:1 19:0.96620595 20:0 21:0 22:0 23:-1 
4.808300768132633 1:0.23636365 2:0 3:0 4:-0.55555556 5:-0.57142857 6:-0.70588235 7:-1 8:-1 9:0.35632193 10:0 11:0 12:0 13:-0.85185185 14:-0.74193548 15:-0.87096774 16:1 17:0 18:1 19:1 20:0 21:1 22:0 23:-0.97222222 
10 1:0.20000005 2:0 3:0 4:-0.64444444 5:-0.61904762 6:-0.76470588 7:-1 8:-1 9:0.32413805 10:0 11:0 12:0 13:-0.88888889 14:-0.77419355 15:-0.90322581 16:1 17:0 18:1 19:1 20:0 21:1 22:0 23:-0.94444444 
10 1:0.6664175 2:1 3:0 4:-0.83514559 5:-0.92969242 6:-0.96745842 7:-0.94799423 8:-0.99717752 9:0.48798335 10:0 11:0 12:0 13:-0.81481481 14:-0.77419355 15:-0.90322581 16:0.7571935 17:1 18:0 19:0.96264863 20:0 21:0 22:0 23:-1 
10 1:0.8444444 2:0 3:0 4:-0.33333333 5:-0.9047619 6:-0.88235294 7:-1 8:-1 9:0.8659003 10:0 11:0 12:0 13:-0.74074074 14:-0.93548387 15:-0.93548387 16:0.1555556 17:0 18:0 19:0.10107541 20:0 21:0 22:0 23:-1 
10 1:0.74545443 2:0 3:0 4:-0.64444444 5:-0.9047619 6:-0.88235294 7:-1 8:-1 9:0.7805643 10:0 11:0 12:0 13:-0.87037037 14:-0.93548387 15:-0.93548387 16:-0.090909064 17:0 18:0 19:-0.16129023 20:0 21:0 22:0 23:-1 
10 1:0.7846153 2:0 3:0 4:-0.55555556 5:-0.9047619 6:-0.88235294 7:-1 8:-1 9:0.79885066 10:0 11:0 12:1 13:-0.85185185 14:-0.93548387 15:-0.93548387 16:0.10526311 17:0 18:0 19:0.063225865 20:0 21:0 22:0 23:-1 
10 1:0.6664175 2:1 3:0 4:-0.83514559 5:-0.92969242 6:-0.96745842 7:-0.94799423 8:-0.99717752 9:0.65517247 10:0 11:0 12:0 13:-0.94444444 14:-0.93548387 15:-0.93548387 16:1 17:0 18:1 19:1 20:0 21:1 22:0 23:-1 
10 1:0.6664175 2:1 3:0 4:-0.83514559 5:-0.92969242 6:-0.96745842 7:-0.94799423 8:-0.99717752 9:0.83908045 10:0 11:0 12:0 13:-0.7962963 14:-0.93548387 15:-0.93548387 16:1 17:0 18:1 19:1 20:0 21:1 22:0 23:-1 
10 1:0.6664175 2:1 3:0 4:-0.83514559 5:-0.92969242 6:-0.96745842 7:-0.94799423 8:-0.99717752 9:0.83908045 10:0 11:0 12:0 13:-0.7962963 14:-0.93548387 15:-0.93548387 16:1 17:0 18:1 19:1 20:0 21:1 22:0 23:-1 
10 1:0.6664175 2:1 3:0 4:-0.83514559 5:-0.92969242 6:-0.96745842 7:-0.94799423 8:-0.99717752 9:0.3416928 10:0 11:0 12:0 13:-0.90740741 14:-0.83870968 15:-0.87096774 16:1 17:0 18:1 19:1 20:0 21:1 22:0 23:-0.94444444 
10 1:0.6664175 2:1 3:0 4:-0.83514559 5:-0.92969242 6:-0.96745842 7:-0.94799423 8:-0.99717752 9:0.6982759 10:0 11:0 12:0 13:-0.92592593 14:-0.93548387 15:-0.93548387 16:1 17:0 18:1 19:1 20:0 21:1 22:0 23:-1 
10 1:0.6664175 2:1 3:0 4:-0.83514559 5:-0.92969242 6:-0.96745842 7:-0.94799423 8:-0.99717752 9:0.83908045 10:0 11:0 12:0 13:-0.7962963 14:-0.96774194 15:-1 16:0.7571935 17:1 18:0 19:0.68359995 20:1 21:0 22:0 23:-0.97222222 
10 1:0.6664175 2:1 3:0 4:-0.83514559 5:-0.92969242 6:-0.96745842 7:-0.94799423 8:-0.99717752 9:0.8491379 10:0 11:0 12:0 13:-0.77777778 14:-0.96774194 15:-1 16:0.7571935 17:1 18:0 19:0.68359995 20:1 21:0 22:0 23:-0.97222222 
10 1:0.6664175 2:1 3:0 4:-0.83514559 5:-0.92969242 6:-0.96745842 7:-0.94799423 8:-0.99717752 9:0.83908045 10:0 11:0 12:0 13:-0.7962963 14:-0.96774194 15:-1 16:0.7571935 17:1 18:0 19:0.68359995 20:1 21:0 22:0 23:-1 
10 1:0.6664175 2:1 3:0 4:-0.83514559 5:-0.92969242 6:-0.96745842 7:-0.94799423 8:-0.99717752 9:0.8580122 10:0 11:0 12:0 13:-0.75925926 14:-0.96774194 15:-1 16:0.7571935 17:1 18:0 19:0.68359995 20:1 21:0 22:0 23:-0.97222222 
10 1:0.6664175 2:1 3:0 4:-0.83514559 5:-0.92969242 6:-0.96745842 7:-0.94799423 8:-0.99717752 9:-0.13590252 10:0 11:0 12:0 13:-0.88888889 14:-0.61290323 15:-1 16:0.7571935 17:1 18:0 19:0.74264455 20:0 21:0 22:0 23:-0.97222222 
10 1:0.29999995 2:0 3:0 4:-0.95555556 5:-0.95238095 6:-1 7:-0.84615385 8:-1 9:0.8580122 10:0 11:0 12:1 13:-0.90740741 14:-0.96774194 15:-0.96774194 16:1 17:0 18:1 19:0.7223002 20:0 21:0 22:0 23:-0.97222222 
10 1:0.13846159 2:0 3:0 4:-0.68888889 5:-0.61904762 6:-0.76470588 7:-1 8:-1 9:0.25729454 10:0 11:0 12:0 13:-0.88888889 14:-0.74193548 15:-0.87096774 16:1 17:0 18:1 19:1 20:0 21:1 22:0 23:-1 
10 1:0.13846159 2:0 3:0 4:-0.68888889 5:-0.61904762 6:-0.76470588 7:-1 8:-1 9:0.25729454 10:0 11:0 12:0 13:-0.88888889 14:-0.74193548 15:-0.87096774 16:1 17:0 18:1 19:1 20:0 21:1 22:0 23:-0.97222222 
10 1:0.20000005 2:0 3:0 4:-0.64444444 5:-0.61904762 6:-0.76470588 7:-1 8:-1 9:0.31034493 10:0 11:0 12:0 13:-0.87037037 14:-0.74193548 15:-0.87096774 16:1 17:0 18:1 19:1 20:0 21:1 22:0 23:-1 
10 1:0.13846159 2:0 3:0 4:-0.68888889 5:-0.61904762 6:-0.76470588 7:-1 8:-1 9:0.25729454 10:0 11:0 12:0 13:-0.88888889 14:-0.74193548 15:-0.87096774 16:1 17:0 18:1 19:1 20:0 21:1 22:0 23:-0.94444444 
10 1:0.13846159 2:0 3:0 4:-0.68888889 5:-0.61904762 6:-0.76470588 7:-1 8:-1 9:0.25729454 10:0 11:0 12:0 13:-0.88888889 14:-0.74193548 15:-0.87096774 16:0.95555556 17:0 18:0 19:0.9760784 20:0 21:0 22:0 23:-0.97222222 
10 1:0.6561403 2:0 3:0 4:0.022222222 5:-0.76190476 6:-0.82352941 7:-1 8:-1 9:0.60225636 10:1 11:0 12:1 13:-0.85821357 14:-0.89946629 15:-0.94473468 16:0.7571935 17:1 18:0 19:0.68359995 20:1 21:0 22:0 23:-1 
2.912064038884397 1:0.20000005 2:0 3:0 4:-0.86666667 5:-0.80952381 6:-0.76470588 7:-0.53846154 8:-1 9:0.60225636 10:1 11:0 12:1 13:-0.85821357 14:-0.89946629 15:-0.94473468 16:0.94871795 17:0 18:0 19:0.68359995 20:1 21:0 22:0 23:-0.97222222 
10 1:0.6664175 2:1 3:0 4:-0.83514559 5:-0.92969242 6:-0.96745842 7:-0.94799423 8:-0.99717752 9:0.6982759 10:0 11:0 12:0 13:-0.92592593 14:-0.93548387 15:-0.93548387 16:0.902439 17:0 18:0 19:0.89614487 20:0 21:0 22:0 23:-1 
10 1:0.6664175 2:1 3:0 4:-0.83514559 5:-0.92969242 6:-0.96745842 7:-0.94799423 8:-0.99717752 9:0.7586206 10:0 11:0 12:0 13:-0.88888889 14:-0.93548387 15:-0.93548387 16:0.7571935 17:1 18:0 19:0.7108723 20:0 21:0 22:0 23:-1 
10 1:0.6664175 2:1 3:0 4:-0.83514559 5:-0.92969242 6:-0.96745842 7:-0.94799423 8:-0.99717752 9:0.4918331 10:0 11:0 12:0 13:-0.77777778 14:-0.74193548 15:-0.87096774 16:0.7571935 17:1 18:0 19:1 20:0 21:1 22:0 23:-1 
10 1:-0.40000004 2:0 3:0 4:-0.91111111 5:-0.61904762 6:-1 7:-1 8:-1 9:-0.11405826 10:0 11:0 12:0 13:-0.92592593 14:-0.61290323 15:-1 16:0.6363636 17:0 18:0 19:0.581174 20:0 21:0 22:0 23:-1 
10 1:0.0181818 2:0 3:0 4:0.022222222 5:0.23809524 6:0.47058824 7:-0.84615385 8:-1 9:0.60225636 10:1 11:0 12:1 13:-0.85821357 14:-0.89946629 15:-0.94473468 16:0.7571935 17:1 18:0 19:0.68359995 20:1 21:0 22:0 23:-1 
10 1:0.6664175 2:1 3:0 4:-0.83514559 5:-0.92969242 6:-0.96745842 7:-0.94799423 8:-0.99717752 9:0.6851574 10:0 11:0 12:0 13:-0.87037037 14:-0.90322581 15:-0.90322581 16:0.7571935 17:1 18:0 19:0.5326514 20:0 21:0 22:0 23:-1 
3.50457688213291 1:0.034482718 2:0 3:0 4:-0.24444444 5:-0.047619048 6:0.17647059 7:-1 8:-1 9:0.60225636 10:1 11:0 12:1 13:-0.85821357 14:-0.89946629 15:-0.94473468 16:0.7571935 17:1 18:0 19:0.68359995 20:1 21:0 22:0 23:-1 
5.429051907134539 1:0.41666663 2:0 3:0 4:-0.24444444 5:-0.52380952 6:-0.41176471 7:-1 8:-1 9:0.60225636 10:1 11:0 12:1 13:-0.85821357 14:-0.89946629 15:-0.94473468 16:0.7571935 17:1 18:0 19:0.68359995 20:1 21:0 22:0 23:-1 
10 1:0.6664175 2:1 3:0 4:-0.83514559 5:-0.92969242 6:-0.96745842 7:-0.94799423 8:-0.99717752 9:0.65517247 10:0 11:0 12:0 13:-0.83333333 14:-0.93548387 15:-1 16:0.7571935 17:1 18:0 19:1 20:0 21:1 22:0 23:-0.94444444 
10 1:0.06666672 2:0 3:0 4:-0.95555556 5:-0.9047619 6:-0.94117647 7:-1 8:-1 9:0.6851574 10:0 11:0 12:0 13:-0.87037037 14:-0.93548387 15:-0.96774194 16:1 17:0 18:1 19:1 20:0 21:1 22:1 23:-0.91666667 
10 1:0.06666672 2:0 3:0 4:-0.95555556 5:-0.9047619 6:-0.94117647 7:-1 8:-1 9:0.6851574 10:0 11:0 12:0 13:-0.87037037 14:-0.93548387 15:-0.96774194 16:1 17:0 18:1 19:1 20:0 21:1 22:0 23:-0.97222222 
10 1:0.29999995 2:0 3:0 4:-0.82222222 5:-0.9047619 6:-1 7:-1 8:-1 9:0.5667552 10:0 11:0 12:0 13:-0.75925926 14:-0.83870968 15:-0.90322581 16:0.33333337 17:0 18:0 19:0.006451726 20:0 21:0 22:0 23:-1 
10 1:0.29999995 2:0 3:0 4:-0.82222222 5:-0.9047619 6:-1 7:-1 8:-1 9:0.5667552 10:0 11:0 12:0 13:-0.75925926 14:-0.83870968 15:-0.90322581 16:0.33333337 17:0 18:0 19:0.006451726 20:0 21:0 22:0 23:-1 
10 1:0.29999995 2:0 3:0 4:-0.82222222 5:-0.9047619 6:-1 7:-1 8:-1 9:0.5667552 10:0 11:0 12:0 13:-0.75925926 14:-0.83870968 15:-0.90322581 16:0.33333337 17:0 18:0 19:0.006451726 20:0 21:0 22:0 23:-1 
10 1:-0.008000076 2:0 3:0 4:-0.73333333 5:-0.57142857 6:-0.70588235 7:-1 8:-1 9:0.1310345 10:0 11:0 12:0 13:-0.90740741 14:-0.70967742 15:-0.83870968 16:1 17:0 18:1 19:1 20:0 21:1 22:0 23:-0.94444444 
10 1:-0.008000076 2:0 3:0 4:-0.73333333 5:-0.57142857 6:-0.70588235 7:-1 8:-1 9:0.1310345 10:0 11:0 12:0 13:-0.90740741 14:-0.70967742 15:-0.83870968 16:1 17:0 18:1 19:1 20:0 21:1 22:0 23:-0.97222222 
10 1:-0.008000076 2:0 3:0 4:-0.73333333 5:-0.57142857 6:-0.70588235 7:-1 8:-1 9:0.1310345 10:0 11:0 12:0 13:-0.90740741 14:-0.70967742 15:-0.83870968 16:1 17:0 18:1 19:1 20:0 21:1 22:0 23:-0.97222222 
10 1:0.72903216 2:0 3:0 4:-0.46666667 5:-0.9047619 6:-0.94117647 7:-0.84615385 8:-1 9:0.60225636 10:1 11:0 12:1 13:-0.85821357 14:-0.89946629 15:-0.94473468 16:0.7571935 17:1 18:0 19:0.68359995 20:1 21:0 22:0 23:-1 
2.426288400536462 1:0.06666672 2:0 3:0 4:-0.11111111 5:0.047619048 6:0.29411765 7:-1 8:-1 9:0.60225636 10:1 11:0 12:1 13:-0.85821357 14:-0.89946629 15:-0.94473468 16:0.7571935 17:1 18:0 19:0.68359995 20:1 21:0 22:0 23:-1 
6.287817543924449 1:0.10188675 2:0 3:0 4:-0.28888889 5:-0.19047619 6:0 7:-1 8:-1 9:0.60225636 10:1 11:0 12:1 13:-0.85821357 14:-0.89946629 15:-0.94473468 16:0.7571935 17:1 18:0 19:0.68359995 20:1 21:0 22:0 23:-1 
10 1:0.6664175 2:1 3:0 4:-0.83514559 5:-0.92969242 6:-0.96745842 7:-0.94799423 8:-0.99717752 9:0.0844233 10:0 11:0 12:0 13:-0.88888889 14:-0.64516129 15:-0.77419355 16:1 17:0 18:1 19:1 20:0 21:1 22:1 23:-0.91666667 
10 1:0.6664175 2:1 3:0 4:-0.83514559 5:-0.92969242 6:-0.96745842 7:-0.94799423 8:-0.99717752 9:0.8491379 10:0 11:0 12:0 13:-0.77777778 14:-0.96774194 15:-1 16:1 17:0 18:1 19:1 20:0 21:1 22:0 23:-0.97222222 
8.571544581471082 1:0.6664175 2:1 3:0 4:-0.83514559 5:-0.92969242 6:-0.96745842 7:-0.94799423 8:-0.99717752 9:0.7318008 10:0 11:0 12:0 13:-0.83333333 14:-0.90322581 15:-0.90322581 16:1 17:0 18:1 19:1 20:0 21:1 22:0 23:-0.97222222 
10 1:0.6664175 2:1 3:0 4:-0.83514559 5:-0.92969242 6:-0.96745842 7:-0.94799423 8:-0.99717752 9:0.8491379 10:0 11:0 12:0 13:-0.77777778 14:-0.93548387 15:-0.93548387 16:1 17:0 18:1 19:1 20:0 21:1 22:0 23:-0.94444444 
10 1:0.6664175 2:1 3:0 4:-0.83514559 5:-0.92969242 6:-0.96745842 7:-0.94799423 8:-0.99717752 9:0.65517247 10:0 11:0 12:0 13:-0.88888889 14:-0.90322581 15:-0.90322581 16:1 17:0 18:1 19:1 20:0 21:1 22:0 23:-1 
10 1:0.6664175 2:1 3:0 4:-0.83514559 5:-0.92969242 6:-0.96745842 7:-0.94799423 8:-0.99717752 9:0.83908045 10:0 11:0 12:0 13:-0.7962963 14:-0.93548387 15:-0.93548387 16:1 17:0 18:1 19:1 20:0 21:1 22:0 23:-0.97222222 
10 1:0.6664175 2:1 3:0 4:-0.83514559 5:-0.92969242 6:-0.96745842 7:-0.94799423 8:-0.99717752 9:0.81432366 10:0 11:0 12:0 13:-0.83333333 14:-0.93548387 15:-0.93548387 16:1 17:0 18:1 19:1 20:0 21:1 22:0 23:-1 
10 1:0.6664175 2:1 3:0 4:-0.83514559 5:-0.92969242 6:-0.96745842 7:-0.94799423 8:-0.99717752 9:0.4752624 10:0 11:0 12:0 13:-0.88888889 14:-0.83870968 15:-0.83870968 16:1 17:0 18:1 19:1 20:0 21:1 22:0 23:-1 
7.954220338472254 1:0.6664175 2:1 3:0 4:-0.83514559 5:-0.92969242 6:-0.96745842 7:-0.94799423 8:-0.99717752 9:0.7318008 10:0 11:0 12:0 13:-0.83333333 14:-0.90322581 15:-0.90322581 16:1 17:0 18:1 19:1 20:0 21:1 22:0 23:-0.97222222 
10 1:0.6664175 2:1 3:0 4:-0.83514559 5:-0.92969242 6:-0.96745842 7:-0.94799423 8:-0.99717752 9:0.25729454 10:0 11:0 12:0 13:-0.88888889 14:-0.74193548 15:-0.74193548 16:0.7571935 17:1 18:0 19:1 20:0 21:1 22:0 23:-1 
10 1:-0.29230767 2:0 3:0 4:-0.77777778 5:-0.42857143 6:-0.64705882 7:-1 8:-1 9:-0.06206894 10:0 11:0 12:0 13:-0.92592593 14:-0.64516129 15:-0.77419355 16:1 17:0 18:1 19:1 20:0 21:1 22:0 23:-1 
10 1:0.6664175 2:1 3:0 4:-0.83514559 5:-0.92969242 6:-0.96745842 7:-0.94799423 8:-0.99717752 9:-0.20689654 10:0 11:0 12:0 13:-0.90740741 14:-0.48387097 15:-1 16:0.7571935 17:1 18:0 19:0.67582643 20:0 21:0 22:0 23:-0.94444444 
10 1:0.6664175 2:1 3:0 4:-0.83514559 5:-0.92969242 6:-0.96745842 7:-0.94799423 8:-0.99717752 9:0.2508918 10:0 11:0 12:0 13:-0.87037037 14:-0.70967742 15:-0.70967742 16:0.7571935 17:1 18:0 19:1 20:0 21:1 22:0 23:-1 
10 1:0.6664175 2:1 3:0 4:-0.83514559 5:-0.92969242 6:-0.96745842 7:-0.94799423 8:-0.99717752 9:0.19540238 10:0 11:0 12:0 13:-0.88888889 14:-0.70967742 15:-0.70967742 16:0.7571935 17:1 18:0 19:1 20:0 21:1 22:0 23:-0.94444444 
10 1:0.6664175 2:1 3:0 4:-0.83514559 5:-0.92969242 6:-0.96745842 7:-0.94799423 8:-0.99717752 9:0.2508918 10:0 11:0 12:0 13:-0.87037037 14:-0.70967742 15:-0.70967742 16:0.7571935 17:1 18:0 19:1 20:0 21:1 22:0 23:-0.97222222 
10 1:0.29999995 2:0 3:0 4:-0.95555556 5:-0.95238095 6:-1 7:-0.84615385 8:-1 9:0.034482837 10:0 11:0 12:0 13:-0.88888889 14:-0.74193548 15:-0.93548387 16:1 17:0 18:1 19:1 20:0 21:1 22:0 23:-0.94444444 
10 1:0.29999995 2:0 3:0 4:-0.95555556 5:-0.95238095 6:-1 7:-0.84615385 8:-1 9:0.034482837 10:0 11:0 12:0 13:-0.88888889 14:-0.74193548 15:-0.93548387 16:1 17:0 18:1 19:1 20:0 21:1 22:0 23:-0.94444444 
10 1:0.43999994 2:0 3:0 4:-0.91111111 5:-0.95238095 6:-1 7:-0.84615385 8:-1 9:0.19540238 10:0 11:0 12:0 13:-0.85185185 14:-0.77419355 15:-0.96774194 16:1 17:0 18:1 19:1 20:0 21:1 22:1 23:-0.86111111 
10 1:0.6664175 2:1 3:0 4:-0.83514559 5:-0.92969242 6:-0.96745842 7:-0.94799423 8:-0.99717752 9:0.7318008 10:0 11:0 12:1 13:-0.90740741 14:-0.93548387 15:-0.93548387 16:1 17:0 18:1 19:1 20:0 21:1 22:1 23:-0.88888889 
10 1:0.6664175 2:1 3:0 4:-0.83514559 5:-0.92969242 6:-0.96745842 7:-0.94799423 8:-0.99717752 9:0.65517247 10:0 11:0 12:0 13:-0.94444444 14:-0.93548387 15:-0.93548387 16:1 17:0 18:1 19:1 20:0 21:1 22:0 23:-1 
10 1:0.6664175 2:1 3:0 4:-0.83514559 5:-0.92969242 6:-0.96745842 7:-0.94799423 8:-0.99717752 9:0.65517247 10:0 11:0 12:0 13:-0.94444444 14:-0.93548387 15:-0.93548387 16:1 17:0 18:1 19:1 20:0 21:1 22:0 23:-1 
10 1:-0.09565228 2:0 3:0 4:-0.77777778 5:-0.57142857 6:-0.70588235 7:-1 8:-1 9:0.055472255 10:0 11:0 12:0 13:-0.92592593 14:-0.70967742 15:-0.83870968 16:0.74358976 17:0 18:0 19:0.7270472 20:0 21:0 22:0 23:-0.97222222 
10 1:0.27407396 2:0 3:0 4:-0.64444444 5:-0.66666667 6:-0.82352941 7:-1 8:-1 9:0.37420177 10:0 11:0 12:0 13:-0.87037037 14:-0.77419355 15:-0.90322581 16:1 17:0 18:1 19:1 20:0 21:1 22:0 23:-1 
10 1:0.36774182 2:0 3:0 4:-0.55555556 5:-0.66666667 6:-0.82352941 7:-1 8:-1 9:0.45494986 10:0 11:0 12:0 13:-0.83333333 14:-0.77419355 15:-0.90322581 16:1 17:0 18:1 19:1 20:0 21:1 22:0 23:-1 
10 1:0.06666672 2:0 3:0 4:-0.95555556 5:-0.9047619 6:-0.94117647 7:-1 8:-1 9:0.2653674 10:0 11:0 12:0 13:-0.90740741 14:-0.87096774 15:-0.96774194 16:1 17:0 18:1 19:1 20:0 21:1 22:0 23:-0.94444444 
10 1:0.06666672 2:0 3:0 4:-0.95555556 5:-0.9047619 6:-0.94117647 7:-1 8:-1 9:0.2653674 10:0 11:0 12:0 13:-0.90740741 14:-0.87096774 15:-0.96774194 16:1 17:0 18:1 19:1 20:0 21:1 22:0 23:-0.94444444 
10 1:0.6664175 2:1 3:0 4:-0.83514559 5:-0.92969242 6:-0.96745842 7:-0.94799423 8:-0.99717752 9:0.79885066 10:0 11:0 12:0 13:-0.85185185 14:-0.93548387 15:-0.93548387 16:0.23076928 17:0 18:0 19:0.1811415 20:0 21:0 22:0 23:-1 
10 1:0.6664175 2:1 3:0 4:-0.83514559 5:-0.92969242 6:-0.96745842 7:-0.94799423 8:-0.99717752 9:0.7805643 10:0 11:0 12:0 13:-0.87037037 14:-0.96774194 15:-1 16:0.23076928 17:0 18:0 19:0.1811415 20:0 21:0 22:0 23:-0.97222222 
3.552114048235908 1:0.6666666 2:0 3:0 4:0.55555556 5:-0.52380952 6:-0.41176471 7:-1 8:-1 9:0.60225636 10:1 11:0 12:1 13:-0.85821357 14:-0.89946629 15:-0.94473468 16:0.7571935 17:1 18:0 19:0.68359995 20:1 21:0 22:0 23:-1 
5.276558438716676 1:0.6666666 2:0 3:0 4:0.55555556 5:-0.52380952 6:-0.41176471 7:-1 8:-1 9:0.60225636 10:1 11:0 12:1 13:-0.85821357 14:-0.89946629 15:-0.94473468 16:0.7571935 17:1 18:0 19:0.68359995 20:1 21:0 22:0 23:-1 
2.667574380808211 1:0.5333332 2:0 3:0 4:-0.64444444 5:-0.9047619 6:-1 7:-0.84615385 8:-1 9:0.87931037 10:0 11:0 12:1 13:-0.7037037 14:-0.96774194 15:-1 16:0.7571935 17:1 18:0 19:0.8064518 20:0 21:0 22:0 23:-0.97222222 
10 1:0.6664175 2:1 3:0 4:-0.83514559 5:-0.92969242 6:-0.96745842 7:-0.94799423 8:-0.99717752 9:0.6982759 10:0 11:0 12:0 13:-0.92592593 14:-0.93548387 15:-0.93548387 16:0.9591837 17:0 18:0 19:0.9565505 20:0 21:0 22:0 23:-1 
10 1:0.6664175 2:1 3:0 4:-0.83514559 5:-0.92969242 6:-0.96745842 7:-0.94799423 8:-0.99717752 9:0.81432366 10:0 11:0 12:0 13:-0.83333333 14:-0.93548387 15:-0.93548387 16:0.6811594 17:0 18:0 19:0.6605891 20:0 21:0 22:0 23:-0.97222222 
10 1:0.6664175 2:1 3:0 4:-0.83514559 5:-0.92969242 6:-0.96745842 7:-0.94799423 8:-0.99717752 9:0.81432366 10:0 11:0 12:0 13:-0.83333333 14:-0.93548387 15:-0.93548387 16:0.6811594 17:0 18:0 19:0.6605891 20:0 21:0 22:0 23:-0.97222222 
10 1:-0.12000001 2:0 3:0 4:-0.95555556 5:-0.9047619 6:-1 7:-1 8:-1 9:0.2508918 10:0 11:0 12:1 13:-0.87037037 14:-0.77419355 15:-0.83870968 16:0.06666672 17:0 18:0 19:-0.25647807 20:0 21:0 22:0 23:-1 
10 1:0.5999999 2:0 3:0 4:-0.95555556 5:-0.95238095 6:-0.94117647 7:-1 8:-1 9:0.13793099 10:0 11:0 12:0 13:-0.88888889 14:-0.80645161 15:-0.93548387 16:0.23076928 17:0 18:0 19:0.67245674 20:0 21:0 22:0 23:-1 
1.583050652416579 1:0.26315784 2:0 3:0 4:-0.46666667 5:-0.57142857 6:-0.64705882 7:-1 8:-1 9:-1 10:0 11:0 12:0 13:-1 14:-0.064516129 15:-0.064516129 16:0.7571935 17:1 18:0 19:0.68359995 20:1 21:0 22:0 23:-1 
10 1:0.6664175 2:1 3:0 4:-0.83514559 5:-0.92969242 6:-0.96745842 7:-0.94799423 8:-0.99717752 9:0.7805643 10:0 11:0 12:0 13:-0.87037037 14:-0.93548387 15:-0.93548387 16:0.35294116 17:0 18:0 19:0.3111955 20:0 21:0 22:0 23:-0.94444444 
10 1:0.6664175 2:1 3:0 4:-0.83514559 5:-0.92969242 6:-0.96745842 7:-0.94799423 8:-0.99717752 9:0.6982759 10:0 11:0 12:0 13:-0.92592593 14:-0.93548387 15:-0.93548387 16:0.7571935 17:1 18:0 19:1 20:0 21:1 22:0 23:-1 
10 1:0.6664175 2:1 3:0 4:-0.83514559 5:-0.92969242 6:-0.96745842 7:-0.94799423 8:-0.99717752 9:0.6982759 10:0 11:0 12:0 13:-0.92592593 14:-0.93548387 15:-0.93548387 16:0.7571935 17:1 18:0 19:1 20:0 21:1 22:0 23:-1 
10 1:0.6664175 2:1 3:0 4:-0.83514559 5:-0.92969242 6:-0.96745842 7:-0.94799423 8:-0.99717752 9:0.6982759 10:0 11:0 12:0 13:-0.92592593 14:-0.93548387 15:-0.93548387 16:0.7571935 17:1 18:0 19:1 20:0 21:1 22:0 23:-1 
10 1:0.6664175 2:1 3:0 4:-0.83514559 5:-0.92969242 6:-0.96745842 7:-0.94799423 8:-0.99717752 9:0.6982759 10:0 11:0 12:0 13:-0.92592593 14:-0.93548387 15:-0.93548387 16:0.7571935 17:1 18:0 19:1 20:0 21:1 22:0 23:-1 
10 1:0.6664175 2:1 3:0 4:-0.83514559 5:-0.92969242 6:-0.96745842 7:-0.94799423 8:-0.99717752 9:0.6982759 10:0 11:0 12:0 13:-0.92592593 14:-0.93548387 15:-0.93548387 16:0.7571935 17:1 18:0 19:1 20:0 21:1 22:0 23:-1 
10 1:0.6664175 2:1 3:0 4:-0.83514559 5:-0.92969242 6:-0.96745842 7:-0.94799423 8:-0.99717752 9:0.6982759 10:0 11:0 12:0 13:-0.92592593 14:-0.93548387 15:-0.93548387 16:0.7571935 17:1 18:0 19:1 20:0 21:1 22:0 23:-0.97222222 
10 1:0.6664175 2:1 3:0 4:-0.83514559 5:-0.92969242 6:-0.96745842 7:-0.94799423 8:-0.99717752 9:0.6982759 10:0 11:0 12:0 13:-0.92592593 14:-0.93548387 15:-0.93548387 16:0.7571935 17:1 18:0 19:1 20:0 21:1 22:0 23:-1 
10 1:0.6664175 2:1 3:0 4:-0.83514559 5:-0.92969242 6:-0.96745842 7:-0.94799423 8:-0.99717752 9:0.6982759 10:0 11:0 12:0 13:-0.92592593 14:-0.93548387 15:-0.93548387 16:0.7571935 17:1 18:0 19:1 20:0 21:1 22:1 23:-0.91666667 
1.15465489591865 1:0.13846159 2:0 3:0 4:-0.68888889 5:-0.61904762 6:-0.52941176 7:-1 8:-1 9:0.1434927 10:0 11:0 12:1 13:-0.87037037 14:-0.64516129 15:-0.64516129 16:1 17:0 18:1 19:0.38906038 20:0 21:0 22:0 23:-1 
10 1:0.29999995 2:0 3:0 4:-0.95555556 5:-0.9047619 6:-1 7:-0.69230769 8:-1 9:0.4636016 10:0 11:0 12:0 13:-0.7962963 14:-0.74193548 15:-1 16:1 17:0 18:1 19:1 20:0 21:1 22:0 23:-1 
10 1:0.6664175 2:1 3:0 4:-0.83514559 5:-0.92969242 6:-0.96745842 7:-0.94799423 8:-0.99717752 9:0.8491379 10:0 11:0 12:0 13:-0.77777778 14:-0.96774194 15:-1 16:0.479452 17:0 18:0 19:0.44586837 20:0 21:0 22:0 23:-0.97222222 
10 1:0.6664175 2:1 3:0 4:-0.83514559 5:-0.92969242 6:-0.96745842 7:-0.94799423 8:-0.99717752 9:0.89028215 10:0 11:0 12:0 13:-0.66666667 14:-0.96774194 15:-1 16:0.7571935 17:1 18:0 19:0.17079806 20:0 21:0 22:0 23:-0.97222222 
10 1:0.6664175 2:1 3:0 4:-0.83514559 5:-0.92969242 6:-0.96745842 7:-0.94799423 8:-0.99717752 9:0.6286472 10:0 11:0 12:1 13:-0.85185185 14:-0.93548387 15:-1 16:0.7571935 17:1 18:0 19:0.43405485 20:0 21:0 22:0 23:-0.96676908 
10 1:0.5999999 2:0 3:0 4:-0.82222222 5:-0.9047619 6:-0.88235294 7:-1 8:-1 9:0.65517247 10:0 11:0 12:1 13:-0.94444444 14:-0.93548387 15:-0.93548387 16:1 17:0 18:1 19:1 20:0 21:1 22:0 23:-1 
10 1:0.5999999 2:0 3:0 4:-0.82222222 5:-0.9047619 6:-0.88235294 7:-1 8:-1 9:0.65517247 10:0 11:0 12:1 13:-0.94444444 14:-0.93548387 15:-0.93548387 16:1 17:0 18:1 19:1 20:0 21:1 22:0 23:-1 
10 1:0.7846153 2:0 3:0 4:-0.55555556 5:-0.9047619 6:-0.88235294 7:-1 8:-1 9:0.81432366 10:0 11:0 12:1 13:-0.83333333 14:-0.93548387 15:-0.93548387 16:1 17:0 18:1 19:1 20:0 21:1 22:0 23:-1 
10 1:0.7846153 2:0 3:0 4:-0.82222222 5:-0.95238095 6:-0.94117647 7:-1 8:-1 9:0.81432366 10:0 11:0 12:1 13:-0.94444444 14:-0.96774194 15:-0.96774194 16:1 17:0 18:1 19:1 20:0 21:1 22:0 23:-0.97222222 
10 1:0.6664175 2:1 3:0 4:-0.83514559 5:-0.92969242 6:-0.96745842 7:-0.94799423 8:-0.99717752 9:0.81432366 10:0 11:0 12:0 13:-0.83333333 14:-0.96774194 15:-1 16:0.7571935 17:1 18:0 19:0.97161305 20:0 21:0 22:1 23:-0.91666667 
10 1:0.29999995 2:0 3:0 4:-0.95555556 5:-0.95238095 6:-1 7:-0.84615385 8:-1 9:0.4173603 10:0 11:0 12:1 13:-0.85185185 14:-0.83870968 15:-0.96774194 16:1 17:0 18:1 19:1 20:0 21:1 22:0 23:-0.94444444 
2.664730005396908 1:0.79999983 2:0 3:0 4:-0.51111111 5:-0.95238095 6:-1 7:0.84615385 8:-1 9:0.8491379 10:0 11:0 12:1 13:-0.77777778 14:-0.96774194 15:-1 16:0.7571935 17:1 18:0 19:0.68359995 20:1 21:0 22:1 23:-0.91666667 
10 1:0.6664175 2:1 3:0 4:-0.83514559 5:-0.92969242 6:-0.96745842 7:-0.94799423 8:-0.99717752 9:0.7318008 10:0 11:0 12:0 13:-0.90740741 14:-0.93548387 15:-0.93548387 16:0.7571935 17:1 18:0 19:0.98769355 20:0 21:0 22:0 23:-1 
10 1:0.6664175 2:1 3:0 4:-0.83514559 5:-0.92969242 6:-0.96745842 7:-0.94799423 8:-0.99717752 9:0.9167657 10:0 11:0 12:0 13:-0.7962963 14:-0.96774194 15:-0.96774194 16:0.7571935 17:1 18:0 19:0.98626447 20:0 21:0 22:0 23:-1 
10 1:0.6664175 2:1 3:0 4:-0.83514559 5:-0.92969242 6:-0.96745842 7:-0.94799423 8:-0.99717752 9:0.6188748 10:0 11:0 12:0 13:-0.90740741 14:-0.90322581 15:-0.90322581 16:0.7571935 17:1 18:0 19:0.44802868 20:0 21:0 22:0 23:-1 
0.4493726287299147 1:1 2:0 3:1 4:-0.86666667 5:-1 6:-1 7:-1 8:-1 9:0.19540238 10:0 11:0 12:0 13:-0.88888889 14:-0.83870968 15:-0.96774194 16:0.6216216 17:0 18:0 19:0.8736192 20:0 21:0 22:0 23:-0.97222222 
10 1:0.6664175 2:1 3:0 4:-0.83514559 5:-0.92969242 6:-0.96745842 7:-0.94799423 8:-0.99717752 9:0.5172415 10:0 11:0 12:0 13:-0.90740741 14:-0.87096774 15:-0.87096774 16:0.7446809 17:0 18:0 19:0.7282088 20:0 21:0 22:0 23:-1 
10 1:0.6664175 2:1 3:0 4:-0.83514559 5:-0.92969242 6:-0.96745842 7:-0.94799423 8:-0.99717752 9:0.7805643 10:0 11:0 12:0 13:-0.87037037 14:-0.93548387 15:-0.93548387 16:0.7446809 17:0 18:0 19:0.7282088 20:0 21:0 22:0 23:-1 
10 1:0.6664175 2:1 3:0 4:-0.83514559 5:-0.92969242 6:-0.96745842 7:-0.94799423 8:-0.99717752 9:0.2508918 10:0 11:0 12:0 13:-0.87037037 14:-0.70967742 15:-0.83870968 16:0.74545455 17:0 18:0 19:0.7290324 20:0 21:0 22:0 23:-1 
10 1:0.6664175 2:1 3:0 4:-0.83514559 5:-0.92969242 6:-0.96745842 7:-0.94799423 8:-0.99717752 9:0.7586206 10:0 11:0 12:0 13:-0.88888889 14:-0.93548387 15:-0.93548387 16:0.7571935 17:1 18:0 19:0.58981955 20:0 21:0 22:1 23:-0.86111111 
10 1:0.6664175 2:1 3:0 4:-0.83514559 5:-0.92969242 6:-0.96745842 7:-0.94799423 8:-0.99717752 9:0.65517247 10:0 11:0 12:0 13:-0.94444444 14:-0.93548387 15:-0.93548387 16:1 17:0 18:1 19:1 20:0 21:1 22:0 23:-1 
10 1:0.06666672 2:0 3:0 4:-0.95555556 5:-0.9047619 6:-0.94117647 7:-1 8:-1 9:0.61067843 10:0 11:0 12:0 13:-0.81481481 14:-0.87096774 15:-0.90322581 16:1 17:0 18:1 19:0.8986176 20:0 21:0 22:1 23:-0.91666667 
10 1:0.36774182 2:0 3:0 4:-0.55555556 5:-0.66666667 6:-0.70588235 7:-1 8:-1 9:0.5172415 10:0 11:0 12:1 13:-0.83333333 14:-0.80645161 15:-0.80645161 16:1 17:0 18:1 19:1 20:0 21:1 22:0 23:-1 
10 1:0.6664175 2:1 3:0 4:-0.83514559 5:-0.92969242 6:-0.96745842 7:-0.94799423 8:-0.99717752 9:0.7805643 10:0 11:0 12:0 13:-0.87037037 14:-0.93548387 15:-0.93548387 16:0.7571935 17:1 18:0 19:0.75668216 20:0 21:0 22:0 23:-1 
10 1:0.6664175 2:1 3:0 4:-0.83514559 5:-0.92969242 6:-0.96745842 7:-0.94799423 8:-0.99717752 9:0.7805643 10:0 11:0 12:0 13:-0.87037037 14:-0.93548387 15:-0.93548387 16:0.7571935 17:1 18:0 19:0.75668216 20:0 21:0 22:0 23:-1 
10 1:0.6664175 2:1 3:0 4:-0.83514559 5:-0.92969242 6:-0.96745842 7:-0.94799423 8:-0.99717752 9:0.7805643 10:0 11:0 12:0 13:-0.87037037 14:-0.93548387 15:-0.93548387 16:0.7571935 17:1 18:0 19:0.75668216 20:0 21:0 22:0 23:-1 
5.251027342806499 1:0.4974358 2:0 3:0 4:-0.37777778 5:-0.66666667 6:-0.58823529 7:-0.84615385 8:-1 9:0.60225636 10:1 11:0 12:1 13:-0.85821357 14:-0.89946629 15:-0.94473468 16:0.7571935 17:1 18:0 19:0.68359995 20:1 21:0 22:0 23:-1 
10 1:0.6664175 2:1 3:0 4:-0.83514559 5:-0.92969242 6:-0.96745842 7:-0.94799423 8:-0.99717752 9:0.7103448 10:0 11:0 12:0 13:-0.85185185 14:-0.90322581 15:-0.90322581 16:0.85915494 17:0 18:0 19:0.8500682 20:0 21:0 22:0 23:-0.97222222 
10 1:0.8962964 2:0 3:0 4:-0.51111111 5:-0.95238095 6:-0.94117647 7:-1 8:-1 9:0.9106003 10:0 11:0 12:1 13:-0.81481481 14:-0.96774194 15:-0.96774194 16:1 17:0 18:1 19:1 20:0 21:1 22:0 23:-0.97222222 
7.0491660390345 1:0.8962964 2:0 3:0 4:-0.51111111 5:-0.95238095 6:-0.94117647 7:-1 8:-1 9:0.9106003 10:0 11:0 12:1 13:-0.81481481 14:-0.96774194 15:-0.96774194 16:1 17:0 18:1 19:1 20:0 21:1 22:0 23:-0.94444444 
10 1:0.43999994 2:0 3:0 4:-0.91111111 5:-0.95238095 6:-1 7:-0.84615385 8:-1 9:0.5172415 10:0 11:0 12:0 13:-0.7962963 14:-0.87096774 15:-0.96774194 16:0.71428573 17:0 18:0 19:0.9849006 20:0 21:0 22:1 23:-0.80555556 
10 1:0.41886795 2:0 3:0 4:-0.15555556 5:-0.61904762 6:-0.70588235 7:-1 8:-1 9:0.60225636 10:1 11:0 12:1 13:-0.85821357 14:-0.89946629 15:-0.94473468 16:0.7571935 17:1 18:0 19:0.68359995 20:1 21:0 22:0 23:-1 
10 1:0.26956522 2:0 3:0 4:-0.33333333 5:-0.42857143 6:-0.29411765 7:-1 8:-1 9:0.60225636 10:1 11:0 12:1 13:-0.85821357 14:-0.89946629 15:-0.94473468 16:0.7571935 17:1 18:0 19:0.68359995 20:1 21:0 22:0 23:-1 
10 1:0.6664175 2:1 3:0 4:-0.83514559 5:-0.92969242 6:-0.96745842 7:-0.94799423 8:-0.99717752 9:0.4752624 10:0 11:0 12:0 13:-0.88888889 14:-0.90322581 15:-0.96774194 16:0.7571935 17:1 18:0 19:1 20:0 21:1 22:0 23:-1 
10 1:0.21600008 2:0 3:0 4:-0.28888889 5:-0.33333333 6:-0.17647059 7:-1 8:-1 9:0.60225636 10:1 11:0 12:1 13:-0.85821357 14:-0.89946629 15:-0.94473468 16:0.7571935 17:1 18:0 19:0.68359995 20:1 21:0 22:0 23:-1 
10 1:0.21600008 2:0 3:0 4:-0.28888889 5:-0.33333333 6:-0.17647059 7:-1 8:-1 9:0.60225636 10:1 11:0 12:1 13:-0.85821357 14:-0.89946629 15:-0.94473468 16:0.7571935 17:1 18:0 19:0.68359995 20:1 21:0 22:0 23:-1 
10 1:0.21600008 2:0 3:0 4:-0.28888889 5:-0.33333333 6:-0.17647059 7:-1 8:-1 9:0.60225636 10:1 11:0 12:1 13:-0.85821357 14:-0.89946629 15:-0.94473468 16:0.7571935 17:1 18:0 19:0.68359995 20:1 21:0 22:0 23:-1 
10 1:0.3393258 2:0 3:0 4:0.42222222 5:-0.095238095 6:0 7:-1 8:-1 9:0.60225636 10:1 11:0 12:1 13:-0.85821357 14:-0.89946629 15:-0.94473468 16:0.7571935 17:1 18:0 19:0.68359995 20:1 21:0 22:0 23:-1 
10 1:0.5333332 2:0 3:0 4:-0.86666667 5:-0.95238095 6:-1 7:-0.84615385 8:-1 9:0.5977011 10:0 11:0 12:0 13:-0.77777778 14:-0.83870968 15:-0.93548387 16:1 17:0 18:1 19:1 20:0 21:1 22:0 23:-1 
3.554805368722203 1:0.6664175 2:1 3:0 4:-0.83514559 5:-0.92969242 6:-0.96745842 7:-0.94799423 8:-0.99717752 9:0.7318008 10:0 11:0 12:1 13:-0.90740741 14:-0.96774194 15:-1 16:0.7571935 17:1 18:0 19:-0.07647693 20:0 21:0 22:0 23:-0.97222222 
10 1:0.6664175 2:1 3:0 4:-0.83514559 5:-0.92969242 6:-0.96745842 7:-0.94799423 8:-0.99717752 9:0.7805643 10:0 11:0 12:0 13:-0.87037037 14:-0.96774194 15:-1 16:0.76744187 17:0 18:0 19:0.7524382 20:0 21:0 22:0 23:-0.94444444 
10 1:0.6664175 2:1 3:0 4:-0.83514559 5:-0.92969242 6:-0.96745842 7:-0.94799423 8:-0.99717752 9:0.6982759 10:0 11:0 12:0 13:-0.92592593 14:-0.93548387 15:-0.93548387 16:0.76744187 17:0 18:0 19:0.7524382 20:0 21:0 22:0 23:-0.97222222 
10 1:0.6664175 2:1 3:0 4:-0.83514559 5:-0.92969242 6:-0.96745842 7:-0.94799423 8:-0.99717752 9:0.6982759 10:0 11:0 12:0 13:-0.92592593 14:-0.93548387 15:-0.93548387 16:0.76744187 17:0 18:0 19:0.7524382 20:0 21:0 22:0 23:-1 
10 1:0.6664175 2:1 3:0 4:-0.83514559 5:-0.92969242 6:-0.96745842 7:-0.94799423 8:-0.99717752 9:0.6982759 10:0 11:0 12:0 13:-0.92592593 14:-0.96774194 15:-1 16:1 17:0 18:1 19:1 20:0 21:1 22:0 23:-0.94444444 
9.259685072746233 1:-0.09565228 2:0 3:0 4:-0.46666667 5:-0.19047619 6:-0.88235294 7:-1 8:-1 9:0.055472255 10:0 11:0 12:0 13:-0.7962963 14:-0.4516129 15:-0.93548387 16:0.24590158 17:0 18:0 19:0.19725013 20:0 21:0 22:0 23:-0.97222222 
3.020501100395182 1:-0.40000004 2:0 3:0 4:-0.82222222 5:-0.42857143 6:-1 7:-0.69230769 8:-1 9:-0.12643671 10:0 11:0 12:0 13:-0.90740741 14:-0.5483871 15:-1 16:0.98130846 17:0 18:0 19:1 20:0 21:1 22:0 23:-0.97222222 
10 1:0.6664175 2:1 3:0 4:-0.83514559 5:-0.92969242 6:-0.96745842 7:-0.94799423 8:-0.99717752 9:-0.11405826 10:0 11:0 12:0 13:-0.92592593 14:-0.67741935 15:-1 16:0.7571935 17:1 18:0 19:0.41042197 20:0 21:0 22:0 23:-0.97222222 
10 1:0.6664175 2:1 3:0 4:-0.83514559 5:-0.92969242 6:-0.96745842 7:-0.94799423 8:-0.99717752 9:0.6982759 10:0 11:0 12:0 13:-0.92592593 14:-0.93548387 15:-0.93548387 16:0.7571935 17:1 18:0 19:1 20:0 21:0 22:0 23:-1 
10 1:0.6664175 2:1 3:0 4:-0.83514559 5:-0.92969242 6:-0.96745842 7:-0.94799423 8:-0.99717752 9:0.2758621 10:0 11:0 12:0 13:-0.92592593 14:-0.80645161 15:-0.80645161 16:0.97183096 17:0 18:0 19:1 20:0 21:1 22:0 23:-1 
10 1:0.6664175 2:1 3:0 4:-0.83514559 5:-0.92969242 6:-0.96745842 7:-0.94799423 8:-0.99717752 9:0.07161808 10:0 11:0 12:0 13:-0.90740741 14:-0.67741935 15:-1 16:0.7571935 17:1 18:0 19:0.3939252 20:0 21:0 22:0 23:-1 
2.147142079089972 1:0.6664175 2:1 3:0 4:-0.83514559 5:-0.92969242 6:-0.96745842 7:-0.94799423 8:-0.99717752 9:0.4636016 10:0 11:0 12:1 13:-0.92592593 14:-0.87096774 15:-0.87096774 16:1 17:0 18:1 19:1 20:0 21:1 22:0 23:-1 
10 1:0.6664175 2:1 3:0 4:-0.83514559 5:-0.92969242 6:-0.96745842 7:-0.94799423 8:-0.99717752 9:0.7586206 10:0 11:0 12:0 13:-0.88888889 14:-0.93548387 15:-0.93548387 16:0.7571935 17:1 18:0 19:1 20:0 21:1 22:0 23:-1 
10 1:0.6664175 2:1 3:0 4:-0.83514559 5:-0.92969242 6:-0.96745842 7:-0.94799423 8:-0.99717752 9:0.7805643 10:0 11:0 12:0 13:-0.87037037 14:-0.96774194 15:-1 16:0.7571935 17:1 18:0 19:1 20:0 21:1 22:1 23:-0.91666667 
10 1:0.6664175 2:1 3:0 4:-0.83514559 5:-0.92969242 6:-0.96745842 7:-0.94799423 8:-0.99717752 9:0.7805643 10:0 11:0 12:0 13:-0.87037037 14:-0.96774194 15:-1 16:0.7571935 17:1 18:0 19:1 20:0 21:1 22:0 23:-1 
10 1:0.6664175 2:1 3:0 4:-0.83514559 5:-0.92969242 6:-0.96745842 7:-0.94799423 8:-0.99717752 9:0.11070776 10:0 11:0 12:0 13:-0.94444444 14:-0.80645161 15:-0.83870968 16:0.7571935 17:1 18:0 19:1 20:0 21:1 22:0 23:-0.97222222 
10 1:0.6664175 2:1 3:0 4:-0.83514559 5:-0.92969242 6:-0.96745842 7:-0.94799423 8:-0.99717752 9:0.25729454 10:0 11:0 12:0 13:-0.88888889 14:-0.74193548 15:-0.74193548 16:0.7571935 17:1 18:0 19:0.89698243 20:0 21:0 22:0 23:-0.97222222 
8.971988100114714 1:0.6664175 2:1 3:0 4:-0.83514559 5:-0.92969242 6:-0.96745842 7:-0.94799423 8:-0.99717752 9:0.7318008 10:0 11:0 12:1 13:-0.90740741 14:-0.93548387 15:-0.93548387 16:1 17:0 18:1 19:1 20:0 21:1 22:1 23:-0.91666667 
10 1:0.6664175 2:1 3:0 4:-0.83514559 5:-0.92969242 6:-0.96745842 7:-0.94799423 8:-0.99717752 9:0.6982759 10:0 11:0 12:0 13:-0.92592593 14:-0.93548387 15:-0.93548387 16:1 17:0 18:1 19:1 20:0 21:1 22:0 23:-1 
10 1:0.6664175 2:1 3:0 4:-0.83514559 5:-0.92969242 6:-0.96745842 7:-0.94799423 8:-0.99717752 9:0.7318008 10:0 11:0 12:0 13:-0.90740741 14:-0.93548387 15:-0.93548387 16:1 17:0 18:1 19:1 20:0 21:1 22:0 23:-1 
10 1:0.6664175 2:1 3:0 4:-0.83514559 5:-0.92969242 6:-0.96745842 7:-0.94799423 8:-0.99717752 9:0.0060852766 10:0 11:0 12:0 13:-0.96296296 14:-0.77419355 15:-0.96774194 16:0.7571935 17:1 18:0 19:0.95161307 20:0 21:0 22:0 23:-1 
8.725935880638444 1:0.6664175 2:1 3:0 4:-0.83514559 5:-0.92969242 6:-0.96745842 7:-0.94799423 8:-0.99717752 9:0.7318008 10:0 11:0 12:1 13:-0.90740741 14:-0.96774194 15:-1 16:0.7571935 17:1 18:0 19:1 20:0 21:0 22:0 23:-0.94444444 
10 1:0.39999986 2:0 3:0 4:-0.6 5:-0.71428571 6:-0.76470588 7:-1 8:-1 9:0.5530013 10:0 11:0 12:1 13:-0.85185185 14:-0.83870968 15:-0.83870968 16:0.8666667 17:0 18:0 19:0.85806465 20:0 21:0 22:0 23:-1 
8.796123476748399 1:0.5333332 2:0 3:0 4:-0.86666667 5:-0.95238095 6:-1 7:-0.84615385 8:-1 9:1 10:0 11:1 12:1 13:-0.7962963 14:-1 15:-1 16:-0.04000002 17:0 18:0 19:-0.19758058 20:0 21:0 22:0 23:-1 
10 1:0.6664175 2:1 3:0 4:-0.83514559 5:-0.92969242 6:-0.96745842 7:-0.94799423 8:-0.99717752 9:0.7586206 10:0 11:0 12:0 13:-0.88888889 14:-0.93548387 15:-0.93548387 16:0.7571935 17:1 18:0 19:0.62428856 20:0 21:0 22:0 23:-1 
10 1:0.6664175 2:1 3:0 4:-0.83514559 5:-0.92969242 6:-0.96745842 7:-0.94799423 8:-0.99717752 9:0.39655173 10:0 11:0 12:0 13:-0.94444444 14:-0.93548387 15:-1 16:1 17:0 18:1 19:1 20:0 21:1 22:0 23:-0.94444444 
10 1:0.6664175 2:1 3:0 4:-0.83514559 5:-0.92969242 6:-0.96745842 7:-0.94799423 8:-0.99717752 9:-0.20689654 10:0 11:0 12:0 13:-0.96296296 14:-0.67741935 15:-1 16:0.7571935 17:1 18:0 19:0.8273759 20:0 21:0 22:0 23:-0.96676908 
10 1:0.6664175 2:1 3:0 4:-0.83514559 5:-0.92969242 6:-0.96745842 7:-0.94799423 8:-0.99717752 9:0.5611285 10:0 11:0 12:0 13:-0.88888889 14:-0.93548387 15:-1 16:0.7571935 17:1 18:0 19:1 20:0 21:1 22:0 23:-1 
1.83509697414707 1:0.48148143 2:0 3:0 4:-0.6 5:-0.76190476 6:-0.70588235 7:-1 8:-1 9:0.049111843 10:0 11:0 12:0 13:-0.68518519 14:-0.16129032 15:-0.16129032 16:0.7571935 17:1 18:0 19:0.68359995 20:1 21:0 22:0 23:-1 
10 1:0.45806444 2:0 3:0 4:0.022222222 5:-0.57142857 6:-0.64705882 7:-1 8:-1 9:0.60225636 10:1 11:0 12:1 13:-0.85821357 14:-0.89946629 15:-0.94473468 16:0.7571935 17:1 18:0 19:0.68359995 20:1 21:0 22:0 23:-1 
10 1:0.43999994 2:0 3:0 4:-0.91111111 5:-0.95238095 6:-1 7:-0.84615385 8:-1 9:1 10:0 11:1 12:1 13:-0.7962963 14:-1 15:-1 16:0.65517247 17:0 18:0 19:0.6155914 20:0 21:0 22:0 23:-1 
10 1:0.43999994 2:0 3:0 4:-0.91111111 5:-0.95238095 6:-1 7:-0.84615385 8:-1 9:1 10:0 11:1 12:1 13:-0.7962963 14:-1 15:-1 16:0.5757576 17:0 18:0 19:0.6688173 20:0 21:0 22:0 23:-1 
5.016447016333109 1:0.43999994 2:0 3:0 4:-0.91111111 5:-0.95238095 6:-1 7:-0.84615385 8:-1 9:0.60225636 10:1 11:0 12:1 13:-0.85821357 14:-0.89946629 15:-0.94473468 16:0.69696975 17:0 18:0 19:0.68359995 20:1 21:0 22:0 23:-0.97222222 
10 1:0.6888888 2:0 3:0 4:-0.91111111 5:-0.95238095 6:-0.94117647 7:-1 8:-1 9:0.2653674 10:0 11:0 12:0 13:-0.90740741 14:-0.87096774 15:-0.96774194 16:0.71428573 17:0 18:0 19:1 20:0 21:1 22:0 23:-1 
10 1:0.6664175 2:1 3:0 4:-0.83514559 5:-0.92969242 6:-0.96745842 7:-0.94799423 8:-0.99717752 9:0.5172415 10:0 11:0 12:0 13:-0.90740741 14:-0.93548387 15:-1 16:0.7571935 17:1 18:0 19:1 20:0 21:0 22:0 23:-1 
0.01227202119797838 1:0.06666672 2:0 3:0 4:-0.95555556 5:-0.9047619 6:-0.94117647 7:-1 8:-1 9:1 10:0 11:1 12:1 13:-0.75925926 14:-1 15:-1 16:0.84615386 17:0 18:0 19:0.9391706 20:0 21:0 22:0 23:-0.97222222 
10 1:0.29999995 2:0 3:0 4:-0.95555556 5:-0.95238095 6:-1 7:-0.84615385 8:-1 9:0.016602874 10:0 11:0 12:0 13:-0.90740741 14:-0.77419355 15:-0.96774194 16:0.6 17:0 18:0 19:0.42679906 20:0 21:0 22:0 23:-0.97222222 
1.537557652087348 1:0.20000005 2:0 3:0 4:-0.86666667 5:-0.80952381 6:-0.76470588 7:-1 8:-1 9:0.60225636 10:1 11:0 12:1 13:-0.85821357 14:-0.89946629 15:-0.94473468 16:0.93103445 17:0 18:0 19:0.68359995 20:1 21:0 22:0 23:-0.96676908 
2.614057466666766 1:0.6888888 2:0 3:0 4:-0.91111111 5:-0.95238095 6:-0.94117647 7:-1 8:-1 9:0.44297087 10:0 11:0 12:0 13:-0.87037037 14:-0.90322581 15:-1 16:0.7571935 17:1 18:0 19:0.42390907 20:0 21:0 22:0 23:-1 
10 1:0.6888888 2:0 3:0 4:-0.91111111 5:-0.95238095 6:-0.94117647 7:-1 8:-1 9:0.44297087 10:0 11:0 12:0 13:-0.87037037 14:-0.90322581 15:-1 16:0.7571935 17:1 18:0 19:0.42390907 20:0 21:0 22:0 23:-1 
9.844946907349383 1:0.6888888 2:0 3:0 4:-0.91111111 5:-0.95238095 6:-0.94117647 7:-1 8:-1 9:0.44297087 10:0 11:0 12:0 13:-0.87037037 14:-0.90322581 15:-1 16:0.7571935 17:1 18:0 19:0.42390907 20:0 21:0 22:0 23:-1 
10 1:0.7103449 2:0 3:0 4:0.066666667 5:-0.76190476 6:-0.88235294 7:-1 8:-1 9:0.60225636 10:1 11:0 12:1 13:-0.85821357 14:-0.89946629 15:-0.94473468 16:0.7571935 17:1 18:0 19:0.68359995 20:1 21:0 22:0 23:-1 
10 1:0.7103449 2:0 3:0 4:0.066666667 5:-0.76190476 6:-0.88235294 7:-1 8:-1 9:0.60225636 10:1 11:0 12:1 13:-0.85821357 14:-0.89946629 15:-0.94473468 16:0.7571935 17:1 18:0 19:0.68359995 20:1 21:0 22:0 23:-1 
10 1:0.29999995 2:0 3:0 4:-0.95555556 5:-0.95238095 6:-1 7:-0.84615385 8:-1 9:1 10:0 11:1 12:1 13:-0.77777778 14:-1 15:-1 16:0.09090912 17:0 18:0 19:0.31566823 20:0 21:0 22:0 23:-1 
10 1:0.6664175 2:1 3:0 4:-0.83514559 5:-0.92969242 6:-0.96745842 7:-0.94799423 8:-0.99717752 9:0.65517247 10:0 11:0 12:0 13:-0.77777778 14:-0.83870968 15:-0.96774194 16:0.7571935 17:1 18:0 19:0.7290324 20:0 21:0 22:0 23:-1 
10 1:0.6664175 2:1 3:0 4:-0.83514559 5:-0.92969242 6:-0.96745842 7:-0.94799423 8:-0.99717752 9:0.5977011 10:0 11:0 12:0 13:-0.77777778 14:-0.80645161 15:-1 16:0.7571935 17:1 18:0 19:0.7290324 20:0 21:0 22:0 23:-1 
10 1:0.43999994 2:0 3:0 4:-0.91111111 5:-0.95238095 6:-1 7:-0.84615385 8:-1 9:0.36479127 10:0 11:0 12:0 13:-0.92592593 14:-0.90322581 15:-0.96774194 16:1 17:0 18:1 19:0.22822583 20:0 21:0 22:0 23:-1 
8.734242032179839 1:0.6888888 2:0 3:0 4:-0.91111111 5:-0.95238095 6:-0.94117647 7:-1 8:-1 9:0.5838288 10:0 11:0 12:0 13:-0.83333333 14:-0.90322581 15:-0.96774194 16:1 17:0 18:1 19:0.9074335 20:0 21:0 22:0 23:-1 
10 1:0.29999995 2:0 3:0 4:-0.95555556 5:-0.95238095 6:-1 7:-1 8:-1 9:0.37420177 10:0 11:0 12:0 13:-0.87037037 14:-0.80645161 15:-0.96774194 16:0.8947369 17:0 18:0 19:0.9645163 20:0 21:0 22:0 23:-0.97222222 
6.529419428861332 1:0.6664175 2:1 3:0 4:-0.83514559 5:-0.92969242 6:-0.96745842 7:-0.94799423 8:-0.99717752 9:-0.01223582 10:0 11:0 12:1 13:-0.88888889 14:-0.64516129 15:-0.70967742 16:0.7571935 17:1 18:0 19:0.8999785 20:0 21:0 22:0 23:-1 
6.582025647803107 1:0.43999994 2:0 3:0 4:-0.91111111 5:-0.95238095 6:-1 7:-0.84615385 8:-1 9:1 10:0 11:1 12:1 13:-0.77777778 14:-1 15:-1 16:0.07317078 17:0 18:0 19:0.49905133 20:0 21:0 22:0 23:-0.94444444 
10 1:0.6664175 2:1 3:0 4:-0.83514559 5:-0.92969242 6:-0.96745842 7:-0.94799423 8:-0.99717752 9:0.32413805 10:0 11:0 12:0 13:-0.88888889 14:-0.77419355 15:-0.90322581 16:0.5 17:0 18:0 19:0.46774197 20:0 21:0 22:0 23:-0.97222222 
10 1:0.6664175 2:1 3:0 4:-0.83514559 5:-0.92969242 6:-0.96745842 7:-0.94799423 8:-0.99717752 9:0.7805643 10:0 11:0 12:0 13:-0.87037037 14:-0.93548387 15:-0.93548387 16:0.65853655 17:0 18:0 19:0.6365068 20:0 21:0 22:0 23:-1 
10 1:0.6664175 2:1 3:0 4:-0.83514559 5:-0.92969242 6:-0.96745842 7:-0.94799423 8:-0.99717752 9:0.19540238 10:0 11:0 12:0 13:-0.90740741 14:-0.74193548 15:-0.87096774 16:0.7571935 17:1 18:0 19:0.0806452 20:0 21:0 22:0 23:-0.97222222 
10 1:0.06666672 2:0 3:0 4:-0.95555556 5:-0.9047619 6:-0.94117647 7:-1 8:-1 9:0.4918331 10:0 11:0 12:0 13:-0.77777778 14:-0.74193548 15:-1 16:1 17:0 18:1 19:1 20:0 21:1 22:0 23:-1 
10 1:0.6888888 2:0 3:0 4:-0.91111111 5:-0.95238095 6:-0.94117647 7:-1 8:-1 9:0.81432366 10:0 11:0 12:0 13:-0.83333333 14:-0.96774194 15:-1 16:0.6363636 17:0 18:0 19:1 20:0 21:0 22:0 23:-1 
2.778747173312535 1:0.43999994 2:0 3:0 4:-0.91111111 5:-0.95238095 6:-1 7:-0.84615385 8:-1 9:0.36479127 10:0 11:0 12:1 13:-0.92592593 14:-0.83870968 15:-0.83870968 16:1 17:0 18:1 19:0.18821073 20:0 21:0 22:0 23:-0.97222222 
10 1:0.29999995 2:0 3:0 4:-0.95555556 5:-0.95238095 6:-1 7:-0.84615385 8:-1 9:0.5530013 10:0 11:0 12:1 13:-0.85185185 14:-0.90322581 15:-0.96774194 16:1 17:0 18:1 19:1 20:0 21:1 22:0 23:-0.94444444 
2.387659379968309 1:0.74545443 2:0 3:0 4:-0.86666667 5:-0.95238095 6:-0.94117647 7:-1 8:-1 9:0.39655173 10:0 11:0 12:0 13:-0.83333333 14:-0.74193548 15:-0.74193548 16:-0.3333333 17:0 18:0 19:-0.57706094 20:0 21:0 22:0 23:-1 
10 1:0.29999995 2:0 3:0 4:-0.95555556 5:-0.95238095 6:-1 7:-0.84615385 8:-1 9:0.11070776 10:0 11:0 12:0 13:-0.94444444 14:-0.83870968 15:-0.96774194 16:1 17:0 18:1 19:1 20:0 21:1 22:1 23:-0.91666667 
10 1:0.29999995 2:0 3:0 4:-0.95555556 5:-0.95238095 6:-1 7:-0.84615385 8:-1 9:1 10:0 11:1 12:1 13:-0.7962963 14:-1 15:-1 16:0.25 17:0 18:0 19:0.7524382 20:0 21:0 22:0 23:-1 
10 1:0.43999994 2:0 3:0 4:-0.91111111 5:-0.95238095 6:-1 7:-0.84615385 8:-1 9:0.8580122 10:0 11:0 12:1 13:-0.90740741 14:-0.96774194 15:-0.96774194 16:0.8181819 17:0 18:0 19:0.508685 20:0 21:0 22:0 23:-1 
10 1:0.5692308 2:0 3:0 4:-0.6 5:-0.9047619 6:-1 7:-1 8:-1 9:0.6286472 10:0 11:0 12:0 13:-0.85185185 14:-0.93548387 15:-1 16:1 17:0 18:1 19:1 20:0 21:1 22:0 23:-1 
10 1:0.51724136 2:0 3:0 4:-0.55555556 5:-0.76190476 6:-0.94117647 7:-1 8:-1 9:0.5838288 10:0 11:0 12:0 13:-0.83333333 14:-0.83870968 15:-0.96774194 16:0.9375 17:0 18:0 19:0.93346786 20:0 21:0 22:0 23:-1 
10 1:0.90967715 2:0 3:0 4:-0.42222222 5:-0.95238095 6:-0.94117647 7:-1 8:-1 9:0.9221356 10:0 11:0 12:0 13:-0.77777778 14:-0.96774194 15:-0.96774194 16:0.9375 17:0 18:0 19:0.93346786 20:0 21:0 22:0 23:-1 
0.7494516623881643 1:-0.19999999 2:0 3:0 4:-1 5:-0.85714286 6:-0.82352941 7:-1 8:-1 9:0.60225636 10:1 11:0 12:1 13:-0.85821357 14:-0.89946629 15:-0.94473468 16:0.79999995 17:0 18:0 19:0.68359995 20:1 21:0 22:0 23:-1 
3.065748866964336 1:0.43999994 2:0 3:0 4:-0.91111111 5:-0.9047619 6:-1 7:-0.69230769 8:-1 9:0.31034493 10:0 11:0 12:1 13:-0.87037037 14:-0.77419355 15:-0.80645161 16:1 17:0 18:1 19:0.68359995 20:1 21:0 22:0 23:-1 
10 1:0.6664175 2:1 3:0 4:-0.83514559 5:-0.92969242 6:-0.96745842 7:-0.94799423 8:-0.99717752 9:0.5172415 10:0 11:0 12:0 13:-0.90740741 14:-0.90322581 15:-0.93548387 16:0.7571935 17:1 18:0 19:1 20:0 21:0 22:0 23:-0.97222222 
10 1:0.6664175 2:1 3:0 4:-0.83514559 5:-0.92969242 6:-0.96745842 7:-0.94799423 8:-0.99717752 9:0.7586206 10:0 11:0 12:0 13:-0.88888889 14:-0.93548387 15:-0.93548387 16:0.6170213 17:0 18:0 19:0.59231305 20:0 21:0 22:0 23:-1 
10 1:0.38536572 2:0 3:0 4:-0.37777778 5:-0.61904762 6:-0.70588235 7:-0.84615385 8:-1 9:0.60225636 10:1 11:0 12:1 13:-0.85821357 14:-0.89946629 15:-0.94473468 16:0.7571935 17:1 18:0 19:0.68359995 20:1 21:0 22:0 23:-1 
3.572594898980288 1:0.6664175 2:1 3:0 4:-0.83514559 5:-0.92969242 6:-0.96745842 7:-0.94799423 8:-0.99717752 9:0.5172415 10:0 11:0 12:1 13:-0.87037037 14:-0.90322581 15:-0.96774194 16:0.7571935 17:1 18:0 19:0.7067801 20:0 21:0 22:1 23:-0.86111111 
10 1:0.06666672 2:0 3:0 4:-1 5:-0.95238095 6:-1 7:-0.84615385 8:-1 9:1 10:0 11:1 12:1 13:-0.7962963 14:-1 15:-1 16:0 17:0 18:0 19:0.39490676 20:0 21:0 22:0 23:-0.97222222 
10 1:0.06666672 2:0 3:0 4:-1 5:-0.95238095 6:-1 7:-0.84615385 8:-1 9:1 10:0 11:1 12:1 13:-0.7962963 14:-1 15:-1 16:0 17:0 18:0 19:0.39490676 20:0 21:0 22:0 23:-0.97222222 
10 1:0.29999995 2:0 3:0 4:-0.95555556 5:-0.95238095 6:-1 7:-0.84615385 8:-1 9:0.6286472 10:0 11:0 12:1 13:-0.85185185 14:-0.93548387 15:-1 16:0.41176474 17:0 18:0 19:0.29032266 20:0 21:0 22:0 23:-1 
10 1:-0.4933334 2:0 3:0 4:-0.77777778 5:-0.52380952 6:-1 7:-0.69230769 8:-1 9:-0.2778905 10:0 11:0 12:0 13:-0.90740741 14:-0.5483871 15:-1 16:1 17:0 18:1 19:1 20:0 21:1 22:0 23:-0.97222222 
10 1:0.6664175 2:1 3:0 4:-0.83514559 5:-0.92969242 6:-0.96745842 7:-0.94799423 8:-0.99717752 9:0.38251805 10:0 11:0 12:0 13:-0.75925926 14:-0.64516129 15:-0.90322581 16:0.7571935 17:1 18:0 19:0.84111714 20:0 21:0 22:0 23:-1 
10 1:-0.19999999 2:0 3:0 4:-0.91111111 5:-0.80952381 6:-0.88235294 7:-1 8:-1 9:0.7805643 10:0 11:0 12:1 13:-0.87037037 14:-0.96774194 15:-1 16:0.84615386 17:0 18:0 19:0.8685783 20:0 21:0 22:0 23:-1 
1.914680738901795 1:0.5333332 2:0 3:0 4:-0.86666667 5:-0.95238095 6:-1 7:-0.84615385 8:-1 9:0.42528737 10:0 11:0 12:1 13:-0.90740741 14:-0.87096774 15:-0.90322581 16:0.5652174 17:0 18:0 19:1 20:0 21:1 22:0 23:-0.97222222 
0.8791867707691369 1:0.5999999 2:0 3:0 4:-0.95555556 5:-0.95238095 6:-0.94117647 7:-1 8:-1 9:0.61067843 10:0 11:0 12:1 13:-0.81481481 14:-0.90322581 15:-0.96774194 16:0.25 17:0 18:0 19:0.38820922 20:0 21:0 22:0 23:-1 
10 1:0.6664175 2:1 3:0 4:-0.83514559 5:-0.92969242 6:-0.96745842 7:-0.94799423 8:-0.99717752 9:0.42528737 10:0 11:0 12:0 13:-0.90740741 14:-0.83870968 15:-0.96774194 16:0.8571428 17:0 18:0 19:0.84792626 20:0 21:0 22:0 23:-1 
0.1587991387372292 1:0.5999999 2:0 3:0 4:-0.95555556 5:-0.95238095 6:-0.94117647 7:-1 8:-1 9:0.6342739 10:0 11:0 12:0 13:-0.7962963 14:-0.90322581 15:-0.96774194 16:0.1428572 17:0 18:0 19:1 20:0 21:1 22:0 23:-1 
10 1:0.6664175 2:1 3:0 4:-0.83514559 5:-0.92969242 6:-0.96745842 7:-0.94799423 8:-0.99717752 9:0.8491379 10:0 11:0 12:0 13:-0.77777778 14:-0.93548387 15:-0.93548387 16:0.7571935 17:1 18:0 19:0.05012417 20:0 21:0 22:0 23:-1 
5.534331398151987 1:0.06666672 2:0 3:0 4:-0.95555556 5:-0.9047619 6:-0.94117647 7:-0.84615385 8:-1 9:1 10:0 11:1 12:1 13:-0.7962963 14:-1 15:-1 16:0.33333337 17:0 18:0 19:0.7270472 20:0 21:0 22:0 23:-1 
10 1:0.29999995 2:0 3:0 4:-0.95555556 5:-0.95238095 6:-1 7:-0.84615385 8:-1 9:0.25729454 10:0 11:0 12:0 13:-0.88888889 14:-0.80645161 15:-0.93548387 16:1 17:0 18:1 19:0.6899469 20:0 21:0 22:0 23:-0.97222222 
10 1:-0.24444443 2:0 3:0 4:-0.86666667 5:-0.66666667 6:-1 7:-1 8:-1 9:0.07161808 10:0 11:0 12:0 13:-0.90740741 14:-0.67741935 15:-1 16:0.8666667 17:0 18:0 19:1 20:0 21:1 22:0 23:-0.97222222 
10 1:0.29999995 2:0 3:0 4:-0.95555556 5:-0.95238095 6:-1 7:-0.84615385 8:-1 9:0.37420177 10:0 11:0 12:1 13:-0.87037037 14:-0.83870968 15:-0.90322581 16:0.88235295 17:0 18:0 19:0.97305036 20:0 21:0 22:0 23:-0.94444444 
10 1:0.6664175 2:1 3:0 4:-0.83514559 5:-0.92969242 6:-0.96745842 7:-0.94799423 8:-0.99717752 9:0.5530013 10:0 11:0 12:0 13:-0.85185185 14:-0.83870968 15:-0.83870968 16:0.7571935 17:1 18:0 19:0.9519769 20:0 21:0 22:0 23:-1 
10 1:0.29999995 2:0 3:0 4:-0.95555556 5:-0.95238095 6:-1 7:-0.84615385 8:-1 9:0.13793099 10:0 11:0 12:0 13:-0.88888889 14:-0.77419355 15:-0.93548387 16:1 17:0 18:1 19:1 20:0 21:1 22:0 23:-1 
10 1:0.29999995 2:0 3:0 4:-0.95555556 5:-0.95238095 6:-1 7:-0.84615385 8:-1 9:0.13793099 10:0 11:0 12:0 13:-0.88888889 14:-0.77419355 15:-0.93548387 16:1 17:0 18:1 19:1 20:0 21:1 22:0 23:-1 
10 1:0.29999995 2:0 3:0 4:-0.95555556 5:-0.9047619 6:-1 7:-0.69230769 8:-1 9:0.4636016 10:0 11:0 12:0 13:-0.7962963 14:-0.87096774 15:-1 16:1 17:0 18:1 19:1 20:0 21:1 22:0 23:-0.97222222 
